
\data\
ngram 1=62
ngram 2=1890
ngram 3=12367
ngram 4=26064
ngram 5=30698
ngram 6=27707

\1-grams:
-0.8729497	</s>
-99	<s>	-2.628363
-2.434577	ँ	-1.107051
-1.495809	ं	-1.917987
-3.153414	ः	-1.268751
-2.143367	अ	-1.353491
-2.392142	आ	-1.085981
-2.463312	इ	-1.12238
-2.474296	ई	-1.104139
-2.489553	उ	-1.184992
-3.242881	ऊ	-0.8137903
-3.909058	ऋ	-0.9276329
-2.246014	ए	-1.292578
-3.46853	ऐ	-0.7448471
-2.745427	ओ	-1.088751
-3.564249	औ	-0.7326393
-1.459697	क	-0.8415755
-2.310632	ख	-0.7757547
-1.799183	ग	-0.7716106
-2.727734	घ	-0.7848688
-3.144271	ङ	-0.7809604
-2.06003	च	-0.9458001
-2.671697	छ	-0.8997253
-1.803806	ज	-0.9232414
-2.923781	झ	-0.7619302
-3.378354	ञ	-1.056432
-1.83484	ट	-1.155234
-2.748144	ठ	-0.5857255
-1.906696	ड	-1.033148
-2.745427	ढ	-1.254223
-2.238644	ण	-1.171264
-1.483287	त	-1.089542
-2.427572	थ	-0.6873274
-1.768607	द	-1.012647
-2.191539	ध	-0.8634124
-1.410748	न	-0.9384384
-1.609544	प	-0.8141147
-2.328583	फ	-0.8332992
-1.818191	ब	-0.8935866
-2.301441	भ	-0.9188096
-1.574543	म	-0.5956336
-1.619699	य	-0.9335859
-1.222612	र	-0.6112403
-1.575458	ल	-0.8188779
-1.633503	व	-0.9778329
-1.977785	श	-0.8327032
-2.308316	ष	-0.9824874
-1.494439	स	-0.782584
-1.895327	ह	-0.7123688
-2.140442	़	-0.8620089
-1.101728	ा	-2.086366
-1.411291	ि	-1.959102
-1.526604	ी	-1.783969
-1.771474	ु	-1.52478
-2.109926	ू	-1.150318
-2.763871	ृ	-1.137446
-1.531653	े	-1.769788
-2.268908	ै	-1.234734
-2.532702	ॉ	-1.082652
-1.593406	ो	-1.720213
-2.615997	ौ	-0.91589
-1.213364	्	-2.205779

\2-grams:
-1.295752	<s> अ	0.02423513
-1.604255	<s> आ	-0.2808578
-1.923663	<s> इ	-0.253518
-2.674293	<s> ई	-0.5978454
-1.692975	<s> उ	-0.4561287
-2.685875	<s> ऊ	-0.5300572
-3.350986	<s> ऋ	-0.09042794
-1.78132	<s> ए	-0.4001801
-2.748927	<s> ऐ	0.1249388
-2.822713	<s> ओ	-0.6337026
-2.847536	<s> औ	-0.02403826
-1.139632	<s> क	-0.9692554
-1.801523	<s> ख	-0.4604954
-1.443172	<s> ग	-0.7225693
-2.210714	<s> घ	-0.4926898
-1.595112	<s> च	-0.7224747
-2.040559	<s> छ	-0.1752821
-1.395239	<s> ज	-0.6784408
-2.241239	<s> झ	-0.5564333
-1.898051	<s> ट	-0.9332182
-2.722598	<s> ठ	-0.5876358
-1.80537	<s> ड	-0.7450278
-2.498202	<s> ढ	-0.38717
-1.599419	<s> त	-0.715207
-2.350986	<s> थ	-0.5730076
-1.554239	<s> द	-0.694661
-2.035279	<s> ध	-0.4704868
-1.400987	<s> न	-1.078566
-1.040559	<s> प	-0.7891037
-1.772634	<s> फ	-0.627614
-1.195271	<s> ब	-0.4570166
-1.739529	<s> भ	-0.1461931
-1.193379	<s> म	-0.933843
-2.02108	<s> य	-0.5755966
-1.447897	<s> र	-0.1652755
-1.610131	<s> ल	-0.8045279
-1.367586	<s> व	-0.7701571
-1.667489	<s> श	-0.5814029
-3.049957	<s> ष	-0.9327137
-1.016156	<s> स	-1.123149
-1.536406	<s> ह	-0.459043
-0.3838239	ँ </s>
-2.528917	ँ आ	-0.5874306
-2.528917	ँ ए	-0.5314955
-2.16094	ँ ओ	-0.4905468
-1.34328	ँ क	-0.3249863
-2.528917	ँ ख	-0.2728931
-0.9807321	ँ ग	-0.7098922
-2.528917	ँ घ	-0.3758381
-1.382789	ँ च	-0.5032406
-1.608098	ँ ज	-0.4323986
-2.528917	ँ झ	-0.5796484
-1.235186	ँ ट	-0.4813701
-2.227887	ँ ठ	-0.808172
-1.663615	ँ ड	-0.3412071
-2.227887	ँ ढ	-0.06366909
-2.16094	ँ त	-0.446753
-2.227887	ँ द	-0.3636422
-1.474559	ँ ध	-0.3664869
-2.528917	ँ न	-0.5469169
-1.801918	ँ प	-0.6432678
-2.528917	ँ फ	-0.5931966
-2.227887	ँ ब	-0.4935795
-2.227887	ँ भ	-0.6909658
-2.528917	ँ म	-0.5783134
-2.051795	ँ य	-0.5017605
-2.528917	ँ र	-0.5464568
-2.16094	ँ ल	-0.8202052
-1.393254	ँ व	-0.7981769
-1.119547	ँ स	-0.6837873
-2.051795	ँ ह	-0.5597465
-0.3236741	ं </s>
-3.456467	ं अ	-0.5654222
-3.456467	ं आ	-0.5850111
-3.456467	ं इ	-0.555129
-3.155437	ं उ	-0.8362346
-3.456467	ं ए	-0.5657746
-1.416393	ं क	-0.3665015
-2.193226	ं ख	-0.666547
-0.9731177	ं ग	-0.4932336
-2.01451	ं घ	-0.5068701
-1.816317	ं च	-0.4920549
-3.155437	ं छ	-0.424865
-1.654835	ं ज	-0.3961691
-3.155437	ं झ	-0.5903392
-1.466721	ं ट	-0.27266
-2.854407	ं ठ	-0.5014648
-1.310339	ं ड	-0.1275883
-2.979346	ं ढ	-0.271945
-2.353805	ं ण	-0.7294953
-1.400834	ं त	-0.4301586
-2.342524	ं थ	-0.4350763
-1.345878	ं द	-0.3045793
-1.632558	ं ध	-0.2027701
-2.035961	ं न	-0.5468608
-1.892196	ं प	-0.55019
-2.933589	ं फ	-0.7470295
-1.929267	ं ब	-0.4306293
-2.201195	ं भ	-0.4277595
-2.442227	ं म	-0.7293969
-2.155437	ं य	-0.5379983
-2.310339	ं र	-0.7322847
-2.678316	ं ल	-0.3366497
-2.201195	ं व	-0.3622367
-2.094739	ं श	-0.3351992
-1.421705	ं स	-0.6148652
-2.243392	ं ह	-0.4960991
-0.09691001	ः </s>
-1.812913	ः च	-0.5777007
-1.812913	ः ज	-0.5766641
-1.812913	ः प	-0.497724
-1.176091	ः व	-0.6229057
-1.335792	ः स	-0.6294872
-2.445604	अ </s>
-2.211521	अ ँ	-0.6329502
-1.092045	अ ं	-0.8410162
-1.785552	अ क	-0.3093701
-2.114611	अ ख	-0.398653
-1.799341	अ ग	-0.6785881
-1.759223	अ च	-0.6980509
-1.859339	अ छ	-1.080862
-1.534827	अ ज	-0.6185628
-2.512551	अ ट	-0.4589247
-2.211521	अ ड	-0.4392148
-2.512551	अ ण	-0.8389772
-1.421471	अ त	-0.570657
-2.011949	अ थ	-0.4972632
-2.011949	अ द	-0.4360006
-1.341312	अ ध	-0.7036321
-0.7869115	अ न	-0.4971051
-1.067986	अ प	-0.5140213
-1.928974	अ फ	-0.7236164
-1.677918	अ ब	-0.5715339
-1.153982	अ भ	-1.188008
-1.33646	अ म	-0.7120203
-1.928974	अ य	-0.7072222
-1.141483	अ र	-0.6387809
-1.326914	अ ल	-0.3403583
-1.409889	अ व	-0.5935534
-1.657234	अ श	-0.7719314
-2.33646	अ ष	-0.8045815
-1.126349	अ स	-0.6140953
-2.03543	अ ह	-0.3916125
-1.414585	आ </s>
-1.33205	आ ँ	-0.4556106
-1.650113	आ ं	-0.5681356
-1.516574	आ इ	-0.2649474
-1.035216	आ ई	-0.4403057
-2.269902	आ उ	-0.8362346
-2.269902	आ ए	-0.3941618
-2.570932	आ ओ	0.01460323
-1.340483	आ क	-0.6392087
-2.269902	आ ख	-0.4585673
-1.792781	आ ग	-0.4900416
-1.686325	आ च	-0.8018159
-1.479851	आ ज	-0.5474944
-2.269902	आ ड	-0.3857929
-1.292178	आ त	-0.8419169
-1.456989	आ द	-0.4286065
-1.516574	आ ध	-0.5686837
-1.445993	आ न	-0.5148252
-1.435269	आ प	-0.3678667
-2.269902	आ ब	-0.4935795
-2.269902	आ भ	-0.4114943
-1.585655	आ म	-0.4917819
-1.650113	आ य	-0.2364472
-0.7557971	आ र	-0.6407173
-1.299865	आ ल	-0.5199085
-1.435269	आ व	-0.400582
-1.46827	आ श	-0.5369522
-2.202955	आ ष	-0.8589094
-1.491751	आ स	-0.4821477
-1.747023	आ ह	-0.7352819
-1.97635	इ </s>
-0.830222	इ ं	-0.9178221
-2.499229	इ इ	-0.5726533
-2.198199	इ ए	-0.5489731
-1.198199	इ क	-0.7092726
-2.198199	इ ग	-0.5562351
-2.499229	इ घ	-0.5657758
-1.897169	इ च	-0.7583965
-1.183958	इ ज	-0.6323984
-0.9895782	इ ट	-0.5101157
-1.183958	इ ड	-0.7119923
-2.499229	इ त	-0.1451195
-2.499229	इ ध	-0.5709799
-0.7832254	इ न	-0.1425471
-1.596139	इ प	-0.5575651
-2.499229	इ फ	-0.5720245
-1.697596	इ ब	-0.793375
-1.561377	इ म	-0.7344257
-2.022107	इ य	-0.4672453
-1.457836	इ र	-0.5359674
-1.057272	इ ल	-0.556873
-1.862407	इ व	-0.662782
-2.022107	इ श	-0.4951055
-2.499229	इ ष	-0.4066416
-1.143841	इ स	-0.4183952
-2.131252	इ ह	-0.885739
-0.380681	ई </s>
-1.460992	ई ं	-0.4834679
-2.489021	ई ः	0.09691
-2.489021	ई अ	-0.5993833
-2.18799	ई ई	-0.352756
-1.322689	ई ए	-0.6675707
-1.518984	ई क	-0.3721406
-2.489021	ई च	-0.3745507
-1.551168	ई ज	-0.8935304
-1.434663	ई ट	-0.3398013
-1.386358	ई ड	-0.6593628
-2.489021	ई त	-0.5259343
-1.966142	ई थ	-0.7457065
-1.886961	ई द	-0.4084702
-2.121044	ई ध	-0.8679973
-1.434663	ई न	-0.4747607
-1.687388	ई प	-0.4280496
-2.18799	ई फ	-0.5636267
-1.852198	ई ब	-0.6228396
-1.623719	ई म	-0.4933302
-1.332673	ई य	-0.7838029
-1.966142	ई र	-0.7224559
-2.011899	ई ल	-0.4229368
-1.551168	ई व	-0.547843
-1.710869	ई श	-0.4168189
-1.166801	ई स	-0.7001978
-2.472756	उ </s>
-1.745758	उ ँ	-0.7219368
-1.444728	उ ं	-1.19278
-1.870696	उ क	-0.5337444
-2.472756	उ ख	-0.5083009
-1.995635	उ ग	-0.4726396
-1.50272	उ च	-0.9784672
-1.995635	उ छ	-0.9159415
-1.995635	उ ज	-0.5538275
-1.694605	उ ट	-0.4318687
-1.28712	उ ठ	-0.5702155
-1.117369	उ ड	-0.8637666
-0.8163388	उ त	-1.309774
-1.086555	उ द	-1.075828
-1.949878	उ ध	-0.5075653
-1.27778	उ न	-0.6841314
-0.7457577	उ प	-0.7663832
-1.835934	उ ब	-0.7816523
-1.745758	उ भ	-0.7735268
-1.20169	उ म	-0.902313
-1.835934	उ र	-0.6986729
-1.259682	उ ल	-1.107999
-1.995635	उ ष	-0.8045815
-1.458516	उ स	-0.4507923
-0.7149581	ऊ </s>
-0.6403245	ऊ ँ	-0.603983
-1.265866	ऊ ं	-0.2081746
-1.742987	ऊ क	-0.5319849
-1.742987	ऊ ट	-0.4938104
-0.9896592	ऊ त	-0.6071244
-1.441957	ऊ द	-0.5177459
-1.37501	ऊ ध	-0.8930597
-1.441957	ऊ न	-0.4571033
-1.742987	ऊ प	-0.396955
-1.140927	ऊ ब	-0.6296557
-1.441957	ऊ र	-0.4256716
-1.37501	ऊ ष	-0.6090319
-1.742987	ऊ स	-0.5413748
-1.079181	ऋ ग	-0.5562351
-0.60206	ऋ ण	-0.5315764
-1.079181	ऋ त	-0.5940256
-0.3258536	ऋ ष	-0.7335531
-1.062386	ए </s>
-1.096069	ए ँ	-1.289961
-0.8240023	ए ं	-0.9091289
-1.98537	ए अ	-0.7209809
-2.712369	ए आ	-0.5600448
-2.110309	ए ए	-0.550082
-2.712369	ए ओ	-0.5261735
-1.281005	ए क	-0.3915228
-1.621289	ए ग	-0.8022535
-1.326167	ए च	-0.8351865
-1.727092	ए ज	-0.8371704
-1.847068	ए ट	-0.7653507
-1.633188	ए ड	-0.7736773
-2.235248	ए त	-0.3129411
-2.235248	ए थ	-0.5164093
-2.712369	ए ध	-0.5669672
-1.140272	ए न	-0.2040784
-2.075547	ए प	-0.5700586
-1.546038	ए फ	-0.7171532
-2.235248	ए ब	-0.5121759
-1.025137	ए म	-0.8892786
-1.774517	ए य	-1.419789
-1.98537	ए र	-0.8904611
-1.198264	ए ल	-0.6058397
-2.110309	ए व	-0.4819613
-1.847068	ए श	-0.6494938
-0.9084569	ए स	-0.7744752
-2.411339	ए ह	-0.5778363
-0.5856696	ऐ ं	-0.8741832
-1.539912	ऐ ङ	-0.5596015
-1.539912	ऐ च	-0.5786707
-1.539912	ऐ ज	-0.5802305
-1.238882	ऐ ट	-0.7368484
-1.171935	ऐ प	-0.798754
-1.539912	ऐ म	-0.5731714
-0.90309	ऐ र	-0.7859446
-1.238882	ऐ ल	-0.4680501
-1.238882	ऐ श	-0.5528054
-0.90309	ऐ स	-0.415891
-0.7950106	ओ </s>
-1.493981	ओ ँ	-0.998928
-0.2123791	ओ ं	-1.809752
-2.220979	ओ आ	-0.5600448
-2.220979	ओ क	-0.5248191
-1.743858	ओ ग	-0.9643943
-1.853003	ओ ट	-0.6342123
-2.220979	ओ ड	-0.4453021
-2.220979	ओ ढ	-0.5940748
-1.853003	ओ त	-0.8999336
-2.220979	ओ न	-0.4934085
-2.220979	ओ प	-0.3796533
-1.919949	ओ ब	-0.3850212
-2.220979	ओ म	-0.5585083
-1.618919	ओ र	-0.5260998
-1.698101	ओ ल	-0.4168589
-2.220979	ओ व	-0.5702059
-2.220979	ओ स	-0.5849481
-1.068716	औ </s>
-1.436693	औ ं	-0.3225518
-1.135663	औ ज	-0.782091
-1.436693	औ त	-0.5259343
-1.436693	औ द	-0.5210607
-0.3456121	औ र	-0.6971827
-1.436693	औ ष	-0.6001168
-1.068716	औ स	-0.8953627
-1.436693	औ ह	-0.600166
-0.8605358	क </s>
-2.025632	क ं	-0.6503645
-3.492993	क ः	0.09691
-3.492993	क अ	-0.5632392
-3.492993	क औ	-0.3414587
-2.589903	क क	-0.5756874
-3.492993	क ख	-0.6010859
-2.608387	क ग	-0.6601854
-3.191963	क घ	-0.8088138
-2.714842	क ङ	-0.3617278
-2.4516	क च	-0.728225
-2.890933	क ज	-0.7992609
-2.040695	क ट	-0.442901
-3.191963	क ठ	-0.437366
-2.040695	क ड	-0.9816226
-3.125016	क ढ	-0.4423592
-2.765994	क ण	-0.4253813
-1.614088	क त	-0.4497725
-2.464964	क थ	-0.7953388
-2.464964	क द	-0.6753469
-1.788271	क न	-0.4457078
-2.206686	क प	-0.7343159
-3.125016	क फ	-0.8942266
-2.307357	क ब	-0.5564846
-3.191963	क भ	-0.8262973
-1.763288	क म	-0.5827193
-3.125016	क य	-0.7776135
-1.015872	क र	-0.9715599
-1.565281	क ल	-0.3401608
-2.184784	क व	-0.7179394
-2.4516	क श	-0.708887
-3.492993	क ष	-0.4066416
-2.346865	क स	-0.3319965
-2.279918	क ह	-0.4403654
-2.647895	क ़	-0.4483235
-0.8267872	क ा	-0.251773
-1.409013	क ि	-0.4826959
-1.492993	क ी	-0.2590072
-1.411406	क ु	-0.2786276
-2.040695	क ू	-0.7332174
-1.77699	क ृ	-1.320402
-1.309249	क े	-0.2471269
-1.734586	क ै	-0.1369017
-1.876693	क ॉ	-0.6324751
-1.268546	क ो	-0.2873681
-2.214239	क ौ	-0.5565159
-0.7879851	क ्	-1.120657
-1.294272	ख </s>
-1.728841	ख ं	-1.105659
-2.348629	ख क	-0.334753
-2.649659	ख ग	-0.3456608
-1.896332	ख ङ	-0.6041836
-1.848027	ख ज	-0.7735552
-2.047599	ख ट	-0.6404119
-2.348629	ख ड	-0.4090494
-1.950689	ख ण	-1.131519
-1.473568	ख त	-0.500967
-1.848027	ख द	-0.6258189
-1.402505	ख न	-0.1807571
-2.172538	ख ब	-0.5297591
-2.126781	ख म	-0.6173986
-2.281682	ख य	-0.7776135
-1.218296	ख र	-0.3893422
-1.355929	ख ल	-0.6061049
-1.784358	ख व	-1.238726
-2.649659	ख स	-0.590779
-1.427811	ख ़	-0.334993
-0.7118073	ख ा	-0.1183527
-1.097397	ख ि	-0.6703881
-1.473568	ख ी	-0.8254474
-1.402505	ख ु	-0.8200157
-1.649659	ख ू	-0.8764942
-2.649659	ख ृ	-0.5993314
-1.113943	ख े	-0.6181581
-1.202501	ख ो	-0.323104
-2.281682	ख ौ	-0.8966368
-1.187261	ख ्	-0.9412076
-0.9453331	ग </s>
-2.67862	ग ँ	-0.7069903
-2.101383	ग ं	-0.3034775
-2.632862	ग ई	-0.5178732
-2.402413	ग क	-1.211243
-2.632862	ग ग	-0.7210541
-1.97965	ग ज	-0.475549
-2.854711	ग ट	-0.5619853
-2.234922	ग ठ	-0.8002442
-1.884674	ग ड	-0.5857468
-2.101383	ग ढ	-0.5340742
-1.698364	ग ण	-0.516601
-1.428742	ग त	-0.5170013
-3.155741	ग थ	-0.4849366
-2.127712	ग द	-0.4285679
-3.155741	ग ध	-0.5709799
-1.637227	ग न	-0.357287
-2.331832	ग प	-0.831951
-2.854711	ग ब	-0.4937152
-1.708583	ग म	-0.673553
-2.518919	ग य	-0.4593617
-1.375183	ग र	-0.3844361
-1.583644	ग ल	-0.2829474
-1.854711	ग व	-0.9144576
-2.632862	ग श	-0.7433131
-2.553681	ग स	-0.4968709
-2.290439	ग ह	-0.5372532
-2.518919	ग ़	-0.580252
-0.8152966	ग ा	-0.2160752
-1.423347	ग ि	-0.7362142
-1.306526	ग ी	-0.7909499
-1.190382	ग ु	-0.571488
-2.06466	ग ू	-0.4805405
-2.06466	ग ृ	-1.246187
-1.103945	ग े	-0.7430798
-2.009613	ग ै	-0.6784769
-2.67862	ग ॉ	-0.5721349
-1.093786	ग ो	-0.4850582
-1.908586	ग ौ	-0.7378125
-0.9993936	ग ्	-1.256111
-1.357603	घ </s>
-1.94118	घ ं	-0.8300117
-1.011761	घ ट	-0.5689436
-2.24221	घ ठ	-0.5623047
-1.874233	घ ण	-0.8304891
-1.94118	घ द	-0.8309804
-1.24221	घ न	-0.5514505
-1.515211	घ ब	-1.202166
-1.515211	घ म	-0.918577
-1.096082	घ र	-0.6549985
-1.488882	घ ल	-0.7265435
-2.24221	घ व	-0.2749382
-2.24221	घ ष	-0.5902685
-2.24221	घ स	-0.5754633
-0.8560084	घ ा	-0.6983473
-1.874233	घ ि	-0.6312848
-1.304358	घ ी	-0.5794225
-1.011761	घ ु	-0.4143513
-1.304358	घ ू	-0.6924624
-1.515211	घ े	-0.3260466
-1.075879	घ ो	-0.7220191
-1.22797	घ ्	-0.9363328
-0.6564177	ङ </s>
-1.832509	ङ क	-0.2309549
-1.531479	ङ त	-0.4145422
-1.355388	ङ न	-0.5858349
-1.832509	ङ प	-0.580477
-1.832509	ङ र	-0.5208599
-1.832509	ङ ल	-0.5191752
-0.9116902	ङ ा	-1.008739
-1.355388	ङ ि	-0.9149013
-1.030877	ङ ी	-0.9732503
-0.7414284	ङ े	-0.8293661
-0.9672075	ङ ो	-0.5951958
-1.464532	ङ ्	-0.85695
-1.516499	च </s>
-1.817529	च ं	-0.7358306
-2.59568	च आ	-0.7613045
-2.012103	च ए	-0.6238905
-2.89671	च ओ	-0.5261735
-1.36951	च क	-0.5774825
-2.373831	च छ	-0.7429602
-2.59568	च ट	-0.4936692
-1.958858	च ड	-0.951497
-1.829763	च ढ	-0.3820634
-1.805629	च त	-0.6726158
-1.253257	च न	-0.8473764
-1.975891	च प	-0.5460594
-2.419589	च ब	-0.6482626
-1.516499	च म	-0.7662846
-2.169711	च य	-0.3406948
-1.270027	च र	-0.5270084
-1.560918	च ल	-0.5039648
-2.031409	च व	-0.4128471
-2.072801	च श	-0.8810657
-2.373831	च स	-0.6089914
-2.259888	च ह	-0.5578153
-0.6645612	च ा	-0.4984602
-0.8909575	च ि	-0.6425539
-1.429348	च ी	-0.1373217
-1.332438	च ु	-0.7998537
-1.89671	च ू	-0.5886288
-1.263241	च े	-0.3496611
-1.868681	च ै	-0.520858
-2.59568	च ॉ	-0.5784003
-1.574491	च ो	-0.382776
-1.554287	च ौ	-0.525255
-1.280409	च ्	-1.334228
-1.567467	छ </s>
-1.657644	छ ं	-1.126089
-1.926489	छ क	-0.8258491
-1.771587	छ ट	-0.7318801
-2.294466	छ ठ	-0.2958184
-1.169528	छ ड	-1.456026
-1.294466	छ त	-0.3236623
-2.294466	छ न	-0.1343865
-1.215285	छ प	-0.691462
-2.294466	छ ब	-0.5609527
-1.993436	छ म	-0.5094989
-1.771587	छ र	-0.6613173
-1.373647	छ ल	-0.3960921
-1.771587	छ व	-0.5438302
-0.7545542	छ ा	-0.3238962
-0.9654075	छ ि	-0.7661061
-1.567467	छ ी	-0.5751803
-1.09949	छ ु	-0.7470084
-1.047312	छ ू	-0.9485829
-1.294466	छ े	-0.751925
-1.138119	छ ो	-0.8058811
-1.103927	ज </s>
-2.229733	ज ं	-0.2037937
-3.150552	ज ः	0.09691
-3.150552	ज अ	-0.3663536
-1.955575	ज क	-0.6466827
-2.67343	ज ख	-0.6952893
-1.668632	ज ग	-0.6225995
-2.849522	ज ट	-0.3172248
-3.150552	ज ड	-0.4453021
-1.849522	ज त	-0.2776607
-2.782575	ज द	-0.4087007
-2.627673	ज ध	-0.9507582
-1.132129	ज न	-0.1389534
-2.004424	ज प	-0.6414744
-2.849522	ज फ	-0.5103492
-1.920103	ज ब	-0.5208249
-3.150552	ज भ	-0.3804623
-1.81476	ज म	-0.4866027
-2.004424	ज य	-0.5032687
-1.415485	ज र	-0.4313673
-1.369994	ज ल	-0.4121535
-2.28525	ज व	-0.6709118
-2.397224	ज श	-0.6478935
-2.083605	ज स	-0.5607991
-2.196309	ज ह	-0.6462271
-0.9992841	ज ़	-0.423663
-0.8695184	ज ा	-0.1497194
-1.249275	ज ि	-0.615002
-0.9871916	ज ी	-0.2299355
-1.423553	ज ु	-0.6251135
-1.752612	ज ू	-0.243749
-1.30961	ज े	-0.09681243
-1.879485	ज ै	-0.4379274
-2.372401	ज ॉ	-0.6306824
-1.245656	ज ो	-0.7368084
-3.150552	ज ौ	-0.5943046
-1.318043	ज ्	-1.428087
-1.574674	झ </s>
-1.414973	झ ं	-1.124336
-2.051795	झ क	-0.2769747
-1.683819	झ ग	-0.8973889
-2.051795	झ ट	-0.589901
-2.051795	झ ड	-0.4453021
-2.051795	झ त	-0.2723915
-1.298468	झ न	-0.5752026
-2.051795	झ म	-0.5786965
-2.051795	झ र	-0.5208599
-1.750765	झ ल	-0.3805901
-0.5511931	झ ा	-0.7236897
-2.051795	झ ि	-0.3706304
-1.750765	झ ी	-0.2540768
-0.6900676	झ ु	-0.7442399
-1.250163	झ ू	-0.9943346
-1.066519	झ े	-0.7225828
-1.148705	झ ो	-0.6262029
-2.051795	झ ौ	-0.5646207
-1.293731	ञ </s>
-1.594761	ञ त	-0.5041414
-1.594761	ञ व	-0.5974599
-0.1910684	ञ ा	-0.8538674
-0.925754	ञ ी	-0.8483115
-1.11764	ञ ो	-0.4966124
-0.656359	ट </s>
-3.119256	ट ं	-0.5850834
-2.751279	ट ः	-0.20412
-3.119256	ट ई	-0.3683121
-1.558951	ट क	-0.5183969
-3.119256	ट ख	-0.5981504
-3.119256	ट ज	-0.5664527
-3.119256	ट ड	-0.3718946
-1.856014	ट त	-0.9909282
-3.119256	ट द	-0.530856
-1.36849	ट न	-0.9502717
-2.642135	ट प	-0.3857943
-3.119256	ट फ	-0.5524234
-1.943165	ट ब	-0.5456133
-1.952924	ट म	-0.59725
-3.119256	ट य	-0.5420671
-1.176421	ट र	-0.5803106
-1.872101	ट ल	-0.4333313
-1.863983	ट व	-0.7182932
-2.642135	ट स	-0.5560309
-2.392257	ट ह	-0.7503381
-1.00979	ट ा	-0.6242997
-1.11637	ट ि	-0.5273573
-1.058558	ट ी	-0.1496333
-2.091227	ट ु	-0.7416251
-1.952924	ट ू	-0.5647187
-2.818226	ट ृ	-0.5965856
-1.110656	ट े	-0.6535002
-2.040075	ट ै	-0.4029301
-1.811047	ट ॉ	-0.6320434
-1.343524	ट ो	-0.5416324
-3.119256	ट ौ	-0.5646207
-0.9097409	ट ्	-1.344706
-1.088784	ठ </s>
-1.587625	ठ ं	-1.124336
-1.471119	ठ क	-0.6275315
-1.747325	ठ ग	-0.6258829
-2.224447	ठ ज	-0.5766641
-2.224447	ठ ड	-0.599329
-1.270204	ठ त	-0.8619921
-1.85647	ठ द	-0.8318859
-1.446295	ठ न	-0.4828101
-2.224447	ठ प	-0.497724
-1.923417	ठ म	-0.4625836
-1.701568	ठ र	-0.7161487
-1.923417	ठ व	-0.4202372
-1.923417	ठ स	-0.48949
-1.210206	ठ ह	-0.9511658
-0.6116629	ठ ा	-0.7422621
-1.058115	ठ ि	-0.7210866
-1.048355	ठ ी	-0.8177211
-1.923417	ठ ु	-0.7798262
-2.224447	ठ ू	-0.4893861
-1.747325	ठ े	-0.2163107
-1.359145	ठ ो	-0.4039502
-1.303628	ठ ्	-0.796262
-0.835736	ड </s>
-2.202826	ड ं	-0.3053805
-3.047924	ड ई	-0.3683121
-2.182622	ड क	-0.4581113
-2.746894	ड ग	-0.5461149
-3.047924	ड च	-0.5423068
-3.047924	ड ट	-0.4938104
-3.047924	ड ण	-0.5294591
-2.269772	ड त	-0.6672342
-3.047924	ड द	-0.5522519
-2.269772	ड न	-0.4826459
-3.047924	ड प	-0.497724
-2.445863	ड फ	-0.7525528
-1.739715	ड ब	-1.101966
-1.809042	ड म	-0.621506
-2.679947	ड य	-0.8914464
-1.46814	ड र	-0.4385777
-1.542774	ड ल	-0.6097648
-2.246291	ड व	-0.5345249
-2.182622	ड स	-0.736487
-3.047924	ड ह	-0.5634804
-0.5185788	ड ़	-0.2744792
-1.232789	ड ा	-0.6910181
-1.049374	ड ि	-0.5124871
-1.23501	ड ी	-0.3028856
-1.852947	ड ु	-0.8754095
-2.163317	ड ू	-1.043522
-1.253203	ड े	-0.2710193
-3.047924	ड ै	-0.5882622
-1.993566	ड ॉ	-0.4423029
-1.38203	ड ो	-0.645547
-2.679947	ड ौ	-0.8656507
-1.237243	ड ्	-1.091923
-1.246569	ढ </s>
-2.216606	ढ ँ	-0.5818974
-2.216606	ढ ं	-0.3939237
-1.489607	ढ क	-0.4082048
-1.579784	ढ त	-0.7370534
-2.216606	ढ न	-0.5667638
-2.216606	ढ ष	-0.5902685
-0.1845244	ढ ़	-0.4621418
-1.003531	ढ ा	-0.4515558
-1.438454	ढ ू	-0.8125347
-1.739484	ढ े	-0.3327908
-1.915576	ढ ो	-0.5894169
-1.915576	ढ ्	-0.8447803
-0.4204782	ण </s>
-1.553	ण ं	-0.7513286
-1.628251	ण क	-0.5723177
-2.719331	ण ग	-0.5983016
-2.196453	ण घ	-0.976238
-2.719331	ण ड	-0.5894328
-1.562984	ण त	-0.7787209
-2.719331	ण द	-0.530856
-2.719331	ण ध	-0.5709799
-1.94118	ण न	-0.4863196
-1.834725	ण प	-0.6275779
-2.196453	ण ब	-0.7412076
-2.719331	ण भ	-0.5835904
-2.24221	ण म	-0.4040074
-2.719331	ण य	-0.5420671
-1.798513	ण व	-0.3257846
-2.719331	ण श	-0.5672218
-0.9896266	ण ा	-0.208482
-1.33912	ण ि	-0.7415396
-1.131995	ण ी	-0.674047
-1.85403	ण ु	-0.8723297
-1.719331	ण े	-0.729125
-1.390273	ण ो	-1.103871
-0.8126372	ण ्	-1.499593
-0.7937599	त </s>
-2.107505	त ं	-0.2272009
-2.742234	त ः	-0.2205104
-3.469233	त ई	-0.3683121
-3.101256	त ऋ	-0.6255411
-3.469233	त ए	-0.5986781
-1.863569	त क	-0.7928739
-3.168203	त ख	-0.8159218
-2.770263	त ग	-0.4757029
-3.469233	त ङ	-0.5956259
-2.992111	त च	-0.291867
-2.531381	त ज	-0.6630292
-2.946354	त ट	-0.5228788
-2.133441	त त	-0.2959941
-3.469233	त थ	-0.2330257
-2.832411	त द	-0.6194711
-3.101256	त ध	-0.8124555
-1.758833	त न	-0.2163233
-2.140174	त प	-0.5362945
-3.469233	त फ	-0.3707878
-2.483956	त ब	-0.7966996
-3.168203	त भ	-0.322989
-2.293141	त म	-0.4585616
-2.715905	त य	-0.6757874
-1.42391	त र	-0.2401835
-2.001871	त ल	-0.4343861
-2.12681	त व	-0.7623544
-3.168203	त श	-0.526274
-2.51499	त स	-0.6862385
-2.499196	त ह	-0.6239268
-3.469233	त ़	-0.5101987
-0.6949592	त ा	-0.6107041
-0.9428934	त ि	-0.5362881
-1.152564	त ी	-0.8018283
-1.736839	त ु	-0.6436323
-2.6676	त ू	-0.3575714
-2.168203	त ृ	-0.3503991
-1.195075	त े	-1.10992
-2.21396	त ै	-0.9291654
-1.533054	त ो	-0.5495722
-2.483956	त ौ	-0.672452
-0.7510079	त ्	-1.519991
-0.8388069	थ </s>
-2.233842	थ ं	-0.2896477
-2.534872	थ इ	-0.5696989
-1.279599	थ क	-0.4251508
-2.534872	थ ग	-0.2720698
-2.534872	थ ट	-0.5980817
-2.233842	थ त	-0.7471795
-2.166895	थ द	-0.8971915
-1.756721	थ न	-0.5197134
-1.59702	थ प	-0.6983792
-1.614053	थ म	-0.5229514
-2.534872	थ य	-0.2893173
-1.349235	थ र	-0.6055157
-1.564835	थ ल	-0.4358559
-2.057751	थ व	-0.4142687
-2.534872	थ श	-0.539303
-2.534872	थ स	-0.3531835
-2.233842	थ ह	-0.8177994
-0.6263868	थ ा	-0.3532817
-0.9401111	थ ि	-0.6889607
-1.212653	थ ी	-0.7268549
-2.057751	थ ु	-0.6329246
-2.233842	थ ू	-0.4190707
-1.192449	थ े	-0.4491006
-2.011993	थ ै	-1.000885
-2.057751	थ ॉ	-0.5306275
-1.549595	थ ो	-0.3765262
-2.233842	थ ौ	-0.7991982
-1.388744	थ ्	-0.8448938
-0.9651507	द </s>
-1.869988	द ं	-0.8249261
-3.185259	द अ	-0.5815706
-3.185259	द ऋ	-0.5642715
-1.884229	द क	-0.6286542
-2.817282	द ख	-0.8835194
-2.319957	द ग	-0.6688839
-3.185259	द च	-0.4961043
-3.185259	द ज	-0.5687795
-2.708138	द ण	-0.9273991
-1.972184	द त	-0.6255586
-2.247407	द द	-0.5985068
-3.185259	द ध	-0.5337477
-1.532046	द न	-0.4618042
-2.708138	द प	-0.426362
-2.45826	द फ	-0.8836812
-2.185259	द ब	-0.9329122
-2.45826	द भ	-1.076317
-2.028912	द म	-0.4278907
-2.15723	द य	-0.5236306
-1.179506	द र	-0.5293133
-1.922017	द ल	-0.3476297
-1.946377	द व	-0.9628009
-1.869988	द श	-0.5171562
-1.946377	द स	-0.6420596
-2.319957	द ह	-0.6707689
-0.8203952	द ा	-0.6094782
-1.221471	द ि	-0.6085502
-1.166836	द ी	-0.8152509
-1.41196	द ु	-0.5934014
-1.495063	द ू	-0.4840731
-2.082597	द ृ	-1.00921
-1.123304	द े	-0.7277009
-2.45826	द ै	-0.7496302
-1.429384	द ो	-0.5070168
-2.340161	द ौ	-0.6526713
-0.7691733	द ्	-1.302505
-1.186629	ध </s>
-2.013085	ध ं	-0.7995017
-1.386202	ध क	-0.6078941
-2.766413	ध घ	-0.5369053
-2.766413	ध च	-0.5771176
-2.766413	ध ज	-0.5806608
-2.766413	ध ड	-0.4453021
-1.699466	ध त	-1.169253
-2.289292	ध ध	-0.6896747
-1.109995	ध न	-0.5915758
-2.097406	ध प	-1.157805
-2.465383	ध ब	-0.5848067
-1.641474	ध म	-0.639841
-2.465383	ध य	-0.7196215
-1.160749	ध र	-0.6442081
-2.766413	ध ल	-0.5648445
-1.901111	ध व	-0.4075667
-2.766413	ध श	-0.539303
-2.465383	ध स	-0.4842345
-2.766413	ध ह	-0.5747615
-0.7250202	ध ा	-0.7948443
-0.8369939	ध ि	-0.7016425
-1.226501	ध ी	-0.6745146
-1.275051	ध ु	-0.6984143
-1.65247	ध ू	-0.6411538
-2.465383	ध ृ	-0.6211286
-1.472682	ध े	-0.7948295
-2.243534	ध ै	-1.001856
-1.32972	ध ो	-0.5808915
-2.766413	ध ौ	-0.5943046
-1.160749	ध ्	-1.40723
-0.6549422	न </s>
-2.500228	न ं	-0.9407164
-2.328546	न ः	0.2864304
-3.240591	न आ	-0.4667601
-3.541621	न इ	-0.5909117
-3.541621	न ई	-0.3845907
-3.541621	न उ	-0.5160997
-3.541621	न ऊ	-0.4891619
-2.939561	न ए	-0.3137282
-3.541621	न औ	-0.3414587
-1.851425	न क	-0.7540592
-3.541621	न ख	-0.5845204
-2.104928	न ग	-0.9238474
-3.541621	न ङ	-0.493827
-2.513592	न च	-0.585862
-2.36553	न ज	-0.6109608
-2.676319	न ट	-0.5724972
-2.438958	न ड	-0.4051782
-1.928837	न त	-0.5148178
-2.22635	न द	-0.3902755
-3.240591	न ध	-0.7544635
-2.041018	न न	-0.5553687
-2.24789	न प	-0.5152276
-2.814622	न फ	-0.435877
-2.571584	न ब	-0.4464628
-2.739989	न भ	-0.502445
-1.981316	न म	-0.5369376
-2.474674	न य	-0.5146858
-1.719889	न र	-0.6003189
-2.069352	न ल	-0.306856
-1.798634	न व	-0.4594243
-2.45054	न श	-0.4022176
-3.173644	न ष	-0.7076715
-1.73094	न स	-0.5844246
-2.0645	न ह	-0.7238214
-0.8070877	न ा	-0.3765073
-0.9897644	न ि	-0.1217653
-1.204494	न ी	-0.6087587
-1.563897	न ु	-0.8498172
-2.474674	न ू	-0.5760769
-2.904799	न ृ	-0.9221586
-1.107584	न े	-0.711371
-2.696523	न ै	-0.5038841
-2.45054	न ॉ	-0.5094699
-1.395493	न ो	-0.4014427
-2.395493	न ौ	-0.501774
-0.9235727	न ्	-1.35483
-1.314419	प </s>
-3.042772	प ँ	-0.5885755
-1.69059	प ं	-0.755766
-1.570504	प क	-0.5122254
-3.343802	प ख	-0.3041809
-2.866681	प ग	-0.5670028
-3.343802	प घ	-0.5575899
-2.478501	प ङ	-0.2344378
-2.329562	प च	-0.7161624
-3.343802	प छ	-0.5794354
-2.644832	प ज	-0.498499
-1.963591	प ट	-0.4833466
-2.820924	प ठ	-0.9196083
-1.963591	प ड	-0.8472962
-2.20814	प ढ	-0.4979103
-2.035594	प ण	-0.7443228
-1.41099	प त	-0.5512748
-2.820924	प थ	-0.6971071
-1.896644	प द	-0.4148398
-2.741742	प ध	-0.742072
-1.330965	प न	-0.7559208
-2.70698	प प	-0.5726867
-3.042772	प ब	-0.4531053
-3.042772	प भ	-0.5718474
-2.54217	प म	-0.7483349
-2.358526	प य	-0.8113031
-1.131615	प र	-0.4637306
-1.779531	प ल	-0.5282946
-2.276855	प व	-0.4939951
-2.30241	प श	-0.9753303
-2.343802	प ष	-1.295943
-2.54217	प स	-0.4426381
-1.738138	प ह	-0.9199902
-0.9487673	प ा	-0.3588992
-1.480479	प ि	-0.5374335
-1.384761	प ी	-0.3468577
-1.179449	प ु	-1.113722
-1.275617	प ू	-1.12326
-2.644832	प ृ	-0.7577319
-1.515572	प े	-0.4608818
-1.881404	प ै	-0.3664642
-2.24114	प ॉ	-0.7859001
-1.585395	प ो	-0.4814729
-2.057496	प ौ	-0.6316671
-0.6704742	प ्	-1.616231
-1.201094	फ </s>
-2.109579	फ ँ	-1.007094
-2.155336	फ ं	-0.5088285
-2.155336	फ आ	-0.6050628
-2.632457	फ इ	-0.5736337
-2.109579	फ ए	-0.534403
-2.109579	फ क	-0.6913576
-1.87913	फ ग	-0.739436
-2.632457	फ ड	-0.4453021
-2.109579	फ ण	-1.008101
-2.109579	फ त	-0.5263488
-1.694605	फ न	-0.7214178
-2.331427	फ फ	-0.8320819
-2.331427	फ ब	-0.5099599
-2.331427	फ म	-0.8015463
-1.217484	फ र	-0.3501528
-1.410609	फ ल	-0.5910041
-2.331427	फ व	-0.8302169
-1.905459	फ स	-0.5292144
-2.632457	फ ह	-0.3593604
-1.604429	फ ़	-0.3836201
-0.9665638	फ ा	-0.5274804
-0.8894705	फ ि	-0.7695657
-1.393575	फ ी	-0.327419
-1.410609	फ ु	-0.9051628
-1.529795	फ ू	-0.5196149
-1.17508	फ े	-0.3970749
-1.496795	फ ै	-0.5250384
-1.662421	फ ॉ	-0.8201439
-1.201094	फ ो	-0.643046
-2.331427	फ ौ	-0.5394683
-0.8868621	फ ्	-1.152037
-1.434654	ब </s>
-2.3126	ब ँ	-0.9642624
-1.40951	ब ं	-1.234526
-2.613631	ब ई	-0.8076447
-1.881237	ब क	-0.1941492
-3.136509	ब ख	-0.3880991
-2.613631	ब ङ	-0.3958059
-1.950873	ब च	-0.5807866
-2.835479	ब छ	-0.8146622
-2.069562	ब ज	-0.6068442
-2.499687	ब ट	-0.4835418
-3.136509	ब ठ	-0.4802756
-2.10848	ब ड	-0.6030636
-1.71054	ब ढ	-0.5369775
-1.768532	ब त	-0.7418818
-1.781121	ब द	-0.6653996
-2.613631	ब ध	-0.5510468
-1.348813	ब न	-0.546267
-3.136509	ब प	-0.3833321
-2.768532	ब ब	-0.8623312
-2.334877	ब म	-0.5861272
-2.499687	ब य	-0.7166128
-1.200331	ब र	-0.4984667
-1.401443	ब ल	-0.437425
-2.835479	ब व	-0.5669106
-3.136509	ब श	-0.5849901
-1.835479	ब स	-0.1848056
-1.631359	ब ह	-0.595124
-0.8844656	ब ा	-0.3738513
-1.044257	ब ि	-0.4404299
-1.217431	ब ी	-0.1296981
-1.414973	ब ु	-0.6638249
-1.835479	ब ू	-0.5257271
-2.835479	ब ृ	-0.5551929
-1.043087	ब े	0.1318605
-1.530845	ब ै	-0.409879
-1.889355	ब ॉ	-0.6157646
-1.380634	ब ो	-0.3492823
-2.358358	ब ौ	-0.6149967
-1.047783	ब ्	-1.210486
-1.932284	भ </s>
-2.057222	भ ं	-0.6054875
-2.659282	भ ः	0.09691
-2.659282	भ आ	-0.5950046
-2.659282	भ ई	-0.3683121
-1.85765	भ क	-0.702925
-1.568202	भ ग	-0.6657183
-2.057222	भ च	-1.05419
-2.358252	भ ज	-0.441736
-2.358252	भ ट	-0.589901
-2.136404	भ ड	-0.8846347
-2.358252	भ ण	-0.7724971
-2.659282	भ त	-0.3000215
-1.774676	भ द	-0.793591
-2.182161	भ न	-0.447354
-1.85765	भ य	-0.4692037
-1.380529	भ र	-0.5493205
-2.291305	भ ल	-0.6114132
-1.40401	भ व	-0.3134685
-2.02246	भ ष	-0.6228799
-0.5246801	भ ा	-0.3172773
-0.8531022	भ ि	-0.5115916
-1.372975	भ ी	-0.1737667
-1.261342	भ ु	-0.8658904
-1.115214	भ ू	-0.5528829
-1.316859	भ े	-0.8765962
-1.72143	भ ो	-0.4962676
-1.814184	भ ौ	-0.7794304
-1.316859	भ ्	-1.196612
-1.020373	म </s>
-3.077913	म ँ	-0.8412261
-1.57731	म ं	-1.024171
-2.494336	म आ	-0.9616101
-2.27628	म ए	-0.7120879
-3.077913	म औ	-0.5844967
-1.444444	म क	-0.716903
-3.378943	म ख	-0.5988044
-2.24328	म ग	-0.6217481
-2.901821	म घ	-0.6230913
-3.378943	म ङ	-0.493827
-2.202852	म च	-0.4205175
-1.926645	म ज	-0.5645739
-2.350914	म झ	-0.3091764
-2.57731	म ट	-0.4510924
-3.378943	म ठ	-0.2816071
-2.57731	म ड	-0.6293994
-3.378943	म ढ	-0.1413292
-2.063672	म ण	-0.7777713
-1.887581	म त	-0.02219224
-2.776883	म थ	-0.5174372
-1.769704	म द	-0.2503431
-2.408906	म ध	-0.9576626
-1.380393	म न	-0.2455337
-2.33755	म प	-0.383757
-2.475853	म ब	-0.490061
-3.077913	म भ	-0.5594283
-2.776883	म म	-0.5115901
-2.324585	म य	-0.6349978
-1.533845	म र	-0.3395925
-1.839031	म ल	-0.4795409
-2.299762	म व	-0.7128881
-2.494336	म श	-0.5470648
-3.010966	म ष	-0.7076715
-1.745474	म स	-0.6151937
-1.563808	म ह	-0.6211871
-3.378943	म ़	-0.5749576
-0.7471609	म ा	-0.1349323
-1.191422	म ि	-0.6939247
-1.304614	म ी	-0.4791504
-1.274001	म ु	-0.463545
-1.926645	म ू	-0.682802
-2.441091	म ृ	-0.7567277
-1.280876	म े	-0.410317
-1.646549	म ै	-0.3365694
-2.57731	म ॉ	-0.4608838
-1.341516	म ो	-0.2138861
-2.077913	म ौ	-0.3500422
-1.019107	म ्	-1.27025
-0.8893353	य </s>
-2.062313	य ं	-0.3234177
-3.03235	य ः	-0.146128
-1.574973	य क	-0.4586558
-3.33338	य ख	-0.5083009
-2.531748	य ग	-0.5273783
-3.33338	य घ	-0.5369053
-3.33338	य च	-0.2919843
-2.254199	य ज	-0.7260894
-3.03235	य ट	-0.2651573
-2.856259	य ड	-0.4320833
-2.412561	य ण	-1.207525
-1.454476	य त	-0.7394661
-3.33338	य थ	-0.4849366
-2.12926	य द	-0.3062741
-2.810501	य ध	-0.601688
-1.577505	य न	-0.8971046
-1.876003	य प	-0.6930029
-2.531748	य ब	-0.6803174
-2.696558	य भ	-0.4239516
-1.631524	य म	-0.7258034
-2.279022	य य	-0.1884551
-1.580052	य र	-0.6466682
-2.147743	य ल	-0.6930233
-1.801901	य व	-0.5492506
-2.219437	य श	-0.5581055
-1.810501	य स	-0.5722101
-2.395528	य ह	-0.52381
-3.33338	य ़	-0.5749576
-0.6004505	य ा	-0.6207968
-1.876003	य ि	-0.9051064
-1.649133	य ी	-0.9857106
-1.419566	य ु	-0.6221078
-1.309442	य ू	-0.4941325
-1.261498	य े	-0.8004067
-3.33338	य ै	-0.5833583
-2.070139	य ॉ	-1.200108
-0.7520753	य ो	-0.7103938
-2.856259	य ौ	-0.3793564
-2.448774	य ्	-1.046154
-0.7681953	र </s>
-1.939249	र ं	-0.991385
-3.42827	र ः	-0.146128
-3.252179	र अ	-0.6668811
-3.42827	र आ	-0.5349187
-3.7293	र इ	-0.555129
-2.863998	र ई	-0.5911649
-3.7293	र उ	-0.5971583
-3.7293	र ऊ	-0.5090567
-2.975972	र ए	-0.7615232
-3.7293	र ऐ	-0.5440681
-3.42827	र ओ	-0.7692115
-3.7293	र औ	-0.3414587
-1.77991	र क	-0.5846198
-2.266902	र ख	-0.480755
-2.435569	र ग	-0.3891468
-2.662353	र घ	-0.8011522
-2.393508	र च	-0.4724834
-3.42827	र छ	-0.4568129
-2.261938	र ज	-0.4301831
-3.7293	र झ	-0.4587496
-2.808481	र ट	-0.8562474
-3.7293	र ठ	-0.2761556
-2.884202	र ड	-0.7020382
-1.572953	र ण	-0.4519076
-1.509192	र त	-0.7263667
-2.744023	र थ	-0.6432414
-1.844693	र द	-0.5780442
-2.626637	र ध	-1.166737
-1.820815	र न	-0.5966423
-2.210786	र प	-0.5527238
-2.615356	र फ	-0.6510809
-2.210786	र ब	-0.6053976
-2.450546	र भ	-0.7023513
-1.710877	र म	-0.5093017
-2.282142	र य	-0.4269754
-2.808481	र र	-0.5757594
-2.242633	र ल	-0.6195573
-1.884202	र व	-0.09443468
-2.615356	र श	-0.3649663
-2.927667	र ष	-0.3521825
-1.794801	र स	-0.4129606
-1.898925	र ह	-0.5450984
-0.9201892	र ा	-0.05167973
-1.147236	र ि	-0.2111725
-1.169393	र ी	-0.3151206
-1.573964	र ु	-0.5300302
-2.185232	र ू	-0.4867201
-3.7293	र ृ	-0.5901104
-1.325607	र े	-0.05522883
-2.233293	र ै	-0.5559387
-2.33136	र ॉ	-0.5065292
-1.184818	र ो	-0.2148004
-2.543663	र ौ	-0.6000054
-0.7871264	र ्	-0.1968079
-0.7968668	ल </s>
-2.173672	ल ं	-0.6486491
-3.377792	ल ः	0.09691
-3.377792	ल अ	-0.5632392
-3.377792	ल ई	-0.3683121
-3.377792	ल ओ	-0.5261735
-1.592462	ल क	-0.4333081
-2.900671	ल ख	-0.574269
-1.801835	ल ग	-0.5675361
-3.377792	ल घ	-0.5575899
-2.900671	ल ङ	-0.5151462
-2.392515	ल च	-0.5369711
-3.377792	ल छ	-0.5946487
-2.323434	ल ज	-0.7412531
-2.242129	ल झ	-0.7963936
-2.323434	ल ट	-0.4943545
-3.377792	ल ठ	-0.5968484
-2.21146	ल ड	-0.8556005
-1.611875	ल त	-0.735958
-3.009815	ल थ	-0.8919646
-2.363551	ल द	-0.5760677
-2.650793	ल ध	-0.7777792
-1.775732	ल न	-0.4680821
-2.29861	ल प	-0.5455741
-2.678822	ल फ	-0.5952795
-2.13891	ल ब	-0.6713639
-2.775732	ल भ	-0.4351889
-1.946428	ल म	-0.6447214
-2.035369	ल य	-0.4483752
-2.042	ल र	-0.6864932
-2.900671	ल ल	-0.5143028
-1.81352	ल व	-0.6185557
-3.009815	ल श	-0.8986545
-2.13891	ल स	-0.5143034
-2.423549	ल ह	-0.4871969
-0.7600926	ल ा	-0.01546252
-1.096001	ल ि	-0.2282907
-1.085536	ल ी	-0.3047452
-2.009815	ल ु	-0.5692173
-1.905523	ल ू	-0.4485034
-1.037348	ल े	-0.4287705
-1.708785	ल ै	-0.7173834
-1.951823	ल ॉ	-0.6278322
-1.283204	ल ो	-0.3795725
-2.377792	ल ौ	-0.4917572
-1.023043	ल ्	-1.164356
-1.184068	व </s>
-1.958003	व ं	-0.6852769
-3.018701	व ः	-0.146128
-2.842609	व ई	-0.9793268
-3.319731	व ऋ	-0.4771213
-1.595455	व क	-0.7491341
-2.796852	व ग	-0.465574
-2.592732	व च	-0.5284438
-3.319731	व छ	-0.5924004
-2.064458	व ज	-0.4793196
-2.252784	व ट	-0.9357146
-2.416641	व ड	-0.2300674
-2.541579	व ण	-0.2437322
-1.568965	व त	-0.2845591
-2.796852	व थ	-0.6371469
-2.319731	व द	-0.5109228
-2.048664	व ध	-0.7107084
-1.4915	व न	-0.386645
-2.026	व प	-1.021583
-2.682908	व ब	-0.6208193
-3.018701	व भ	-0.3133834
-2.381878	व म	-0.5176229
-2.474633	व य	-0.5512264
-1.150448	व र	-0.3855028
-1.717671	व ल	-0.6377726
-2.252784	व व	-0.5178578
-1.852369	व श	-0.6211136
-1.893762	व स	-0.5573114
-2.072576	व ह	-0.6929345
-0.6079233	व ा	-0.3806336
-0.7686873	व ि	-0.2111264
-1.241757	व ी	-0.4755364
-2.592732	व ु	-0.6284783
-3.018701	व ू	-0.7324241
-1.977308	व ृ	-0.4670316
-1.175676	व े	-0.2077836
-1.736154	व ै	-0.2988538
-2.040977	व ॉ	-0.5736741
-1.663313	व ो	-0.6811805
-1.472569	व ्	-1.042479
-1.12504	श </s>
-1.993056	श ं	-0.9906356
-2.978333	श ऊ	-0.5860719
-1.510971	श क	-0.7353047
-2.610356	श ख	-0.8739138
-2.677303	श ग	-0.5283861
-2.341511	श च	-0.8326574
-2.341511	श ज	-0.6395299
-2.978333	श ण	-0.3946121
-1.887252	श त	-0.5590763
-2.455454	श द	-0.7069472
-1.082542	श न	-0.777254
-2.040481	श प	-0.5263206
-2.341511	श ब	-0.5613012
-2.455454	श भ	-0.595588
-2.341511	श म	-0.7623503
-1.993056	श य	-0.642456
-1.414061	श र	-0.736528
-2.057514	श ल	-0.3531596
-1.812001	श व	-0.4607718
-2.251334	श श	-0.6413054
-2.610356	श स	-0.417497
-2.279363	श ह	-0.4226012
-2.1767	श ़	-0.6896189
-0.8711227	श ा	-0.5728881
-0.9151245	श ि	-0.5743015
-1.113031	श ी	-0.7220007
-1.592131	श ु	-0.7114003
-2.093726	श ू	-0.6001162
-2.455454	श ृ	-1.029443
-1.546969	श े	-0.5438483
-2.008296	श ै	-0.689756
-2.093726	श ॉ	-0.5731664
-1.491666	श ो	-0.3773958
-2.279363	श ौ	-0.587403
-0.7279127	श ्	-1.394624
-1.063941	ष </s>
-2.283301	ष ः	-0.20412
-1.515615	ष क	-0.9454306
-2.128399	ष ग	-0.6041703
-2.283301	ष ङ	-0.887926
-2.651278	ष ज	-0.3765408
-2.128399	ष ट	-0.6697604
-2.014456	ष ड	-0.7169995
-1.10721	ष ण	-0.725858
-1.748188	ष त	-0.7893566
-2.128399	ष द	-0.5387529
-2.350248	ष ध	-0.3744093
-2.350248	ष न	-0.7364465
-1.713426	ष प	-0.6191585
-2.651278	ष भ	-0.5969543
-1.785977	ष म	-0.5062326
-1.89795	ष य	-0.9097903
-2.174157	ष र	-0.2909941
-2.174157	ष ष	-0.8045815
-2.283301	ष स	-0.496282
-1.014456	ष ा	-0.6189068
-1.169358	ष ि	-0.8592456
-1.584331	ष ी	-0.6783187
-1.849646	ष ु	-0.6947271
-1.380211	ष े	-0.9813847
-2.128399	ष ै	-0.7376434
-1.572097	ष ो	-0.5077278
-0.4408703	ष ्	-1.525866
-0.8846906	स </s>
-2.981214	स ँ	-0.7197512
-1.221127	स ं	-1.162759
-2.573729	स आ	-0.8171692
-3.458336	स इ	-0.5899697
-3.157306	स ई	-0.6113501
-3.157306	स ऊ	-0.8291099
-2.263359	स ए	-0.5921214
-1.944231	स क	-0.171774
-3.157306	स ख	-0.4102826
-2.856276	स ग	-0.3762487
-2.705008	स घ	-0.8826744
-2.821513	स च	-0.4519843
-2.195094	स ज	-0.7395307
-2.219454	स ट	-0.7319142
-2.593034	स ड	-0.8845502
-3.458336	स ण	-0.3946121
-1.753613	स त	-0.585508
-3.458336	स थ	-0.4849366
-2.203063	स द	-0.3933231
-1.581348	स न	-0.7711315
-2.344392	स प	-0.4778995
-2.430307	स फ	-0.6477415
-2.236487	स ब	-0.4283663
-2.656703	स भ	-0.5475436
-1.308091	स म	-0.6439164
-2.856276	स य	-0.8243183
-1.591065	स र	-0.3426598
-1.931136	स ल	-0.2455053
-1.894064	स व	-0.4145089
-2.731337	स श	-0.6556404
-2.430307	स स	-0.6435535
-2.006038	स ह	-0.4802441
-2.573729	स ़	-1.28835
-1.009114	स ा	-0.4539855
-1.24261	स ि	-0.5736786
-1.226187	स ी	0.02868128
-1.285149	स ु	-0.5286891
-1.811605	स ू	-0.2383454
-3.458336	स ृ	-0.3108906
-1.413013	स े	-0.519557
-2.122544	स ै	-0.5386782
-2.537517	स ॉ	-0.7154933
-1.654423	स ो	-0.3044825
-2.187269	स ौ	-0.5873477
-0.666645	स ्	-1.074938
-1.36718	ह </s>
-2.122468	ह ँ	-1.11183
-2.333321	ह ं	-0.59288
-2.75929	ह उ	-0.8297188
-1.66821	ह क	-0.4325873
-2.282169	ह ग	-0.5057122
-2.236411	ह च	-0.9046023
-2.692343	ह छ	-0.8622848
-2.36135	ह ज	-0.4343822
-1.774013	ह ट	-0.8307388
-2.282169	ह ड	-0.6506699
-2.090283	ह ण	-0.9136318
-1.692343	ह त	-0.3937528
-2.333321	ह थ	-0.6421834
-2.36135	ह द	-0.4795477
-3.06032	ह ध	-0.5709799
-1.416867	ह न	-0.2345058
-2.537441	ह प	-0.5582308
-2.75929	ह फ	-0.4041716
-2.306992	ह ब	-0.9437625
-1.650951	ह म	-0.4013386
-2.423498	ह य	-0.4454583
-1.070574	ह र	-0.3015389
-1.546215	ह ल	-0.5385012
-1.781566	ह व	-0.6707352
-2.75929	ह श	-0.519518
-1.469255	ह स	-0.7341574
-2.75929	ह ़	-0.5791672
-0.735352	ह ा	-0.3199824
-1.008525	ह ि	-0.2877209
-1.215222	ह ी	-0.4734697
-1.349921	ह ु	-0.3484939
-1.674118	ह ू	-0.5961816
-2.45826	ह ृ	-0.7246691
-1.211105	ह े	-0.5808252
-1.476743	ह ै	-0.4737914
-2.018927	ह ॉ	-0.421677
-1.407107	ह ो	-0.2919681
-2.195019	ह ौ	-0.5878004
-1.55067	ह ्	-0.9928253
-0.7197731	़ </s>
-2.515653	़ ं	-0.7962483
-1.302578	़ क	-0.6790355
-1.992774	़ ग	-0.6318613
-2.063355	़ च	-1.195519
-2.816683	़ छ	-0.5180015
-2.816683	़ ज	-0.5390531
-2.816683	़ ड	-0.4453021
-1.218257	़ त	-0.9073394
-2.515653	़ द	-0.3928071
-1.396177	़ न	-0.6429489
-2.038532	़ प	-0.4308898
-1.971585	़ ब	-0.6122472
-2.816683	़ म	-0.3776934
-2.179861	़ य	-0.6939967
-1.603608	़ र	-0.510122
-2.339562	़ ल	-0.6867161
-1.971585	़ व	-0.4901096
-2.179861	़ स	-0.6756572
-1.992774	़ ह	-0.7356217
-0.732703	़ ा	-0.5116502
-1.190001	़ ि	-0.6065118
-1.008247	़ ी	-0.5981859
-2.339562	़ ु	-0.556429
-2.816683	़ ू	-0.5634878
-1.10068	़ े	-0.9419607
-2.448706	़ ै	-0.8635533
-1.157084	़ ो	-1.04166
-2.515653	़ ौ	-0.3701674
-1.714021	़ ्	-0.5722952
-0.6618215	ा </s>
-1.625177	ा ँ	-0.2409306
-1.567078	ा ं	0.03016424
-2.654648	ा ः	-0.9822713
-1.735681	ा इ	-0.4896271
-1.579334	ा ई	0.05360031
-2.344474	ा उ	-0.9083584
-2.548594	ा ऊ	-0.8023201
-1.733459	ा ए	-1.600725
-3.180617	ा ऐ	-1.045549
-1.801701	ा ओ	-1.174522
-3.548594	ा औ	-0.3114954
-1.657429	ा क	-0.5620304
-2.555893	ा ख	-0.5577866
-1.846738	ा ग	-0.467405
-2.965018	ा घ	-0.5481142
-3.849624	ा ङ	-0.493827
-2.159428	ा च	-0.9249809
-3.180617	ा छ	-0.8678991
-1.700405	ा ज	-0.1192205
-3.849624	ा झ	-0.4587496
-2.216156	ा ट	-0.251812
-2.548594	ा ठ	-0.5796927
-2.216156	ा ड	-0.4716682
-2.770443	ा ढ	-0.7403625
-2.144902	ा ण	-0.2475321
-1.393258	ा त	-0.3968148
-2.233324	ा थ	-0.1739489
-1.611578	ा द	-0.3195032
-2.093749	ा ध	-0.5417957
-1.097832	ा न	-0.3132728
-1.72144	ा प	-0.4202492
-2.746962	ा फ	-0.2645586
-2.032279	ा ब	-0.490374
-2.636549	ा भ	-0.484357
-1.489157	ा म	-0.3927575
-1.288523	ा य	-0.3585849
-0.9152941	ा र	-0.5631707
-1.339526	ा ल	-0.3416539
-1.441384	ा व	-0.163324
-1.994307	ा श	-0.514449
-2.305556	ा ष	-0.7887452
-1.477326	ा स	-0.5765032
-1.676438	ा ह	-0.5426481
-3.849624	ा ्	-0.6019806
-1.262714	ि </s>
-1.370443	ि ं	-0.2608392
-2.938645	ि ः	0.1139433
-3.540705	ि आ	-0.5850111
-2.246974	ि ए	-0.3109407
-3.239675	ि ओ	-0.5230528
-0.9463122	ि क	-0.7131898
-1.931466	ि ख	-0.6503077
-1.914022	ि ग	-0.5306522
-2.555428	ि घ	-0.9863044
-3.239675	ि ङ	-0.575731
-2.191751	ि च	-0.3051772
-2.415766	ि छ	-0.8438365
-1.588074	ि ज	-0.5237032
-1.750654	ि ट	-0.4238635
-2.540705	ि ठ	-0.8826501
-1.830305	ि ड	-0.5600672
-3.540705	ि ढ	-0.1413292
-2.345728	ि ण	-0.4060105
-1.11257	ि त	-0.472765
-2.499312	ि थ	-0.4216624
-1.671473	ि द	-0.832153
-1.972503	ि ध	-0.5730206
-1.251413	ि न	-0.2864087
-1.591315	ि प	-0.4404278
-2.211646	ि फ	-0.6013002
-2.218486	ि ब	-0.5966318
-2.185317	ि भ	-0.7044641
-1.616426	ि म	-0.4672383
-0.7497163	ि य	-0.87974
-1.288661	ि र	-0.3365144
-1.215052	ि ल	-0.4350196
-1.423434	ि व	-0.2156
-1.477497	ि श	-0.5606317
-1.748313	ि ष	-0.8331736
-1.307709	ि स	-0.459315
-2.0266	ि ह	-0.7567604
-0.2758327	ी </s>
-2.903198	ी ँ	-0.8098717
-1.753979	ी ं	-0.9438463
-3.125047	ी ः	-0.146128
-2.323415	ी आ	-0.9906994
-2.903198	ी इ	-0.7032596
-3.125047	ी ई	-0.2385208
-3.426077	ी उ	-0.5649356
-1.802828	ी ए	-0.7000912
-2.560776	ी ओ	-0.7244072
-1.440801	ी क	-0.6909683
-2.221957	ी ख	-0.5122874
-2.125047	ी ग	-0.4293713
-2.624445	ी घ	-0.9560346
-3.0581	ी ङ	-0.794857
-2.170805	ी च	-0.6272098
-1.693684	ी ज	-0.6609989
-3.426077	ी झ	-0.5942814
-1.782625	ी ट	-0.2595053
-2.757071	ी ठ	-0.4818442
-2.07069	ी ड	-0.4093273
-3.426077	ी ढ	0.06279081
-2.789255	ी ण	-0.6676134
-1.587228	ी त	-0.2984054
-3.426077	ी थ	-0.3299358
-1.760184	ी द	-0.7917162
-3.125047	ी ध	-0.3722056
-1.280985	ी न	-0.5862956
-1.691011	ी प	-0.5294905
-2.312134	ी फ	-0.6118199
-2.000108	ी ब	-0.5111139
-3.426077	ी भ	-0.3632836
-1.744836	ी म	-0.4786592
-1.226505	ी य	-0.6543658
-1.463866	ी र	-0.2417675
-1.670202	ी ल	-0.3723669
-1.655225	ी व	-0.5415728
-2.26973	ी श	-0.3449271
-2.789255	ी ष	-0.366277
-1.85012	ी स	-0.7260405
-2.727107	ी ह	-0.4144788
-1.193239	ु </s>
-2.197708	ु ँ	-0.3412189
-1.570201	ु ं	-0.8484606
-2.815008	ु ः	-0.20412
-2.116038	ु अ	-0.8211732
-2.058046	ु आ	-0.8987427
-2.815008	ु इ	-0.8876862
-2.429657	ु ई	-0.6901003
-1.978865	ु ए	-0.4963708
-2.705864	ु ऐ	-0.5745876
-2.154956	ु ओ	-0.811102
-1.174385	ु क	-0.3632048
-1.696318	ु ख	-0.6668321
-1.741028	ु ग	-0.5102047
-3.182985	ु घ	-0.5755756
-2.705864	ु ङ	-0.409701
-1.796783	ु च	-0.6042295
-1.638917	ु ज	-0.6627065
-2.705864	ु झ	-0.2929897
-1.546163	ु ट	-0.3640938
-2.546163	ु ठ	-0.5406628
-1.66888	ु ड	-0.7460821
-2.212948	ु ढ	-1.001667
-1.978865	ु ण	-0.3922673
-1.461449	ु त	-0.5711499
-2.705864	ु थ	-0.5781797
-1.372304	ु द	-0.5999671
-1.952536	ु ध	-0.6511458
-1.099005	ु न	-0.1447589
-1.455986	ु प	-0.5715229
-2.455986	ु फ	-0.7326561
-1.802774	ु ब	-0.5884327
-1.867715	ु भ	-0.5048326
-1.329692	ु म	-0.5208536
-2.455986	ु य	-0.6289209
-0.8552855	ु र	-0.552811
-1.06461	ु ल	-0.3986912
-1.552896	ु व	-0.3441794
-1.808848	ु श	-0.3429949
-1.741028	ु ष	-0.5788642
-1.374549	ु स	-0.6147614
-1.821257	ु ह	-0.6481752
-1.070653	ू </s>
-1.480828	ू ँ	-0.4881165
-1.593532	ू ं	-0.1868043
-2.848805	ू अ	-0.5695159
-2.848805	ू आ	-0.3808911
-2.848805	ू इ	-0.5726533
-2.121806	ू ई	-0.6888044
-1.894562	ू ए	-0.7197581
-2.547775	ू ओ	-0.1519327
-1.396507	ू क	-0.3323032
-2.047172	ू ख	-0.448696
-1.863528	ू ग	-0.7035737
-2.848805	ू ङ	-0.5596015
-1.769623	ू च	-0.6654471
-1.894562	ू छ	-0.6515929
-1.555074	ू ज	-0.4434096
-2.371683	ू झ	-0.3909978
-1.362138	ू ट	-0.1899807
-2.246745	ू ठ	-0.4869668
-1.794447	ू ड	-0.2087942
-1.863528	ू ढ	-0.7219142
-2.149835	ू ण	-0.4065835
-1.182911	ू त	-0.2733571
-2.047172	ू थ	-0.6180786
-1.794447	ू द	-0.4015816
-1.292502	ू न	-0.6021432
-1.63573	ू प	-0.7378959
-2.121806	ू फ	-0.4954894
-1.513013	ू ब	-0.6445818
-2.547775	ू भ	-0.8206288
-1.265228	ू म	-0.777061
-2.848805	ू य	-0.4765835
-0.6410806	ू र	-0.7663497
-1.284533	ू ल	-0.2092453
-2.547775	ू व	-0.5384858
-2.547775	ू श	-0.4391389
-1.863528	ू ष	-0.599413
-1.456694	ू स	-0.4288211
-2.848805	ू ्	-0.4990535
-2.203214	ृ </s>
-1.566392	ृ ं	-0.6750231
-2.203214	ृ ऋ	-0.4771213
-1.835238	ृ क	-0.5759715
-2.203214	ृ ज	-0.3912354
-1.425063	ृ ढ	-0.2653145
-0.3947782	ृ त	-1.179731
-1.902184	ृ थ	-0.5839438
-1.217937	ृ द	-0.7988859
-2.203214	ृ ध	-0.5728398
-2.203214	ृ न	-0.5667638
-1.680336	ृ प	-0.465428
-1.680336	ृ य	-0.956803
-1.476215	ृ श	-0.8588136
-0.7408162	ृ ष	-1.087119
-1.835238	ृ स	-0.8953627
-1.017578	ृ ह	-0.7794871
-2.203214	ृ ी	-0.5754834
-0.5092552	े </s>
-2.818885	े ँ	-0.5533898
-0.8167194	े ं	-0.8133125
-3.420945	े ः	0.09691
-2.693947	े अ	-0.7161345
-2.693947	े आ	-0.8565542
-3.119915	े इ	-0.4978663
-2.943824	े ई	-0.5066147
-2.555644	े ए	-0.5407265
-1.517855	े क	-0.4524573
-1.994977	े ख	-0.4790938
-1.500127	े ग	-0.9170269
-2.721975	े घ	-0.5371459
-2.667618	े ङ	-0.5634966
-2.254614	े च	-0.3265783
-1.67535	े ज	-0.6440458
-1.317142	े ट	-0.3330828
-2.784123	े ठ	-0.493778
-1.623909	े ड	-0.1647968
-2.898067	े ढ	-0.5806619
-2.619313	े ण	-0.5856437
-1.693947	े त	-0.3932631
-2.721975	े थ	-0.5147338
-1.736699	े द	-0.3369246
-2.619313	े ध	-0.4739367
-1.384849	े न	-0.3099915
-2.034744	े प	-0.6327139
-2.040734	े फ	-0.6377555
-1.929584	े ब	-0.6372529
-1.710546	े म	-0.7062767
-2.059217	े य	-0.5137399
-1.483093	े र	-0.3289025
-1.366588	े ल	-0.3574879
-1.610265	े व	-0.3304055
-1.294922	े श	-0.4371621
-2.011576	े ष	-0.3269936
-1.551714	े स	-0.7365948
-1.978989	े ह	-0.2763886
-3.420945	े ो	-0.3785636
-1.91234	ै </s>
-0.839233	ै ं	-0.4985052
-2.690491	ै ई	-0.5935256
-2.690491	ै उ	-0.5785248
-0.9857691	ै क	-0.8605968
-2.690491	ै ख	-0.5658901
-1.587829	ै ग	-0.685994
-2.690491	ै च	-0.1797606
-1.866583	ै ज	-0.6127264
-1.248535	ै ट	-0.4308503
-1.769673	ै ठ	-0.3135296
-1.504855	ै ड	-0.5080661
-1.720455	ै ण	-1.389797
-1.565553	ै त	-0.5138112
-1.91234	ै थ	-0.2509662
-1.752639	ै द	-0.3759619
-2.088431	ै ध	-0.4383942
-1.034074	ै न	-0.09405959
-1.752639	ै प	-0.9587017
-1.963493	ै फ	-0.4096455
-2.389462	ै ब	-0.3909918
-1.382283	ै म	-0.4676007
-1.375221	ै य	-0.8012979
-1.060403	ै र	-0.3087506
-1.050341	ै ल	-0.3104089
-1.587829	ै व	-0.4385925
-1.888859	ै श	-0.581135
-2.167613	ै ष	-0.6233672
-1.286799	ै स	-0.4992781
-1.201451	ॉ </s>
-2.4319	ॉ ँ	-0.5994826
-1.607991	ॉ ं	-1.042711
-1.82984	ॉ इ	-0.3289154
-2.13087	ॉ उ	-0.8362346
-2.4319	ॉ ऊ	-0.5941395
-1.390507	ॉ क	-0.5666605
-1.704901	ॉ ग	-0.8770793
-1.954778	ॉ च	-0.5722278
-1.461863	ॉ ज	-0.723814
-1.22778	ॉ ट	-0.6612775
-1.329237	ॉ ड	-0.4137028
-2.4319	ॉ थ	-0.5943883
-1.909021	ॉ द	-0.748431
-2.4319	ॉ ध	-0.5669672
-1.03396	ॉ न	-0.6644492
-1.329237	ॉ प	-0.8776016
-1.547293	ॉ फ	-0.8225907
-1.566598	ॉ ब	-0.7677193
-2.4319	ॉ भ	-0.5832593
-1.403871	ॉ म	-0.4176317
-1.329237	ॉ य	-0.5974962
-1.03396	ॉ र	-0.6323399
-0.7884469	ॉ ल	-0.4414889
-1.795077	ॉ व	-0.6461503
-2.13087	ॉ श	-0.50701
-1.265568	ॉ स	-0.5987433
-0.9972258	ो </s>
-2.882461	ो ँ	-0.768479
-0.3954801	ो ं	-1.474965
-2.882461	ो अ	-0.7032407
-3.359583	ो आ	-0.5906357
-2.882461	ो इ	-0.473899
-2.40534	ो ई	-0.7196
-3.058553	ो उ	-0.5866807
-2.421731	ो ए	-0.5570401
-1.576632	ो क	-0.325819
-2.173946	ो ख	-0.591289
-1.567191	ो ग	-0.5237281
-3.359583	ो घ	-0.5885925
-2.245639	ो ङ	-0.384975
-1.887314	ो च	-0.6200635
-3.359583	ो छ	-0.5180015
-1.522837	ो ज	-0.3894562
-1.795311	ो ट	-0.294379
-2.991606	ो ठ	-0.8943689
-1.474976	ो ड	-0.430565
-3.359583	ो ढ	-0.1413292
-3.058553	ो ण	-0.328268
-1.55795	ो त	-0.5349771
-2.757523	ो थ	-0.4376395
-1.887314	ो द	-0.3921276
-1.877662	ो ध	-0.8013539
-1.542238	ो न	-0.4130297
-1.564862	ो प	-0.6269164
-2.389546	ो फ	-0.665172
-2.080829	ो ब	-0.5195122
-2.836704	ो भ	-0.4826899
-1.887314	ो म	-0.3040109
-2.245639	ो य	-0.578177
-1.30141	ो र	-0.6398818
-1.456493	ो ल	-0.3687388
-1.973381	ो व	-0.5685682
-1.823867	ो श	-0.4371026
-1.991606	ो ष	-0.2397523
-1.608817	ो स	-0.6269788
-1.567191	ो ह	-0.5574735
-1.752048	ौ </s>
-0.9121516	ौ ं	-0.6583592
-1.13226	ौ क	-0.3889619
-2.053078	ौ ग	-0.5101527
-2.053078	ौ ङ	-0.4992557
-2.354108	ौ च	-0.2770589
-2.354108	ौ छ	-0.5180015
-1.451018	ौ ज	-0.4720619
-1.655138	ौ ट	-0.3285959
-0.9987208	ौ ड	-0.8791078
-2.053078	ौ ढ	-0.3843672
-2.354108	ौ ण	-0.5294591
-1.083042	ौ त	-0.2182367
-2.354108	ौ थ	-0.1259146
-1.32608	ौ द	-0.8955081
-1.552476	ौ ध	-0.5226406
-1.876987	ौ न	-0.3685498
-1.655138	ौ प	-0.6064326
-1.83123	ौ फ	-0.7404547
-2.354108	ौ ब	-0.5749044
-2.053078	ौ भ	-0.4308582
-1.368832	ौ म	-0.7039862
-1.005155	ौ र	-0.6453403
-1.083042	ौ ल	-0.3156537
-1.655138	ौ व	-0.2638461
-1.575957	ौ श	-0.7114496
-2.354108	ौ ष	-0.2025216
-1.575957	ौ स	-0.5227275
-1.876987	ौ ह	-0.3758426
-2.021984	् </s>
-3.737987	् ं	-0.592337
-1.529367	् क	-0.4432374
-2.635325	् ख	-0.5546545
-2.306623	् ग	-0.4305162
-3.260866	् घ	-0.3791048
-3.436957	् ङ	-0.4855544
-2.044847	् च	-0.6240542
-2.357776	् छ	-0.6775204
-1.825943	् ज	-0.4681278
-3.737987	् झ	-0.5903392
-2.169785	् ञ	0
-1.188575	् ट	0.0008399487
-2.16589	् ठ	-0.5507184
-1.537502	् ड	-0.3352928
-3.135927	् ढ	-0.6417309
-1.778946	् ण	-0.893382
-1.033837	् त	-0.01715302
-1.625159	् थ	-0.3666358
-1.421318	् द	-0.3929852
-1.742352	् ध	0.04077327
-1.571656	् न	-0.2949183
-1.510101	् प	-0.5372595
-2.328618	् फ	-0.3686992
-1.878649	् ब	-0.4457816
-2.36385	् भ	-0.3831796
-1.379418	् म	-0.5412747
-0.9965731	् य	-0.2386041
-0.6754053	् र	-0.03287292
-1.470034	् ल	-0.447961
-1.154033	् व	-0.01954567
-2.101165	् श	-0.3986902
-1.542088	् ष	-0.2869579
-1.37563	् स	-0.7777891
-2.065889	् ह	-0.5859435

\3-grams:
-0.69897	अ ँ ग	-0.5789947
-0.39794	अ ँ ध	-0.7403626
-0.69897	अ ँ न	0
-1.30103	आ ँ </s>
-0.4771213	आ ँ क	-0.692721
-1.30103	आ ँ ख	0
-0.9330532	आ ँ च	-0.5904217
-0.9330532	आ ँ त	-0.3802113
-1	आ ँ ध	-0.5351132
-1	आ ँ स	-0.5540522
-0.8016323	उ ँ ग	-0.5789947
-0.5006024	उ ँ च	-0.7625631
-0.4336556	उ ँ ड	-0.7727562
-0.4191293	ऊ ँ </s>
-0.544068	ऊ ँ ग	-0.5095732
-0.7781513	ऊ ँ च	-0.4600879
-1.146128	ऊ ँ ट	-0.5329791
-0.07441995	ए ँ </s>
-0.9576757	ए ँ ग	-1.046132
-1.626683	ए ँ ड	-0.4929155
-0.02632894	ओ ँ </s>
-0.5642715	ग ँ ध	-0.5351132
-0.2632414	ग ँ व	-0.6594614
-0.1249387	ढ ँ क	-0.5781479
-0.4259687	प ँ ड	-0.5509075
-0.4259687	प ँ ह	-0.4771213
-0.04139268	फ ँ स	-0.5918408
-0.8653014	ब ँ ग	-0.506085
-0.1119738	ब ँ ट	-0.6446123
-0.06694679	म ँ ह	-0.30103
-0.2632414	स ँ भ	0
-0.5642715	स ँ व	-0.4164234
-0.03218468	ह ँ स	-0.470677
-0.3528034	ा ँ </s>
-1.875061	ा ँ ओ	0
-1.358431	ा ँ क	-0.4545726
-1.066947	ा ँ ग	-0.4642981
-2.243038	ा ँ घ	-0.20412
-1.441406	ा ँ च	-0.3351492
-1.942008	ा ँ ज	-0.5118833
-2.243038	ा ँ झ	0
-1.215009	ा ँ ट	-0.2088838
-2.243038	ा ँ ठ	0.243038
-1.765917	ा ँ ड	-0.2566108
-2.243038	ा ँ द	-0.146128
-1.441406	ा ँ ध	-0.1426675
-1.516039	ा ँ प	0
-2.243038	ा ँ फ	0
-1.942008	ा ँ ब	0
-1.765917	ा ँ य	0
-2.243038	ा ँ र	0
-1.875061	ा ँ ल	0
-1.322219	ा ँ व	-0.4376127
-1.257761	ा ँ स	-0.2959505
-0.04139268	ी ँ </s>
-1.09108	ु ँ </s>
-1.09108	ु ँ ए	0
-1.09108	ु ँ च	-0.1290947
-0.5682017	ु ँ ज	-0.6154239
-1.09108	ु ँ म	0
-0.7231037	ु ँ व	-0.7174534
-0.69897	ू ँ </s>
-1.425969	ू ँ आ	0
-0.4881167	ू ँ ग	-0.6283889
-0.9488475	ू ँ ज	-0.3684613
-1.057992	ू ँ ट	-0.8340091
-1.124939	ू ँ ढ	0
-1.425969	ू ँ द	-0.4471581
-0.3679768	े ँ </s>
-0.3679768	े ँ स	-0.4936363
-0.1249387	ॉ ँ ठ	0.243038
-0.04575749	ो ँ </s>
-1.457377	अ ं क	-0.5868644
-0.6122792	अ ं ग	-0.5809169
-1.281286	अ ं ज	-0.9738035
-1.457377	अ ं ट	-0.7991843
-1.457377	अ ं ड	-0.4032256
-0.7584072	अ ं त	-0.6821501
-1.031408	अ ं द	-0.8660266
-1.281286	अ ं ध	-0.4515875
-1.758407	अ ं न	-0.4754541
-1.156347	अ ं ब	-0.5133334
-1.39043	अ ं र	-0.7991939
-1.457377	अ ं श	-0.3649397
-1.758407	अ ं स	-0.5825816
-1.758407	अ ं ह	-0.579396
-0.7269987	आ ं क	-0.3736285
-1.028029	आ ं ग	-0.5783222
-0.5509075	आ ं त	-0.7217738
-0.6600519	आ ं व	-0.8536046
-1.333879	इ ं क	-0.4629269
-0.7810369	इ ं ग	-0.5398232
-1.701856	इ ं ज	-0.3242323
-0.9002234	इ ं ट	-0.9511866
-0.673827	इ ं ड	-0.8230215
-1.333879	इ ं त	-0.8945141
-1.400826	इ ं द	-0.2556272
-1.701856	इ ं ध	-0.5417641
-1.333879	इ ं फ	-0.5228788
-0.6876153	इ ं स	-0.6716113
-0.2180558	ई ं </s>
-1.102662	ई ं ट	-0.3520263
-1.102662	ई ं म	-0.52039
-1.102662	ई ं य	-0.453407
-0.3273589	उ ं ट	-0.3093821
-0.3273589	उ ं ड	-0.7722019
-0.60206	ऊ ं </s>
-0.60206	ऊ ं ग	-0.5608983
-0.60206	ऊ ं च	-0.4450134
-0.1505112	ए ं </s>
-1.901277	ए ं क	-0.5670905
-0.9312398	ए ं ग	-0.8736216
-1.424155	ए ं ज	-0.6790287
-1.264455	ए ं ट	-0.6078193
-1.901277	ए ं ड	-0.3555614
-1.5333	ए ं स	-0.613341
-0.161368	ऐ ं </s>
-0.6173	ऐ ं न	-0.8666607
-0.007108088	ओ ं </s>
-2.01143	ओ ं ग	-0.5298452
-0.1249387	औ ं </s>
-1.531479	क ं क	-0.5616617
-1.531479	क ं ग	-0.5931918
-1.163502	क ं घ	-0.8164529
-1.531479	क ं च	-0.5742309
-1.054358	क ं ज	-0.4425944
-1.230449	क ं ड	-0.4454665
-0.8946568	क ं द	-0.544068
-1.531479	क ं ध	-0.3794566
-0.7298466	क ं प	-0.8607031
-1.0086	क ं ब	-0.7260535
-1.531479	क ं भ	-0.3659708
-1.531479	क ं म	-0.52039
-1.531479	क ं र	-0.4614411
-1.531479	क ं स	-0.5865479
-0.1526102	ख ं ड	-0.6037799
-0.6532125	ख ं भ	-0.5578563
-1.135663	ग ं </s>
-0.4086639	ग ं ग	-0.6140216
-1.135663	ग ं त	-0.5947196
-0.8346326	ग ं ध	-0.5554079
-1.135663	ग ं भ	-0.5578563
-1.135663	ग ं व	-0.4881167
-0.06694679	घ ं ट	-0.3262828
-0.7781513	च ं ग	-0.8619283
-1.146128	च ं ड	-0.3555614
-0.3222193	च ं द	-0.4663441
-1.146128	च ं न	-0.4754541
-1.146128	च ं प	-0.5415387
-0.03218468	छ ं द	-0.5787365
-1.054358	ज ं </s>
-0.6863809	ज ं क	-0.5932606
-0.7533277	ज ं त	-0.3703963
-1.054358	ज ं न	-0.4754541
-1.054358	ज ं प	-0.5121549
-1.054358	ज ं ल	-0.5440681
-0.03218468	झ ं ड	-0.6327885
-0.1249387	ट ं क	-0.5616617
-0.03218468	ठ ं ड	-0.3992043
-0.9378521	ड ं </s>
-0.6368221	ड ं क	-0.5017143
-0.6368221	ड ं ड	-0.5575044
-0.9378521	ड ं ब	-0.5905802
-0.9378521	ड ं स	-0.4929155
-0.2218488	ढ ं न	-0.5868201
-0.1371732	ण ं </s>
-1.20412	ण ं ख	-0.5808707
-1.20412	ण ं त	-0.5423316
-1.20412	ण ं न	-0.4754541
-1.420506	त ं </s>
-1.420506	त ं क	-0.2410781
-1.420506	त ं ग	-0.395159
-1.420506	त ं ज	-0.5207551
-1.420506	त ं ड	-0.4545511
-0.450469	त ं त	-1.286913
-0.6935071	त ं द	-0.7809218
-1.420506	त ं भ	-0.2794903
-1.052529	त ं र	-0.7624711
-0.4259687	थ ं </s>
-0.4259687	थ ं क	-0.5616617
-0.845098	द ं ग	-1.006284
-0.4648868	द ं ड	-0.4750152
-1.367977	द ं त	-0.3868824
-1.367977	द ं न	-0.4754541
-0.845098	द ं प	-0.9808713
-1.367977	द ं भ	-0.5805203
-1.367977	द ं र	-0.4614411
-1.066947	द ं श	-0.7306247
-0.455932	ध ं ज	-0.8813707
-0.8239087	ध ं ध	-0.5417641
-0.455932	ध ं न	-0.7764841
-0.09108047	न ं द	-0.6450945
-1.09108	न ं ब	-0.5905802
-1.178977	प ं क	-0.9814408
-1.400826	प ं ख	-0.3544743
-1.333879	प ं ग	-0.7408664
-0.7987657	प ं च	-0.4345689
-0.716579	प ं ज	-0.5250764
-1.178977	प ं ड	-0.5698752
-1.333879	प ं ण	-0.2445487
-1.701856	प ं त	-0.5423316
-1.701856	प ं थ	-0.3686506
-1.178977	प ं द	-0.7027851
-1.333879	प ं प	-0.8131849
-1.701856	प ं म	-0.5631419
-1.701856	प ं र	-0.542746
-1.178977	प ं स	-1.024562
-1.701856	प ं ह	-0.5554839
-0.60206	फ ं ग	-0.599279
-0.60206	फ ं ड	-0.5553166
-0.60206	फ ं स	-0.5551723
-1.018597	ब ं ग	-0.4724763
-1.377618	ब ं ज	-0.8217851
-1.444565	ब ं ट	-0.5654198
-0.569504	ब ं द	-0.6572151
-0.3196265	ब ं ध	-0.3041465
-1.745595	ब ं ब	-0.2767614
-1.745595	ब ं स	-0.5621885
-0.69897	भ ं क	-0.5616617
-0.69897	भ ं ग	-0.3567783
-0.39794	भ ं ड	-0.7983546
-1.82823	म ं क	-0.5421082
-1.050079	म ं ग	-0.6022908
-1.5272	म ं च	-0.3264771
-1.101231	म ं ज	-0.7378517
-0.6521388	म ं ड	-0.4305867
-1.351109	म ं ण	-0.3414587
-0.5344993	म ं त	-0.8420547
-1.050079	म ं द	-0.5206376
-1.82823	म ं श	-0.5333442
-1.305351	म ं स	-0.6640809
-1.82823	म ं ह	-0.5554839
-1.028029	य ं </s>
-1.329059	य ं क	-0.3629704
-1.329059	य ं ग	-0.3965518
-1.028029	य ं ट	-0.6316013
-0.3912066	य ं त	-0.6995761
-0.8519375	य ं स	-0.6060103
-1.329059	य ं ह	-0.579396
-1.821732	र ं क	-0.5907135
-1.298853	र ं ख	-0.90481
-0.2776638	र ं ग	-0.3757122
-1.821732	र ं च	-0.5742309
-1.453755	र ं ज	-0.4466533
-1.821732	र ं ट	-0.3520263
-1.821732	र ं ण	-0.5690597
-1.821732	र ं त	-0.2734862
-0.8217318	र ं थ	-0.266661
-1.344611	र ं प	-0.6716468
-1.821732	र ं ब	-0.5541994
-1.821732	र ं भ	-0.2568263
-1.821732	र ं श	-0.4875867
-0.9777236	ल ं क	-0.3860822
-1.278754	ल ं ग	-0.5608983
-1.278754	ल ं ट	-0.3885633
-0.7558749	ल ं द	-0.4261683
-0.9107768	ल ं ध	-0.8887826
-0.5517549	ल ं ब	-0.4490422
-1.278754	ल ं स	-0.508943
-1.425969	व ं ग	-0.5913015
-1.425969	व ं च	-0.3701109
-1.124939	व ं ड	-0.8207955
-0.9488475	व ं त	-0.5238481
-0.69897	व ं द	-0.4925961
-1.425969	व ं ध	-0.5371192
-1.425969	व ं न	-0.4754541
-0.6243364	व ं श	-0.3372157
-1.057992	व ं स	-0.544068
-0.20412	श ं क	-0.7327162
-1.028029	श ं भ	-0.5805203
-0.7269987	श ं स	-0.408478
-0.9689658	स ं क	-0.7172461
-1.370666	स ं ख	-0.8290484
-0.8872957	स ं ग	-0.6157598
-1.008118	स ं घ	-0.451287
-2.255272	स ं छ	-0.4259688
-1.45364	स ं ज	-0.5338402
-1.079181	स ं त	-0.7039155
-1.334454	स ं द	-0.4410068
-1.778151	स ं ध	-0.400146
-2.255272	स ं न	-0.4754541
-1.45364	स ं प	-0.306045
-1.528274	स ं ब	-0.5581867
-1.255273	स ं भ	-0.8741262
-1.732394	स ं म	-0.7760782
-1.30103	स ं य	-0.4297288
-1.61845	स ं र	-0.4351121
-2.255272	स ं ल	-0.3399481
-1.227244	स ं व	-0.4876823
-1.778151	स ं श	-0.4042494
-1.088941	स ं स	-0.9030902
-1.887296	स ं ह	-0.515829
-0.8239087	ह ं क	-0.5670905
-0.455932	ह ं ग	-0.5809977
-0.8239087	ह ं ट	-0.1844433
-0.8239087	ह ं स	-0.2235597
-0.06694679	़ ं ग	-0.3631317
-0.9824148	ा ं </s>
-2.304634	ा ं इ	0
-2.003604	ा ं उ	0
-2.304634	ा ं ए	0
-1.025881	ा ं क	-0.3353131
-2.003604	ा ं ख	-0.6585413
-0.8472569	ा ं ग	-0.3285197
-2.304634	ा ं घ	-0.4981639
-1.480725	ा ं च	-0.4352291
-2.304634	ा ं छ	-0.2218488
-2.304634	ा ं झ	-0.39794
-1.459536	ा ं ट	-0.3366346
-1.827513	ा ं ठ	-0.243038
-1.350392	ा ं ड	-0.2542181
-1.827513	ा ं ण	0.09426999
-0.9009418	ा ं त	-0.3423676
-2.304634	ा ं थ	-0.4578161
-1.480725	ा ं द	-0.668398
-1.118998	ा ं ध	-0.4478141
-1.702574	ा ं न	-0.2307424
-2.003604	ा ं प	-0.4415738
-1.827513	ा ं ब	-0.5488966
-2.003604	ा ं म	-0.4197198
-1.551306	ा ं य	-0.8290706
-2.304634	ा ं ल	-0.5440681
-2.304634	ा ं व	-0.1290947
-1.635627	ा ं श	-0.7135521
-1.168972	ा ं स	-0.1838293
-1.709458	ि ं </s>
-1.384947	ि ं क	-0.7680801
-0.3252444	ि ं ग	-0.7846813
-1.517573	ि ं घ	-0.8330522
-2.18658	ि ं च	-0.5444958
-2.18658	ि ं ज	-0.5803407
-1.709458	ि ं ट	-0.2037684
-1.58452	ि ं ड	-0.3102862
-1.265761	ि ं त	-0.5743008
-0.8643604	ि ं द	-0.3495727
-1.88555	ि ं ध	-0.4304692
-1.88555	ि ं प	-0.8120977
-2.18658	ि ं ब	-0.5905802
-1.549758	ि ं य	-0.5413622
-1.301973	ि ं स	-0.3115886
-1.408428	ि ं ह	-0.1706594
-0.2752227	ी ं </s>
-0.7201593	ी ं ग	-1.00368
-0.9120448	ी ं च	-0.4050694
-0.9368684	ी ं द	-0.8895077
-1.656418	ु ं क	-0.5421082
-1.179296	ु ं ग	-0.6191044
-0.5537553	ु ं च	-0.4673614
-0.9574476	ु ं ज	-0.5967311
-1.656418	ु ं झ	-0.39794
-0.7185656	ु ं ड	-0.5171689
-1.656418	ु ं थ	-0.4578161
-1.355388	ु ं द	-0.4451003
-1.656418	ु ं ध	-0.3918658
-1.288441	ु ं न	-0.7764841
-1.133539	ु ं ब	-0.7386427
-1.342423	ू ं </s>
-1.342423	ू ं आ	0
-0.7403627	ू ं ग	-0.4755785
-1.342423	ू ं घ	-0.5879735
-0.8653014	ू ं ज	-0.5747368
-0.8653014	ू ं ढ	0
-0.8653014	ू ं द	-0.3197793
-1.342423	ू ं ध	-0.5620725
-1.342423	ू ं स	-0.5551723
-0.3590219	ृ ं ख	-0.7665073
-0.4259687	ृ ं ग	-0.3786684
-0.2588323	े ं </s>
-2.611015	े ं अ	0
-1.582986	े ं क	-0.4521757
-1.083815	े ं ग	-1.131359
-1.531834	े ं ज	-0.5843312
-0.8922364	े ं ट	-0.3399883
-1.434924	े ं ड	-0.2522943
-2.243038	े ं ण	-0.2445487
-2.309985	े ं त	-0.3337342
-1.884016	े ं द	-0.4825279
-2.611015	े ं न	-0.3096791
-2.611015	े ं फ	-0.4771213
-2.611015	े ं ब	-0.3458424
-2.309985	े ं र	-0.4740301
-2.611015	े ं व	-0.5815384
-2.133893	े ं श	-0.4042494
-1.09691	े ं स	-0.8160763
-2.611015	े ं ह	-0.278366
-1.577875	ै ं </s>
-0.7878242	ै ं क	-0.3360984
-0.8936279	ै ं ग	-0.507741
-1.878905	ै ं ज	-0.5258346
-1.242082	ै ं ट	-0.6810851
-1.878905	ै ं ठ	-0.5118834
-0.4695351	ै ं ड	-0.7964705
-1.878905	ै ं ण	0.0564813
-1.510928	ै ं न	-0.8148291
-1.151906	ै ं प	-0.5958366
-1.356026	ै ं ब	-0.5866851
-1.577875	ै ं म	-0.5797836
-1.878905	ै ं स	-0.2815516
-0.0211893	ॉ ं </s>
-0.02148665	ो ं </s>
-2.164666	ो ं क	-0.6182429
-1.911941	ो ं ग	-0.1926356
-2.966298	ो ं घ	-0.5879735
-2.598321	ो ं च	-0.8816011
-2.966298	ो ं ज	-0.5690597
-2.665268	ो ं ट	-0.5402363
-2.665268	ो ं ड	-0.5016894
-2.489177	ो ं द	-0.4552927
-2.489177	ो ं न	-0.6333523
-2.489177	ो ं ल	-0.5362427
-2.489177	ो ं स	-0.4642332
-2.665268	ो ं ह	-0.3626869
-1.20412	ौ ं क	-0.5533891
-1.50515	ौ ं ग	-0.5964801
-1.50515	ौ ं च	-0.5710258
-1.50515	ौ ं ट	-0.5877727
-0.8683279	ौ ं ड	-0.660375
-1.028029	ौ ं द	-0.4742733
-0.7035176	ौ ं ध	-0.7349675
-1.50515	ौ ं न	-0.4754541
-0.90309	ौ ं प	-0.2611178
-1.20412	ौ ं व	-0.4350599
-1.50515	ौ ं स	-0.3824278
-1.50515	ौ ं ह	-0.4646765
-0.1249387	् ं ज	-0.5803407
-0.1249387	ई ः </s>
-0.1249387	क ः </s>
-0.1249387	ज ः </s>
-0.05799195	ट ः </s>
-0.1413292	त ः </s>
-0.7781513	त ः च	0
-0.3089989	न ः </s>
-1.263241	न ः ज	0
-1.263241	न ः प	0
-0.6264194	न ः व	0
-1.263241	न ः स	-0.2596374
-0.1249387	भ ः </s>
-0.06694679	य ः </s>
-0.06694679	र ः </s>
-0.1249387	ल ः </s>
-0.06694679	व ः </s>
-0.05799195	ष ः </s>
-0.00914338	ा ः </s>
-0.39794	ि ः </s>
-0.39794	ि ः स	0.1383027
-0.06694679	ी ः </s>
-0.05799195	ु ः </s>
-0.1249387	े ः </s>
-2.421369	<s> अ </s>
-2.187286	<s> अ ँ	0
-1.093281	<s> अ ं	0.02334094
-1.761317	<s> अ क	0
-2.090376	<s> अ ख	0
-1.775105	<s> अ ग	0
-1.734988	<s> अ च	0
-1.835103	<s> अ छ	0
-1.510592	<s> अ ज	0
-2.488316	<s> अ ट	0
-2.312224	<s> अ ड	0.09691006
-2.488316	<s> अ ण	0
-1.415209	<s> अ त	0.0157944
-2.062347	<s> अ थ	-0.2218488
-1.987713	<s> अ द	0
-1.317077	<s> अ ध	0
-0.7807454	<s> अ न	-0.05751407
-1.084623	<s> अ प	-0.03022403
-1.904739	<s> अ फ	0
-1.686683	<s> अ ब	0.02687216
-1.139362	<s> अ भ	0.009143233
-1.326948	<s> अ म	0.01322818
-1.965437	<s> अ य	-0.2983409
-1.241161	<s> अ र	-0.540173
-1.352653	<s> अ ल	-0.2043188
-1.385653	<s> अ व	0
-1.632998	<s> अ श	0
-2.312224	<s> अ ष	0
-1.111131	<s> अ स	0.008272409
-2.011194	<s> अ ह	0
-0.1249387	ं अ ं	-0.5787192
-0.1249387	ई अ ड	-0.3802113
-0.8016323	ए अ प	-0.4871767
-0.8016323	ए अ य	-0.5509075
-0.2787536	ए अ र	-0.7068973
-0.1249387	क अ प	-0.5949597
-0.2218488	ज अ भ	0.05115247
-0.1249387	द अ म	-0.5314789
-0.2632414	र अ ं	-0.5596561
-0.5642715	र अ स	-0.5853543
-0.1249387	ल अ प	-0.4871767
-1.113943	ु अ त	-0.4101745
-0.4771213	ु अ न	-0.5816342
-0.6368221	ु अ र	-0.2653143
-0.5910646	ु अ ल	-0.997927
-0.1249387	ू अ र	-0.3696064
-0.5006024	े अ प	-0.7302147
-0.8016323	े अ ब	-0.3944517
-0.4336556	े अ र	-0.8547853
-0.5642715	ो अ थ	-0.5440681
-0.2632414	ो अ र	-0.2835392
-1.276415	<s> आ ँ	-0.1663314
-1.568671	<s> आ ं	-0.05315852
-1.475249	<s> आ इ	0.0321846
-1.127762	<s> आ ई	-0.3592361
-2.18846	<s> आ उ	0
-2.18846	<s> आ ए	0
-2.48949	<s> आ ओ	0
-1.259041	<s> आ क	0
-2.18846	<s> आ ख	0
-1.88743	<s> आ ग	-0.2111438
-1.604883	<s> आ च	0
-1.435132	<s> आ ज	-0.1083394
-2.18846	<s> आ ड	0
-1.234217	<s> आ त	-0.226784
-1.410308	<s> आ द	-0.09691
-1.435132	<s> आ ध	0
-1.364551	<s> आ न	0
-1.386827	<s> आ प	-0.1006188
-2.18846	<s> आ ब	0
-2.18846	<s> आ भ	0
-1.604883	<s> आ म	-0.1472151
-1.568671	<s> आ य	0
-0.917393	<s> आ र	-0.6352847
-1.218423	<s> आ ल	0
-1.353827	<s> आ व	0
-1.386827	<s> आ श	0
-2.121513	<s> आ ष	0
-1.410308	<s> आ स	0
-1.665581	<s> आ ह	0
-0.1249387	ँ आ ज	-0.5720968
-0.1249387	ं आ </s>
-0.1249387	ए आ ई	-0.5785789
-0.1249387	ओ आ ई	-0.3863581
-0.06694679	च आ र	-0.5463598
-0.4259687	न आ ई	-0.508943
-0.4259687	न आ र	-0.5486397
-0.5642715	फ आ ई	-0.5228788
-0.2632414	फ आ र	-0.5252848
-0.1249387	भ आ ग	-0.5413622
-0.9208187	म आ ई	-0.3187588
-0.09691001	म आ र	-0.6611813
-0.4259687	र आ ई	-0.4482452
-0.4259687	र आ त	-0.5808707
-0.9378521	स आ इ	-0.5351132
-0.9378521	स आ प	-0.5767542
-0.1845244	स आ र	-0.7147642
-0.1249387	ि आ </s>
-0.4086639	ी आ ई	-0.5300573
-1.135663	ी आ ग	-0.5413622
-0.3340303	ी आ र	-0.5106443
-0.1217336	ु आ </s>
-1.176091	ु आ ँ	-0.5797836
-1.176091	ु आ द	-0.5740313
-0.2218488	ू आ </s>
-0.7781513	े आ म	-0.5274264
-0.1413292	े आ र	-0.8416376
-0.1249387	ो आ म	-0.5274264
-2.176091	<s> इ </s>
-0.5925147	<s> इ ं	0.07860637
-2.176091	<s> इ इ	0
-2.176091	<s> इ ए	-0.39794
-1.31079	<s> इ क	-0.2678616
-2.176091	<s> इ ग	0
-1.574031	<s> इ च	0
-0.9289367	<s> इ ज	-0.3654879
-1.574031	<s> इ ट	-0.5428958
-1.808115	<s> इ ड	-0.8566326
-2.176091	<s> इ त	0
-2.176091	<s> इ ध	0
-0.7289332	<s> इ न	-0.568537
-2.176091	<s> इ फ	0
-2.176091	<s> इ ब	-0.4637573
-1.352183	<s> इ म	-0.09221482
-1.69897	<s> इ र	-0.4913617
-1.330993	<s> इ ल	-0.4496225
-1.875061	<s> इ श	-0.30103
-2.176091	<s> इ ष	0
-1.051152	<s> इ स	-0.3640818
-0.1249387	ं इ ट	-0.5010334
-0.845098	आ इ ं	-0.7453023
-1.146128	आ इ क	-0.5824645
-0.845098	आ इ ड	-0.5625514
-1.146128	आ इ न	-0.5869087
-1.146128	आ इ र	-0.5682018
-0.7781513	आ इ ल	-0.8361432
-1.146128	आ इ व	-0.5118834
-1.146128	आ इ स	-0.3813407
-0.1249387	इ इ ज	-0.5830368
-0.1249387	थ इ स	-0.5854608
-0.1249387	न इ प	-0.5563025
-0.1249387	फ इ क	-0.5177391
-0.1249387	र इ ट	-0.5452371
-0.1249387	स इ म	-0.2867896
-1.61066	ा इ ं	-0.5370263
-2.133539	ा इ ए	-0.39794
-1.10551	ा इ क	-0.4227637
-2.133539	ा इ ग	0.20412
-0.7130331	ा इ ट	-0.3193672
-0.9479023	ा इ ड	-0.5590909
-0.7911162	ा इ न	-0.3212333
-1.288441	ा इ प	-0.1931247
-1.40654	ा इ ब	0.06366903
-2.133539	ा इ म	-0.07389565
-1.656418	ा इ य	0
-1.464532	ा इ र	-0.7160034
-0.9204641	ा इ ल	0.01455885
-1.61066	ा इ व	-0.3521825
-2.133539	ा इ श	-0.4771213
-1.331907	ा इ स	-0.3096302
-1.765562	ा इ ह	0
-0.2340832	ी इ </s>
-0.60206	ी इ ं	-0.5234536
-0.05799195	ु इ र	-0.819544
-0.1249387	ू इ ज	-0.359022
-0.4259687	े इ ं	-0.5234536
-0.4259687	े इ ज	-0.5830368
-0.7533277	ॉ इ ं	-0.543657
-0.7533277	ॉ इ ड	-0.307279
-0.7533277	ॉ इ ल	-0.4423592
-0.7533277	ॉ इ स	-0.5682018
-0.60206	ो इ घ	0
-0.60206	ो इ न	-0.5263393
-0.60206	ो इ ल	-0.4423592
-1.18089	<s> ई ं	-0.4024876
-1.48192	<s> ई क	-0.3601514
-1.48192	<s> ई ट	-0.4471581
-1.48192	<s> ई ड	-0.5713912
-1.113943	<s> ई थ	-0.5228788
-1.48192	<s> ई द	-0.5118834
-1.113943	<s> ई ध	0
-1.48192	<s> ई न	-0.5672979
-1.113943	<s> ई र	-0.5228788
-1.48192	<s> ई ल	-0.4881167
-1.48192	<s> ई व	-0.5086383
-1.004799	<s> ई श	-0.2108534
-0.6802878	<s> ई स	-0.8544381
-0.7781513	आ ई </s>
-0.5254259	आ ई ए	-0.3631779
-1.579784	आ ई क	-0.5642715
-1.211807	आ ई ज	-0.7194456
-1.579784	आ ई ट	-0.5682018
-1.278754	आ ई ड	-0.4057653
-1.579784	आ ई ब	-0.5118834
-1.579784	आ ई म	-0.4929155
-1.579784	आ ई व	-0.5086383
-0.7144822	आ ई स	-0.771811
-0.4259687	ई ई </s>
-0.4259687	ई ई प	-0.5440681
-0.60206	ग ई </s>
-0.2340832	ग ई ं	-0.4993977
-0.1249387	ट ई </s>
-0.1249387	ड ई </s>
-0.1249387	त ई </s>
-0.2218488	न ई क	-0.5642715
-0.04139268	ब ई </s>
-0.1249387	भ ई </s>
-0.4436975	र ई </s>
-0.552842	र ई ए	-0.8402992
-0.6197888	र ई स	-0.4259687
-0.1249387	ल ई </s>
-0.04575749	व ई य	-0.1822081
-0.06694679	स ई </s>
-0.3334436	ा ई </s>
-1.487659	ा ई ं	-0.3646991
-2.289292	ा ई ः	0
-2.289292	ा ई अ	0
-2.289292	ा ई ई	-0.39794
-2.289292	ा ई ए	-0.5762528
-1.487659	ा ई क	-0.4338142
-2.289292	ा ई च	0
-1.487659	ा ई ज	0.1199753
-1.319255	ा ई ट	-0.1717265
-1.487659	ा ई ड	-0.6197888
-2.289292	ा ई त	0
-2.289292	ा ई थ	-0.4771213
-1.988262	ा ई द	-0.39794
-1.275051	ा ई न	-0.1693578
-1.562293	ा ई प	-0.2218487
-1.988262	ा ई फ	0
-1.766413	ा ई ब	-0.3521825
-1.487659	ा ई म	-0.02727401
-1.275051	ा ई य	0.1280298
-2.289292	ा ई र	-0.4771213
-1.988262	ा ई ल	-0.2082759
-1.465383	ा ई व	-0.3281821
-1.988262	ा ई श	-0.4771212
-1.81217	ा ई स	-0.2817248
-0.4771213	ी ई </s>
-0.4771213	ी ई ई	-0.39794
-0.2787536	ु ई </s>
-0.4336556	ु ई स	-0.754437
-0.4771213	ू ई </s>
-0.2552725	ू ई ड	-0.8893017
-0.08715018	े ई </s>
-0.1249387	ै ई श	-0.39794
-0.154902	ो ई </s>
-1	ो ई द	-0.5118834
-1	ो ई य	-0.5097458
-1.921397	<s> उ ँ	-0.4616091
-1.796459	<s> उ क	0
-2.398519	<s> उ ख	0
-1.921397	<s> उ ग	0
-1.4777	<s> उ च	-0.4171233
-1.921397	<s> उ छ	0
-1.921397	<s> उ ज	0
-1.212882	<s> उ ठ	0
-1.135277	<s> उ ड	-1.121305
-0.742101	<s> उ त	0
-1.06946	<s> उ द	0.0539819
-2.030542	<s> उ ध	-0.1870866
-1.4777	<s> उ न	-0.3425445
-0.6797403	<s> उ प	0.007340252
-1.761697	<s> उ ब	0
-1.67152	<s> उ भ	0
-1.185444	<s> उ म	-0.3549753
-1.87564	<s> उ र	0.09691006
-1.185444	<s> उ ल	0
-1.921397	<s> उ ष	0
-1.67152	<s> उ स	-0.287293
-0.06694679	ं उ ट	-0.39794
-0.06694679	आ उ ट	-0.3521825
-0.1249387	न उ प	-0.5640509
-0.1249387	र उ ध	-0.4881167
-0.06694679	ह उ स	-0.6853971
-1.171935	ा उ ँ	-0.7035177
-0.5118834	ा उ ं	0
-0.90309	ा उ ड	-0.6405182
-1.238882	ा उ द	0.04139268
-0.7382798	ा उ न	-0.3633566
-1.171935	ा उ म	-0.851061
-1.539912	ा उ र	-0.1249388
-1.062791	ा उ स	-0.5295093
-0.1249387	ी उ द	0.2844307
-0.1249387	ै उ न	-0.3881802
-0.06694679	ॉ उ ट	-0.39794
-0.4259687	ो उ </s>
-0.4259687	ो उ च	-0.5578563
-0.7149581	<s> ऊ ँ	0.3222193
-1.441957	<s> ऊ ं	-0.4771213
-0.6886292	<s> ऊ त	0
-1.07398	<s> ऊ ध	0
-1.140927	<s> ऊ न	0
-1.441957	<s> ऊ प	0
-0.8398969	<s> ऊ ब	0
-1.441957	<s> ऊ र	-0.39794
-1.07398	<s> ऊ ष	0
-0.1249387	न ऊ ँ	-0.3937841
-0.1249387	र ऊ </s>
-0.1249387	श ऊ र	-0.39794
-0.06694679	स ऊ द	0
-0.3505154	ा ऊ </s>
-0.5341598	ा ऊ ँ	-0.5440681
-1.034762	ा ऊ ं	-0.30103
-1.335792	ा ऊ क	0
-1.335792	ा ऊ स	0
-0.1249387	ॉ ऊ ट	0
-0.8016323	<s> ऋ ण	-0.4637573
-0.8016323	<s> ऋ त	0
-0.2787536	<s> ऋ ष	0.1995724
-0.05799195	त ऋ ष	-0.3233064
-0.1249387	द ऋ ग	0
-0.1249387	व ऋ ण	-0.2596374
-0.1249387	ृ ऋ ण	-0.2596374
-2.316669	<s> ए ँ	-0.591678
-1.346632	<s> ए ं	-0.7035971
-1.79379	<s> ए अ	-0.7168816
-2.316669	<s> ए आ	0
-2.015639	<s> ए ए	-0.6232493
-2.316669	<s> ए ओ	0
-0.9612815	<s> ए क	-0.01598811
-1.948692	<s> ए ग	-0.8217851
-1.19173	<s> ए च	-0.3916911
-1.331392	<s> ए ज	0
-2.015639	<s> ए ट	0.01772881
-1.275276	<s> ए ड	-0.2118067
-2.015639	<s> ए थ	0.1249387
-1.001399	<s> ए न	-0.07463354
-1.679847	<s> ए प	0
-1.647662	<s> ए फ	-0.6426779
-2.015639	<s> ए ब	-0.30103
-0.8747123	<s> ए म	-0.4088564
-1.378817	<s> ए य	0
-1.58967	<s> ए र	0
-1.069515	<s> ए ल	-0.4705379
-1.839548	<s> ए व	0.01959562
-2.015639	<s> ए श	-0.3631779
-1.030362	<s> ए स	-0.5144455
-2.015639	<s> ए ह	0
-0.1249387	ँ ए ं	-0.06876016
-0.1249387	ं ए ँ	0.2007137
-0.4771213	आ ए ं	-0.5479445
-0.4771213	आ ए ग	-0.5690597
-0.4259687	इ ए </s>
-0.4259687	इ ए फ	-0.5072737
-1.238882	ई ए ए	-0.50515
-0.8709053	ई ए च	-0.8480424
-1.238882	ई ए ट	-0.1583625
-0.7617608	ई ए फ	-0.6238571
-0.9378521	ई ए ल	-0.4574665
-0.5118834	ई ए स	-0.5014806
-0.39794	ए ए न	-0.44424
-0.69897	ए ए म	-0.5938397
-0.69897	ए ए स	-0.4686881
-0.5862657	च ए </s>
-0.9542425	च ए न	-0.5812099
-0.9542425	च ए म	-0.4842999
-0.4313638	च ए स	-0.7129409
-0.1249387	त ए व	-0.4130038
-0.7533277	न ए </s>
-0.7533277	न ए ं	-0.06876016
-0.7533277	न ए म	-0.5740313
-0.7533277	न ए ल	-0.4732608
-0.2688453	फ ए </s>
-0.6368221	फ ए स	-0.4686881
-1.156347	म ए च	-0.5698754
-1.156347	म ए न	-0.4725736
-0.8553172	म ए म	-0.447158
-1.156347	म ए ल	-0.4732608
-0.2717406	म ए स	-0.7751248
-0.154902	र ए </s>
-0.8239087	र ए च	-0.5470124
-1.271067	स ए अ	-0.5274264
-1.271067	स ए ए	-0.50515
-0.9700368	स ए न	-0.5201558
-0.90309	स ए म	-0.7853298
-0.90309	स ए ल	-0.8628488
-0.4259687	स ए स	-0.8565778
-0.7486247	ा ए </s>
-0.5391852	ा ए ँ	-0.4415038
-0.361837	ा ए ं	-1.186859
-2.122762	ा ए क	-0.5882717
-1.168519	ा ए ग	-0.5333441
-2.122762	ा ए त	-0.4881167
-1.073107	ि ए </s>
-0.8512583	ि ए ं	-0.7401974
-1.374137	ि ए अ	-0.5274264
-1.374137	ि ए क	-0.3756636
-1.073107	ि ए ट	0.01772881
-1.374137	ि ए त	-0.4881167
-1.374137	ि ए ध	0
-1.374137	ि ए न	-0.5812099
-1.374137	ि ए फ	-0.5757311
-1.374137	ि ए म	-0.5938397
-0.737315	ि ए श	-0.460088
-1.374137	ि ए स	-0.5957506
-1.285236	ी ए </s>
-1.653213	ी ए ं	-0.06876016
-1.285236	ी ए च	-0.5614421
-0.8515801	ी ए न	-0.6771694
-1.176091	ी ए फ	-0.3568878
-0.5862657	ी ए म	-0.636143
-1.176091	ी ए ल	-0.5957692
-0.5621321	ी ए स	-0.6396397
-0.8016323	ु ए </s>
-0.9777236	ु ए ं	-0.3117982
-1.278754	ु ए च	-0.5862657
-0.9107768	ु ए ट	-0.4593925
-1.278754	ु ए त	-0.4881167
-0.6097468	ु ए ल	-1.047292
-1.278754	ु ए श	-0.30103
-1.278754	ु ए स	-0.5957506
-1.01424	ू ए ँ	0.2007137
-0.6462637	ू ए च	-0.514263
-0.4913617	ू ए न	-0.7083678
-0.6462637	ू ए स	-0.7918525
-0.9542425	े ए च	-0.5862657
-0.6532125	े ए फ	-0.5477023
-0.9542425	े ए म	-0.5282738
-0.9542425	े ए ल	-0.5903742
-0.5862657	े ए स	-0.7918525
-0.6600519	ो ए </s>
-1.028029	ो ए ं	-0.06876016
-0.6600519	ो ए क	-0.6766936
-1.028029	ो ए ड	-0.5698754
-1.028029	ो ए थ	-0.30103
-1.028029	ो ए ब	-0.4771213
-1.046997	<s> ऐ ं	-0.7831147
-1.414973	<s> ऐ ङ	0
-1.414973	<s> ऐ च	0
-1.414973	<s> ऐ ज	0
-1.414973	<s> ऐ ट	0.243038
-1.046997	<s> ऐ प	0
-1.414973	<s> ऐ म	0
-0.7781513	<s> ऐ र	0
-1.113943	<s> ऐ ल	0
-1.113943	<s> ऐ श	0
-0.8920946	<s> ऐ स	-0.1249388
-0.1249387	र ऐ स	-0.5228788
-0.02996322	ा ऐ ं	-0.6679358
-0.2632414	ु ऐ ं	-0.3369425
-0.5642715	ु ऐ ट	0.243038
-1.355388	<s> ओ क	0
-0.9874108	<s> ओ ट	0
-1.355388	<s> ओ ड	0
-1.355388	<s> ओ ढ	0
-0.9874108	<s> ओ त	0
-1.355388	<s> ओ ब	-0.4259688
-1.355388	<s> ओ म	0
-0.7533277	<s> ओ र	0
-0.8325089	<s> ओ ल	0
-1.355388	<s> ओ व	0
-0.05799195	ँ ओ ं	0.8864907
-0.2218488	आ ओ ं	1.187521
-0.1249387	ए ओ </s>
-0.1249387	च ओ </s>
-0.06694679	र ओ </s>
-0.1249387	ल ओ </s>
-0.8400036	ा ओ </s>
-1.416256	ा ओ ँ	0.0843209
-0.1085958	ा ओ ं	0.06366873
-1.575957	ा ओ ग	0
-0.4259687	ि ओ </s>
-0.4259687	ि ओ स	0
-0.30103	ी ओ </s>
-0.9378521	ी ओ आ	0
-0.9378521	ी ओ प	-0.20412
-0.9378521	ी ओ ब	-0.4259688
-0.06908092	ु ओ ं	0.3124595
-1.054358	ु ओ न	0
-0.4259687	ू ओ ँ	0.6283889
-0.4259687	ू ओ ं	1.187521
-0.9330532	<s> औ </s>
-1	<s> औ ज	0
-1.30103	<s> औ त	0
-1.30103	<s> औ द	0
-0.4993976	<s> औ र	-0.3665315
-1.30103	<s> औ ष	0
-0.9330532	<s> औ स	0
-1.30103	<s> औ ह	0
-0.1249387	क औ र	-0.3665316
-0.1249387	न औ र	-0.3665316
-0.06694679	म औ र	-0.6095695
-0.1249387	र औ र	-0.3665316
-0.4259687	ा औ ं	0
-0.4259687	ा औ र	-0.3665316
-1.577328	<s> क ं	-0.1270624
-2.644274	<s> क क	-0.2688453
-2.945304	<s> क ख	0
-2.644274	<s> क ङ	-0.3864602
-1.945304	<s> क च	-0.208276
-2.343244	<s> क ज	-0.2688453
-1.890947	<s> क ट	-0.2388821
-2.644274	<s> क ठ	-0.1249388
-2.343244	<s> क ड	0.2138799
-2.577328	<s> क ढ	0
-2.644274	<s> क ण	-0.3233064
-2.100206	<s> क त	-0.3906099
-2.060698	<s> क थ	0.01639032
-2.218306	<s> क द	-0.5556499
-1.854224	<s> क न	-0.4855715
-1.866123	<s> क प	-0.284515
-2.577328	<s> क फ	0
-2.121396	<s> क ब	-0.6493938
-2.945304	<s> क भ	0.243038
-1.249239	<s> क म	-0.2009317
-1.106455	<s> क र	-0.7524526
-1.571167	<s> क ल	-0.5633036
-2.191977	<s> क व	-0.5068684
-2.308482	<s> क श	-0.5505502
-2.945304	<s> क ष	0
-2.468183	<s> क स	-0.4175355
-1.759668	<s> क ह	-0.1161648
-2.343244	<s> क ़	-0.5762527
-0.8415007	<s> क ा	-0.6180933
-1.218306	<s> क ि	0.08403385
-1.741184	<s> क ी	-0.6008055
-1.044028	<s> क ु	-0.0003414154
-2.080003	<s> क ू	-0.0231238
-1.778973	<s> क ृ	0.5292995
-1.405392	<s> क े	-0.5731275
-1.264063	<s> क ै	-0.3233064
-1.487927	<s> क ॉ	-0.2121614
-1.282547	<s> क ो	-0.1396044
-1.714856	<s> क ौ	-0.1273994
-0.9395521	<s> क ्	-1.431483
-1.271067	ँ क </s>
-0.748188	ँ क ड	-0.3175991
-1.271067	ँ क न	-0.2800062
-0.90309	ँ क ल	-0.8867612
-1.271067	ँ क ा	-0.5337367
-0.90309	ँ क ि	-0.5780838
-0.90309	ँ क ी	-0.6834973
-1.271067	ँ क े	-0.4762174
-1.271067	ँ क ्	-0.4763686
-0.8896129	ं क </s>
-2.065704	ं क ग	-0.4011452
-1.181098	ं क ट	-0.4046148
-2.065704	ं क ड	0.1217335
-2.065704	ं क त	-0.5479445
-1.338705	ं क न	-0.5780146
-1.697727	ं क य	0
-1.051464	ं क र	-0.6490223
-1.144885	ं क ल	-0.1301727
-1.111462	ं क ा	-0.4350357
-1.051464	ं क ि	-0.6459133
-1.220606	ं क ी	-0.7650628
-1.588583	ं क ु	-0.4841709
-1.220606	ं क े	-0.4707546
-1.542825	ं क ै	-1.017912
-1.588583	ं क ो	-0.5495662
-0.8896129	ं क ्	-0.518343
-1.113943	अ क </s>
-1.113943	अ क र	-0.5217419
-0.8129134	अ क ा	-0.3450661
-0.7459666	अ क ु	-0.8764804
-0.7459666	अ क े	-0.8683279
-0.8129134	अ क ्	-0.3502983
-0.6842467	आ क र	-0.7647799
-0.9852768	आ क ा	-0.4539115
-1.286307	आ क ृ	-0.002722859
-1.286307	आ क े	-0.4762174
-0.3320642	आ क ्	-1.020733
-1.355388	इ क </s>
-1.355388	इ क ट	-0.5606673
-1.355388	इ क न	-0.5239367
-0.7533277	इ क ल	-0.5164207
-1.355388	इ क ह	-0.5797836
-0.6283889	इ क ि	-0.8338042
-0.5314789	इ क ्	-0.7305096
-0.7112045	ई क </s>
-1.079181	ई क ल	-0.4409323
-1.079181	ई क व	-0.5821652
-1.079181	ई क ि	-0.5466455
-1.079181	ई क े	-0.5901608
-1.079181	ई क ो	-0.5614907
-0.7781513	ई क ्	-0.5566157
-0.39794	उ क स	-0.7625631
-0.69897	उ क ा	-0.5915499
-0.69897	उ क ्	-0.5234424
-0.1249387	ऊ क ा	-0.4101066
-1.50515	ए क </s>
-1.50515	ए क ड	0.1217335
-1.20412	ए क द	-0.52522
-1.50515	ए क प	-0.5821652
-1.50515	ए क र	-0.3670634
-1.50515	ए क ल	-0.5972255
-1.50515	ए क स	-0.5762528
-0.80618	ए क ा	-0.5664316
-1.50515	ए क ै	-0.5881242
-0.3912066	ए क ्	-0.9327323
-0.1249387	ओ क ्	-0.5634503
-0.6690068	क क र	-0.3527078
-0.9700368	क क ा	-0.4101066
-0.6690068	क क ो	-0.8376172
-0.4929155	क क ्	-0.8743086
-0.5228788	ख क र	-0.3756138
-0.5228788	ख क ि	-0.5593081
-0.02482358	ग क र	-0.6059455
-0.30103	ङ क ा	-0.5337367
-0.9274493	च क </s>
-1.564271	च क त	-0.5739101
-1.564271	च क म	-0.4721005
-0.5099137	च क र	-0.6427854
-1.196295	च क ा	-0.4612591
-1.564271	च क े	-0.4762174
-0.9274493	च क ो	-0.5748546
-0.6434527	च क ्	-1.01137
-0.05799195	छ क ्	-0.8817033
-0.6264194	ज क </s>
-0.9622114	ज क ङ	-0.3864602
-0.9622114	ज क ड	-0.1213045
-0.9622114	ज क र	-0.2302819
-1.263241	ज क ि	-0.5269313
-1.263241	ज क ी	-0.3824674
-0.7403627	ज क ु	-0.9825984
-0.30103	झ क ो	-0.5614907
-0.7331243	ट क </s>
-1.297396	ट क त	-0.1779046
-0.7331243	ट क र	-0.7993855
-1.297396	ट क ल	-0.5722112
-0.8994557	ट क ा	-0.6259388
-1.297396	ट क ि	-0.4831116
-0.871427	ट क ी	-0.5345285
-0.9616036	ट क ो	-0.8821993
-1.598426	ट क ्	-0.5756077
-0.4771213	ठ क </s>
-0.845098	ठ क ः	0
-0.4771213	ठ क ो	-0.6391613
-0.5862657	ड क </s>
-0.6532125	ड क ा	-0.523245
-0.6532125	ड क ै	-0.824023
-0.9542425	ड क ्	-0.5698754
-0.8653014	ढ क त	-0.5396324
-0.8653014	ढ क र	-0.3756138
-0.8653014	ढ क ा	-0.5337367
-0.4973246	ढ क ी	-0.6834973
-1.146128	ण क </s>
-1.146128	ण क ट	-0.5409233
-0.6690068	ण क र	-0.3685846
-0.3444957	ण क ा	-0.7664662
-1.146128	ण क ्	-0.5958111
-0.5490696	त क </s>
-0.9711432	त क न	-1.128565
-1.003328	त क र	-0.3619027
-1.272173	त क ल	-0.581971
-1.64015	त क व	-0.4291977
-0.7193313	त क ा	-0.8756106
-1.64015	त क ि	-0.5691788
-0.8385177	त क ो	-0.7572606
-0.6462637	थ क </s>
-0.6462637	थ क त	-0.4591906
-0.9472936	थ क र	-0.8968959
-0.7923917	थ क ा	-0.5319906
-1.31527	थ क ी	-0.3824674
-1.31527	थ क ो	-0.3573706
-1.31527	थ क ्	-0.5806733
-0.4586379	द क </s>
-1.060698	द क म	-0.4950496
-1.361728	द क ़	-0.5488145
-0.993751	द क ि	-0.8279613
-1.361728	द क ी	-0.5754765
-0.6927211	द क ो	-0.9121626
-1.361728	द क ्	-0.4763686
-0.3521825	ध क </s>
-1.431364	ध क त	-0.5396324
-0.6780361	ध क र	-0.6059455
-1.063387	ध क ा	-0.7111366
-1.431364	ध क ि	-0.5655035
-1.431364	ध क े	-0.5672979
-1.431364	ध क ो	-0.3381313
-0.6276979	न क </s>
-1.718778	न क प	-0.5394132
-0.9406272	न क र	-0.3968031
-0.3763557	न क ा	-0.5993026
-1.1959	न क ी	-0.3697182
-1.718778	न क ो	-0.1340113
-1.1959	न क ्	-0.7498968
-1.210853	प क </s>
-1.812913	प क क	-0.4336556
-1.444937	प क ग	-0.7021751
-0.9476119	प क ड	-0.2710667
-1.812913	प क थ	-0.2762065
-1.444937	प क न	-0.7851561
-1.812913	प क प	-0.4094537
-1.059586	प क र	-0.7512774
-1.812913	प क ल	-0.5308186
-0.8920946	प क ा	-0.3554956
-1.812913	प क े	-0.4762174
-1.011281	प क ो	-0.67959
-0.5576409	प क ्	-0.8692698
-0.60206	फ क ा	-0.5337367
-0.2340832	फ क ी	-0.8588378
-1.342423	ब क </s>
-1.342423	ब क भ	0.243038
-1.342423	ब क र	-0.5881191
-1.342423	ब क ल	-0.5823905
-1.342423	ब क व	-0.4291977
-1.342423	ब क ा	-0.3827109
-0.9744459	ब क ी	-0.6834973
-1.342423	ब क े	-0.4762174
-0.9744459	ब क ो	-0.3892838
-0.5407903	ब क ्	-0.9591499
-0.8653014	भ क ा	-0.3880552
-0.1383027	भ क ्	-1.151831
-0.49485	म क </s>
-1.962211	म क ड	0.1217335
-0.9208187	म क त	-0.4642114
-1.962211	म क थ	-0.2762065
-1.962211	म क ब	-0.5777007
-1.962211	म क स	-0.5762528
-0.7765749	म क ा	-0.6970601
-1.661181	म क ि	-0.3756636
-1.325389	म क ी	-0.4842999
-1.661181	म क ु	-0.5262324
-1.661181	म क ृ	-0.6480223
-1.235213	म क े	-0.6300323
-1.962211	म क ौ	-0.5818566
-0.9769347	म क ्	-0.8670413
-0.6044139	य क </s>
-1.790051	य क ं	-0.5890951
-1.09108	य क त	-0.8976042
-0.9247491	य क र	-0.5791523
-1.790051	य क ल	-0.5308186
-1.790051	य क व	-0.4291977
-1.422074	य क श	-0.5647906
-1.063052	य क ा	-0.6995193
-1.790051	य क ि	-0.5466455
-1.790051	य क ु	-0.391154
-1.153228	य क े	-0.7382233
-0.9884181	य क ो	-1.037101
-0.9884181	य क ्	-0.6734159
-0.7275106	र क </s>
-1.606688	र क त	-0.6346501
-1.053846	र क र	-0.4973783
-0.7442163	र क ा	-0.6130031
-1.974665	र क ि	-0.3613835
-1.673635	र क ी	-0.5711262
-1.247666	र क ु	-0.4896569
-1.974665	र क ृ	-0.2068429
-1.974665	र क ै	-0.595148
-1.606688	र क ॉ	-0.8109438
-1.036813	र क ो	-0.5546512
-0.6257116	र क ्	-0.9607732
-1.217484	ल क </s>
-1.819544	ल क ट	-0.5606673
-1.819544	ल क ड	-0.3832167
-1.217484	ल क त	0.1428695
-1.518514	ल क न	-0.4609345
-0.7525972	ल क र	-1.329856
-1.451567	ल क व	-0.7302277
-1.092545	ल क ा	-0.3124832
-1.150537	ल क ी	-0.8276924
-1.296665	ल क ु	-0.7257344
-1.819544	ल क ू	-0.5740313
-1.819544	ल क े	-0.4762174
-1.092545	ल क ो	-0.4636371
-0.6631967	ल क ्	-1.182946
-0.3302596	व क </s>
-1.750765	व क त	-0.5739101
-1.750765	व क र	-0.5217419
-1.750765	व क ़	-0.5488145
-0.885464	व क ा	-0.4440053
-1.750765	व क ी	-0.3713565
-1.750765	व क ू	-0.5882717
-1.750765	व क ो	-0.3896199
-0.6258267	व क ्	-0.9187043
-1.028029	श क </s>
-1.50515	श क स	-0.5195251
-1.50515	श क ा	-0.3586496
-1.50515	श क ु	-0.5790151
-0.90309	श क ो	-0.5034987
-0.2188432	श क ्	-1.372745
-0.3107898	ष क </s>
-1.176091	ष क त	-0.2955441
-0.4490925	ष क ो	-0.9665202
-0.90309	स क </s>
-1.572097	स क त	-0.3355125
-1.20412	स क प	-0.7104837
-1.572097	स क र	-0.3176219
-1.20412	स क ल	-0.7419623
-1.572097	स क व	-0.4572265
-1.271067	स क ा	-0.3799821
-0.90309	स क ी	-0.7120707
-1.572097	स क ु	-0.5432658
-1.572097	स क ृ	-0.2068429
-1.271067	स क े	-0.2821145
-1.572097	स क ॉ	-0.5138441
-1.049218	स क ो	-0.5142226
-0.845098	स क ्	-0.3944289
-0.5625514	ह क </s>
-1.447158	ह क क	-0.552842
-1.447158	ह क त	-0.2955441
-1.146128	ह क न	-0.4246426
-1.079181	ह क र	-0.6766438
-1.447158	ह क ़	-0.5488145
-0.8103359	ह क ा	-0.9541746
-1.447158	ह क ी	-0.3841517
-0.9242793	ह क ो	-0.777464
-1.447158	ह क ्	-0.5806733
-1.083184	़ क </s>
-1.560305	़ क ं	-0.5890951
-1.560305	़ क क	-0.4973247
-1.192328	़ क न	-0.5352787
-0.6060627	़ क र	-1.220712
-0.7363965	़ क ा	-0.7762467
-0.9234831	़ क ि	-1.070999
-0.9234831	़ क े	-0.5540562
-1.560305	़ क ै	-0.580985
-1.098244	ा क </s>
-2.212188	ा क क	-0.4336556
-1.911158	ा क घ	0
-2.212188	ा क ट	-0.5606673
-1.844211	ा क ड	-0.1792964
-1.844211	ा क ण	-0.7035177
-1.575366	ा क त	-0.4159507
-0.6137619	ा क र	-1.112713
-1.844211	ा क श	-0.6455257
-0.7972143	ा क ा	-0.3443757
-1.242151	ा क ि	-0.6747845
-1.513218	ा क ी	-0.6623151
-1.610128	ा क ु	-0.5262324
-1.309098	ा क ू	-1.186521
-1.410555	ा क ृ	0.4020566
-1.513218	ा क े	-0.5400509
-1.735066	ा क ो	-0.4351926
-0.8899683	ा क ्	-0.8666631
-0.5121549	ि क </s>
-2.124939	ि क ं	-0.6348525
-2.60206	ि क ट	-0.2596373
-2.234083	ि क ड	-0.1792964
-1.488117	ि क त	-0.8396122
-1.717453	ि क न	-0.2252777
-2.234083	ि क ब	-0.8439686
-1.455932	ि क र	-0.2703566
-1.134699	ि क ल	-0.5192003
-2	ि क व	-0.0770151
-2.124939	ि क स	-0.3774182
-0.66088	ि क ा	-0.7406912
-1.736759	ि क ि	-0.6894799
-1.488117	ि क ी	-0.8396353
-2.234083	ि क ु	-0.866829
-2.234083	ि क ू	-0.8398969
-1.717453	ि क ृ	-0.9849941
-1.60206	ि क े	-0.8213052
-2.079181	ि क ॉ	-0.5076045
-1.535113	ि क ो	-0.3373739
-0.9456424	ि क ्	-0.3051621
-1.202689	ी क </s>
-1.636345	ी क न	-0.8249667
-0.4728425	ी क र	-1.025069
-1.703291	ी क ल	-0.3058113
-0.9132409	ी क ा	-0.5552832
-1.367499	ी क ी	-0.6178846
-1.703291	ी क ु	-0.8088371
-2.004321	ी क ू	-0.3906408
-1.202689	ी क ृ	-0.9058129
-1.019045	ी क े	-0.4764687
-1.277323	ी क ो	-0.6126431
-0.9629287	ी क ्	-1.064968
-1.053476	ु क </s>
-2.038753	ु क ं	-0.5428498
-1.737723	ु क ङ	-0.4707811
-1.737723	ु क ड	-0.1213045
-1.561631	ु क त	0.01291001
-1.515874	ु क द	-0.9045547
-1.670776	ु क न	-0.4782966
-1.670776	ु क ब	-0.8439686
-2.038753	ु क म	-0.5945069
-1.561631	ु क र	-0.5809771
-2.038753	ु क व	-0.4291977
-0.7377226	ु क ा	-0.353064
-1.670776	ु क ी	-0.6834973
-1.311754	ु क ु	-0.4950743
-1.737723	ु क ू	-0.5228787
-1.515874	ु क ृ	-0.6461755
-1.23712	ु क े	-0.5458701
-2.038753	ु क ो	-0.1340113
-2.038753	ु क ौ	-0.5067919
-0.5616313	ु क ्	-1.086868
-0.7518223	ू क </s>
-1.50515	ू क त	-0.3438246
-0.9822713	ू क र	-0.8149465
-1.20412	ू क ा	-0.487383
-1.50515	ू क ि	-0.5593081
-1.137173	ू क ी	-0.6834973
-1.137173	ू क ू	-0.8702088
-0.7518223	ू क े	-0.6808397
-1.50515	ू क ो	-0.3381313
-0.90309	ू क ्	-0.3962446
-0.1091445	ृ क ्	-0.7773986
-0.8692317	े क </s>
-1.936179	े क अ	0
-1.936179	े क च	-0.5672979
-1.936179	े क ड	0.1217335
-1.936179	े क ण	-0.4372498
-1.936179	े क त	-0.2955441
-1.936179	े क थ	-0.2762065
-1.4133	े क न	-0.6460928
-1.936179	े क प	-0.5394132
-1.334118	े क र	-0.5653024
-1.936179	े क श	-0.5274264
-1.936179	े क ा	-0.4101066
-1.936179	े क ि	-0.5466455
-1.936179	े क ी	-0.3824674
-1.936179	े क ु	-0.5986803
-1.11227	े क े	-0.9876366
-1.936179	े क ै	-0.5381503
-0.3198781	े क ्	-0.9165867
-0.8319764	ै क </s>
-1.735066	ै क औ	0
-1.434036	ै क क	-0.7403626
-1.735066	ै क ग	-0.5509075
-1.735066	ै क ब	-0.5777007
-1.735066	ै क र	-0.5886074
-0.7070376	ै क े	-0.2679415
-1.735066	ै क ो	-0.5995807
-0.3371263	ै क ्	-0.529171
-0.2798407	ॉ क </s>
-1.124939	ॉ क ब	-0.5244552
-1.124939	ॉ क े	-0.542129
-0.8239087	ॉ क ्	-0.5281484
-0.90309	ो क </s>
-1.30103	ो क ग	-0.5772364
-1.823909	ो क ट	-0.5255029
-1.187087	ो क त	-0.4204829
-1.522879	ो क न	-0.3353845
-1.09691	ो क र	-0.3962969
-1.823909	ो क स	-0.3721327
-0.9393021	ो क ा	-0.5836031
-1.522879	ो क ि	-0.3445764
-1.522879	ो क ु	-0.4297397
-1.455932	ो क ू	-0.6916708
-1.823909	ो क ृ	-0.4049843
-0.9208187	ो क े	-0.7853149
-1.187087	ो क ो	-0.4445208
-0.9208187	ो क ्	-0.5711036
-1.30103	ौ क ब	-0.5777007
-0.8239087	ौ क र	-0.2427676
-1.30103	ौ क स	-0.5195251
-0.6642079	ौ क ा	-0.6385571
-1.30103	ौ क ि	-0.59176
-1.30103	ौ क ी	-0.2969393
-1	ौ क े	-0.4291174
-1.30103	ौ क ो	-0.1340113
-0.9330532	ौ क ्	-0.7773986
-0.9126163	् क </s>
-1.705008	् क ट	-0.980256
-1.528917	् क त	-0.280567
-2.227887	् क प	-0.5394132
-1.307068	् क र	-0.1163386
-1.705008	् क ल	-0.5095348
-1.85991	् क व	-0.83289
-2.227887	् क श	-0.5274264
-2.227887	् क स	-0.2477845
-0.8357762	् क ा	-0.5152272
-1.199858	् क ि	-0.5345473
-1.25785	् क ी	-0.4875803
-1.926857	् क ु	-0.3821706
-2.227887	् क ू	-0.3841517
-1.34328	् क ृ	0.326336
-0.9341559	् क े	-1.049766
-1.449735	् क ॉ	-0.5023468
-1.04225	् क ो	-0.5856426
-0.9415799	् क ्	-0.664129
-1.692406	<s> ख ं	0.2852358
-1.541139	<s> ख ङ	0
-1.492834	<s> ख ज	0
-1.817345	<s> ख ट	-0.3424226
-1.993436	<s> ख ड	0
-1.993436	<s> ख ण	0.359022
-1.595496	<s> ख त	-0.2669502
-1.657644	<s> ख द	0.03266919
-1.771587	<s> ख न	-0.5604337
-2.294466	<s> ख ब	-0.30103
-1.10883	<s> ख र	-0.2329143
-1.595496	<s> ख ल	-0.3265841
-2.294466	<s> ख स	0
-1.340224	<s> ख ़	-0.3399482
-0.7759523	<s> ख ा	-0.3463669
-0.9082646	<s> ख ि	-0.4912599
-1.516315	<s> ख ी	-0.69897
-1.072618	<s> ख ु	-0.2247832
-1.657644	<s> ख ू	0.3010299
-1.266438	<s> ख े	-0.6912146
-0.9586741	<s> ख ो	-0.4240796
-1.567467	<s> ख ्	-0.6145831
-0.30103	ँ ख ो	-0.3699113
-0.9542425	ं ख य	0
-0.5688916	ं ख ल	-0.7492443
-1.322219	ं ख ा	-0.544941
-1.322219	ं ख ु	-0.579396
-1.322219	ं ख ो	-0.3699113
-0.4569179	ं ख ्	-1.078796
-0.845098	अ ख ं	-0.07378626
-0.544068	अ ख ण	0.359022
-0.845098	अ ख र	-0.5878196
-0.845098	अ ख ा	-0.5927865
-0.4771213	आ ख क	-0.4471581
-0.4771213	आ ख ़	-0.5797836
-0.1249387	उ ख ा	-0.5927865
-0.1249387	क ख ग	-0.20412
-0.5642715	ज ख ी	-0.5440681
-0.2632414	ज ख ्	-0.8164529
-0.1249387	ट ख ट	-0.50515
-0.06694679	त ख ्	-0.7412019
-0.05799195	द ख ल	-0.8543981
-0.1249387	न ख न	-0.5086383
-0.2218488	प ख ा	-0.5431933
-0.2218488	ब ख ू	-0.5177391
-0.1249387	म ख म	-0.4881167
-0.1249387	य ख ा	-0.581711
-1.150537	र ख </s>
-1.150537	र ख ं	-0.3748162
-0.9956352	र ख त	-0.4310601
-1.518514	र ख न	-0.2214984
-1.518514	र ख र	-0.2745551
-0.7915152	र ख व	0.1312789
-0.8816918	र ख ा	-0.6698797
-1.518514	र ख ि	-0.530178
-0.6532125	र ख े	-0.6001341
-1.518514	र ख ो	-0.5542873
-0.30103	ल ख </s>
-0.60206	ल ख ण	0.60206
-0.05799195	श ख ्	-0.8694814
-0.4771213	स ख ि	-0.530178
-0.4771213	स ख ो	-0.5882717
-0.8388491	ा ख </s>
-1.361728	ा ख ं	-0.07378626
-0.7249057	ा ख ा	-0.5442865
-1.060698	ा ख ि	-0.278366
-1.060698	ा ख ी	-0.5952206
-0.6927211	ा ख ू	-0.8750613
-0.993751	ा ख े	-0.8184945
-1.282007	ि ख त	-0.5309966
-1.649984	ि ख न	-0.3045183
-0.765377	ि ख र	-0.2921846
-1.348954	ि ख व	0.5166298
-0.3636768	ि ख ा	-0.4583718
-1.649984	ि ख ि	-0.5344994
-1.649984	ि ख ी	-0.19382
-0.9229848	ि ख े	-0.5547339
-1.649984	ि ख ्	-0.5879735
-0.9852768	ी ख </s>
-1.286307	ी ख क	-0.4471581
-1.286307	ी ख त	-0.1788141
-1.286307	ी ख न	-0.3764003
-0.91833	ी ख ़	-0.8239087
-0.559308	ी ख ा	-0.5643827
-1.286307	ी ख ृ	0
-0.91833	ी ख े	-0.8184945
-0.8988939	ु ख </s>
-1.234686	ु ख द	0.03950858
-1.535716	ु ख न	-0.5805203
-1.535716	ु ख ब	-0.4771213
-1.535716	ु ख ़	-0.5563025
-0.6906179	ु ख ा	-0.3902258
-1.058595	ु ख ी	-0.7501225
-1.167739	ु ख ो	-0.8553172
-0.5814735	ु ख ्	-0.650638
-0.9208187	ू ख </s>
-0.9208187	ू ख न	-0.5086383
-0.552842	ू ख म	-0.5672979
-0.9208187	ू ख ा	-0.393328
-0.9208187	ू ख ी	-0.3521825
-0.9731278	े ख </s>
-0.7178553	े ख न	-0.3175242
-1.496007	े ख ब	-0.30103
-1.496007	े ख र	-0.2745551
-1.12803	े ख ़	-0.8492146
-0.6943743	े ख ा	-0.6467936
-1.12803	े ख ि	-0.8355294
-1.194977	े ख े	-0.5221094
-1.12803	े ख ौ	0
-0.1249387	ै ख ि	-0.5908759
-1.271067	ो ख </s>
-0.748188	ो ख त	-0.3439099
-1.271067	ो ख र	-0.3836996
-0.60206	ो ख ल	-0.6276141
-1.271067	ो ख ़	-0.5228788
-0.6342447	ो ख े	-0.6134395
-0.6532125	् ख </s>
-0.8081145	् ख न	-0.7441667
-0.8750613	् ख ल	-0.7814289
-1.176091	् ख ा	-0.581711
-0.69897	् ख ि	-0.928118
-1.176091	् ख ी	-0.3521825
-2.169282	<s> ग ँ	0
-1.676367	<s> ग ं	-0.1405438
-2.278427	<s> ग ई	-0.2730013
-2.646404	<s> ग ग	-0.4771213
-1.822495	<s> ग ज	-0.3565473
-2.123525	<s> ग ठ	-0.28579
-1.947434	<s> ग ड	-0.3405385
-1.919405	<s> ग ढ	0.2894482
-1.521465	<s> ग ण	-0.5436986
-1.460767	<s> ग त	-1.171935
-2.123525	<s> ग द	-0.60206
-1.919405	<s> ग न	-0.6166188
-2.278427	<s> ग म	-0.4950328
-2.009582	<s> ग य	0
-1.490057	<s> ग र	-0.5855609
-1.708552	<s> ग ल	-0.4412672
-1.661127	<s> ग व	-0.5235464
-2.646404	<s> ग स	-0.3802113
-1.919405	<s> ग ह	-0.4336556
-2.123525	<s> ग ़	-0.3521825
-0.9996734	<s> ग ा	-0.1436526
-1.324184	<s> ग ि	-0.5944628
-1.919405	<s> ग ी	-0.8592669
-0.7830809	<s> ग ु	-0.2311974
-1.801306	<s> ग ू	-0.4511855
-1.592046	<s> ग ृ	-0.2540333
-1.725585	<s> ग े	-0.4942392
-1.579457	<s> ग ै	0.06845737
-2.169282	<s> ग ॉ	0
-0.9166991	<s> ग ो	-0.3644611
-1.510741	<s> ग ौ	0.09875411
-0.8930761	<s> ग ्	-1.011084
-0.7857044	ँ ग </s>
-1.064458	ँ ग त	-0.708178
-1.286307	ँ ग ल	-0.7792807
-0.7027302	ँ ग ा	-1.183736
-0.9852768	ँ ग ी	-0.4679779
-0.5873367	ँ ग े	-0.6032956
-1.286307	ँ ग ्	-0.3881802
-0.5062602	ं ग </s>
-2.194977	ं ग ट	0
-2.018885	ं ग ठ	-0.1230627
-1.973128	ं ग ड	-0.3767507
-2.496006	ं ग ण	-0.4771213
-1.6114	ं ग त	-0.6715842
-2.194977	ं ग द	-0.4881166
-2.496006	ं ग ध	0
-1.694374	ं ग न	-0.3415245
-2.496006	ं ग प	-0.5413622
-2.194977	ं ग ब	0
-1.859185	ं ग म	-0.5486157
-1.797037	ं ग र	-0.2949249
-1.382063	ं ग ल	-0.3052507
-2.194977	ं ग व	-0.04441911
-2.194977	ं ग स	-0.20412
-2.496006	ं ग ह	-0.552842
-1.043709	ं ग ा	-0.4189386
-1.893947	ं ग ि	-0.5364708
-1.153584	ं ग ी	-0.160297
-1.973128	ं ग ु	-0.702978
-1.973128	ं ग ू	-0.5303667
-0.8147653	ं ग े	-0.5519999
-1.109805	ं ग ो	-0.9551141
-1.274158	ं ग ्	-0.4771213
-1.09108	अ ग म	-0.4438803
-1.09108	अ ग र	-0.3845071
-0.5682017	अ ग ु	-0.7590421
-0.3921105	अ ग ्	-0.2271342
-0.8846066	आ ग </s>
-0.5835766	आ ग म	-0.3725244
-0.8846066	आ ग र	-0.3845071
-0.5835766	आ ग ा	-0.5859612
-0.1249387	इ ग ्	-0.8239087
-0.6368221	उ ग त	-0.3369836
-0.6368221	उ ग न	-0.5149099
-0.6368221	उ ग ल	-0.59176
-0.1249387	ऋ ग ्	-0.5931052
-0.4366926	ए ग ा	-1.007645
-0.5336026	ए ग ी	-0.7368232
-1.135663	ए ग े	-0.4423592
-0.7676858	ए ग ्	-0.4461721
-0.04575749	ओ ग े	-0.4873117
-0.4313638	क ग ण	-0.566732
-0.9542425	क ग ा	-0.567877
-0.5862657	क ग ी	-0.8152931
-0.9542425	क ग ्	-0.1451422
-0.2218488	ख ग </s>
-0.60206	ग ग न	-0.3859311
-0.2340832	ग ग ्	-0.4461721
-1.535716	ज ग त	-0.5781479
-1.535716	ज ग द	-0.2218488
-1.058595	ज ग न	-0.3388185
-0.8988939	ज ग म	-1.082218
-1.535716	ज ग र	-0.3912755
-1.535716	ज ग ह	-0.251812
-0.4943233	ज ग ा	-0.3733235
-1.535716	ज ग ु	-0.5217268
-1.535716	ज ग े	-0.349009
-0.7575647	ज ग ो	-0.9001051
-0.05799195	झ ग ड	-0.6088995
-0.2632414	ठ ग ा	-0.3821036
-0.5642715	ठ ग े	-0.349009
-0.4259687	ड ग र	-0.4281677
-0.4259687	ड ग े	-0.5983322
-0.1249387	ण ग ृ	0.6879746
-0.8239087	त ग ढ	-0.2099496
-0.8239087	त ग र	-0.5303103
-0.5228788	त ग ा	-0.5497205
-0.8239087	त ग ी	-0.2249399
-0.30103	थ ग ु	-0.5977243
-0.9378521	द ग र	-0.5303103
-0.9378521	द ग ा	-0.2829587
-0.9378521	द ग ि	-0.5401052
-0.30103	द ग ी	-0.4169079
-1.477121	न ग ठ	-0.3701109
-0.9542425	न ग ण	-0.5890493
-1.109144	न ग द	-0.8171754
-0.2552725	न ग र	-0.8570569
-1.477121	न ग व	-0.111366
-1.477121	न ग ु	-0.5692111
-1.176091	न ग ्	-0.3881802
-0.30103	प ग ड	-0.2651174
-0.60206	प ग ु	-0.5874359
-0.455932	फ ग व	-0.412396
-0.8239087	फ ग ा	-0.5692427
-0.455932	फ ग ै	-0.8016323
-0.7883704	भ ग त	-0.6347291
-0.6792259	भ ग व	0.0347622
-0.4573772	भ ग ा	-0.2661625
-1.156347	भ ग ी	-0.5698754
-1.156347	भ ग ्	-0.5693448
-1.20412	म ग </s>
-0.8361432	म ग न	-0.8207387
-0.4771213	म ग ा	-0.8939869
-0.50515	म ग ्	-0.138034
-0.90309	य ग ढ	-0.2099496
-0.60206	य ग त	-0.2459824
-0.90309	य ग ा	-0.5692427
-0.5351132	य ग ्	-0.4461721
-1.374137	र ग </s>
-1.00616	र ग ण	-0.7781513
-1.073107	र ग त	-0.6728672
-1.374137	र ग न	-0.5197088
-1.073107	र ग र	-0.5034934
-0.6751671	र ग ा	-0.6222095
-1.374137	र ग ि	-0.5788578
-1.374137	र ग े	-0.5791972
-0.737315	र ग ो	-0.6643929
-1.262112	ल ग </s>
-1.262112	ल ग क	0.3521825
-1.630089	ल ग ढ	-0.2099496
-1.262112	ल ग त	-0.4619223
-1.630089	ल ग व	-0.111366
-0.4539975	ल ग ा	-0.1364021
-1.10721	ल ग ि	-0.5085881
-1.630089	ल ग ू	-0.5413622
-0.90309	ल ग े	-0.618053
-1.630089	ल ग ौ	-0.5554839
-1.152967	ल ग ्	-0.2197757
-0.30103	व ग ा	-0.8863347
-0.6690068	व ग ौ	-0.5033059
-0.4259687	श ग ़	-0.5118834
-0.4259687	श ग ा	-0.5602879
-0.6368221	ष ग ढ	-0.52522
-0.2688453	ष ग ु	-0.8839809
-0.7781513	स ग ण	-0.5740313
-0.7781513	स ग र	-0.5886272
-0.7781513	स ग ु	-0.5784191
-0.7781513	स ग ो	-0.5569631
-0.8846066	ह ग ढ	-0.2099496
-0.8846066	ह ग ल	-0.5322765
-0.5835766	ह ग ा	-0.5539783
-0.8846066	ह ग ि	-0.4132319
-0.8846066	ह ग े	-0.349009
-0.90309	़ ग </s>
-0.90309	़ ग म	-0.4438803
-0.2340832	़ ग ा	-0.8413796
-0.8016323	ा ग </s>
-1.664104	ा ग क	0.3521825
-1.395259	ा ग ज	-0.4065402
-1.731051	ा ग ड	-0.5585943
-1.25393	ा ग त	-0.4288673
-2.032081	ा ग द	-0.5295094
-1.077839	ा ग न	-0.6746107
-2.032081	ा ग प	-0.1501555
-1.509202	ा ग म	-0.5486156
-1.395259	ा ग र	-0.292496
-2.032081	ा ग ल	-0.243038
-1.16678	ा ग ा	-0.3768796
-1.305083	ा ग ि	-0.510142
-1.333111	ा ग ी	-0.1652947
-2.032081	ा ग ू	-0.5413622
-1.046805	ा ग े	-0.7232709
-1.147475	ा ग ो	-0.7971631
-0.9071425	ा ग ्	-0.7641408
-0.9388948	ि ग </s>
-1.063834	ि ग ड	-0.8197528
-1.297917	ि ग ण	-0.7781513
-1.143015	ि ग त	-0.4220736
-1.665894	ि ग न	-0.5900511
-1.143015	ि ग म	-0.7298465
-1.297917	ि ग र	-0.3753154
-1.143015	ि ग ल	-0.6665764
-0.711651	ि ग ा	-0.3919566
-1.665894	ि ग े	-0.590779
-1.665894	ि ग ो	-0.5984758
-0.8642612	ि ग ्	-0.1573766
-1.00616	ी ग </s>
-1.374137	ी ग ढ	-0.2099496
-1.374137	ी ग ण	-0.5740313
-1.374137	ी ग र	-0.2240477
-1.073107	ी ग ल	-0.7753146
-0.8512583	ी ग ि	-0.5085881
-0.8512583	ी ग ु	-0.7635271
-1.374137	ी ग े	-0.590779
-1.374137	ी ग ो	-0.547623
-1.374137	ी ग ौ	-0.5033059
-0.8970158	ी ग ्	-0.5430821
-0.9777236	ु ग </s>
-0.8985423	ु ग त	-0.490694
-1.500602	ु ग न	-0.5900511
-1.132626	ु ग प	-0.7454821
-1.500602	ु ग म	-0.1843925
-1.132626	ु ग ल	-0.4040047
-1.023481	ु ग ा	-0.3638937
-1.500602	ु ग ी	-0.02081984
-1.500602	ु ग ु	-0.3650911
-0.5627503	ु ग ्	-0.4614121
-1.054358	ू ग ं	-0.5690597
-0.4175356	ू ग र	-0.5891953
-1.054358	ू ग ल	-0.3321227
-0.6863809	ू ग ो	-0.623674
-1.054358	ू ग ्	-0.5829339
-1.638489	े ग </s>
-1.939519	े ग न	-0.5197088
-1.939519	े ग म	-0.3392945
-0.258278	े ग ा	-1.614077
-1.939519	े ग ि	-0.5867304
-0.8038567	े ग ी	-0.9412318
-1.939519	े ग ु	-0.51475
-0.8038567	े ग े	-1.463548
-1.939519	े ग ौ	-0.5033059
-1.939519	े ग ्	-0.5808707
-1.185637	ै ग ई	-0.4771213
-0.8846066	ै ग ज	-0.4527619
-1.185637	ै ग ण	-0.5006024
-1.185637	ै ग न	-0.5900511
-0.8846066	ै ग म	-0.7864525
-0.4323089	ै ग ो	-0.7387371
-0.1413292	ॉ ग </s>
-0.7781513	ॉ ग ी	-0.2249399
-0.8925227	ो ग </s>
-1.830375	ो ग क	0.6532125
-1.462398	ो ग ग	-0.5228788
-1.529345	ो ग ज	-0.4951657
-1.353253	ो ग त	-0.6703894
-1.830375	ो ग थ	0
-1.462398	ो ग प	-0.6553055
-1.462398	ो ग म	-0.8698491
-1.529345	ो ग ल	-0.5812098
-1.830375	ो ग श	0.3802113
-1.529345	ो ग ा	-0.3941303
-0.7511935	ो ग ि	-0.8264119
-1.228315	ो ग ी	-0.7368232
-1.006466	ो ग े	-0.2477845
-1.131405	ो ग ो	-0.4665833
-1.006466	ो ग ्	-0.483314
-0.4259687	ौ ग ा	-0.5853047
-0.4259687	ौ ग ि	-0.5429909
-0.60206	् ग </s>
-1.50515	् ग ं	-0.5333442
-1.50515	् ग ठ	-0.3701109
-1.50515	् ग द	-0.5672979
-0.9822713	् ग र	-0.5700448
-1.50515	् ग व	-0.111366
-1.137173	् ग श	-0.1249387
-1.50515	् ग स	-0.50515
-1.20412	् ग ा	-0.431153
-1.20412	् ग ी	-0.1000011
-0.9822713	् ग ो	-0.6886148
-1.50515	् ग ्	-0.5693448
-1.596597	<s> घ ं	0
-0.7836837	<s> घ ट	-0.2255766
-1.52965	<s> घ ण	0
-0.9945371	<s> घ न	-0.3132644
-1.170628	<s> घ ब	0
-1.420506	<s> घ म	-0.69897
-1.596597	<s> घ र	-0.2963851
-1.897627	<s> घ स	0
-1.420506	<s> घ ा	-0.3815495
-1.52965	<s> घ ि	0
-1.897627	<s> घ ी	-0.3505154
-0.9123504	<s> घ ु	-0.5586312
-0.959775	<s> घ ू	0
-1.897627	<s> घ े	-0.3309932
-0.8432694	<s> घ ो	0.09913146
-0.2218488	ँ घ ी	-0.2536054
-0.6720979	ं घ </s>
-1.194977	ं घ ट	-0.4918445
-1.496007	ं घ ठ	0
-1.496007	ं घ न	-0.455932
-1.12803	ं घ म	-0.6892102
-1.12803	ं घ र	-0.8330522
-1.496007	ं घ व	-0.20412
-1.496007	ं घ ा	-0.4859667
-0.7426789	ं घ ी	-0.2934769
-1.12803	ं घ े	-0.7269987
-1.12803	ं घ ो	-0.6900152
-0.1249387	इ घ र	-0.3771202
-0.06694679	क घ र	-0.1060534
-0.04139268	ण घ ा	-0.8653014
-0.1249387	ध घ ा	-0.5131189
-0.1249387	प घ ट	-0.5013899
-0.5642715	म घ ट	-0.5789947
-0.2632414	म घ ा	-0.2846395
-0.1249387	य घ ा	-0.3089989
-0.5910646	र घ ा	-0.6405182
-0.312311	र घ ु	-0.5223179
-1.113943	र घ े	-0.5351132
-1.113943	र घ ो	-0.3889852
-0.1249387	ल घ ु	-0.5805203
-0.8016323	स घ न	-0.5631419
-0.1326256	स घ ा	-1
-0.31627	ा घ र	-0.4070835
-0.6842467	ा घ ा	-0.3656728
-0.9852768	ा घ ी	-0.2536054
-0.2747011	ि घ ल	0
-0.4259687	ि घ ्	-0.861218
-0.845098	ी घ र	-0.3771202
-0.1180993	ी घ ्	-0.9542426
-0.1249387	ु घ ्	-0.3493347
-0.8016323	े घ </s>
-0.5006024	े घ द	0
-0.8016323	े घ र	-0.3771202
-0.8016323	े घ ा	-0.2818467
-0.1249387	ो घ े	-0.5351132
-0.6690068	् घ ष	0
-0.3679768	् घ ा	-0.3394882
-0.1249387	ऐ ङ ी	0.69897
-0.8846066	क ङ न	-0.4637573
-0.8846066	क ङ ा	0.1303337
-0.8846066	क ङ ि	0.39794
-0.5835766	क ङ े	0
-0.8846066	क ङ ो	-0.1583625
-0.8239087	ख ङ ा	0.1303337
-0.455932	ख ङ ी	0.39794
-0.455932	ख ङ े	-0.4149734
-0.1249387	त ङ प	0
-0.1249387	न ङ </s>
-0.9700368	प ङ </s>
-0.9700368	प ङ त	-0.4259688
-0.9700368	प ङ ी	0.69897
-0.60206	प ङ े	-0.819544
-0.6690068	प ङ ो	0.01772881
-0.30103	ब ङ े	-0.4149734
-0.6690068	ब ङ ो	-0.1583625
-0.1249387	म ङ </s>
-0.60206	ल ङ क	-0.09691003
-0.60206	ल ङ न	-0.2596374
-0.60206	ल ङ ा	-0.5509075
-0.05799195	ष ङ ्	0
-0.1249387	ा ङ </s>
-0.4259687	ि ङ ल	0
-0.4259687	ि ङ ि	0.39794
-0.05799195	ी ङ </s>
-0.60206	ु ङ </s>
-0.60206	ु ङ ि	0.39794
-0.60206	ु ङ ी	0.69897
-0.1249387	ू ङ ी	0.69897
-0.8239087	े ङ </s>
-0.455932	े ङ ा	-0.1706963
-0.455932	े ङ ो	-0.4593925
-0.4227636	ो ङ </s>
-1.176091	ो ङ न	-0.2596374
-0.69897	ो ङ ा	-0.2676063
-0.8081145	ो ङ े	-0.4149734
-1.176091	ो ङ ो	-0.5465427
-0.4259687	ौ ङ त	-0.4259688
-0.4259687	ौ ङ े	-0.1139434
-0.4259687	् ङ </s>
-0.4259687	् ङ र	0
-1.610475	<s> च ं	-0.160297
-1.509805	<s> च क	-0.4443288
-2.194052	<s> च ट	0
-1.428135	<s> च ढ	0
-1.540839	<s> च न	-0.3590709
-1.768083	<s> च प	-0.4706391
-2.194052	<s> च ब	-0.5026754
-1.216328	<s> च म	-0.5651479
-2.495082	<s> च य	-0.3342709
-1.338734	<s> च र	-0.6933094
-1.509805	<s> च ल	-0.30103
-2.194052	<s> च व	-0.5013898
-1.826075	<s> च श	-0.7367586
-1.858259	<s> च ह	0
-0.8516289	<s> च ा	-0.3354115
-0.7547189	<s> च ि	-0.1013299
-1.467053	<s> च ी	-0.5340369
-0.9854311	<s> च ु	-0.1217337
-1.858259	<s> च ू	0.04575753
-1.359419	<s> च े	-0.2161205
-1.467053	<s> च ै	0
-2.194052	<s> च ॉ	0
-1.591992	<s> च ो	-0.3799959
-1.172862	<s> च ौ	-0.1362199
-1.238882	ँ च त	-0.09892529
-0.8709053	ँ च ल	-0.7897331
-0.7160034	ँ च व	-0.378544
-0.7617608	ँ च ा	-0.4064131
-1.238882	ँ च ी	-0.4238135
-0.8709053	ँ च े	-0.5371674
-1.238882	ँ च ो	-0.4259688
-1.207126	ं च </s>
-1.161368	ं च क	-0.2102455
-0.9060955	ं च त	0.1149546
-1.207126	ं च न	-0.3511398
-1.684247	ं च म	-0.5686362
-1.684247	ं च व	-0.3505154
-0.5179153	ं च ा	-0.2108533
-1.684247	ं च ि	-0.4494498
-1.383217	ं च ी	-0.4039186
-0.957248	ं च े	-0.8459529
-1.684247	ं च ो	-0.4259688
-1.31627	ं च ्	-0.6935071
-0.1249387	ः च े	-0.5929804
-0.60206	अ च छ	0
-0.7569619	अ च र	-0.8806491
-0.7569619	अ च ि	-0.8711115
-0.7569619	अ च ू	-0.6255411
-1.124939	अ च ्	-0.1883571
-0.30103	आ च ा	-0.9138929
-0.4149733	आ च ्	-0.7050347
-0.6690068	इ च ि	-0.59802
-0.1918855	इ च ्	-0.663642
-0.2218488	ई च ्	-0.59176
-1.01424	उ च ो	-0.5642715
-0.09342168	उ च ्	-0.02312386
-0.9242793	ए च </s>
-1.146128	ए च आ	0
-0.5625514	ए च ए	0
-1.447158	ए च ओ	0
-0.7201593	ए च ड	-0.8624722
-1.146128	ए च प	-0.748188
-1.447158	ए च ब	-0.4637573
-1.447158	ए च म	-0.5856696
-1.447158	ए च स	-0.4881167
-0.1249387	ऐ च ्	-0.2657021
-1.113943	क च ं	-0.5698754
-1.113943	क च न	-0.4084352
-0.3606157	क च र	-0.7672537
-0.5910646	क च ्	0.3290587
-0.1249387	ड च ि	-0.5196498
-0.6368221	त च ा	-0.3712057
-0.6368221	त च ि	-0.4494498
-0.6368221	त च ्	-0.2657021
-0.1249387	द च ा	-0.5692516
-0.1249387	ध च न	-0.4084352
-0.5797836	न च ा	-0.5023048
-0.3756636	न च ि	-1.077839
-0.8016323	न च ु	-0.4807555
-1.066947	प च य	-0.3388186
-1.066947	प च र	-0.5696349
-0.2016454	प च ा	-0.6278166
-1.066947	प च ि	-0.5856696
-1.263241	ब च क	-0.4414809
-1.263241	ब च प	-0.5563025
-0.3089989	ब च ा	-0.6055403
-0.7403627	ब च े	-0.6621063
-1.263241	ब च ्	-0.3924772
-0.03476211	भ च ि	-0.4602665
-0.7323937	म च न	-0.8477679
-1.255273	म च र	-0.5828968
-1.255273	म च ल	-0.5840867
-0.6184504	म च ा	-0.9138929
