
\data\
ngram 1=73
ngram 2=1326
ngram 3=9472
ngram 4=24237
ngram 5=30980
ngram 6=28707

\1-grams:
-0.8843701	</s>
-99	<s>	-2.064564
-0.972172	a	-0.7196748
-4.23486	a:	-0.6986231
-1.103924	aa	-0.123322
-4.961859	aai	-0.5413267
-4.535876	ah
-2.239774	ai	-1.267857
-4.961859	al	-0.5664524
-2.549119	au	-1.024441
-1.82832	b	-1.023705
-2.316437	bh	-1.324167
-2.070322	ch	-1.004472
-2.707392	chh	-1.190049
-1.691103	d	-0.7653964
-2.058588	d:	-0.9572763
-2.761374	d:h	-1.021605
-4.535876	d:s
-4.593883	dd	-0.8674824
-2.203705	dh	-1.120993
-4.096558	e	-1.012815
-4.961859	ee	-0.5921889
-1.466454	ei	-1.211261
-4.535876	ein
-4.208531	f	-0.6973384
-1.804402	g	-0.7679126
-2.73483	gh	-1.113519
-1.901665	h	-0.7775584
-4.535876	h:
-1.352016	i	-1.402279
-4.535876	i:
-1.537086	ii	-1.091794
-1.825985	j	-0.8048844
-2.927097	jh	-0.8479169
-1.47298	k	-0.7381027
-2.327718	kh	-0.9297494
-1.590237	l	-0.5631875
-1.568459	m	-0.668203
-1.14203	n	-0.3558862
-2.364164	n:	-0.9981962
-4.961859	n:aa	-0.593124
-4.535876	nd
-4.961859	nd:	-0.5413267
-3.991822	nd~	-0.6815218
-4.660829	nj~	-0.5130386
-4.535876	ns
-4.13795	o	-0.8433229
-4.438981	o-	-0.6188135
-1.579422	oo	-0.9318044
-1.621746	p	-0.878159
-2.349428	ph	-1.044013
-4.961859	ph~	-0.5936223
-4.961859	pii	-0.5664524
-4.961859	puu	-0.5760288
-1.235241	r	-0.2738037
-4.660829	ri	-0.4688849
-2.745253	rx	-1.487675
-1.505088	s	-1.191317
-1.950571	sh	-0.7611535
-2.413675	shh	-0.7849573
-4.961859	sii	-0.5413267
-4.593883	sj	-0.8882232
-1.471901	t	-1.11739
-1.906226	t:	-0.9214941
-2.907501	t:h	-0.8140773
-2.380554	th	-0.6726183
-4.535876	th:
-1.715771	u	-1.03283
-2.089314	uu	-0.4274853
-1.648343	v	-1.109611
-1.625066	y	-1.577011
-4.535876	ya
-4.359799	z	-0.5615274

\2-grams:
-1.280268	<s> a	-0.06424892
-1.603296	<s> aa	-0.8340032
-2.483237	<s> ai	-0.3980668
-2.822725	<s> au	-0.5607103
-1.191695	<s> b	-0.814258
-1.741538	<s> bh	-0.5277463
-1.584307	<s> ch	-1.246222
-2.054059	<s> chh	-0.6460993
-1.501656	<s> d	-1.266593
-1.934983	<s> d:	-1.177981
-2.498214	<s> d:h	-1.03486
-2.039245	<s> dh	-0.6995451
-1.883946	<s> ei	-0.9422319
-1.438843	<s> g	-0.649745
-2.199093	<s> gh	-0.6152976
-1.536418	<s> h	-1.077947
-1.920641	<s> i	-0.8105639
-2.735575	<s> ii	-0.7261312
-1.397058	<s> j	-1.31411
-2.241251	<s> jh	-0.6727204
-1.138478	<s> k	-1.513627
-1.801536	<s> kh	-0.9592144
-1.610636	<s> l	-1.440446
-1.193391	<s> m	-1.632062
-1.400999	<s> n	-1.770954
-2.755778	<s> oo	-0.09087121
-1.040969	<s> p	-1.420521
-1.770501	<s> ph	-0.9166964
-1.446554	<s> r	-1.407304
-3.776967	<s> rx	-0.4693115
-1.016168	<s> s	-1.361151
-1.663024	<s> sh	-1.17839
-3.123755	<s> shh	-0.6189705
-1.567006	<s> t	-1.272603
-1.99641	<s> t:	-1.020313
-2.830843	<s> t:h	-0.627938
-2.274085	<s> th	-0.7178462
-1.70142	<s> u	-0.7928554
-2.691796	<s> uu	-0.714184
-1.370427	<s> v	-1.024857
-2.0173	<s> y	-0.1073635
-1.434871	a </s>
-3.291399	a a	-0.2977317
-3.689338	a aa	-0.5322114
-3.990368	a au	-0.5402021
-1.795392	a b	0.442433
-2.047534	a bh	-0.2848305
-2.05419	a ch	-0.2913308
-2.911187	a chh	-0.7914804
-1.50512	a d	0.02990985
-2.109555	a d:	-0.09067917
-2.181932	a d:h	-0.4275308
-3.622392	a dd	0
-2.096422	a dh	-0.1855885
-3.513247	a ei	-0.4071359
-1.761626	a g	-0.2988578
-2.854706	a gh	-0.5006376
-1.403781	a h	-0.3133591
-2.84424	a i	-0.6619081
-3.188736	a ii	-0.2984492
-1.787154	a j	0.3624901
-3.105762	a jh	-0.4416915
-1.194952	a k	0.393695
-2.327611	a kh	-0.2505598
-1.211253	a l	0.0795759
-1.193101	a m	0.1878064
-0.7332501	a n	-0.002882242
-1.658604	a n:	-0.209133
-3.353546	a nd~	-0.1512677
-3.990368	a o	-0.5413622
-3.125067	a oo	-0.7355392
-1.665401	a p	-0.1100297
-2.410585	a ph	-0.5214889
-0.7597492	a r	0.2304449
-1.3685	a s	-0.09581292
-1.845276	a sh	-0.2246932
-2.735096	a shh	-0.8400738
-1.186456	a t	-0.2830054
-1.854706	a t:	-0.1281924
-2.795392	a t:h	-0.3739667
-2.309127	a th	-0.3666822
-3.14527	a u	-0.529901
-3.513247	a uu	-0.3179559
-1.50323	a v	0.3110303
-1.802848	a y	0.5239638
-3.990368	a z	-0.3802113
-0.2787536	a: </s>
-0.8016323	a: r	-0.5735398
-0.8016323	a: v	-0.5716966
-0.6960543	aa </s>
-3.858818	aa a	-0.5830602
-3.557788	aa aa	-0.5844347
-3.858818	aa ai	-0.5747859
-3.335939	aa au	-0.6933297
-2.052638	aa b	-0.3725269
-2.645743	aa bh	-0.3060986
-2.043683	aa ch	-0.6782069
-3.490841	aa chh	-0.8927775
-1.548479	aa d	-0.437086
-2.298512	aa d:	-0.2276663
-2.779637	aa d:h	-0.5681063
-2.032743	aa dh	-0.3865481
-1.749352	aa ei	-1.153372
-1.837628	aa g	-0.1204443
-2.974211	aa gh	-0.3804895
-1.700455	aa h	-0.1511106
-1.598746	aa i	-0.586261
-1.789396	aa ii	-0.04357815
-1.69745	aa j	0.005478859
-3.858818	aa jh	-0.4602407
-1.608398	aa k	-0.3354235
-2.466707	aa kh	-0.2221566
-1.298911	aa l	-0.3092319
-1.475002	aa m	-0.2312998
-0.8783599	aa n	0.1174326
-2.208834	aa n:	-0.2054307
-1.818743	aa oo	-1.666566
-1.670358	aa p	-0.3133898
-2.50343	aa ph	-0.2073362
-3.858818	aa puu	0
-0.9115475	aa r	-0.2412211
-1.471428	aa s	-0.1765945
-1.90297	aa sh	-0.4928198
-2.331618	aa shh	-0.6482162
-1.378332	aa t	-0.5086282
-2.162753	aa t:	-0.5037134
-2.663841	aa t:h	-0.39668
-2.208834	aa th	0.08260226
-2.372151	aa u	-0.8539332
-2.628369	aa uu	-0.7914881
-1.436119	aa v	-0.04299641
-1.284401	aa y	-0.4699433
-0.1249387	aai </s>
-1.573357	ai </s>
-2.252583	ai b	-0.4420408
-2.729705	ai bh	-0.5407316
-2.729705	ai ch	-0.2862687
-1.701676	ai d	-0.426558
-1.662758	ai d:	-0.3579254
-2.127645	ai dh	-0.3442772
-2.729705	ai ei	-0.5825098
-1.414434	ai g	-0.6221904
-2.729705	ai ii	-0.5985245
-1.744428	ai j	-0.3307495
-0.9815166	ai k	-0.4106922
-2.729705	ai kh	-0.5619854
-1.099616	ai l	-0.1223586
-1.169399	ai m	-0.436775
-0.6565975	ai n	-0.09010267
-1.729705	ai p	-0.902254
-1.928072	ai ph	-0.5135664
-1.189793	ai r	-0.3845375
-1.2156	ai s	-0.1546817
-1.701676	ai sh	-0.3533631
-1.428675	ai t	-0.3167273
-1.238343	ai t:	-0.4235863
-2.252583	ai t:h	-0.1685254
-1.675347	ai th	-0.2930765
-1.594042	ai v	0.01061571
-1.393913	ai y	-0.0582698
-0.1249387	al aa	-0.5909793
-1.627581	au </s>
-2.429214	au b	-0.5769569
-1.952093	au bh	-0.5633008
-2.429214	au ch	-0.1724014
-2.429214	au chh	-0.5175151
-1.113943	au d	-0.4958651
-1.293551	au d:	-0.6433334
-2.128184	au d:h	-0.551569
-1.627581	au dh	-0.4376978
-2.061237	au f	-0.7160034
-2.429214	au g	-0.2331328
-1.730244	au h	-0.5023007
-1.272867	au j	0.08375764
-2.429214	au jh	-0.5449768
-1.158147	au k	-0.1844025
-1.216139	au l	-0.4242387
-1.350033	au m	-0.8097446
-0.834453	au n	-0.3732162
-1.730244	au p	-0.3135533
-2.128184	au ph	-0.5326201
-0.8769513	au r	-0.3297002
-1.338133	au s	-0.4087363
-1.526124	au sh	-0.3438278
-2.128184	au shh	-0.3816724
-1.135483	au t	-0.5605243
-1.827154	au t:	-0.3641348
-2.429214	au th	-0.1392121
-1.827154	au v	-0.3468854
-1.426638	b </s>
-0.479026	b a	-0.6491061
-3.137038	b a:	-0.5274264
-0.8659707	b aa	-0.4020879
-1.468031	b ai	-0.4222777
-2.358886	b au	-0.7408523
-2.057856	b b	-0.5472093
-3.137038	b ch	-0.4734314
-2.167001	b d	-0.5398261
-2.769061	b d:	-0.6176451
-2.358886	b dh	-0.5468655
-1.051866	b ei	0.09816289
-3.137038	b h	-0.4538297
-1.04245	b i	-0.422664
-1.250547	b ii	0.1833981
-3.137038	b j	-0.2154993
-3.137038	b jh	-0.5771615
-2.313129	b k	-0.4412885
-1.705674	b l	-0.6133536
-3.137038	b m	-0.5777018
-2.836007	b n	-0.5496125
-1.358886	b oo	-0.3866515
-1.237582	b r	-0.880457
-3.137038	b ri	-0.4259688
-3.137038	b rx	0.5101668
-2.438067	b s	-0.337351
-2.659916	b t	-0.3319595
-3.137038	b t:	-0.5960872
-1.490307	b u	-0.5720967
-1.769061	b uu	-0.4801834
-3.137038	b v	-0.5691371
-3.137038	b y	-0.2710277
-1.849646	bh </s>
-0.6690068	bh a	-0.6647109
-0.5418119	bh aa	-0.2370042
-2.651278	bh ai	-0.3861831
-1.873127	bh au	-0.7118177
-2.174157	bh ch	-0.9412726
-1.308855	bh ei	-0.8784018
-0.880426	bh i	-0.6135475
-1.322219	bh ii	-0.221697
-2.651278	bh k	-0.5338798
-2.651278	bh n	-0.583198
-1.713426	bh oo	-0.4032554
-1.484947	bh r	-0.7140706
-2.283301	bh rx	0.2091368
-2.651278	bh t	-0.5150343
-1.253338	bh u	-0.7945564
-1.094975	bh uu	-0.5584133
-1.697036	bh y	-0.528522
-1.429165	ch </s>
-0.5911748	ch a	-0.4729407
-0.7034016	ch aa	-0.4989718
-1.829579	ch ai	-0.5953546
-1.554103	ch au	-0.5621894
-2.896526	ch b	-0.5769569
-1.782583	ch ch	-0.5786303
-1.47602	ch chh	-0.4421386
-2.259704	ch d:	-1.107054
-1.191804	ch ei	-0.4419779
-2.896526	ch gh	-0.3898473
-0.8979763	ch i	-0.6818322
-1.429165	ch ii	-0.06337053
-1.805446	ch k	-0.8356138
-2.094894	ch l	-0.4735579
-2.896526	ch m	-0.5803407
-1.793864	ch n	-1.084299
-1.534798	ch oo	-0.4285761
-2.896526	ch p	-0.4523093
-1.942284	ch r	-0.7400362
-2.896526	ch s	-0.5780329
-2.595496	ch sh	-0.5480741
-1.842169	ch t	-0.6279501
-1.344264	ch u	-0.9587296
-1.855134	ch uu	-0.5867782
-2.169528	ch v	-0.3367869
-2.896526	ch y	-0.3817104
-1.629566	chh </s>
-0.6229358	chh a	-0.5733971
-0.7522837	chh aa	-0.4180662
-2.266388	chh b	-0.5607729
-1.629566	chh d	-0.5732185
-1.898412	chh d:	-0.8537217
-1.381782	chh ei	-0.7523077
-0.95818	chh i	-0.688484
-1.53939	chh ii	-0.5424321
-1.898412	chh l	-0.6118382
-1.110041	chh oo	-0.8275789
-1.44248	chh t	-0.9160026
-1.04454	chh u	-0.6999598
-1.019234	chh uu	-0.9452112
-0.9215131	d </s>
-0.7551817	d a	-0.8275078
-0.8526403	d aa	-0.4050589
-2.546697	d ai	-0.7606441
-2.370606	d au	-0.6805671
-2.472063	d b	-0.4855564
-2.335844	d bh	-0.5211789
-2.449787	d ch	-0.8710501
-3.273695	d chh	-0.5175151
-1.787029	d d	-0.6300816
-1.5281	d dh	-0.6393826
-2.972666	d e	-0.1638568
-1.0815	d ei	-0.7546846
-2.636873	d g	-0.5072103
-3.273695	d gh	-0.5363642
-3.273695	d h	-0.5738232
-1.121407	d i	-0.4473559
-1.125504	d ii	-0.7112014
-2.972666	d j	-0.4026627
-2.245667	d k	-0.5711226
-2.671636	d l	-0.425027
-2.303659	d m	-0.5360796
-1.924742	d n	-0.9586408
-1.398634	d oo	-0.4553108
-2.972666	d p	-0.4097719
-3.273695	d ph	-0.5741238
-1.24839	d r	-1.014201
-3.273695	d ri	-0.4259688
-2.206749	d rx	-0.4440756
-2.182615	d s	-0.61321
-2.972666	d sh	-0.4809166
-3.273695	d shh	-0.5786898
-1.944637	d t	-0.8897371
-1.454152	d u	-0.6289024
-1.623712	d uu	-0.4410214
-1.693912	d v	-0.1772795
-1.598529	d y	-0.707566
-0.6753101	d: </s>
-0.8722099	d: a	-0.7446925
-0.968787	d: aa	-0.8286634
-2.908306	d: ai	-0.5903031
-2.106674	d: au	-0.4224522
-2.431185	d: b	-0.5425115
-1.841359	d: d:	-0.3479805
-2.607276	d: d:h	-0.385766
-1.084398	d: ei	-0.4050553
-2.385427	d: g	-0.6664008
-2.908306	d: h	-0.4538297
-0.9944924	d: i	-0.6088347
-1.065281	d: ii	-0.3183014
-1.92303	d: k	-0.6019992
-1.938269	d: l	-0.6118606
-2.306246	d: m	-0.5077177
-2.063208	d: n	-0.703176
-1.104394	d: oo	-0.8225666
-2.908306	d: p	-0.516793
-2.431185	d: ph	-0.6449244
-1.629553	d: r	-0.7298566
-1.805644	d: s	-1.239025
-1.572514	d: t	-1.186194
-1.853949	d: u	-0.8312989
-1.92303	d: uu	-1.130426
-2.106674	d: v	-0.4855238
-1.970454	d: y	-0.9618965
-0.7781513	d:h </s>
-0.9360902	d:h a	-0.7880782
-0.493308	d:h aa	-0.6360997
-2.214844	d:h d:h	-0.5700111
-1.147897	d:h ei	-0.6747862
-1.244807	d:h i	-0.8879412
-1.691965	d:h ii	-0.6997926
-1.691965	d:h k	-0.9309433
-1.612784	d:h n	-0.613728
-1.147897	d:h oo	-0.7145486
-2.214844	d:h p	-0.516793
-2.214844	d:h s	-0.4851241
-2.214844	d:h shh	-0.5890951
-1.413211	d:h t	-0.6961078
-1.436693	d:h uu	-1.22321
-0.05799195	dd aa	-0.805448
-1.211664	dh </s>
-0.6335931	dh a	-0.5497857
-0.6895981	dh aa	-0.7471814
-2.241048	dh ai	-1.012392
-2.763927	dh ch	-0.4734314
-2.763927	dh dh	-0.4871433
-1.448656	dh ei	-0.7837229
-0.8064793	dh i	-0.6969435
-1.371816	dh ii	-0.5309968
-1.809684	dh k	-0.9608162
-2.763927	dh m	-0.4787092
-2.127105	dh n	-0.8561993
-1.291658	dh oo	-0.6063218
-2.39595	dh p	-0.8864489
-2.286806	dh r	-0.459767
-2.763927	dh rx	0.5101668
-2.763927	dh s	-0.592536
-1.77865	dh t	-1.004639
-1.286806	dh u	-0.740155
-1.649984	dh uu	-0.503051
-1.826075	dh v	-0.8534004
-1.291658	dh y	-0.8844962
-0.1014576	e </s>
-0.90309	e sh	-0.5480741
-0.1249387	ee v	-0.5716966
-0.5144243	ei </s>
-2.35117	ei a	-0.5740056
-2.695666	ei aa	-0.6857525
-1.95323	ei b	-0.1841527
-3.129322	ei bh	-0.7560562
-1.957386	ei ch	-0.06863856
-1.628067	ei d	-0.3777524
-1.738891	ei d:	-0.06245649
-3.129322	ei d:h	-0.8239087
-2.695666	ei dh	-0.4134893
-2.442941	ei ei	-0.5941207
-3.497298	ei f	-0.5314789
-1.607064	ei g	-0.7874506
-2.719147	ei gh	-0.3687516
-2.02503	ei h	-0.1849933
-3.196268	ei i	-0.4119483
-1.648084	ei j	-0.2228415
-1.483058	ei k	-0.387141
-2.07133	ei kh	-0.3595658
-1.328016	ei l	-0.2278852
-1.551174	ei m	-0.4812614
-0.7343698	ei n	-0.7878963
-2.97442	ei n:	-0.5490349
-3.497298	ei oo	-0.5783235
-1.987648	ei p	-0.6858065
-2.029937	ei ph	-0.4129407
-3.497298	ei ph~	0
-1.462536	ei r	-0.3910676
-1.356372	ei s	-0.4231783
-1.310719	ei sh	-0.4404591
-2.16824	ei shh	-0.5333066
-1.622237	ei t	-0.5665935
-1.44422	ei t:	-0.2792459
-2.97442	ei t:h	-0.6014547
-2.527261	ei th	-0.6752663
-1.688862	ei v	-0.1770639
-1.940996	ei y	-0.2503065
-3.196268	ei z	-0.20412
-0.455932	f </s>
-0.8239087	f a	-0.3149829
-0.455932	f g	-0.8981656
-0.9356592	g </s>
-0.6877249	g a	-0.1637396
-0.8394391	g aa	0.09709764
-1.947894	g ai	-0.6929035
-1.93912	g au	-0.6307821
-2.859938	g b	-0.5093009
-3.160969	g bh	-0.2932047
-2.859938	g d	-0.3673817
-2.382817	g d:	-0.5139004
-2.359336	g dh	-0.8700463
-1.085422	g ei	-0.7206677
-2.63809	g g	-0.4894038
-1.423246	g i	-0.7102978
-1.326336	g ii	-0.8694928
-2.461998	g j	-0.3967829
-2.792992	g k	-0.7926406
-1.786831	g l	-0.5064602
-2.276362	g m	-0.7503803
-1.774767	g n	-0.5806056
-3.160969	g o	-0.3542755
-1.094022	g oo	-0.3516921
-2.407641	g p	-0.7854356
-1.148131	g r	-0.9396841
-2.03603	g rx	-0.1374418
-2.683847	g s	-0.6556962
-3.160969	g sh	-0.3656695
-2.146728	g t	-0.5109441
-3.160969	g t:	-0.5374
-2.859938	g th	-0.3779802
-1.20512	g u	-0.6288663
-2.069888	g uu	-0.5247083
-2.160969	g v	-0.4729367
-1.633768	g y	-0.6032797
-1.43725	gh </s>
-0.4128073	gh a	-0.8994844
-0.8526805	gh aa	-0.5308824
-1.937852	gh d	-0.8346438
-1.60206	gh ei	-0.3341235
-1.60206	gh i	-0.640867
-1.354275	gh ii	-0.5187092
-1.539912	gh n	-0.6854471
-1.072551	gh oo	-0.4944555
-1.511883	gh r	-0.7701131
-0.9836096	gh u	-0.4364208
-1.30103	gh uu	-0.635542
-2.238882	gh v	-0.478263
-1.359611	h </s>
-0.5388564	h a	-0.6871243
-0.7352744	h aa	-0.3104913
-1.572971	h ai	-0.2415712
-2.050093	h au	-0.8273637
-3.064333	h ch	-0.3690777
-2.696356	h chh	-0.859418
-3.064333	h d	-0.2353276
-3.064333	h dh	-0.4871433
-1.159437	h ei	-0.5589763
-2.262701	h g	-0.6522565
-3.064333	h h	-0.4538297
-1.036304	h i	-0.3440076
-1.20101	h ii	-0.5169131
-2.587212	h j	-0.3442191
-2.696356	h k	-0.7926406
-2.427511	h l	-0.5065798
-1.617175	h m	-0.7502388
-1.985152	h n	-0.7204654
-1.401575	h oo	-0.2372393
-2.427511	h p	-0.4758411
-1.690196	h r	-0.8191377
-2.286182	h rx	-0.1665268
-2.462273	h s	-0.4288132
-2.763303	h sh	-0.429718
-3.064333	h t	-0.1246295
-3.064333	h t:	-0.5687574
-1.359611	h u	-0.3389407
-1.684122	h uu	-0.6181815
-2.036304	h v	-0.5121365
-1.973253	h y	-0.4849888
-1.188017	i </s>
-3.310233	i a	-0.3583906
-3.009203	i aa	-0.4866212
-3.611263	i aai	0
-2.084063	i b	-0.3108332
-2.201894	i bh	-0.718902
-2.101613	i ch	-0.1030391
-2.611263	i chh	-0.5743447
-1.551826	i d	-0.2961291
-1.964532	i d:	-0.0921278
-2.766165	i d:h	-0.2936859
-1.971113	i dh	-0.5832945
-2.225061	i ei	-0.3332458
-1.825933	i g	-0.6075058
-2.583234	i gh	-0.9973193
-1.927016	i h	-0.740581
-3.310233	i ii	-0.592641
-1.585957	i j	-0.251097
-0.9842386	i k	-0.3220706
-2.023926	i kh	-0.4976045
-1.21974	i l	-0.1125839
-1.676764	i m	-0.2799333
-0.9453694	i n	-0.03555584
-2.416286	i n:	-0.263957
-3.611263	i nd~	-0.5606673
-3.611263	i oo	-0.3011494
-1.590074	i p	0.1607629
-2.143902	i ph	-0.4826997
-1.351988	i r	0.03934765
-3.611263	i rx	0.7142868
-1.339421	i s	-0.2910166
-1.474542	i sh	-0.1821171
-1.649052	i shh	-0.3443506
-1.047387	i t	-0.3181568
-1.751924	i t:	-0.190914
-2.974441	i t:h	-0.7382681
-2.324956	i th	-0.3210764
-1.459995	i v	-0.4041425
-0.8158464	i y	-0.8745089
-0.2639281	ii </s>
-3.426891	ii a	-0.5986722
-2.506072	ii aa	-0.7834191
-3.058914	ii ai	-0.8913331
-2.052753	ii b	-0.1354057
-3.426891	ii bh	-0.3615592
-2.196442	ii ch	-0.6194358
-1.656039	ii d	-0.4351826
-2.163649	ii d:	-0.3596279
-3.426891	ii d:h	-0.5766129
-2.904012	ii dh	-0.5219054
-1.930884	ii ei	-0.9332485
-2.222771	ii g	-0.4329766
-2.625258	ii gh	-0.7866286
-2.727921	ii h	-0.4386398
-3.125861	ii ii	-0.06531081
-1.710887	ii j	-0.4159825
-3.426891	ii jh	-0.5943505
-1.469443	ii k	-0.5008186
-2.222771	ii kh	-0.3773694
-1.689168	ii l	-0.3809084
-1.71932	ii m	-0.4566189
-1.167615	ii n	-0.6863397
-2.790069	ii n:	-0.4646515
-2.824831	ii oo	-0.1467075
-1.683904	ii p	-0.7727284
-2.324228	ii ph	-0.4276133
-1.471043	ii r	-0.3155577
-1.708112	ii s	-0.5261974
-2.091099	ii sh	-0.3710606
-2.790069	ii shh	-0.5983183
-1.573598	ii t	-0.4610754
-1.874628	ii t:	-0.3535431
-2.757884	ii t:h	-0.5599611
-3.426891	ii th	-0.2285467
-3.426891	ii u	-0.5736834
-1.689168	ii v	-0.09042764
-1.256629	ii y	-0.5324824
-0.9526696	j </s>
-0.5906551	j a	-0.8791969
-0.8184108	j aa	-0.02654934
-1.972918	j ai	-0.2014142
-2.662128	j au	-0.5126287
-2.337617	j b	-0.7439031
-3.139249	j bh	-0.2932047
-3.139249	j d	-0.2672175
-2.61637	j dh	-0.9421077
-3.139249	j ee	0
-1.211537	j ei	-0.06058049
-2.169212	j g	-0.5246658
-2.61637	j h	-0.9531037
-1.177038	j i	-0.8000911
-0.9849267	j ii	-0.2251104
-1.9088	j j	-0.5242162
-2.502427	j k	-0.5933195
-2.662128	j l	-0.7001981
-2.412251	j m	-0.4401678
-1.860496	j n	-1.072404
-2.838219	j nj~	0
-1.188236	j oo	-0.7479514
-2.072302	j p	-0.7363312
-2.236159	j r	-0.660513
-3.139249	j s	-0.578937
-2.385921	j sh	-0.6595809
-2.236159	j t	-0.5949562
-3.139249	j t:	-0.5645124
-1.388484	j u	-0.7399586
-1.796826	j uu	-0.2786931
-2.218431	j v	-0.313177
-1.71328	j y	-0.4265741
-1.254001	jh </s>
-0.9095051	jh a	-0.3740876
-0.5550308	jh aa	-0.7920527
-1.070356	jh ei	-0.6933942
-2.055633	jh i	-0.3709329
-1.754603	jh ii	-0.2405
-2.055633	jh k	-0.3727118
-2.055633	jh l	-0.5227319
-2.055633	jh m	-0.5777018
-1.687656	jh n	-0.6386008
-1.041393	jh oo	-0.7051494
-2.055633	jh t	-0.2686335
-0.7403627	jh u	-0.6593324
-1.254001	jh uu	-0.9956236
-0.848526	k </s>
-0.6486759	k a	-0.5666925
-0.83777	k aa	-0.3266485
-1.803429	k ai	-0.176967
-2.168441	k au	-0.6640474
-2.606054	k b	-0.5465723
-2.967782	k ch	-0.9127641
-2.606054	k d	-0.5719811
-2.387998	k d:	-0.3878224
-1.29384	k ei	-0.008303881
-2.606054	k g	-0.555014
-3.189631	k gh	-0.6328853
-2.967782	k h	-0.4483215
-1.376717	k i	-0.541097
-1.512937	k ii	-0.223352
-3.490661	k j	-0.3704013
-2.092721	k k	-0.6770037
-3.013539	k kh	-0.5327969
-1.967782	k l	-0.7286763
-2.689028	k m	-0.4762035
-2.075687	k n	-0.813066
-3.490661	k o-	-0.4881167
-1.248451	k oo	-0.4266062
-2.625359	k p	-0.4465652
-3.122684	k ph	-0.868819
-1.380071	k r	-0.9940137
-1.881422	k rx	-0.5075619
-1.785938	k s	-0.342792
-2.003994	k sh	-0.8061296
-1.486339	k shh	-0.1429231
-1.345568	k t	-0.4918973
-1.946593	k t:	-0.5364285
-3.490661	k th	-0.2941141
-1.393751	k u	-0.417192
-2.038363	k uu	-0.7209588
-1.967782	k v	-0.5785002
-2.569842	k y	-0.3983778
-1.227161	kh </s>
-0.6237115	kh a	-0.8838012
-0.7144222	kh aa	-0.3181232
-2.119256	kh au	-0.7710894
-2.642135	kh b	-0.2597429
-2.642135	kh d	-0.3603616
-1.081829	kh ei	-0.5023856
-1.054798	kh i	-0.5977929
-1.528191	kh ii	-0.6946692
-2.642135	kh k	-0.4916106
-2.274158	kh l	-0.8237619
-1.915136	kh m	-0.5865976
-1.943165	kh n	-0.5736053
-1.179737	kh oo	-0.5336783
-1.776833	kh r	-0.3439735
-2.642135	kh rx	0.5101668
-2.274158	kh s	-0.8766603
-1.447158	kh t	-0.6145432
-1.420286	kh u	-0.9838958
-1.642135	kh uu	-1.131535
-1.672098	kh v	-1.338601
-1.403253	kh y	-0.913887
-0.8046408	l </s>
-0.8978596	l a	-0.2033492
-0.7774177	l aa	0.05079055
-1.733865	l ai	-0.6082205
-2.12686	l au	-0.7410479
-2.271352	l b	-0.5504321
-3.072985	l bh	-0.4973247
-2.737193	l ch	-0.4332557
-3.374015	l chh	-0.4838627
-2.197923	l d	-0.558156
-1.921717	l d:	-0.4922099
-1.041576	l ei	-0.285043
-3.006038	l f	-0.7160034
-2.319657	l g	-0.5479243
-2.436163	l h	-0.5270097
-1.070099	l i	-0.4052016
-1.109984	l ii	-0.2827525
-2.374015	l j	0.02905238
-2.359774	l jh	-0.7646413
-1.834103	l k	-0.5772805
-3.374015	l kh	-0.4841051
-1.720802	l l	-0.4715997
-1.993804	l m	-0.5779016
-2.058744	l n	-0.9512694
-1.310807	l oo	-0.4812608
-1.981904	l p	-0.4677083
-2.508713	l ph	-0.3125539
-2.595864	l r	-0.5738506
-3.374015	l rx	0.5101668
-1.896894	l s	-0.8090599
-2.851136	l sh	-0.6599473
-1.67795	l t	-1.159958
-1.926857	l t:	-0.7998754
-2.851136	l th	-0.9689094
-1.970322	l u	-0.6740314
-1.85991	l uu	-0.4389505
-1.809743	l v	-0.3153343
-1.878008	l y	-0.2854544
-1.007159	m </s>
-0.6068588	m a	0.09741187
-0.7714519	m aa	0.05431914
-1.705538	m ai	-0.4101745
-2.094704	m au	-0.3296981
-1.520673	m b	-0.1842282
-1.933336	m bh	-0.3318405
-2.668735	m ch	-0.6556145
-2.102003	m d	-0.3581539
-3.395734	m d:	-0.5629855
-1.263261	m ei	-0.3879995
-2.918613	m g	-0.3927022
-2.918613	m gh	-0.2343614
-2.148579	m h	-0.4442927
-1.201682	m i	-0.7862189
-1.336297	m ii	-0.4435719
-2.316553	m j	-0.6264193
-2.594102	m jh	-0.3423069
-2.021597	m k	-0.6631429
-2.550636	m l	-0.4196826
-1.808397	m m	-0.8023494
-2.109427	m n	-0.8041526
-1.34781	m oo	-0.2165679
-1.48904	m p	-0.5385218
-2.872855	m ph	-0.6895726
-3.395734	m pii	0
-1.943436	m r	-0.8529218
-2.410457	m rx	-0.3648944
-2.094704	m s	-0.6038823
-2.668735	m sh	-0.5718875
-2.140461	m t	-0.7980282
-3.094704	m t:	-0.5687574
-3.395734	m th	-0.5103115
-1.311754	m u	-0.4623642
-1.851666	m uu	-0.6048799
-2.668735	m v	-0.567119
-2.239387	m y	-0.4206523
-0.4743961	n </s>
-1.147179	n a	-0.4440992
-1.105368	n aa	-0.3428177
-2.718152	n ai	-0.556495
-2.565542	n au	-0.3437522
-2.866572	n b	-0.2875719
-3.519784	n bh	-0.4430766
-1.955513	n ch	-0.4713678
-3.820814	n chh	-0.1248407
-1.344659	n d	-0.8265604
-1.535257	n d:	-0.6452368
-2.917724	n d:h	-0.5398103
-1.822264	n dh	-0.1875492
-3.093816	n e	0.1249387
-1.371593	n ei	-0.8184204
-1.288485	n g	-0.5036583
-2.434613	n gh	-0.6473398
-2.30671	n h	-0.3678633
-1.242175	n i	-0.220356
-1.48037	n ii	-0.5979121
-1.93058	n j	-0.6386284
-3.093816	n jh	-0.7113577
-1.659446	n k	-0.2861605
-2.581932	n kh	-0.7171226
-2.792786	n l	-0.5406692
-2.204514	n m	-0.772425
-2.064939	n n	-0.6777592
-1.694791	n oo	-0.7080818
-2.428704	n p	-0.1764932
-2.835537	n ph	-0.4852163
-2.485022	n r	-0.3464895
-3.093816	n rx	-0.1182221
-1.581932	n s	-0.2337935
-2.417122	n sh	-0.4664857
-3.452837	n shh	-0.6463731
-3.820814	n sii	0
-1.435804	n t	-0.6982906
-1.715872	n t:	-0.5875824
-3.218754	n t:h	-0.7841582
-2.590365	n th	-0.4534523
-1.806574	n u	-0.728308
-2.706871	n uu	-0.5797232
-2.030764	n v	-0.4170946
-1.949631	n y	0.159574
-0.3434981	n: </s>
-1.180771	n: a	-0.6313449
-1.019403	n: aa	-0.2894577
-2.238763	n: b	-0.8395265
-2.60674	n: bh	-0.4973247
-2.60674	n: d:	-0.499028
-2.60674	n: dh	-0.4871433
-1.60674	n: ei	-0.7049629
-2.30571	n: g	-0.3715311
-2.083861	n: gh	-0.9756969
-1.28452	n: i	-0.698885
-1.058555	n: ii	-0.6903068
-1.741438	n: k	-0.8786294
-2.60674	n: l	-0.5669664
-2.30571	n: m	-0.7217472
-2.129618	n: n	-0.5143894
-1.277681	n: oo	-1.195321
-1.853412	n: p	-0.5035616
-2.60674	n: sh	-0.5697895
-1.805107	n: t	-0.8682892
-1.805107	n: u	-0.8077749
-1.90777	n: v	-0.3983737
-1.552382	n: y	-0.9059184
-0.1249387	n:aa d	-0.5363576
-0.1249387	nd: </s>
-0.314394	nd~ </s>
-1.041393	nd~ a	-0.5728278
-1.041393	nd~ a:	-0.5274264
-1.041393	nd~ d:	-0.5664926
-1.041393	nd~ oo	-0.3011494
-0.4259687	nj~ a	-0.5882097
-0.4259687	nj~ aa	-0.5404174
-0.3617278	o l	-0.7652975
-0.5166298	o s	-0.8922251
-0.8846066	o t	-0.5975571
-0.2688453	o- j	-0.7742821
-0.6368221	o- l	-0.3961006
-1.274182	oo </s>
-3.384771	oo a	-0.5191029
-3.384771	oo aa	-0.3831435
-2.062552	oo b	-0.3617324
-2.861893	oo bh	-0.4897884
-1.90765	oo ch	-0.5245289
-3.384771	oo chh	-0.5175151
-1.543829	oo d	-0.4997877
-1.688706	oo d:	-0.3431476
-2.60662	oo d:h	-0.657992
-1.888765	oo dh	-0.3226966
-2.446919	oo ei	-0.3531164
-1.558697	oo g	-0.308767
-1.585431	oo h	-0.3791185
-3.083741	oo i	-0.5485047
-2.481681	oo ii	-0.5316733
-1.576335	oo j	-0.1227829
-3.384771	oo jh	-0.3593402
-1.574091	oo k	-0.2871206
-2.199135	oo kh	-0.5488192
-1.42256	oo l	-0.2035824
-1.857571	oo m	-0.1456346
-0.3011494	oo n	-1.171958
-2.90765	oo n:	-0.3752904
-1.585431	oo p	-0.658245
-2.539673	oo ph	-0.5093786
-1.329138	oo r	-0.3817756
-3.083741	oo rx	0.5449289
-1.668768	oo s	-0.1807843
-1.857571	oo sh	-0.4479022
-2.259833	oo shh	-0.3179683
-1.601821	oo t	-0.2842859
-1.768471	oo t:	-0.4489574
-2.861893	oo t:h	-0.7545357
-2.539673	oo th	-0.5328239
-3.384771	oo u	-0.5761995
-2.00456	oo v	-0.2296866
-2.270828	oo y	-0.5723091
-1.303473	p </s>
-0.5351414	p a	-0.5062491
-0.9602082	p aa	-0.4245992
-1.879827	p ai	-0.3271456
-2.086953	p au	-0.7064223
-3.342225	p b	-0.426918
-3.041195	p bh	-0.5788301
-2.540593	p ch	-0.4877276
-2.615227	p d	-0.8445029
-2.615227	p d:	-0.8780192
-1.501283	p ei	-0.4069077
-3.342225	p g	-0.3699779
-2.974248	p h	-0.5649235
-1.417946	p i	-0.581857
-1.424895	p ii	-0.2425385
-3.041195	p j	-0.49784
-2.103343	p k	-0.6676081
-1.895067	p l	-0.6986763
-2.540593	p m	-0.5887133
-1.841623	p n	-1.069559
-1.536045	p oo	-0.4853982
-2.095071	p p	-0.7395444
-0.7489392	p r	-1.635606
-2.865104	p rx	0.1122268
-2.457619	p s	-0.4652634
-3.342225	p sh	-0.3551784
-1.846219	p t	-0.402908
-2.540593	p t:	-0.5964964
-1.17986	p u	-0.939887
-1.28532	p uu	-1.180596
-2.615227	p v	-0.8158697
-2.103343	p y	-0.6865764
-1.119881	ph </s>
-0.7066692	ph a	-0.4936084
-0.9129129	ph aa	-0.527968
-1.390034	ph ai	-0.4400384
-2.319453	ph au	-0.5126288
-1.211114	ph ei	-0.4547769
-2.620483	ph g	-0.5341629
-0.8697176	ph i	-0.8297322
-1.357242	ph ii	-0.3592084
-2.620483	ph k	-0.5338798
-1.650446	ph l	-0.8983039
-1.893484	ph n	-0.8982517
-1.20551	ph oo	-0.5916131
-2.319453	ph ph	-0.3390353
-1.18379	ph r	-0.8699894
-1.983661	ph s	-0.5406361
-1.666241	ph t	-0.4078403
-1.620483	ph t:	-0.8757759
-1.425506	ph u	-0.8981385
-1.517821	ph uu	-0.3860525
-2.319453	ph y	-0.8244361
-0.1249387	ph~ u	-0.5921668
-0.1249387	pii aa	-0.5452629
-0.1249387	puu r	-0.5957019
-0.768507	r </s>
-0.7565906	r a	-0.03328252
-0.924637	r aa	0.1571883
-2.23186	r ai	-0.4373993
-3.727866	r al	0
-2.4568	r au	-0.6121789
-2.183798	r b	-0.4543844
-2.727866	r bh	-0.2000095
-2.807048	r ch	-0.4587336
-3.250745	r chh	-0.59345
-1.812291	r d	-0.6028399
-2.14429	r d:	-0.6136323
-2.472594	r dh	-0.6089851
-1.282781	r ei	-0.0114975
-2.15577	r g	-0.7089668
-2.862565	r gh	-0.544068
-2.625204	r h	-0.3344745
-1.094398	r i	-0.5551841
-1.207601	r ii	-0.04467845
-1.957014	r j	-0.5882016
-1.903958	r k	-0.3344376
-2.648685	r kh	-0.2809364
-2.449113	r l	-0.4118961
-1.733696	r m	-0.6748173
-1.780106	r n	-0.9110926
-1.837632	r n:	-0.6761258
-3.727866	r n:aa	0
-3.250745	r nd~	-0.711935
-3.35989	r o	-0.7454821
-3.35989	r o-	-0.5672979
-1.196813	r oo	-0.4107335
-2.385444	r p	-0.3981902
-2.713626	r ph	-0.2207982
-2.625204	r r	-0.6572629
-1.974539	r s	-0.6185866
-2.040635	r sh	-0.5147802
-2.497417	r shh	-0.7205502
-1.687792	r t	-0.6553932
-2.097778	r t:	-0.6611531
-3.727866	r t:h	-0.4751004
-2.03767	r th	-0.4170226
-1.624063	r u	-0.06944501
-2.14053	r uu	-0.444172
-1.640322	r v	-0.4890692
-1.850879	r y	-0.5940983
-0.4771213	ri j	-0.6003759
-0.4771213	ri shh	-0.5273266
-2.22617	rx a	-0.2915432
-1.92514	rx ai	-0.4544187
-0.03490546	rx i	-0.9094839
-1.858193	rx ii	-0.8783461
-2.22617	rx n	-0.5858395
-2.22617	rx oo	-0.3955459
-2.22617	rx t	-0.5892265
-2.22617	rx t:	-0.4810163
-0.8759942	s </s>
-0.6269932	s a	-0.7068042
-1.007674	s aa	-0.3583918
-2.021744	s ai	-0.5840142
-2.18737	s au	-0.5682858
-2.680285	s b	-0.3110502
-3.09046	s ch	-0.8742276
-2.981315	s d	-0.2964872
-2.935558	s d:	-0.4527916
-3.09046	s dh	-0.7881733
-1.353494	s ei	-0.4765739
-2.78943	s gh	-1.110396
-1.22884	s i	-0.3628441
-1.26904	s ii	0.04435337
-3.157406	s j	-0.8152024
-1.656804	s k	-0.4798352
-2.981315	s kh	-0.5830022
-2.021744	s l	-0.7626664
-2.179683	s m	-0.4491157
-2.157406	s n	-0.823172
-1.663716	s oo	-0.1460256
-1.607178	s p	-0.7150766
-2.520584	s ph	-0.7791907
-2.066326	s r	-0.5433263
-2.981315	s rx	0.4066262
-2.254316	s s	-0.5540774
-1.253413	s t	-0.2314017
-1.355774	s t:	-0.6892272
-1.603119	s th	-0.8110958
-1.28525	s u	-0.4259839
-1.811706	s uu	-0.3331448
-1.46869	s v	-0.9155577
-1.976516	s y	0.2290771
-1.027936	sh </s>
-0.6764148	sh a	-0.5671189
-0.8978224	sh aa	-0.4288275
-1.949251	sh ai	-0.7685139
-2.317227	sh au	-0.5683182
-2.493319	sh b	-0.5918031
-2.493319	sh bh	-0.6265603
-1.624087	sh ch	-0.8720747
-2.493319	sh d	-0.9756903
-1.476285	sh ei	-0.3895871
-3.016197	sh g	-0.3769555
-3.016197	sh h	-0.3560352
-0.9322172	sh i	-0.5575126
-1.145014	sh ii	-0.7084674
-3.016197	sh j	-0.350475
-2.317227	sh k	-0.2608237
-2.030921	sh l	-0.7128965
-1.937016	sh m	-0.6401864
-1.891259	sh n	-0.901795
-2.493319	sh n:	-0.4073608
-1.55882	sh oo	-0.3714023
-2.078345	sh p	-0.5663314
-1.369467	sh r	-0.590095
-3.016197	sh sh	-0.2952033
-3.016197	sh shh	-0.5273266
-1.715167	sh t	-0.4788599
-1.870069	sh t:	-0.6287675
-2.26287	sh t:h	-0.545276
-3.016197	sh th	-0.5938231
-1.673775	sh u	-0.5780494
-2.078345	sh uu	-0.630041
-1.212285	sh v	-0.394712
-1.506547	sh y	-0.7247873
-1.296266	shh </s>
-0.7443728	shh a	-0.8041939
-1.003205	shh aa	-0.642819
-2.559508	shh ai	-0.3619623
-2.559508	shh dh	-0.3242092
-1.468427	shh ei	-0.9796504
-2.036629	shh g	-0.6428981
-2.559508	shh h	-0.4538297
-1.10213	shh i	-0.7970788
-1.694206	shh ii	-0.484563
-1.860538	shh k	-0.4464223
-1.589471	shh m	-0.2797389
-1.922686	shh n	-0.8424626
-1.423845	shh n:	-0.3864272
-2.191531	shh o	-0.6553055
-1.531479	shh oo	-0.3337065
-1.559508	shh p	-0.468858
-2.258478	shh r	-0.3586713
-2.258478	shh rx	0.5449289
-2.559508	shh sh	-0.5831034
-2.258478	shh shh	-0.559308
-1.280754	shh t	-0.4169752
-0.8011004	shh t:	-0.473876
-1.468427	shh t:h	-0.01674378
-1.80618	shh th	-0.5584759
-1.757875	shh u	-0.6405978
-2.559508	shh v	-0.4701837
-1.383416	shh y	-0.8702154
-0.1249387	sii </s>
-0.05799195	sj k	-0.8844541
-0.7790388	t </s>
-0.9386149	t a	-0.3061996
-3.491688	t a:	-0.2775489
-0.740923	t aa	-0.4278175
-2.149266	t ai	-0.5042779
-2.506412	t au	-0.6267377
-3.190659	t b	-0.4053729
-3.190659	t ch	-0.3606722
-3.123712	t d	-0.5977898
-2.96881	t dh	-0.6439736
-1.143384	t ei	-0.8026586
-2.792718	t g	-0.5583628
-3.491688	t h	-0.4538297
-0.9517764	t i	-0.4178208
-1.159924	t ii	-0.7255509
-2.690056	t j	-0.3353069
-2.105487	t k	-0.8410823
-2.46366	t l	-0.3704522
-1.733281	t m	-0.6784142
-2.039391	t n	-0.6199374
-1.53584	t oo	-0.3750442
-2.252806	t p	-0.3626441
-1.195755	t r	-0.9732816
-1.964488	t rx	-0.2209878
-1.986539	t s	-0.8497437
-3.491688	t sh	-0.3439541
-1.521652	t t	-0.3882543
-2.607082	t th	-0.6796311
-1.748702	t u	-0.5751467
-2.57087	t uu	-0.306722
-1.690056	t v	-0.8253328
-1.524765	t y	-0.6027344
-3.491688	t z	-0.50515
-0.6139592	t: </s>
-0.8590777	t: a	-0.9266538
-0.9661418	t: aa	-0.5850821
-1.864587	t: ai	-0.5242085
-3.059563	t: au	-0.5690456
-2.194262	t: b	-0.790675
-3.059563	t: d	-0.5363576
-1.158287	t: ei	-0.5203192
-3.059563	t: h	-0.5826584
-1.08184	t: i	-0.3800814
-1.131851	t: ii	-0.3595879
-2.457503	t: j	-0.9851354
-1.751355	t: k	-0.7523319
-3.059563	t: kh	-0.4841051
-2.457503	t: l	-0.4883154
-2.074287	t: m	-0.4739357
-1.796322	t: n	-0.9754824
-1.354841	t: oo	-0.6760018
-3.059563	t: p	-0.5516475
-2.758533	t: ph	-0.4724714
-1.262527	t: r	-0.9820678
-2.457503	t: rx	0.4132568
-1.602186	t: s	-1.108413
-1.855443	t: t	-0.9447497
-2.121711	t: t:	-0.5349176
-2.536685	t: t:h	-0.4601255
-2.074287	t: u	-0.8039429
-1.864587	t: uu	-0.4936787
-1.723771	t: v	-0.3507727
-2.138745	t: y	-0.7858051
-0.9753109	t:h </s>
-0.697762	t:h a	-0.7926534
-0.5960531	t:h aa	-0.638333
-1.709996	t:h d	-0.8373876
-1.600852	t:h ei	-0.5817864
-0.9423106	t:h i	-0.725866
-1.092696	t:h ii	-0.6301157
-2.077973	t:h j	-0.5729514
-2.077973	t:h k	-0.3794505
-2.077973	t:h m	-0.5215264
-1.600852	t:h oo	-0.1886901
-1.555094	t:h r	-0.7198805
-1.776943	t:h u	-0.7885011
-2.077973	t:h uu	-0.4959335
-1.350974	t:h y	-0.3097043
-0.8132844	th </s>
-0.720252	th a	-0.6043254
-0.6723576	th aa	-0.3211631
-1.954614	th ai	-0.821135
-2.290406	th au	-0.5426803
-2.223459	th d	-0.8191653
-1.229708	th ei	-0.4878363
-2.290406	th g	-0.5012855
-2.290406	th h	-0.8168612
-0.9930099	th i	-0.6846106
-1.290406	th ii	-0.9270064
-2.068557	th k	-0.5775994
-2.290406	th l	-0.5219232
-2.591436	th m	-0.5738683
-2.591436	th n	-0.3658361
-1.445308	th oo	-0.4730434
-1.864437	th p	-0.4681492
-1.653584	th r	-0.5076439
-2.591436	th s	-0.5823769
-1.726134	th t	-0.4926677
-2.591436	th t:h	-0.5654795
-2.114314	th th	-0.3908355
-2.114314	th u	-0.6222175
-2.290406	th uu	-0.4134723
-1.864437	th v	-0.6443743
-1.563407	th y	-0.5974054
-1.238014	u </s>
-2.384141	u a	-0.5244868
-2.093096	u aa	-0.8454286
-1.797145	u b	-0.3003095
-1.875306	u bh	-0.5677057
-1.777174	u ch	-0.4982029
-2.647383	u chh	-0.6121333
-1.198934	u d	-0.05865502
-1.863241	u d:	-0.1511311
-2.447811	u d:h	-0.3981165
-1.941234	u dh	-0.7099654
-1.948413	u ei	-0.4050944
-1.762776	u g	-0.3021634
-3.249443	u gh	-0.3898473
-1.934173	u h	-0.5999744
-2.496115	u ii	-0.6170346
-1.681241	u j	-0.5924289
-2.772322	u jh	-0.2453968
-1.236606	u k	-0.4433981
-1.777174	u kh	-0.4342732
-1.08016	u l	-0.09877694
-1.277858	u m	-0.4835171
-0.9355757	u n	0.1089964
-2.182496	u n:	-0.1364762
-3.249443	u nd:	0
-3.249443	u nd~	-0.5606673
-2.182496	u oo	-1.255392
-1.245122	u p	-0.1735884
-2.612621	u ph	-0.6591839
-0.9129832	u r	-0.4286379
-1.412697	u s	-0.3481896
-1.753436	u sh	-0.2169779
-1.828937	u shh	-0.5407569
-2.881466	u sj	0
-1.224137	u t	-0.456441
-1.647383	u t:	-0.2914594
-2.093096	u t:h	-0.4541137
-2.328624	u th	-0.3052539
-1.629654	u v	-0.2264576
-2.612621	u y	-0.5859911
-1.022337	uu </s>
-2.879669	uu a	-0.5191029
-2.578639	uu aa	-0.3008095
-1.4703	uu b	-0.3872865
-1.723322	uu ch	-0.7071894
-1.925427	uu chh	-0.5912455
-1.632515	uu d	-0.5263492
-1.675549	uu d:	-0.2631602
-1.941817	uu d:h	-0.4308403
-2.511693	uu dh	-0.5382957
-2.242847	uu ei	-0.7624748
-1.995063	uu g	-0.7816348
-2.356791	uu h	-0.5735011
-2.879669	uu i	-0.5906438
-2.578639	uu ii	-0.503498
-1.585938	uu j	-0.3810649
-2.578639	uu jh	-0.3689763
-1.383663	uu k	-0.3486745
-2.078037	uu kh	-0.4614791
-1.277609	uu l	-0.1947
-1.284908	uu m	-0.6229537
-0.9206278	uu n	-0.5409513
-2.277609	uu n:	-0.2561865
-2.879669	uu oo	-0.3011494
-1.537246	uu p	-0.6618572
-2.15267	uu ph	-0.4047408
-0.6639435	uu r	-0.6649075
-2.879669	uu rx	-0.5994723
-1.4537	uu s	-0.550391
-2.078037	uu sh	-0.6024318
-2.014368	uu shh	-0.5414828
-1.16927	uu t	-0.2644868
-1.442977	uu t:	-0.2813851
-2.277609	uu t:h	-0.4061368
-2.15267	uu th	-0.6853834
-2.578639	uu v	-0.5707197
-2.879669	uu y	-0.4751477
-1.170528	v </s>
-0.5818884	v a	-0.4209033
-0.6055031	v aa	-0.2995557
-1.732044	v ai	-0.3430965
-2.947644	v b	-0.727948
-2.838499	v d	-0.6565315
-3.014591	v d:	-0.4180295
-3.014591	v dh	-0.7458131
-1.136644	v ei	-0.2909492
-2.616651	v h	-0.6130912
-0.7715525	v i	-0.2097255
-1.253666	v ii	-0.51014
-3.014591	v j	-0.554595
-2.588622	v k	-0.7037858
-2.287592	v l	-0.6000454
-2.678798	v m	-0.4409171
-2.139529	v n	-1.007843
-1.78842	v oo	-0.6504656
-2.330344	v p	-1.076764
-2.029314	v r	-0.6455229
-2.014591	v rx	-0.673103
-2.792742	v s	-0.4869501
-3.014591	v sh	-0.5275396
-2.491712	v t	-0.6252512
-3.31562	v t:	-0.5687574
-2.588622	v u	-0.5270112
-3.31562	v uu	-0.4959335
-2.678798	v v	-0.4172734
-1.605221	v y	-0.7416461
-1.206182	y </s>
-0.5239642	y a	-0.4253285
-2.970679	y a:	-0.5785789
-0.5961924	y aa	-0.6268002
-2.861534	y au	-0.4035505
-3.037626	y b	-0.669956
-3.338656	y bh	-0.4550263
-3.338656	y d	-0.3322376
-3.338656	y d:	-0.595938
-1.25587	y ei	-0.8959121
-3.338656	y g	-0.2981726
-3.338656	y gh	-0.5363642
-1.934963	y i	-1.007734
-1.622652	y ii	-0.9802384
-2.701833	y k	-0.3257928
-2.861534	y l	-0.495608
-2.815777	y m	-0.5441844
-0.7569714	y oo	-0.8117373
-2.611657	y p	-0.4188251
-2.400804	y r	-0.5843109
-2.454049	y s	-0.8666868
-2.417837	y t	-0.6420366
-3.338656	y t:	-0.2768963
-1.435566	y u	-0.6720873
-1.332903	y uu	-0.4676219
-2.815777	y v	-0.4684258
-2.259475	y y	-0.1625405
-0.69897	z </s>
-0.39794	z a	-0.3849658
-0.69897	z ei	-0.4434837

\3-grams:
-2.43639	<s> a </s>
-2.804367	<s> a aa	-0.39794
-1.668704	<s> a b	-0.5057253
-1.164217	<s> a bh	-0.6973878
-1.679428	<s> a ch	-0.5352433
-1.850124	<s> a chh	-0.694712
-2.002734	<s> a d	-0.4564658
-2.327245	<s> a d:	-0.4966821
-1.346989	<s> a dh	-0.7542387
-1.679428	<s> a g	-0.5852125
-1.959269	<s> a h	-0.3791572
-1.573918	<s> a j	-0.5927699
-1.701704	<s> a k	-0.3512239
-2.105397	<s> a kh	-0.4609464
-1.3177	<s> a l	-0.5063999
-1.198703	<s> a m	-0.7379274
-0.6168459	<s> a n	-0.7791933
-2.503337	<s> a n:	-0.8411618
-1.108302	<s> a p	-0.5194205
-1.980458	<s> a ph	-0.7730318
-1.21703	<s> a r	-0.3975721
-1.099644	<s> a s	-0.3636189
-1.648019	<s> a sh	-0.6021699
-2.327245	<s> a shh	-0.4595969
-1.43639	<s> a t	-0.5685285
-2.503337	<s> a t:	-0.4047542
-2.167545	<s> a th	-0.637452
-1.400674	<s> a v	-0.6302323
-1.980458	<s> a y	-0.7222054
-0.845098	a a n	-0.4983207
-0.544068	a a r	-0.5441645
-0.845098	a a s	-0.5223364
-0.845098	a a v	-0.5451828
-0.1249387	aa a s	-0.5223364
-1.781911	b a b	-0.7224095
-1.510171	b a ch	-0.545049
-2.365488	b a chh	-0.7763822
-1.135039	b a d	-0.1917914
-2.298541	b a d:	-0.3336684
-1.262826	b a d:h	-0.1019894
-2.143639	b a dh	-0.4976429
-2.298541	b a g	-0.4209206
-1.161368	b a h	-0.471049
-2.298541	b a i	-0.7659168
-1.599571	b a j	-0.5698752
-1.575438	b a k	-0.3317105
-2.666518	b a kh	-0.3894519
-1.023065	b a l	-0.2015697
-1.864886	b a m	-0.5177634
-0.6108848	b a n	-0.8107749
-2.666518	b a p	-0.3939617
-0.7353992	b a r	-0.3238312
-1.387764	b a s	-0.4101519
-2.666518	b a sh	-0.5528815
-1.337459	b a t	-0.8194036
-2.029696	b a t:	-0.385232
-2.666518	b a t:h	-0.4896378
-2.365488	b a v	-0.7533277
-1.939519	b a y	-0.6205777
-1.007179	bh a d	-0.8368621
-2.007179	bh a d:	-0.5803407
-0.9528209	bh a g	-0.4707006
-1.706149	bh a ii	-0.4707811
-1.706149	bh a j	-0.4631105
-1.122572	bh a k	-1.004536
-1.4843	bh a l	-0.5649589
-1.052936	bh a n	-0.5935057
-0.728425	bh a r	-0.4477301
-1.370356	bh a s	-0.4390554
-2.007179	bh a sh	-0.5786889
-2.007179	bh a shh	-0.579396
-2.007179	bh a t	-0.3064859
-1.706149	bh a t:	-0.4047542
-0.7767296	bh a v	-0.07442027
-1.370356	bh a y	-0.4118909
-2.320146	ch a </s>
-2.320146	ch a a	-0.251812
-2.019116	ch a b	-0.8037053
-2.320146	ch a ch	-0.3771411
-1.95217	ch a d	-0.8876197
-2.320146	ch a d:	-0.3513972
-1.217484	ch a d:h	-0.4030195
-2.320146	ch a ei	-0.4973247
-1.683324	ch a h	-0.4402306
-1.011938	ch a k	-0.4591497
-1.107072	ch a l	-0.4731962
-0.997927	ch a m	-0.7001036
-0.6358995	ch a n	-0.8522888
-1.399328	ch a p	-0.6915141
-0.6900576	ch a r	-0.4935116
-1.95217	ch a s	-0.4496191
-1.651139	ch a sh	-1.155841
-1.95217	ch a t	-0.4965498
-2.320146	ch a t:	-0.5855919
-1.843025	ch a v	-0.6468858
-1.593148	ch a y	-0.3993018
-1.044419	chh a d:	-0.4301852
-1.313264	chh a k	-0.8910704
-0.9822713	chh a l	-0.2482111
-1.380211	chh a m	-0.5378289
-0.9542425	chh a n	-0.6491309
-0.6398485	chh a p	-0.8672471
-1.158363	chh a r	-0.6078051
-1.20412	chh a t	-0.3021938
-1.158363	chh a t:	-0.7456557
-1.044419	chh a v	-0.6577842
-1.499601	d a b	-0.7211692
-1.92557	d a d	-0.5026095
-2.159653	d a dd	0
-2.52763	d a dh	-0.5967744
-1.92557	d a g	-0.4680685
-1.725998	d a h	-0.4491413
-1.185207	d a k	-0.4552246
-2.159653	d a kh	-0.8267016
-1.241323	d a l	-0.24134
-1.460683	d a m	-0.4354353
-0.6972551	d a n	-0.6084739
-2.159653	d a nd~	-0.6726411
-2.050509	d a p	-0.5072897
-1.890808	d a ph	-0.4890205
-0.5036919	d a r	-0.518649
-1.391967	d a s	-0.5909827
-1.371283	d a sh	-0.6675204
-1.499601	d a t	-0.7858145
-1.381502	d a v	-0.8434207
-1.499601	d a y	-0.6292326
-1.027604	d: a b	-0.9262247
-2.055633	d: a d:	-0.5671508
-2.055633	d: a g	-0.4436319
-2.055633	d: a h	-0.5744705
-2.055633	d: a i	-0.5440681
-1.190332	d: a k	-0.62644
-0.6754219	d: a l	-0.8114969
-0.8167511	d: a m	-0.6616476
-1.210535	d: a n	-0.4848415
-2.055633	d: a p	-0.5655895
-0.5459827	d: a r	-0.5611297
-2.055633	d: a s	-0.5979757
-2.055633	d: a t:	-0.4857875
-1.754603	d: a v	-0.5451827
-2.055633	d: a y	-0.5809156
-1.31527	d:h a g	-0.5836478
-0.2872417	d:h a k	-0.4371373
-0.5882717	d:h a n	-0.6165977
-1.31527	d:h a r	-0.5831653
-1.31527	d:h a t	-0.5394982
-1.781242	dh a </s>
-1.848189	dh a b	-0.5138362
-2.149219	dh a d:	-0.3630308
-1.848189	dh a dh	-0.5693361
-2.149219	dh a h	-0.5701569
-2.149219	dh a j	-0.579965
-0.9450991	dh a k	-0.4511562
-2.149219	dh a l	-0.5767353
-1.058139	dh a m	-0.6161541
-0.5191304	dh a n	-0.5922125
-1.781242	dh a p	-0.8944238
-0.5694355	dh a r	-0.6011745
-2.149219	dh a s	-0.3238777
-1.672098	dh a t	-0.5394982
-1.283918	dh a v	-0.3240028
-1.848189	dh a y	-0.7730365
-1.213075	ei a b	-0.5850618
-0.9120448	ei a m	-0.780867
-1.213075	ei a n	-0.5792143
-0.6901961	ei a p	-0.7255939
-1.213075	ei a ph	-0.4816218
-0.4597472	ei a r	-0.8302596
-0.2218488	f a r	-0.5973915
-2.487138	g a </s>
-2.487138	g a a	-0.5351132
-2.487138	g a b	-0.5730358
-1.501862	g a d	-0.4487546
-1.472898	g a d:	-0.4676021
-1.517102	g a d:h	-1.09691
-2.010017	g a g	-0.3490757
-1.621837	g a h	-0.4528573
-2.119162	g a ii	-0.4956046
-1.445746	g a j	-0.6655213
-1.96426	g a k	-0.7332794
-1.066633	g a l	-0.2433276
-1.17893	g a m	-0.5700868
-0.9599382	g a n	-0.452831
-1.100937	g a n:	-0.3417691
-2.186108	g a p	-0.4990014
-0.7739279	g a r	-0.2710381
-1.885078	g a s	-0.4152078
-2.119162	g a sh	-0.8807615
-0.8570496	g a t	-0.7444989
-2.186108	g a t:	-0.5618775
-1.56632	g a t:h	-0.6291353
-2.487138	g a th	-0.2969134
-1.283018	g a v	-0.859243
-1.96426	g a y	-0.5396876
-1.122216	gh a b	-0.845098
-1.481238	gh a d	-0.6415434
-1.095887	gh a l	-0.6645231
-1.122216	gh a m	-0.8728307
-0.6928674	gh a n	-0.7819499
-0.6450946	gh a r	-0.7191933
-1.849215	gh a s	-0.5882936
-0.6187657	gh a t:	-0.4074799
-1.521054	h a b	-0.8847973
-1.711385	h a ch	-0.8645196
-1.757143	h a d	-0.355902
-1.836324	h a d:	-0.5058666
-2.535294	h a gh	-0.3686506
-2.058173	h a h	-0.2466845
-2.058173	h a j	-0.3331993
-1.227086	h a k	-0.4151
-1.082996	h a l	-0.4606217
-1.340317	h a m	-0.3484755
-0.8002278	h a n	-0.4708674
-1.690196	h a n:	-0.6198932
-2.535294	h a p	-0.3535005
-2.234264	h a ph	-0.5322765
-0.6660624	h a r	-0.3813601
-0.995382	h a s	-0.4069617
-1.167317	h a t	-0.2965763
-1.272053	h a t:	-0.7290139
-1.808295	h a th	-0.6529089
-2.535294	h a u	-0.5509075
-1.468347	h a v	-0.8057489
-2.012415	h a y	-0.5964153
-0.5228788	i a n:	-0.5826955
-0.5228788	i a t	-0.5128133
-0.1249387	ii a d:	-0.5555172
-1.529077	j a b	-0.4906941
-2.557106	j a ch	-0.4718825
-2.557106	j a d:	-0.3513972
-1.125742	j a g	-0.3828108
-1.542866	j a h	-0.5577648
-2.557106	j a j	-0.2404452
-1.542866	j a k	-0.717109
-2.079985	j a kh	-0.705367
-0.7986988	j a l	-0.3237193
-1.228047	j a m	-0.5864068
-0.5614708	j a n	-0.6377405
-2.034227	j a p	-0.683381
-2.256076	j a ph	-0.4538914
-0.8301073	j a r	-0.4675914
-1.421443	j a s	-0.2180007
-1.318224	j a t	-0.8300502
-2.557106	j a t:	-0.2816674
-1.712008	j a v	-0.6061766
-1.410978	j a y	-0.4689086
-1.247155	jh a d:	-0.3630308
-0.8791778	jh a gh	-0.7588461
-1.247155	jh a l	-0.2551673
-0.493827	jh a n	-0.5405166
-1.247155	jh a nd~	-0.5177391
-1.247155	jh a r	-0.4582559
-1.247155	jh a t	-0.5799959
-1.247155	jh a t:	-0.5866396
-1.963788	k a b	-0.4429598
-2.547364	k a bh	-0.8355176
-1.894152	k a ch	-0.688471
-1.480418	k a d	-0.3174622
-2.003296	k a d:	-0.4084054
-2.480418	k a d:h	-0.6387828
-2.121396	k a g	-0.5673593
-1.609512	k a h	-0.3587243
-2.246334	k a j	-0.5030444
-2.149424	k a k	-0.5575672
-2.848394	k a kh	-0.5256717
-0.9656802	k a l	-0.4986734
-1.039958	k a m	-0.3761309
-1.053674	k a n	-0.09497368
-2.325516	k a n:	-0.3263974
-2.547364	k a oo	0.4771212
-1.644274	k a p	-0.622893
-2.480418	k a ph	-0.7826518
-0.3785724	k a r	-0.6082034
-1.894152	k a s	-0.2079513
-1.848394	k a sh	-0.8041503
-2.848394	k a shh	0.1424631
-1.533124	k a t	-0.4542077
-1.512602	k a t:	-0.1973339
-2.547364	k a t:h	-0.4259688
-1.863118	k a th	-0.9527225
-2.848394	k a u	-0.3467875
-1.807002	k a v	-0.45805
-2.480418	k a y	-0.894023
-2.848394	k a z	0
-1.434036	kh a b	-0.7210358
-1.115278	kh a d	-0.6020216
-1.36709	kh a d:	-0.815351
-2.036096	kh a g	-0.2826178
-1.115278	kh a j	-0.8439476
-0.7972143	kh a l	-0.3915058
-2.036096	kh a m	-0.5842177
-0.7003043	kh a n	-0.6732243
-0.6381564	kh a r	-0.5539769
-2.036096	kh a s	-0.5945426
-1.133006	kh a t	-0.3420558
-1.434036	kh a t:	-0.4234363
-1.069921	l a </s>
-2.490427	l a aa	-0.39794
-1.490427	l a b	-0.7695863
-2.189397	l a bh	-0.2975416
-2.189397	l a ch	-0.3500945
-1.314335	l a d	-0.5754107
-1.888367	l a d:	-0.3014711
-1.853605	l a dh	-1.046143
-1.059063	l a g	-0.2700012
-2.490427	l a gh	-0.3195134
-1.645329	l a h	-0.4857741
-1.967548	l a j	-0.5698752
-1.967548	l a jh	-0.3058288
-0.9944201	l a k	-0.4703355
-2.189397	l a kh	-0.5640166
-2.490427	l a l	-0.3340966
-1.29545	l a m	-0.6829865
-0.90309	l a n	-0.6814533
-2.490427	l a oo	0.07918119
-1.645329	l a p	-0.3613259
-2.013305	l a ph	-0.403335
-1.211673	l a r	-0.8966686
-1.376483	l a s	-0.5646849
-1.344299	l a t	-0.5220712
-1.569608	l a t:	-0.7565241
-2.490427	l a t:h	-0.5785789
-2.12245	l a th	-0.6161682
-2.189397	l a u	-0.3467874
-1.462398	l a v	-0.3217449
-1.128699	l a y	-0.2658438
-1.295972	m a </s>
-2.796574	m a au	0
-2.495544	m a b	-0.5138362
-2.796574	m a bh	-0.383489
-1.994942	m a ch	-0.5360495
-1.359882	m a d	-0.5804313
-2.495544	m a d:	-0.5055911
-2.796574	m a d:h	-0.5956259
-1.826538	m a dh	-1.034493
-1.729627	m a g	-0.3416771
-2.796574	m a gh	-0.5727707
-0.9598284	m a h	-0.765519
-1.671636	m a j	-0.3927389
-2.273695	m a jh	0.09177038
-1.025722	m a k	-0.5953326
-2.796574	m a kh	-0.5760812
-1.392882	m a l	-0.2846045
-1.931273	m a m	-0.4550002
-0.5644256	m a n	-0.2056643
-1.693912	m a n:	-0.1748924
-2.319453	m a p	-0.4360804
-1.03565	m a r	-0.109089
-1.198149	m a s	-0.3945755
-1.972666	m a sh	-0.6646034
-2.428597	m a shh	-0.3626869
-1.481304	m a t	-0.06377143
-2.159752	m a t:	-0.4791365
-2.097604	m a th	-0.4940845
-1.911968	m a v	-0.5870693
-1.705494	m a y	-0.5164304
-0.763067	n a </s>
-2.682145	n a a	-0.5351132
-1.667905	n a b	-0.5951323
-2.045323	n a bh	-0.4608979
-2.682145	n a ch	-0.5594158
-1.837047	n a d	-0.5682142
-1.955146	n a d:	-0.5535475
-1.295943	n a g	-1.059842
-1.205024	n a h	-0.4268691
-1.682145	n a j	-0.9012549
-1.219747	n a k	-0.6871535
-1.353086	n a l	-0.4813584
-1.403391	n a m	-0.386731
-0.9978983	n a n	-0.6870519
-2.682145	n a oo	0.07918119
-1.602964	n a p	-0.3732651
-2.682145	n a ph	-0.5440681
-0.8920946	n a r	-0.4378326
-1.245453	n a s	-0.4205658
-1.983175	n a sh	-0.4266483
-1.418904	n a t	-0.3730729
-2.159266	n a t:	-0.4847962
-2.381115	n a th	-0.3288026
-2.682145	n a uu	-0.4881167
-1.190783	n a v	-0.3788303
-1.536017	n a y	-0.5105007
-1.113943	n: a </s>
-1.48192	n: a j	-0.5330979
-1.004799	n: a k	-0.5221942
-1.48192	n: a kh	-0.5670643
-0.845098	n: a m	-0.712272
-0.6368221	n: a n	-0.4025572
-0.8129134	n: a t	-0.536707
-1.113943	n: a v	-0.8509022
-1.48192	n: a y	-0.5038019
-0.1249387	nd~ a t	-0.5757311
-0.1249387	nj~ a v	-0.5941762
-0.1249387	oo a r	-0.5921543
-2.814248	p a b	-0.3497385
-2.337126	p a ch	-0.5634896
-2.814248	p a chh	-0.5690597
-1.136033	p a d	-0.2861004
-2.291369	p a d:	-0.3124791
-1.678585	p a d:h	-0.4559319
-2.212188	p a dh	-0.5298276
-2.337126	p a g	-0.4364926
-2.814248	p a gh	-0.4578161
-1.212188	p a h	-0.707575
-2.814248	p a i	-0.5440681
-2.337126	p a j	-0.66836
-1.15783	p a k	-0.5216557
-2.814248	p a kh	-0.3215517
-1.35687	p a l	-0.6009231
-2.177425	p a m	-0.7674062
-0.775495	p a n	-0.5805888
-1.638156	p a n:	-0.6363823
-2.145241	p a p	-0.8399764
-2.814248	p a ph	-0.5812099
-0.6128505	p a r	-0.4835572
-1.66812	p a s	-0.3338595
-1.592399	p a sh	-1.045376
-2.177425	p a shh	-0.605725
-0.9075535	p a t	-0.3461621
-1.543181	p a t:	-0.2759806
-2.291369	p a t:h	-0.9289705
-2.291369	p a th	-0.6666592
-1.948946	p a v	-0.380307
-2.337126	p a y	-0.3623321
-1.944483	ph a a	-0.455932
-1.643453	ph a b	-0.5138361
-1.944483	ph a d	-0.2914847
-1.944483	ph a d:	-0.3611133
-1.576506	ph a g	-0.7446619
-1.576506	ph a i	-0.8016323
-1.421604	ph a k	-0.7220117
-0.7881355	ph a l	-0.4031442
-1.643453	ph a m	-0.7562292
-0.8305393	ph a n	-0.6290523
-1.944483	ph a n:	-0.5785789
-1.643453	ph a ph	-0.8242479
-0.5642715	ph a r	-0.2125738
-1.14285	ph a s	-0.5011992
-1.307661	ph a t	-0.7588487
-1.643453	ph a v	-0.8423318
-1.614928	r a </s>
-1.810324	r a b	-0.659183
-1.746207	r a bh	-0.9111576
-1.713414	r a ch	-0.4372764
-1.280591	r a d	-0.6877832
-2.499534	r a d:	-0.4782965
-1.909709	r a dh	-0.993294
-2.976656	r a ei	-0.4973247
-1.885575	r a g	-0.5802147
-2.175023	r a gh	-1.018483
-1.244262	r a h	-0.4661445
-2.499534	r a i	-0.4570614
-2.976656	r a ii	-0.4707811
-1.697902	r a j	-0.3875387
-2.976656	r a jh	-0.3553877
-1.188959	r a k	-0.3905863
-1.647597	r a kh	-0.2344015
-1.661385	r a l	-0.5426465
-1.069962	r a m	-0.4029061
-0.9405593	r a n	-0.553614
-0.9445744	r a n:	-0.4024878
-2.976656	r a nd~	-0.3136191
-1.737774	r a p	-0.6194115
-2.092049	r a ph	-0.6047658
-2.249657	r a r	-0.5757688
-1.13991	r a s	-0.4957404
-1.897474	r a sh	-0.22879
-2.453777	r a shh	-0.01209807
-0.9109514	r a t	-0.5529363
-2.499534	r a t:	-0.4324844
-1.991379	r a th	-0.4304523
-2.675626	r a u	-0.4259687
-1.44094	r a v	-0.3220553
-1.675626	r a y	-0.5383911
-0.30103	rx a p	-0.5170314
-1.770221	s a b	-0.4901493
-1.971866	s a bh	-0.497181
-2.837168	s a ch	-0.1994079
-1.633047	s a d	-0.3747658
-2.360046	s a d:	-0.4989265
-2.536137	s a g	-0.1646895
-2.837168	s a gh	-0.4578161
-1.336565	s a h	-0.4352618
-2.469191	s a i	-0.8346326
-1.598285	s a j	-0.8198571
-1.573926	s a k	-0.1607254
-2.837168	s a kh	-0.3719612
-1.336565	s a l	-0.2348971
-0.6161881	s a m	-0.2631794
-0.5318161	s a n	-0.5588577
-2.837168	s a n:	-0.2201475
-2.110169	s a p	-0.4236525
-2.235107	s a ph	-0.5785318
-1.000421	s a r	-0.2834517
-2.035535	s a s	-0.282016
-2.360046	s a sh	-0.6660998
-1.152921	s a t	-0.5019148
-2.314289	s a t:	-0.6710221
-2.837168	s a u	-0.4929155
-2.837168	s a uu	-0.4881167
-1.48178	s a v	-0.4086398
-2.837168	s a y	-0.5874605
-2.354108	sh a a	-0.3309932
-2.354108	sh a b	-0.5850618
-2.354108	sh a ch	-0.5877675
-1.685102	sh a d:	-1.144992
-2.053078	sh a dh	-0.4628808
-2.354108	sh a g	-0.50515
-1.552476	sh a h	-0.5483021
-1.83123	sh a j	-0.9853659
-0.9391351	sh a k	-0.7915453
-1.986132	sh a kh	-0.88302
-1.299751	sh a l	-0.4806811
-2.053078	sh a m	-0.5661044
-0.4732949	sh a n	-1.096948
-1.62711	sh a n:	-0.8485364
-1.685102	sh a p	-0.8307194
-0.7781513	sh a r	-0.5481275
-1.685102	sh a s	-0.5652712
-1.717286	sh a sh	-0.539379
-1.299751	sh a t	-0.7349097
-2.354108	sh a uu	-0.4881167
-1.62711	sh a v	-0.4945865
-1.552476	sh a y	-0.4796561
-1.847161	shh a bh	-0.5924796
-1.324282	shh a d	-0.7012666
-1.847161	shh a d:	-0.5709604
-1.847161	shh a g	-0.5793521
-0.7444988	shh a k	-0.8242505
-1.093834	shh a m	-0.6259651
-1.210339	shh a n	-0.7368878
-0.4854334	shh a n:	-0.4729652
-1.479184	shh a p	-0.8814384
-1.479184	shh a s	-0.6394461
-1.37004	shh a shh	-0.0109033
-1.324282	shh a t	-0.4526139
-1.479184	shh a y	-0.6441455
-2.563876	t a </s>
-1.535848	t a b	-0.6797767
-2.262846	t a bh	-0.4482846
-2.563876	t a ch	-0.3552957
-1.927054	t a d	-0.6865908
-2.563876	t a dh	-0.4700594
-1.961816	t a g	-0.6535765
-1.387785	t a h	-0.7400963
-2.040998	t a j	-0.9355592
-1.003571	t a k	-0.610983
-2.262846	t a kh	-0.7977811
-1.208489	t a l	-0.4157873
-1.37824	t a m	-0.560426
-0.7187784	t a n	-0.4021667
-2.563876	t a o	0
-2.040998	t a oo	-0.3601515
-1.428214	t a p	-0.431217
-2.563876	t a ph	-0.5440681
-0.5358477	t a r	-0.5300397
-1.535848	t a s	-0.4399551
-2.563876	t a sh	-0.5797315
-1.472796	t a t	-0.2146407
-2.040998	t a t:	-0.4546676
-2.563876	t a th	-0.2331718
-1.472796	t a v	-0.6826591
-2.1959	t a y	-0.581151
-1.845984	t: a b	-0.8548886
-2.21396	t: a ch	-0.4718825
-2.21396	t: a d	-0.5429482
-2.21396	t: a d:	-0.5555172
-1.577138	t: a h	-0.7205777
-2.21396	t: a j	-0.5460332
-0.9586877	t: a k	-0.7079142
-1.037869	t: a l	-0.6122133
-1.6119	t: a m	-0.5361807
-0.6740481	t: a n	-1.181643
-0.3546218	t: a r	-0.8087125
-1.736839	t: a s	-0.6320401
-2.21396	t: a v	-0.5451828
-1.124939	t:h a g	-0.4564233
-0.50515	t:h a h	-0.6904399
-1.057992	t:h a k	-0.494549
-0.50515	t:h a n	-0.8421204
-1.124939	t:h a s	-0.4845108
-1.425969	t:h a v	-0.5498722
-1.895791	th a h	-0.2603691
-0.6170372	th a k	-0.5053127
-0.974972	th a l	-0.3336971
-1.030489	th a m	-0.6249702
-0.9415482	th a n	-0.3732895
-1.258969	th a p	-0.6427721
-0.8166095	th a r	-0.5698299
-1.895791	th a s	-0.5726288
-1.895791	th a sh	-0.5605684
-1.030489	th a t	-0.442863
-1.594761	th a v	-0.364417
-1.594761	th a y	-0.3739601
-0.5698753	u a l	-0.7768879
-0.9378521	u a n	-0.4983207
-0.4607309	u a r	-0.4287039
-0.9378521	u a t	-0.5747777
-0.1249387	uu a r	-0.5989249
-1.594761	v a </s>
-2.263767	v a bh	-0.4204058
-1.939256	v a ch	-0.5003144
-1.661708	v a d	-0.1228151
-2.439859	v a d:	-0.5747368
-1.856282	v a dh	-0.3790421
-2.740889	v a ei	-0.4973247
-2.740889	v a g	-0.5793521
-1.454582	v a h	-0.6474621
-2.439859	v a i	-0.7871061
-2.740889	v a ii	-0.4707811
-1.564798	v a j	-0.3335992
-1.044824	v a k	-0.6109233
-1.244882	v a l	-0.4034529
-2.01389	v a m	-0.6706738
-0.8253131	v a n	-0.3994
-2.263767	v a n:	-0.4793469
-1.699496	v a p	-0.7119226
-0.609484	v a r	-0.2162237
-1.240286	v a s	-0.3327305
-1.258969	v a sh	-0.5202194
-1.053657	v a t	-0.5001632
-1.673942	v a t:	-0.9577447
-2.21801	v a th	-0.6486361
-1.71286	v a v	-0.2870984
-2.263767	v a y	-0.5026754
-0.5863596	y a </s>
-2.183379	y a b	-0.5476255
-2.183379	y a bh	-0.08115083
-1.64411	y a d	-0.361222
-2.519171	y a d:	-0.8343741
-2.297323	y a dh	-0.5042734
-1.9549	y a g	-0.5525305
-1.792173	y a h	-0.4635725
-1.778809	y a j	-0.7442309
-1.046903	y a k	-0.485667
-2.519171	y a kh	-0.5388331
-1.765844	y a l	-0.6460897
-1.151195	y a m	-0.7378244
-0.9262549	y a n	-0.7590592
-1.899383	y a n:	-1.033061
-1.458474	y a p	-0.6188902
-1.170218	y a r	-0.5123081
-1.333535	y a s	-0.6422345
-1.74102	y a sh	-0.6768497
-1.009521	y a t	-0.5736727
-2.519171	y a t:	-0.4126363
-2.820201	y a th	-0.4975729
-1.288723	y a v	-0.7598158
-2.093203	y a y	-0.5165517
-0.4771213	z a g	-0.4436319
-0.4771213	z a r	-0.4582559
-0.1249387	b a: v	0
-0.1249387	nd~ a: r	0
-0.1249387	t a: </s>
-0.05799195	y a: </s>
-2.18846	<s> aa b	-0.4008958
-2.18846	<s> aa bh	-0.4038894
-1.604883	<s> aa ch	-0.4163765
-1.410308	<s> aa d	-0.3214205
-2.48949	<s> aa d:	-0.5652333
-1.398409	<s> aa dh	-0.2771409
-1.644392	<s> aa ei	-0.1284975
-1.88743	<s> aa g	-0.4034864
-1.665581	<s> aa h	-0.7368546
-1.234217	<s> aa i	-0.3893203
-1.624188	<s> aa ii	-0.6223427
-1.435132	<s> aa j	-0.6148298
-1.234217	<s> aa k	-0.5598646
-2.18846	<s> aa kh	-0.7772783
-1.276415	<s> aa l	-0.4386245
-1.551638	<s> aa m	-0.459866
-0.9331872	<s> aa n	-0.6309004
-2.48949	<s> aa oo	0.4999488
-1.353827	<s> aa p	-0.4952471
-0.9331872	<s> aa r	-0.5743324
-1.375546	<s> aa s	-0.5062796
-1.422543	<s> aa sh	-0.3154052
-1.966611	<s> aa shh	-0.9542425
-1.160431	<s> aa t	-1.052364
-2.48949	<s> aa th	-0.3362344
-2.18846	<s> aa u	-0.5611014
-1.353827	<s> aa v	-0.3827823
-1.519453	<s> aa y	-0.05266327
-0.4259687	a aa ii	-0.2234758
-0.4259687	a aa n	-0.57076
-0.4259687	aa aa ph	-0.5677558
-0.4259687	aa aa v	-0.416848
-0.1249387	al aa i	-0.5865201
-1.490624	b aa </s>
-1.490624	b aa b	-0.6653978
-1.322219	b aa d	-0.6567807
-1.490624	b aa d:	-0.5747367
-1.623249	b aa d:h	-0.30103
-1.815135	b aa dh	-0.1963409
-2.292256	b aa ei	-0.1390018
-1.490624	b aa g	-0.5254793
-2.292256	b aa gh	-0.1962946
-1.991226	b aa h	-0.3327512
-1.655434	b aa i	-0.5206596
-1.389166	b aa ii	-0.6975706
-1.125925	b aa j	-0.6455595
-2.292256	b aa jh	0
-0.9700368	b aa l	-0.29278
-0.6232493	b aa n	-0.7948405
-2.292256	b aa p	-0.3441839
-1.135909	b aa r	-0.3610608
-1.815135	b aa s	-0.4101744
-1.655434	b aa t	-0.3106773
-1.924279	b aa t:	-0.8665258
-1.924279	b aa th	-0.8824756
-2.292256	b aa u	-0.2648178
-1.991226	b aa uu	-0.7020071
-1.40765	b aa v	-0.1658484
-1.468347	b aa y	-0.4190573
-1.832509	bh aa </s>
-2.133539	bh aa bh	-0.2536053
-1.61066	bh aa d	-0.5273834
-2.133539	bh aa ei	-0.1390018
-0.8702975	bh aa g	-0.3674641
-2.133539	bh aa i	-0.233781
-1.832509	bh aa ii	-0.09010383
-2.133539	bh aa j	-0.2726218
-2.133539	bh aa k	-0.4483816
-1.21272	bh aa l	-0.2170947
-1.765562	bh aa m	-0.8472322
-1.268237	bh aa n	-0.5494802
-2.133539	bh aa oo	0.2958288
-1.496717	bh aa p	-0.6656727
-1.133539	bh aa r	-0.6458888
-2.133539	bh aa s	-0.348722
-1.832509	bh aa sh	-0.3040564
-1.195687	bh aa shh	-0.5770738
-1.656418	bh aa t	-0.2816688
-0.5102896	bh aa v	0.08952361
-1.230449	bh aa y	-0.4886931
-1.134779	ch aa </s>
-1.845984	ch aa au	-0.5228788
-1.91293	ch aa d	-0.524112
-1.31087	ch aa ei	-0.1357966
-2.21396	ch aa g	-0.5981297
-1.21396	ch aa h	-0.5197518
-2.21396	ch aa i	-0.5245547
-1.736839	ch aa ii	-0.1887136
-1.329354	ch aa k	-0.5620151
-1.147013	ch aa l	-0.4401104
-1.100017	ch aa n	-0.5680754
-2.21396	ch aa n:	-0.5930432
-1.691082	ch aa p	-0.3346794
-0.4192399	ch aa r	-0.370123
-2.21396	ch aa s	-0.4869662
-1.228683	ch aa t	-0.5937939
-2.21396	ch aa t:	-0.5654958
-1.736839	ch aa v	-0.6770288
-1.736839	ch aa y	-0.1113248
-0.7665694	chh aa </s>
-0.9313796	chh aa d	-0.3680747
-1.267172	chh aa ei	0.2163859
-1.568202	chh aa ii	-0.2234758
-1.568202	chh aa k	-0.4483816
-0.9661418	chh aa l	-0.5146286
-0.744293	chh aa n	-0.6129479
-1.200225	chh aa p	-0.4871373
-1.568202	chh aa r	-0.4855917
-1.09108	chh aa t	-0.3739322
-1.568202	chh aa v	-0.416848
-0.6189016	d aa </s>
-2.434036	d aa bh	-0.3157533
-1.911158	d aa ch	-0.7569093
-1.568735	d aa d	-0.5233929
-2.434036	d aa d:	-0.5207551
-2.434036	d aa ei	-0.1390018
-2.133006	d aa h	-0.4479808
-2.06606	d aa i	-0.8255847
-1.707038	d aa ii	-0.2575949
-1.707038	d aa j	-0.8092508
-1.76503	d aa k	-0.5721385
-2.133006	d aa kh	-0.4683117
-2.434036	d aa l	-0.2516251
-1.610128	d aa m	-0.7096657
-1.229916	d aa n	-0.3919488
-2.434036	d aa oo	0.2958288
-1.680709	d aa p	-1.131836
-0.7408959	d aa r	-0.5776635
-0.9920795	d aa s	-0.8046005
-2.133006	d aa sh	-0.8217013
-1.392644	d aa t	-0.9028556
-1.257945	d aa v	-0.392598
-0.9920795	d aa y	-0.7251387
-0.4264955	d: aa </s>
-1.962211	d: aa d:	-0.5913361
-1.962211	d: aa h	-0.508023
-1.962211	d: aa i	-0.5245547
-1.962211	d: aa ii	-0.2234758
-0.9208187	d: aa k	-0.5828156
-0.9622114	d: aa l	-0.3953379
-1.138303	d: aa n	-0.8617396
-1.962211	d: aa ph	-0.5852465
-1.48509	d: aa r	-0.447688
-1.594235	d: aa u	-0.5658478
-0.79588	d: aa y	-0.4839525
-1.121585	d:h aa </s>
-1.758407	d:h aa b	-0.5527573
-1.457377	d:h aa ei	-0.4708457
-1.0894	d:h aa i	-1.139481
-1.235528	d:h aa ii	-0.6628084
-1.156347	d:h aa k	-0.4287859
-1.031408	d:h aa l	-0.6565149
-0.9344984	d:h aa n	-0.8432289
-1.121585	d:h aa oo	0.2756254
-1.758407	d:h aa p	-0.3621987
-1.281286	d:h aa t	-0.4207788
-1.758407	d:h aa u	-0.5563025
-1.235528	d:h aa v	-0.7129706
-0.8205551	d:h aa y	-0.9275458
-0.05799195	dd aa </s>
-1.209981	dh aa </s>
-2.094588	dh aa b	-0.5527573
-1.726611	dh aa j	-0.8231495
-1.571709	dh aa k	-0.4001694
-2.094588	dh aa l	-0.5526552
-1.793558	dh aa m	-0.2827969
-0.5505195	dh aa n	-0.592557
-1.726611	dh aa p	-0.8911908
-0.3703117	dh aa r	-0.6770978
-1.457765	dh aa t	-0.6429122
-1.793558	dh aa v	-0.315647
-1.425581	dh aa y	-0.5122712
-0.8846066	ei aa a	0
-0.8846066	ei aa aa	-0.39794
-0.8846066	ei aa m	-0.4970104
-0.3617278	ei aa r	-0.7630438
-0.4824257	g aa </s>
-2.341764	g aa aa	-0.39794
-2.341764	g aa b	-0.4806378
-2.341764	g aa bh	-0.5789947
-2.341764	g aa ch	-0.3175766
-1.864643	g aa d	-0.4828013
-1.739704	g aa d:	-0.4944261
-2.040734	g aa d:h	-0.146128
-2.040734	g aa dh	-0.4805062
-1.704942	g aa ei	-1.053322
-1.973787	g aa g	-0.881705
-1.973787	g aa gh	-0.60206
-1.704942	g aa h	-0.8053836
-2.040734	g aa i	-0.5587549
-1.864643	g aa ii	-0.6214157
-1.818885	g aa j	-0.6982108
-2.341764	g aa k	-0.4483816
-1.563613	g aa l	-0.2037306
-1.739704	g aa m	-0.6424566
-0.814564	g aa n	-0.6187638
-2.341764	g aa oo	-0.5609289
-2.040734	g aa p	-0.8024395
-1.119915	g aa r	-0.5255936
-2.040734	g aa s	-0.4420398
-2.341764	g aa sh	-0.5240919
-1.403912	g aa t	-0.4602255
-1.973787	g aa th	-0.8413844
-1.739704	g aa v	-0.5585384
-1.078523	g aa y	-0.3469105
-0.7096938	gh aa </s>
-1.436693	gh aa n	-0.4966582
-1.436693	gh aa r	-0.4855917
-1.436693	gh aa s	-0.2911526
-0.4824501	gh aa t	-0.6993919
-0.7377226	gh aa t:	-0.2525666
-1.436693	gh aa v	-0.5847293
-1.436693	gh aa y	-0.5835108
-1.046625	h aa </s>
-2.347655	h aa b	-0.3486373
-1.979678	h aa ch	-0.8679764
-1.393413	h aa d	-0.6674497
-2.046625	h aa d:	-0.3062942
-2.347655	h aa ei	-0.5092536
-2.347655	h aa g	-0.3003774
-1.333415	h aa i	-0.5827177
-1.870534	h aa ii	-0.3447451
-1.870534	h aa k	-0.50371
-1.745595	h aa l	-0.2874497
-2.046625	h aa m	-0.5641667
-0.8753865	h aa n	-0.2666764
-2.347655	h aa n:	-0.5204926
-1.824776	h aa p	-0.7354927
-2.347655	h aa ph	-0.3636358
-0.5046301	h aa r	-0.2547076
-1.092383	h aa s	-0.5944643
-2.347655	h aa sh	-0.527711
-1.648685	h aa t	-0.3153877
-2.347655	h aa t:	-0.452139
-1.979678	h aa th	-0.6234546
-2.347655	h aa u	-0.5751879
-1.162019	h aa v	-0.810497
-1.546023	h aa y	-0.4055897
-0.7269987	i aa </s>
-0.4259687	i aa i	-0.5153336
-0.7269987	i aa t:	-0.452139
-0.9852768	ii aa g	-0.5205249
-0.6842467	ii aa i	-0.4295791
-0.258278	ii aa r	-0.4766368
-1.039414	j aa </s>
-1.516535	j aa b	-0.4771213
-2.340444	j aa bh	-0.5288281
-1.299051	j aa d	-0.532094
-2.340444	j aa dh	-0.4778004
-1.613445	j aa ei	0.01681352
-1.355167	j aa g	-0.2959702
-2.340444	j aa gh	-0.2932047
-2.039414	j aa h	-0.4859976
-1.370407	j aa i	-0.556924
-1.817565	j aa ii	-0.6628084
-1.703622	j aa j	-0.6690407
-1.703622	j aa k	-0.3655418
-1.613445	j aa l	-0.5166467
-1.273497	j aa m	-0.6489679
-0.8219302	j aa n	-0.3617603
-1.455837	j aa oo	0.06477207
-1.863323	j aa p	-0.412937
-2.340444	j aa ph	-0.5852465
-0.9144754	j aa r	-0.6101741
-2.340444	j aa s	-0.348722
-2.340444	j aa sh	-0.5204424
-1.025174	j aa t	-0.4954875
-2.340444	j aa th	-0.5844511
-2.340444	j aa uu	-0.4259688
-2.039414	j aa v	-0.3125559
-1.154808	j aa y	-0.2262152
-1.021189	jh aa d	-0.6092048
-1.544068	jh aa ei	-0.5713108
-0.3679768	jh aa n	-0.6711586
-1.544068	jh aa oo	0.2958288
-1.176091	jh aa r	-0.9019588
-0.7907404	jh aa t	-0.5674151
-1.021189	jh aa y	-0.6185765
-0.9059379	k aa </s>
-2.661813	k aa b	-0.2145854
-2.059753	k aa d	-0.4102507
-2.293836	k aa dh	-0.8885776
-2.360783	k aa ei	-0.3820398
-1.934814	k aa g	-0.456831
-2.184691	k aa h	-0.5162954
-2.360783	k aa i	-0.4576079
-2.059753	k aa ii	-0.2639817
-2.184691	k aa j	-0.4815239
-2.024991	k aa k	-0.4412423
-0.9990548	k aa l	-0.2409045
-1.40654	k aa m	-0.3101493
-0.9990548	k aa n	-0.4622597
-1.723961	k aa oo	-0.5334749
-2.661813	k aa p	-0.1775935
-2.184691	k aa ph	-0.4287087
-0.4478525	k aa r	-0.386487
-1.647572	k aa s	-0.3418852
-1.633784	k aa sh	-0.5679828
-1.883661	k aa t	-0.3916286
-1.676536	k aa t:	-0.142991
-2.661813	k aa t:h	-0.5537553
-1.962843	k aa u	-0.5314789
-2.024991	k aa uu	-0.69897
-1.676536	k aa v	-0.2053461
-1.390746	k aa y	-0.5121394
-0.856379	kh aa </s>
-1.959041	kh aa b	-0.4806378
-1.658011	kh aa d	-0.2009352
-1.959041	kh aa d:	-0.3762208
-1.074435	kh aa ei	0.1402311
-1.959041	kh aa g	-0.5567371
-1.959041	kh aa ii	-0.2234758
-1.959041	kh aa j	-0.596333
-1.658011	kh aa k	-0.4205749
-1.322219	kh aa l	-0.4610899
-0.944801	kh aa n	-0.2561686
-1.135133	kh aa oo	0.4005642
-1.658011	kh aa p	-0.7216615
-0.9590414	kh aa r	-0.4295849
-1.322219	kh aa s	-0.427517
-1.436163	kh aa sh	-0.6005388
-1.205714	kh aa t	-0.4741092
-1.436163	kh aa v	-0.2931274
-1.232043	kh aa y	-0.5830499
-0.6319723	l aa </s>
-1.854842	l aa b	-0.4620326
-1.881171	l aa bh	-0.3157533
-1.971347	l aa ch	-0.8616446
-1.608169	l aa d	-0.5926976
-1.971347	l aa d:	-0.5428052
-2.608169	l aa dh	-0.4989897
-1.505507	l aa ei	0.1951965
-1.687351	l aa g	-0.5252201
-1.622893	l aa h	-0.6119393
-1.653927	l aa i	-0.4030618
-1.528988	l aa ii	-0.4788257
-1.622893	l aa j	-0.7327098
-1.494226	l aa k	-0.3905086
-2.307139	l aa kh	-0.384118
-1.337103	l aa l	-0.6217457
-1.541223	l aa m	-0.5242876
-1.103019	l aa n	-0.5937724
-1.806537	l aa oo	-0.4031413
-1.553812	l aa p	-0.584698
-2.608169	l aa ph	-0.3636358
-1.395095	l aa r	-0.5679966
-1.28595	l aa s	-0.3010301
-1.705079	l aa sh	-0.5789036
-1.187663	l aa t	-0.3946311
-2.240193	l aa t:	-0.8665258
-2.307139	l aa t:h	-0.5537553
-2.608169	l aa u	-0.5888318
-2.085291	l aa uu	-0.6943742
-1.553812	l aa v	-0.4692998
-1.292899	l aa y	-0.3809672
-1.0557	m aa </s>
-1.882156	m aa b	-0.7765595
-1.908485	m aa ch	-0.3450976
-1.908485	m aa d	-0.4427084
-1.998662	m aa d:	-0.7719279
-1.697632	m aa dh	-0.4274953
-2.635484	m aa ei	-0.598749
-2.033424	m aa g	-0.4792894
-2.112605	m aa gh	-0.3723859
-1.936514	m aa h	-0.4899025
-1.556303	m aa i	-0.9431623
-2.635484	m aa ii	-0.2234758
-1.440507	m aa j	-0.4573625
-1.697632	m aa k	-0.4967857
-1.396602	m aa l	-0.4452358
-2.334454	m aa m	-0.3226579
-0.5160079	m aa n	-0.3187463
-1.431364	m aa n:	-0.602803
-2.267507	m aa oo	-0.005201221
-1.908485	m aa p	-0.5219749
-0.7801666	m aa r	-0.2882269
-1.714665	m aa s	-0.5292939
-2.334454	m aa sh	-0.4510453
-2.635484	m aa shh	-0.4637573
-1.532821	m aa t	-0.5341743
-2.158362	m aa t:	-0.4744153
-1.908485	m aa u	-0.3201463
-2.635484	m aa uu	-0.5785789
-1.790386	m aa v	-0.2088065
-1.422409	m aa y	-0.2639976
-0.4291773	n aa </s>
-1.995909	n aa b	-0.3796813
-1.785056	n aa ch	-0.3322096
-1.87781	n aa d	0.06540579
-2.722908	n aa d:	-0.3872162
-1.444154	n aa ei	-0.06379402
-1.87781	n aa g	-0.4791164
-2.421878	n aa h	-0.508023
-1.620246	n aa i	-0.7534175
-2.200029	n aa ii	-0.6104203
-1.921276	n aa j	-0.5412821
-1.708668	n aa k	-0.1471929
-2.053901	n aa kh	-1.095862
-1.587245	n aa l	-0.4502916
-1.27575	n aa m	-0.2076449
-1.36118	n aa n	-0.6097027
-1.681515	n aa oo	-0.6335901
-1.752871	n aa p	-0.4448949
-2.722908	n aa ph	-0.5852465
-1.280951	n aa r	-0.5755972
-1.643727	n aa s	-0.6018137
-1.57678	n aa sh	-0.339514
-1.393849	n aa t	-0.1971467
-1.752871	n aa t:	-0.4744153
-1.444154	n aa th	-0.6905899
-1.518788	n aa v	-0.1154925
-1.245787	n aa y	-0.5000331
-0.6548733	n: aa </s>
-1.64015	n: aa ch	-0.3175766
-1.64015	n: aa ei	-0.1390018
-1.33912	n: aa g	-0.5157784
-1.64015	n: aa ii	-0.2234758
-1.117271	n: aa l	-0.7163624
-1.272173	n: aa m	-0.5481628
-1.33912	n: aa n	-0.8150814
-0.8868224	n: aa oo	-0.3573837
-1.272173	n: aa r	-0.888984
-1.64015	n: aa s	-0.5560471
-1.33912	n: aa t	-0.7783076
-1.117271	n: aa v	-0.5872085
-1.33912	n: aa y	-0.3062942
-0.1249387	nj~ aa n	-0.3956917
-0.2218488	oo aa m	-0.4970104
-1.318179	p aa </s>
-1.644033	p aa ch	-0.7059411
-1.573452	p aa d	-0.394127
-2.096331	p aa d:h	-0.473487
-2.397361	p aa dh	-0.2948697
-1.573452	p aa ei	-0.3254359
-1.760538	p aa h	-0.8143154
-1.670362	p aa i	-0.7158369
-1.459508	p aa ii	-0.5207778
-1.874482	p aa k	-0.6027741
-1.011159	p aa l	-0.383199
-2.397361	p aa m	-0.5933331
-0.9936682	p aa n	-0.6354076
-1.397361	p aa p	-0.5662574
-0.7672719	p aa r	-0.5506321
-1.231029	p aa s	-0.6163283
-1.760538	p aa sh	-0.551666
-1.089152	p aa t	-0.3475461
-1.874482	p aa t:	-0.7016591
-1.330414	p aa t:h	-0.2263963
-1.670362	p aa th	-0.4146782
-2.096331	p aa uu	-0.6690068
-1.412084	p aa v	-0.499245
-1.369332	p aa y	-0.4345374
-1.268474	ph aa </s>
-0.9004972	ph aa d	-0.8193567
-1.745595	ph aa d:	-0.5291883
-1.745595	ph aa g	-0.3940097
-0.8802938	ph aa i	-0.6200939
-1.222716	ph aa ii	-0.3617784
-1.377618	ph aa k	-0.64772
-1.018597	ph aa l	-0.4365217
-1.745595	ph aa n	-0.2276699
-0.9004972	ph aa r	-0.4467949
-1.143535	ph aa s	-0.6674035
-1.377618	ph aa t:	-0.816838
-1.444565	ph aa u	-0.5078558
-1.108773	ph aa y	-0.5897824
-0.1249387	pii aa r	-0.5726843
-0.8154927	r aa </s>
-2.811128	r aa ai	0
-2.811128	r aa au	-0.4771213
-1.731947	r aa b	-0.3094224
-2.032977	r aa ch	-0.2794189
-1.945827	r aa d	-0.5404264
-2.811128	r aa d:	-0.5913361
-1.635037	r aa dh	-0.5014064
-2.084129	r aa ei	-0.2424617
-1.796888	r aa g	-0.6812413
-1.436991	r aa h	-0.2891647
-1.555856	r aa i	-0.5261483
-1.841091	r aa ii	-0.2385237
-1.095125	r aa j	-0.3510531
-1.424926	r aa k	-0.2804737
-2.510098	r aa kh	-0.390552
-1.616151	r aa l	-0.4534734
-1.011787	r aa m	-0.2313529
-1.023431	r aa n	-0.6182899
-1.524821	r aa n:	-0.424199
-2.510098	r aa oo	0.8398968
-1.841091	r aa p	-0.771428
-2.0578	r aa ph	-0.5166776
-1.783099	r aa r	-0.3981014
-1.731947	r aa s	-0.1621166
-1.945827	r aa sh	-0.5190657
-1.572246	r aa shh	-0.9622115
-1.35883	r aa t	-0.3475723
-2.209068	r aa t:	-0.4559319
-2.334007	r aa th	-0.5129881
-2.0578	r aa u	-0.9180303
-1.216367	r aa v	-0.4463227
-1.164398	r aa y	-0.2446133
-0.9085843	s aa </s>
-2.163857	s aa b	-0.3472109
-1.987766	s aa d	-0.1549569
-2.464887	s aa d:h	-0.5682018
-1.436858	s aa dh	-0.4274953
-2.464887	s aa ei	-0.1390018
-1.828065	s aa g	-0.4500671
-1.251812	s aa h	-0.5533029
-1.243038	s aa i	-0.3919111
-1.436858	s aa ii	-0.2552294
-1.862827	s aa j	-0.3003657
-1.47961	s aa k	-0.5359355
-1.828065	s aa kh	-0.6141006
-1.26991	s aa l	-0.3585181
-1.002489	s aa m	-0.5804098
-0.8813102	s aa n	-0.2828321
-2.464887	s aa p	-0.3441839
-1.942008	s aa ph	-0.3624443
-0.9642844	s aa r	-0.3902925
-1.58028	s aa s	-0.5616313
-1.47961	s aa t	-0.4983552
-2.464887	s aa t:h	-0.4896378
-1.862827	s aa th	-0.3109815
-1.640978	s aa v	-0.6944872
-1.298555	s aa y	-0.0525142
-0.7985042	sh aa </s>
-1.839897	sh aa b	-0.5382794
-1.839897	sh aa d	-0.2566425
-1.77295	sh aa ei	-0.8102836
-1.77295	sh aa g	-0.857767
-1.339295	sh aa h	-0.3031068
-2.140927	sh aa j	-0.5221195
-2.140927	sh aa k	-0.3413937
-1.413928	sh aa kh	-0.7086291
-0.8776854	sh aa l	-0.8823035
-0.8698601	sh aa n	-0.5397874
-1.77295	sh aa oo	-0.005201221
-1.663806	sh aa p	-0.6436783
-1.203075	sh aa r	-0.665458
-0.8856543	sh aa s	-0.9060102
-1.77295	sh aa sh	-0.6377555
-1.387599	sh aa t	-0.5137984
-1.77295	sh aa t:	-0.7531689
-1.317018	sh aa v	-0.6664584
-2.140927	sh aa y	-0.2834667
-0.7474824	shh aa </s>
-1.612784	shh aa ch	-0.3175766
-1.244807	shh aa d:h	-0.5314789
-1.311754	shh aa dh	-0.5478382
-0.7888751	shh aa ei	-0.8591611
-1.135663	shh aa h	-0.4444559
-1.244807	shh aa m	-0.8346045
-1.612784	shh aa oo	0.2958288
-1.612784	shh aa p	-0.5883009
-1.244807	shh aa shh	-0.8616973
-1.244807	shh aa t	-0.6470723
-1.244807	shh aa v	-0.8818741
-1.244807	shh aa y	-0.8688635
-0.2866102	t aa </s>
-2.12108	t aa b	-0.4486686
-2.389925	t aa chh	0
-2.456872	t aa d	-0.5090771
-2.757902	t aa d:	-0.5803407
-2.757902	t aa dh	-0.5142297
-1.65524	t aa ei	-0.8379719
-2.757902	t aa g	-0.5205249
-2.155842	t aa h	-0.4822156
-2.280781	t aa i	-0.3037691
-1.757902	t aa ii	-1.112777
-2.280781	t aa j	-0.1151998
-1.912804	t aa k	-0.3430601
-1.442631	t aa l	-0.6027648
-1.787865	t aa m	-0.2839968
-1.174325	t aa n	-0.4255431
-1.201599	t aa oo	-1.139538
-1.359962	t aa p	-0.2922131
-2.757902	t aa puu	0
-1.174325	t aa r	-0.5102291
-2.757902	t aa s	-0.5951111
-2.235023	t aa sh	-0.526809
-1.854812	t aa t	-0.2298811
-2.757902	t aa th	-0.5933448
-2.389925	t aa u	-0.8573325
-2.389925	t aa uu	-0.7269987
-1.572265	t aa v	-0.4089044
-1.611774	t aa y	-0.5059059
-0.795052	t: aa </s>
-1.293362	t: aa ch	-1.037736
-2.117271	t: aa ei	-0.5713108
-0.8701167	t: aa i	-0.2997095
-1.390273	t: aa k	-0.3892775
-1.749295	t: aa kh	-0.5974573
-0.9816087	t: aa l	-0.1594614
-1.816241	t: aa m	-0.4442271
-1.003328	t: aa n	-0.7164055
-2.117271	t: aa oo	-0.5609289
-1.390273	t: aa p	-0.7385806
-1.448264	t: aa ph	-0.7458256
-1.196452	t: aa r	-0.6844971
-1.293362	t: aa t	-0.6281129
-2.117271	t: aa u	-0.2648178
-1.816241	t: aa v	-0.1876172
-1.026191	t: aa y	-0.5750639
-0.4985194	t:h aa </s>
-0.90309	t:h aa ei	-0.05661541
-1.539912	t:h aa i	-0.574489
-1.539912	t:h aa ii	-0.2234758
-1.017033	t:h aa k	-0.6109352
-0.90309	t:h aa n	-0.4312142
-1.017033	t:h aa oo	-0.7238808
-1.539912	t:h aa p	-0.5483038
-1.539912	t:h aa uu	-0.4259688
-0.7749223	th aa </s>
-1.951014	th aa d	-0.524112
-1.314191	th aa ei	-0.6830699
-1.951014	th aa g	-0.5205249
-1.951014	th aa h	-0.5618188
-1.127105	th aa i	-0.8034363
-1.951014	th aa ii	-0.2234758
-1.649984	th aa k	-0.3654073
-1.951014	th aa l	-0.1755721
-1.314191	th aa m	-0.6009065
-0.642805	th aa n	-0.3928635
-0.8483512	th aa p	-0.5704168
-1.951014	th aa r	-0.383834
-1.951014	th aa t	-0.5471392
-1.649984	th aa t:	-0.695177
-1.583037	th aa th	-0.8413844
-1.649984	th aa v	-0.5294127
-1.314191	th aa y	-0.4709938
-0.1406189	u aa </s>
-1.194977	u aa d	-0.5394369
-1.194977	u aa n	-0.4966582
-1.194977	u aa t	-0.3430192
-0.4771213	uu aa </s>
-0.4771213	uu aa n	-0.4966582
-1.153953	v aa </s>
-2.116165	v aa b	-0.4141577
-2.116165	v aa bh	-0.8276366
-2.116165	v aa ch	-0.163254
-0.8529234	v aa d	-0.5075873
-1.852923	v aa d:	-0.5742666
-2.049218	v aa dh	-0.6317739
-2.417195	v aa ei	-0.3820398
-2.049218	v aa g	-1.094556
-1.208574	v aa h	-0.5397764
-1.651278	v aa i	-0.5213495
-1.780373	v aa ii	-0.5896592
-1.940074	v aa j	-0.1752777
-1.639044	v aa k	-0.7592947
-1.182509	v aa l	-0.544241
-1.639044	v aa m	-0.7038955
-0.8489931	v aa n	-0.4482308
-2.195346	v aa n:	-0.5132541
-2.195346	v aa p	-0.5970654
-0.942493	v aa r	-0.4186448
-1.02216	v aa s	-0.3174204
-1.732948	v aa sh	-0.4040577
-2.718225	v aa shh	-0.5900511
-1.487776	v aa t	-0.421541
-2.718225	v aa t:	-0.248019
-2.718225	v aa th	-0.5844511
-2.718225	v aa v	-0.5368794
-1.178313	v aa y	-0.1942305
-0.4161096	y aa </s>
-2.448191	y aa b	-0.4278185
-2.749221	y aa bh	-0.3748747
-1.828402	y aa ch	-0.4343209
-1.846131	y aa d	-0.2704783
-2.381244	y aa dh	-0.8691766
-2.022222	y aa ei	-0.1357966
-1.794978	y aa g	-0.6316753
-2.022222	y aa h	-0.4637873
-2.749221	y aa ii	-0.2234758
-2.749221	y aa j	-0.4999031
-1.73498	y aa k	-0.4189437
-1.527372	y aa l	-0.5648371
-1.502066	y aa m	-0.5594725
-0.6488503	y aa n	-0.9055201
-2.147161	y aa n:	-0.367126
-1.947588	y aa oo	-0.4031413
-1.682274	y aa p	-0.5076259
-1.257859	y aa r	-0.5606472
-1.65814	y aa s	-0.3622997
-1.925312	y aa sh	-0.4221557
-1.45549	y aa t	-0.5807065
-2.749221	y aa u	-0.5888318
-1.493948	y aa v	-0.9798422
-1.646559	y aa y	-0.1478463
-0.1249387	i aai </s>
-1.653213	<s> ai bh	0
-1.653213	<s> ai ch	-0.30103
-1.653213	<s> ai d	-0.3657553
-1.130334	<s> ai d:	-0.6600519
-1.653213	<s> ai ei	0
-0.8515801	<s> ai k	-0.5303224
-1.352183	<s> ai l	-0.5546353
-1.01639	<s> ai n	-0.7219658
-1.285236	<s> ai p	-0.8029748
-1.285236	<s> ai ph	-0.6690068
-1.01639	<s> ai r	-0.7206893
-0.8515801	<s> ai s	-0.4410761
-1.653213	<s> ai sh	-0.5672979
-1.176091	<s> ai t:	-0.6720081
-0.1249387	aa ai s	-0.5783653
-1.7104	b ai </s>
-1.073577	b ai d:	-0.4654772
-0.9570718	b ai g	-0.2552725
-1.7104	b ai j	-0.5619428
-1.011429	b ai k	-0.5320222
-1.409369	b ai l	-0.2934768
-0.5964561	b ai n	-0.6648065
-1.7104	b ai r	-0.590779
-1.187521	b ai s	-0.7250727
-1.233278	b ai t:	-0.3954027
-1.7104	b ai t:h	-0.1383027
-0.9834008	b ai th	-0.479413
-1.7104	b ai y	-0.5449171
-0.2218488	bh ai </s>
-0.8346326	ch ai m	-0.6953357
-0.8346326	ch ai n	-0.4126633
-0.6127838	ch ai t	-0.5801054
-0.7676858	ch ai t:	-0.8587357
-0.8346326	ch ai y	-0.7879551
-0.8016323	d ai r	-0.590779
-0.1648103	d ai v	-0.5020589
-0.1249387	d: ai </s>
-0.04139268	dh ai r	-1.002591
-1.263241	g ai j	-0.5177391
-0.9622114	g ai l	-0.4741157
-0.7403627	g ai n	-1.004127
-1.263241	g ai p	-0.3258536
-0.4393327	g ai r	-0.5392692
-0.8952646	g ai s	-0.4520715
-1.556303	h ai </s>
-1.556303	h ai b	-0.3332147
-1.556303	h ai d:	-0.4839607
-1.556303	h ai dh	-0.5177391
-1.556303	h ai g	-0.4004146
-1.556303	h ai ii	0
-1.188326	h ai j	-0.6726411
-0.9542425	h ai k	-0.4892701
-1.079181	h ai l	-0.692938
-1.079181	h ai m	-0.6524075
-0.6910011	h ai n	-0.5525423
-1.033424	h ai r	-0.9644329
-1.556303	h ai s	-0.3742453
-1.556303	h ai y	-0.5168884
-0.05799195	ii ai </s>
-1.263241	j ai </s>
-1.263241	j ai dh	-0.5177391
-1.263241	j ai k	-0.3279021
-0.8952646	j ai l	-0.8816011
-1.263241	j ai m	-0.5797836
-0.8952646	j ai n	-0.4992056
-1.263241	j ai ph	-0.5440681
-1.263241	j ai s	-0.2391776
-1.263241	j ai t	-0.5833106
-0.9622114	j ai v	-0.4740302
-1.263241	j ai y	-0.5838352
-1.732394	k ai d	-0.2688453
-1.732394	k ai d:	-0.5351132
-1.063387	k ai k	-0.715292
-1.033424	k ai l	-0.3271827
-0.7945417	k ai m	-0.7190089
-0.704365	k ai n	-0.3151961
-1.732394	k ai p	-0.1217336
-1.732394	k ai ph	-0.3679768
-1.732394	k ai r	-0.1791736
-1.095572	k ai s	-0.5484384
-1.255273	k ai t	-0.6599563
-1.732394	k ai t:	-0.5892228
-1.255273	k ai th	-0.119083
-1.732394	k ai v	-0.5734149
-1.364417	k ai y	-0.8179184
-1.374137	l ai </s>
-1.675167	l ai b	-0.2839966
-1.675167	l ai d:	-0.5698754
-1.152288	l ai k	-0.6375323
-1.198046	l ai m	-0.4807253
-0.3262135	l ai n	-0.918481
-1.00616	l ai p	-0.4130038
-1.675167	l ai r	-0.5791972
-1.30719	l ai s	-0.8628488
-1.675167	l ai t	-0.5431933
-1.374137	l ai t:	-0.3745525
-1.428675	m ai </s>
-1.729705	m ai d:	-0.5698754
-1.252583	m ai g	-0.3367455
-0.6047659	m ai k	-0.5991626
-1.428675	m ai l	-0.5013898
-1.729705	m ai m	-0.5522625
-0.594042	m ai n	-0.4736515
-1.428675	m ai s	-0.5402076
-1.729705	m ai t	-0.466805
-0.976377	m ai t:	-0.7430376
-1.428675	m ai th	-0.5351132
-1.361728	m ai y	-0.6630164
-1.176091	n ai j	-0.5177391
-0.8750613	n ai n	-0.5710257
-1.176091	n ai s	-0.5903742
-1.176091	n ai sh	-0.5295094
-1.176091	n ai t	-0.262685
-0.5070845	n ai t:	-0.9893289
-0.8750613	n ai v	-0.4740301
-1.050079	p ai d	-0.6356273
-1.5272	p ai dh	-0.5177391
-1.22617	p ai g	-0.4004146
-0.8002014	p ai k	-0.5217221
-1.5272	p ai m	-0.5910646
-1.5272	p ai n	-0.3827001
-1.050079	p ai r	-0.3881802
-1.22617	p ai s	-0.3878306
-0.7738724	p ai t	-0.6258628
-1.22617	p ai t:	-0.2496138
-1.22617	p ai t:h	-0.3590219
-1.5272	p ai th	-0.5698754
-1.308209	ph ai b	-0.3332147
-0.9402318	ph ai g	-0.7014446
-0.9402318	ph ai j	-0.6726411
-0.6092386	ph ai l	-0.418742
-0.9402318	ph ai m	-0.8282301
-1.308209	ph ai n	-0.3742669
-1.308209	ph ai s	-0.2607888
-1.007179	ph ai t:	-0.5186417
-1.247155	r ai </s>
-1.025306	r ai d	-0.6600519
-1.180208	r ai g	-0.8573325
-1.548185	r ai j	-0.5619428
-1.025306	r ai k	-0.5694901
-1.548185	r ai kh	0
-1.247155	r ai l	-0.3299937
-0.8791778	r ai m	-1.026329
-0.7465523	r ai n	-0.5431619
-1.548185	r ai ph	-0.5440681
-1.548185	r ai s	-0.5618188
-1.025306	r ai y	-0.8013191
-0.4259687	rx ai m	-0.5910646
-0.4259687	rx ai n	-0.5832258
-1.113943	s ai g	-0.7822678
-0.9590414	s ai k	-0.35627
-1.18089	s ai l	-0.5234773
-1.113943	s ai m	-0.8769872
-0.4027389	s ai n	-0.3192391
-1.48192	s ai ph	-0.3399481
-0.9590414	s ai t:	-0.6895933
-1.48192	s ai y	-0.5168884
-1.124939	sh ai k	-0.5950739
-0.60206	sh ai l	-0.6849691
-1.124939	sh ai sh	-0.5295094
-0.8239087	sh ai t	-0.7862313
-0.4881167	sh ai v	-0.6943251
-0.2218488	shh ai l	-0.3669058
-1.39794	t ai g	-0.4812379
-1.39794	t ai k	-0.5320222
-1.09691	t ai m	-0.6953357
-1.029963	t ai n	-0.8914147
-0.5740313	t ai r	-0.5752668
-1.39794	t ai s	-0.5402076
-1.029963	t ai sh	-0.8171754
-0.6446123	t ai y	-0.7054653
-1.263241	t: ai </s>
-1.263241	t: ai j	-0.5619428
-1.263241	t: ai k	-0.5320222
-0.7403627	t: ai m	-0.7283538
-0.4616091	t: ai n	-0.4528394
-1.263241	t: ai p	-0.3258536
-0.9622114	t: ai t:	-0.528742
-0.1760913	th ai l	-0.4882913
-0.69897	th ai t	-0.5216537
-1.265492	v ai d	-0.5740312
-1.633469	v ai dh	-0.3136191
-1.633469	v ai g	-0.3789168
-1.11059	v ai k	-0.6057022
-0.7488618	v ai l	-0.9483793
-1.633469	v ai m	-0.3756636
-0.768167	v ai n	-0.700465
-1.11059	v ai r	-0.6690068
-1.156347	v ai s	-0.3853057
-0.9064697	v ai sh	-0.4696332
-1.633469	v ai t	-0.5833106
-1.332438	v ai y	-0.3051746
-0.1249387	r al aa	0
-0.9610819	<s> au </s>
-1.329059	<s> au d	-0.5361315
-1.329059	<s> au h	-0.5314789
-1.028029	<s> au j	-0.7918525
-0.4637573	<s> au r	-0.531908
-0.9610819	<s> au s	-0.7939456
-1.329059	<s> au shh	-0.4471581
-1.329059	<s> au t	-0.5599987
-0.1249387	a au r	-0.5308344
-0.2340832	aa au m	-0.8217851
-0.60206	aa au r	-0.5308344
-0.845098	b au chh	0
-0.243038	b au d	-0.7420277
-0.845098	b au r	-0.5639396
-0.544068	bh au m	-0.7763822
-0.544068	bh au n	-0.5713912
-0.544068	bh au t	-0.7311547
-1.035716	ch au d	-0.8580116
-0.7668703	ch au d:	-0.4582359
-1.403692	ch au dh	-0.5413622
-0.60206	ch au k	-0.3053948
-1.403692	ch au l	-0.5785789
-1.102662	ch au n	-0.7776026
-0.8016323	ch au p	-0.3309931
-1.403692	ch au t	-0.4881167
-0.2071255	d au d	-0.5018882
-0.9852768	d au d:	-0.2723848
-0.9852768	d au s	-0.5720968
-0.9378521	d: au bh	-0.4637573
-0.9378521	d: au k	-0.5606673
-0.5698753	d: au l	-0.8461851
-0.6368221	d: au n	-0.7619506
-1.278754	g au </s>
-0.9777236	g au d	-0.7646917
-1.278754	g au d:	-0.4614411
-0.9777236	g au n	-0.4592096
-0.3409015	g au r	-0.424415
-1.278754	g au sh	-0.5546353
-1.278754	g au v	-0.5118834
-0.7659168	h au j	-0.4045706
-0.4301247	h au r	-0.743997
-0.4648868	h au s	-0.4607308
-0.60206	j au </s>
-0.60206	j au r	-0.5909711
-0.60206	j au sh	-0.5546353
-1.374137	k au d:	-0.542746
-1.00616	k au l	-0.5308061
-0.737315	k au m	-0.7094355
-1.073107	k au n	-0.3342709
-0.5725048	k au r	-0.3175893
-0.7720771	k au sh	-0.6131489
-1.374137	k au v	-0.5118834
-0.2340832	kh au f	0
-0.60206	kh au ph	-0.39794
-0.6642079	l au j	-0.677572
-1.30103	l au k	-0.5818566
-0.5740313	l au n	-0.578396
-0.8239087	l au t	-0.2662678
-0.69897	l au t:	0
-1.380211	m au d	-0.5833106
-1.380211	m au d:	-0.5734149
-1.380211	m au h	-0.1383027
-0.90309	m au j	-0.3143939
-1.380211	m au jh	0
-0.8573325	m au k	-0.3872819
-0.7433891	m au l	-0.4624855
-1.380211	m au m	-0.5690597
-1.380211	m au n	-0.2808266
-1.380211	m au s	-0.3679768
-1.012234	m au t	-0.4935116
-1.335792	n au j	-0.5762528
-0.7337321	n au k	-0.3265841
-1.335792	n au l	-0.5785789
-0.8586708	n au n	-0.6326259
-1.335792	n au r	-0.5909711
-1.335792	n au s	-0.50515
-1.335792	n au sh	-0.5013899
-0.7337321	n au t	-0.4301246
-1.034762	n au v	-0.39794
-1.31527	p au d:	-0.4213239
-0.5882717	p au dh	-0.2850026
-0.4913617	p au n	-0.6448462
-1.31527	p au s	-0.5720968
-0.8381492	p au t	-0.3454491
-1.31527	p au th	-0.359022
-0.4259687	ph au j	-0.2752227
-0.4259687	ph au r	-0.5909711
-1.041393	r au </s>
-1.342423	r au b	0
-1.342423	r au ch	-0.30103
-0.9744459	r au d	-0.8371615
-1.041393	r au d:h	0
-1.342423	r au j	-0.5488145
-0.5407903	r au n	-0.4586378
-1.342423	r au p	-0.5351132
-1.041393	r au s	-0.748188
-1.034762	s au bh	-0.5026754
-1.335792	s au g	-0.30103
-1.335792	s au l	-0.3744589
-0.9678153	s au m	-0.8217851
-0.4906941	s au n	-0.7781512
-1.335792	s au ph	-0.39794
-1.335792	s au r	-0.4507924
-1.335792	s au shh	-0.4471581
-0.9678153	s au t	-0.7433891
-0.8016323	sh au h	-0.5314789
-0.3245111	sh au k	-0.3088554
-0.8016323	sh au r	-0.5909711
-0.544068	t au d:	-0.8606565
-0.4301247	t au l	-0.4522977
-1.066947	t au r	-0.5308344
-1.066947	t au sh	-0.5013899
-0.1249387	t: au t	-0.5373347
-0.4259687	th au d	-0.5216537
-0.4259687	th au d:	-0.542746
-0.6690068	y au d	-0.5833106
-0.3679768	y au h	-0.5854607
-2.889488	<s> b </s>
-0.4051886	<s> b a	-0.04433262
-0.8866028	<s> b aa	-0.1396221
-1.321287	<s> b ai	-0.02240652
-2.111337	<s> b au	0
-2.889488	<s> b ch	0
-1.001122	<s> b ei	-0.2128241
-1.05698	<s> b i	-0.2451815
-1.44233	<s> b ii	-0.5690821
-1.889488	<s> b l	-0.5898255
-1.325217	<s> b oo	-0.1507407
-1.151766	<s> b r	-0.1975664
-2.889488	<s> b ri	0
-2.889488	<s> b rx	0
-1.362288	<s> b u	-0.2949972
-1.951636	<s> b uu	-0.706939
-0.9786019	a b </s>
-0.7355638	a b a	-0.6255996
-2.217484	a b a:	0
-1.041393	a b aa	-0.5417671
-2.217484	a b ai	-0.4752371
-1.694605	a b b	-0.265211
-1.415852	a b d	-0.2289436
-1.849507	a b d:	0
-1.439333	a b dh	0
-1.580662	a b ei	-0.6009421
-1.189455	a b i	-0.6848363
-1.031847	a b ii	-0.4754013
-2.217484	a b j	0
-2.217484	a b jh	0
-1.580662	a b k	-0.2552725
-1.138303	a b l	-0.69897
-2.217484	a b m	0
-1.916454	a b oo	-0.4041633
-1.415852	a b r	-0.595665
-1.916454	a b s	-0.4559319
-1.916454	a b t	-0.30103
-2.217484	a b t:	0
-1.694605	a b u	-0.5041401
-1.332877	a b uu	-0.6368221
-1.033	aa b </s>
-1.135663	aa b a	-0.3969717
-0.6127838	aa b aa	-0.6299502
-1.466656	aa b b	-0.6627579
-1.357511	aa b d	-0.4130037
-0.8967805	aa b ei	-0.6157418
-1.197811	aa b i	-0.4964264
-0.9693312	aa b ii	-0.9141068
-0.9693312	aa b oo	-0.6150168
-1.834633	aa b u	-0.2737831
-1.834633	aa b uu	-0.3645163
-1.834633	aa b v	0
-0.3357921	ai b i	-0.5122207
-0.6368221	ai b r	-0.4580283
-0.1249387	au b ii	-0.5968795
-0.3716111	b b a	-0.8642792
-0.8239087	b b aa	-0.4287297
-0.8239087	b b ei	-0.8090314
-0.7569619	b b i	-0.858063
-0.1249387	ch b ii	-0.4517925
-0.1249387	chh b i	-0.5594593
-0.4074853	d b a	-0.9669505
-0.3617278	d b aa	-0.7086116
-0.2632414	d: b a	-0.7568371
-0.5642715	d: b ai	-0.4752371
-0.9505146	ei b </s>
-0.559308	ei b a	-0.7667717
-0.860338	ei b aa	-0.8847029
-1.587337	ei b b	-0.5314789
-1.21936	ei b ei	-0.6219714
-0.9852768	ei b i	-0.3952999
-1.286307	ei b ii	-0.5916364
-1.587337	ei b oo	-0.4665467
-1.21936	ei b r	-0.7896717
-1.286307	ei b s	-0.4559319
-0.4259687	g b aa	-0.5682816
-0.4259687	g b ii	-0.4517925
-1.568202	i b </s>
-0.4325391	i b a	-0.7290268
-1.267172	i b aa	-0.552842
-1.267172	i b b	-0.1055101
-0.9313796	i b ei	-0.5394986
-1.045323	i b i	-1.018885
-1.568202	i b l	-0.5873368
-1.568202	i b oo	-0.4665467
-0.9313796	i b r	-0.4224521
-1.568202	i b y	0
-0.8239087	ii b </s>
-0.90309	ii b a	-0.5077034
-0.90309	ii b aa	-0.7289333
-1.057992	ii b ei	-0.8609151
-1.425969	ii b i	-0.3754327
-0.8239087	ii b ii	-0.3721257
-1.057992	ii b oo	-0.7675766
-1.057992	ii b r	-0.7590584
-1.425969	ii b s	-0.5351132
-0.4973246	j b aa	-0.5351132
-0.8653014	j b i	-0.5737388
-0.3881802	j b uu	-0.6707267
-0.3174204	k b a	-0.4278366
-0.5862657	k b ei	-0.8766215
-0.9542425	k b r	-0.5214756
-0.30103	kh b i	-0.5702127
-0.7983546	l b </s>
-0.3881802	l b a	-0.5735318
-0.7983546	l b ii	-0.8673254
-1.166331	l b r	-0.5967744
-1.166331	l b u	-0.4230244
-1.142463	m b </s>
-0.423522	m b a	-0.68373
-1.050693	m b aa	-0.424408
-1.527814	m b ai	-0.8739318
-1.527814	m b ei	-0.3971578
-0.910514	m b i	-0.6861147
-1.594761	m b ii	-0.6948305
-1.895791	m b l	-0.5720968
-1.011184	m b oo	-0.5248442
-1.168792	m b r	-0.8672868
-1.527814	m b u	-0.7240543
-0.7403627	n b a	-0.4356869
-0.4393327	n b aa	-0.517528
-0.7403627	n b ei	-0.5371552
-1.041393	n b i	-0.5570331
-0.05799195	n: b aa	-0.8933805
-1.066947	oo b a	-0.3308684
-0.8908556	oo b aa	-0.3301306
-1	oo b ai	-0.8522899
-1.367977	oo b ei	-0.5953092
-0.3827001	oo b i	-0.7286919
-1.066947	oo b ii	-0.4137833
-1.367977	oo b u	-0.5748131
-0.1249387	p b a	-0.5816188
-0.4510185	r b a	-0.5066358
-0.8489584	r b aa	-0.3426688
-1.575957	r b ai	-0.4752371
-1.575957	r b ei	-0.5755915
-1.053078	r b i	-0.9515533
-0.6728672	r b ii	-0.7552419
-1.575957	r b oo	-0.4665467
-1.274927	r b uu	-0.8116742
-0.5835766	s b a	-0.7568371
-0.5835766	s b ei	-0.5423101
-0.8846066	s b i	-0.5954294
-0.8846066	s b oo	-0.3605583
-0.2340832	sh b a	-0.7810535
-0.60206	sh b uu	-0.3645163
-0.4259687	t b a	-0.5587913
-0.4259687	t b u	-0.5931663
-0.19382	t: b aa	-0.8670102
-0.9208187	t: b ai	-0.5759073
-0.9208187	t: b ei	-0.5826533
-0.7035176	u b a	-0.3920029
-0.90309	u b aa	-0.4067139
-1.50515	u b ai	-0.5935162
-0.9822713	u b b	-0.607455
-0.8683279	u b ei	-0.6156156
-1.50515	u b h	0
-1.50515	u b ii	-0.5662954
-1.137173	u b k	-0.7668703
-1.028029	u b l	-0.4112454
-1.50515	u b r	-0.4580283
-1.50515	u b u	-0.5716774
-0.4873404	uu b </s>
-1.156347	uu b a	-0.7568371
-0.8553172	uu b aa	-0.6699553
-0.8205551	uu b ei	-0.8229308
-1.457377	uu b i	-0.5570331
-1.156347	uu b ii	-0.6948305
-1.156347	uu b n	0
-1.457377	uu b t	-0.4771213
-0.05799195	v b a	-0.8720558
-0.06694679	y b a	-0.5354251
-0.5735403	<s> bh a	-0.1156513
-0.721143	<s> bh aa	-0.09338313
-2.344392	<s> bh ai	0
-1.645422	<s> bh au	0.06694686
-1.043362	<s> bh ei	-0.3010299
-1.219454	<s> bh i	-0.5278525
-1.188045	<s> bh ii	-0.312311
-1.675385	<s> bh oo	-0.6421773
-1.277445	<s> bh r	-0.3155563
-1.976416	<s> bh rx	0
-1.065639	<s> bh u	-0.2408166
-0.9522818	<s> bh uu	-0.2003211
-1.661181	a bh </s>
-1.48509	a bh a	-0.2994251
-0.5255188	a bh aa	-0.1395397
-1.962211	a bh au	-0.455932
-1.962211	a bh ei	-0.1249388
-0.4140268	a bh i	-0.5316126
-1.661181	a bh ii	-0.5663444
-1.962211	a bh t	0
-1.360151	a bh u	-0.7201593
-1.48509	a bh uu	-0.3650427
-1.059121	a bh y	0.0442037
-0.9852768	aa bh a	-0.4273903
-0.31627	aa bh aa	-0.5591317
-0.8091855	aa bh i	-0.6820458
-1.286307	aa bh r	-0.5453324
-1.286307	aa bh y	-0.2246417
-0.1249387	ai bh i	-0.488344
-0.2632414	au bh aa	-0.7822126
-0.5642715	au bh ii	-0.4694345
-0.6320232	d bh a	-0.8236239
-0.2730013	d bh aa	-0.7449828
-1	d bh u	-0.5351132
-0.05799195	ei bh aa	-0.8744932
-0.2218488	g bh a	-0.379023
-0.552086	i bh a	-0.6600875
-0.2606013	i bh aa	-0.3752842
-1.135663	i bh i	-0.731382
-1.436693	i bh ii	-0.5845693
-0.2218488	ii bh uu	-0.4747416
-0.2218488	j bh a	-0.5225939
-0.1249387	l bh a	-0.7552499
-0.8637803	m bh </s>
-0.9777236	m bh a	-0.5027702
-0.386659	m bh aa	-1.111027
-1.500602	m bh ei	-0.3794566
-0.9777236	m bh i	-0.7146018
-1.199572	m bh ii	-0.5473212
-1.500602	m bh oo	-0.453121
-1.500602	m bh u	-0.552842
-0.4259687	n bh aa	-0.441649
-0.4259687	n bh oo	-0.453121
-0.1249387	n: bh a	-0.5122119
-0.1139434	oo bh aa	-0.6177402
-0.4259687	p bh oo	-0.3537363
-0.4259687	p bh r	-0.2735918
-0.4890205	r bh a	-0.4604789
-0.6139592	r bh aa	-0.335792
-1.09108	r bh i	-0.5640647
-1.09108	r bh ii	-0.5845693
-1.09108	r bh oo	-0.453121
-0.60206	sh bh a	-0.3638893
-0.2340832	sh bh uu	-0.877428
-0.4826537	u bh a	-0.7314258
-0.8184459	u bh aa	-0.6348525
-0.9433846	u bh ch	0
-1.420506	u bh k	0
-1.420506	u bh n	0
-1.420506	u bh r	-0.3705018
-0.7215359	u bh uu	-1.076802
-0.1249387	y bh aa	-0.5688916
-0.4702818	<s> ch a	-0.19705
-0.8355527	<s> ch aa	-0.2638041
-1.470282	<s> ch ai	0.03300017
-1.176091	<s> ch au	-0.1362199
-1.331979	<s> ch ei	-0.3023284
-0.7399034	<s> ch i	-0.09795928
-1.470282	<s> ch ii	-0.5804943
-1.595221	<s> ch oo	-0.4559319
-1.002304	<s> ch u	0.05258358
-1.771312	<s> ch uu	0.01357269
-1.121825	a ch a	0.002709687
-0.5867123	a ch aa	-0.3915659
-1.444045	a ch ch	-0.2363871
-0.9388948	a ch chh	-0.5781164
-1.330101	a ch ei	-0.3301255
-1.029071	a ch i	-0.637452
-1.489802	a ch ii	-0.5422212
-1.665894	a ch k	-0.3784422
-1.966924	a ch m	0
-1.239925	a ch n	-0.2957012
-1.966924	a ch oo	-0.359022
-1.966924	a ch p	0
-1.063834	a ch r	0.04420382
-1.598947	a ch u	-0.7906678
-1.297917	a ch uu	-0.3912067
-1.836746	aa ch </s>
-0.7697992	aa ch a	-0.7722623
-0.318232	aa ch aa	-1.441962
-1.313867	aa ch chh	-0.8872033
-1.167739	aa ch ei	-1.057179
-1.234686	aa ch i	-0.4932081
-1.109747	aa ch ii	-0.5531858
-1.468769	aa ch k	-0.4364342
-0.30103	ai ch chh	-0.5710258
-0.30103	au ch a	-0.502893
-0.1249387	b ch a	-0.5999771
-0.04575749	bh ch i	-0.9337355
-1.194977	ch ch </s>
-0.5259698	ch ch aa	-0.490381
-1.194977	ch ch ei	-0.3900674
-0.8939466	ch ch ii	-0.6858747
-0.8269998	ch ch k	-0.8217851
-0.8939466	ch ch sh	-0.243038
-0.8653014	d ch aa	-0.5689899
-0.1119738	d ch i	-1.185815
-0.1249387	dh ch a	-0.4878395
-0.968842	ei ch </s>
-0.8040318	ei ch a	-0.6354212
-1.605664	ei ch aa	-0.1897321
-1.605664	ei ch ai	-0.5333442
-1.605664	ei ch b	0
-1.605664	ei ch ch	-0.5734149
-0.968842	ei ch d:	0
-0.968842	ei ch ei	-0.5649801
-1.605664	ei ch gh	0
-1.605664	ei ch i	-0.5979434
-1.304634	ei ch ii	-0.4039186
-1.237687	ei ch k	-0.4364342
-1.605664	ei ch n	0.2606013
-1.304634	ei ch oo	-0.60206
-1.605664	ei ch s	0
-1.605664	ei ch t	-0.4881167
-0.2218488	h ch ei	-0.5861694
-1.267172	i ch </s>
-0.7665694	i ch a	-0.2213142
-0.7231037	i ch aa	-0.6683745
-1.568202	i ch au	-0.5845693
-1.568202	i ch ch	-0.5734149
-0.9661418	i ch chh	-0.4754541
-1.568202	i ch ei	-0.4831473
-1.267172	i ch i	-0.4479377
-1.568202	i ch k	-0.3649397
-1.267172	i ch l	-0.3521825
-1.267172	i ch oo	-0.2596373
-1.568202	i ch r	-0.3659708
-1.568202	i ch t	-0.5672979
-1.568202	i ch y	-0.20412
-0.1995724	ii ch a	-0.8884743
-1.278754	ii ch aa	-0.3648699
-0.9777236	ii ch ei	-0.4246665
-1.278754	ii ch oo	-0.3439582
-1.278754	ii ch uu	-0.5672979
-0.04139268	k ch a	-0.529887
-0.3590219	l ch a	-0.6178728
-0.7269987	l ch aa	-0.3938521
-0.7269987	l ch ii	-0.5889647
-0.1648103	m ch a	-0.626797
-0.8016323	m ch oo	-0.5480782
-1.189397	n ch </s>
-0.82142	n ch a	-0.4188325
-0.6096131	n ch aa	-0.2869277
-0.9505146	n ch ei	-0.7711605
-1.161368	n ch i	-0.723657
-1.411245	n ch ii	-0.562116
-1.52039	n ch k	-0.1865567
-1.888367	n ch n	0.2606013
-1.411245	n ch oo	-0.7569619
-1.043269	n ch t	-0.1079053
-1.587337	n ch u	-0.4589689
-1.161368	n ch v	0
-0.8860567	oo ch </s>
-0.60206	oo ch a	-0.6396369
-1.221849	oo ch aa	-0.2543871
-1.154902	oo ch ch	-0.4996285
-1.522879	oo ch chh	-0.5868201
-0.7695511	oo ch ei	-0.6730742
-1.221849	oo ch n	-0.4084055
-1.221849	oo ch oo	-0.359022
-1.154902	oo ch t	-0.4238757
-0.8653014	p ch a	-0.502893
-0.2284793	p ch aa	-0.9379202
-0.8653014	p ch i	-0.5895914
-1	r ch </s>
-0.5228788	r ch a	-0.4290745
-0.6320232	r ch aa	-0.8700199
-0.69897	r ch oo	-0.60206
-0.05799195	s ch ei	-0.8074783
-1.113943	sh ch </s>
-0.5303668	sh ch a	-0.6394912
-0.6879746	sh ch aa	-1.204009
-0.4296966	sh ch i	-0.7735749
-0.4771213	t ch </s>
-0.4771213	t ch aa	-0.5699434
-1.20862	u ch </s>
-0.7826517	u ch a	-0.6245009
-0.9867718	u ch aa	-0.5342277
-0.7826517	u ch ch	-0.4740301
-0.7080181	u ch chh	-0.3386626
-1.50965	u ch ei	-0.5583205
-1.20862	u ch i	-0.2610008
-0.8728284	u ch l	-0.5362427
-0.4597472	uu ch </s>
-0.9120448	uu ch a	-0.4462665
-0.845098	uu ch ii	-0.4939891
-0.6901961	uu ch n	-0.3828514
-1.213075	uu ch oo	-0.584801
-0.5233217	<s> chh a	-0.1800942
-0.8912985	<s> chh aa	-0.5321689
-2.037426	<s> chh b	0
-1.310428	<s> chh ei	-0.5392691
-0.8243517	<s> chh i	-0.4243925
-1.514548	<s> chh ii	-0.6892102
-0.9960338	<s> chh oo	-0.4800657
-0.8710951	<s> chh u	-0.2677113
-1.172125	<s> chh uu	-0.04814702
-0.8346326	a chh d	-0.39794
-1.135663	a chh t	-0.2138799
-1.135663	a chh u	-0.579396
-0.2325726	a chh uu	-1.08167
-0.05799195	aa chh </s>
-0.1249387	au chh aa	-0.3860408
-1.161368	ch chh </s>
-0.5970966	ch chh a	-0.6087934
-0.5245459	ch chh aa	-0.4059517
-1.094421	ch chh ei	-0.5169927
-1.161368	ch chh i	-0.5190857
-1.161368	ch chh ii	-0.6690068
-1.462398	ch chh t	-0.2138799
-1.462398	ch chh u	-0.579396
-0.1249387	d chh aa	-0.5479631
-0.05799195	h chh uu	-0.8472322
-1.066947	i chh a	-0.5609688
-0.7659168	i chh aa	-0.506127
-0.69897	i chh d	-0.403335
-0.69897	i chh d:	0
-0.69897	i chh l	0
-0.1249387	l chh a	-0.5708023
-0.3679768	n chh a	-0.5509075
-0.1249387	oo chh aa	-0.5901608
-0.5642715	r chh aa	-0.3164048
-0.2632414	r chh i	-0.7844002
-0.6690068	u chh a	-0.5542873
-0.1918855	u chh aa	-0.9503122
-1.041393	uu chh aa	-0.5205249
-0.5185139	uu chh oo	-0.6790197
-0.3723859	uu chh t	0.1383026
-0.5781208	<s> d a	-0.01092291
-0.9523535	<s> d aa	-0.4851442
-1.855443	<s> d ai	0
-1.804291	<s> d au	-0.1810547
-2.582442	<s> d b	-0.3542755
-0.9840165	<s> d ei	-0.6016119
-0.8636638	<s> d i	-0.2371519
-1.369367	<s> d ii	-0.6686564
-1.274234	<s> d oo	-0.6654287
-1.396806	<s> d r	-0.4038675
-1.717141	<s> d rx	0.1945746
-2.582442	<s> d shh	0
-1.02614	<s> d u	-0.1571376
-1.296135	<s> d uu	-0.5166551
-1.457503	<s> d v	-0.4241851
-0.8953304	a d </s>
-0.6627578	a d a	-0.5326481
-0.870708	a d aa	-0.1064321
-2.497391	a d au	-0.1810547
-2.020269	a d b	-0.3864602
-2.19636	a d bh	-0.04139268
-1.418209	a d d	-0.2897037
-1.284316	a d dh	-0.7493039
-2.19636	a d e	0
-1.123253	a d ei	-0.5398691
-2.497391	a d g	-0.5118834
-1.331059	a d i	-0.6813227
-1.443033	a d ii	-0.09970289
-2.19636	a d k	-0.04139268
-2.19636	a d l	0.133539
-2.020269	a d m	-0.313995
-1.576572	a d n	-0.1858951
-1.372452	a d oo	-0.3513068
-1.443033	a d r	0.07705498
-2.129414	a d s	-0.7269987
-1.673482	a d t	-0.1611509
-2.19636	a d u	-0.2546049
-2.020269	a d uu	-0.4559684
-2.020269	a d v	-0.1067647
-1.455998	a d y	-0.5246476
-0.5786873	aa d </s>
-0.7843704	aa d a	-0.539317
-1.233202	aa d aa	-0.3542264
-2.023252	aa d d	-0.4785522
-1.421193	aa d ei	-0.3794644
-2.324282	aa d h	0
-0.8719848	aa d i	-0.5773513
-0.7258567	aa d ii	-1.098854
-2.324282	aa d l	-0.2747011
-2.324282	aa d m	-0.3565473
-1.956306	aa d n	-0.6418271
-1.847161	aa d oo	-0.7769381
-2.324282	aa d r	-0.1857524
-1.956306	aa d s	-0.5740312
-2.324282	aa d sh	-0.39794
-1.801404	aa d u	-0.860269
-1.801404	aa d uu	-0.5138966
-1.801404	aa d v	-0.9373041
-2.324282	aa d y	-0.2037505
-1.146128	ai d </s>
-0.6690068	ai d aa	-0.4780971
-1.146128	ai d l	-0.2747011
-0.7781513	ai d r	-0.8339172
-1.146128	ai d v	-0.5912471
-0.7781513	ai d y	-0.7089005
-1.00616	au d a	-0.8948505
-0.7720771	au d aa	-0.9944764
-0.8970158	au d dh	-0.5258131
-1.073107	au d ei	-0.4321921
-1.374137	au d i	-0.5901879
-1.374137	au d k	-0.4202164
-1.374137	au d r	-0.55571
-0.8970158	au d t	0.3336992
-0.8512583	au d y	-0.9309802
-1.054358	b d </s>
-0.7533277	b d ei	-0.5675963
-0.7533277	b d i	-0.4242575
-1.054358	b d ii	-0.3847324
-0.5314789	b d u	-0.9697508
-0.7269987	chh d aa	-0.4825931
-0.7269987	chh d ei	-0.2436772
-0.3590219	chh d ii	-0.3927051
-1.22617	d d a	-0.5695117
-0.7255678	d d aa	-0.4839939
-0.5272001	d d ei	-0.6389523
-1.5272	d d i	-0.5991223
-0.6063814	d d ii	-0.4840701
-1.5272	d d oo	-0.3789982
-1.5272	d d s	-0.4973247
-1.5272	d d uu	-0.5842098
-0.9670437	ei d </s>
-1.020289	ei d a	-0.3593869
-0.6830471	ei d aa	-1.160123
-1.382017	ei d bh	-0.7103995
-1.904896	ei d chh	0
-1.904896	ei d ei	-0.5993653
-1.177897	ei d i	-0.5475396
-0.9670437	ei d ii	-0.5805202
-1.603866	ei d j	0
-1.536919	ei d m	-0.615025
-1.382017	ei d n	-0.5680408
-1.151568	ei d oo	-1.032211
-1.904896	ei d p	-0.39794
-1.904896	ei d ph	0
-1.904896	ei d rx	0.9542424
-1.536919	ei d t	-0.6977094
-1.904896	ei d u	-0.5752305
-1.603866	ei d y	-0.393784
-0.4771213	g d aa	-0.5150282
-0.4771213	g d ei	-0.2965295
-0.06694679	gh d uu	-0.7757155
-0.30103	h d aa	-0.4825931
-1.02723	i d </s>
-1.354589	i d a	-0.9212309
-0.9252401	i d aa	-0.5061954
-1.32826	i d ch	-0.6118199
-1.780557	i d d	-0.3178979
-0.8774673	i d dh	-0.3690271
-1.354589	i d ei	-0.7961307
-1.279955	i d i	-0.5661526
-1.558709	i d ii	-0.5310078
-1.444765	i d k	-0.5740313
-1.780557	i d m	-0.7067953
-1.382617	i d oo	-0.3291722
-1.196981	i d r	-0.3842719
-2.081587	i d s	-0.4973247
-2.081587	i d uu	-0.5932266
-1.160769	i d v	-0.6240396
-0.8866107	i d y	-0.7357725
-0.7736036	ii d </s>
-1	ii d a	-0.4539168
-0.7873919	ii d aa	-0.7320318
-1.278754	ii d d	-0.4898332
-0.8637803	ii d ei	-0.6419576
-1.801632	ii d i	-0.4826167
-0.8637803	ii d ii	-0.3115749
-1.801632	ii d oo	-0.3539959
-1.500602	ii d r	-0.3115588
-1.433656	ii d t	-0.4478319
-1.132626	ii d v	-0.9928215
-0.30103	j d ii	-0.5857466
-0.6690068	k d a	-0.5047202
-0.447158	k d ei	-0.5975595
-0.60206	k d ii	-0.3927051
-0.2218488	kh d ei	-0.5312155
-0.8709053	l d </s>
-0.4372497	l d aa	-0.5046084
-0.8709053	l d b	-0.6553055
-1.238882	l d d	-0.5889647
-1.238882	l d ei	-0.5312155
-1.238882	l d i	-0.5738361
-1.238882	l d ii	-0.3857627
-1.355388	m d </s>
-1.054358	m d a	-0.4459597
-0.8782664	m d aa	-0.2651652
-0.8782664	m d ei	-0.4811321
-0.9874108	m d ii	-0.3927051
-0.7185656	m d u	-0.7791508
-1.054358	m d uu	-0.7757155
-1.355388	m d v	-0.4979714
-1.355388	m d y	-0.4916475
-0.7070968	n d </s>
-0.7293732	n d a	-0.8446156
-0.9289456	n d aa	-0.7133309
-2.485248	n d bh	-0.2710668
-1.299611	n d ei	-0.5754531
-1.290272	n d i	-0.5966178
-1.238093	n d ii	-0.541631
-2.485248	n d m	-0.4637573
-1.349586	n d oo	-0.7483014
-0.7475255	n d r	-0.3370786
-2.117271	n d s	-0.5740312
-1.33912	n d u	-0.3659708
-1.485248	n d uu	-0.6370463
-2.485248	n d v	-0.5157002
-0.1249387	n:aa d aa	-0.5554135
-1.067599	oo d </s>
-0.647383	oo d a	-0.3787821
-0.827839	oo d aa	-1.090792
-1.501255	oo d dh	-0.7822216
-0.9149892	oo d ei	-0.7504209
-1.170262	oo d i	-0.4382668
-1.568202	oo d ii	-0.05093008
-1.869232	oo d k	-0.4202164
-1.568202	oo d n	-0.5838351
-1.045323	oo d oo	-1.278275
-1.869232	oo d p	-0.39794
-1.869232	oo d s	-0.4973247
-1.39211	oo d t	0.3336992
-1.501255	oo d y	-0.7926775
-0.4771213	p d aa	-0.7256311
-0.2552725	p d ei	-0.4708074
-0.9114905	r d </s>
-0.7006372	r d a	-0.4815848
-0.6173	r d aa	-0.7505132
-1.939519	r d au	-0.5546353
-1.939519	r d dh	-0.3172841
-0.8255759	r d ei	-0.4212136
-1.638489	r d i	-0.3298205
-1.186192	r d ii	-0.4265937
-1.939519	r d n	-0.5838352
-1.21252	r d oo	-0.3719562
-1.571543	r d rx	0.6532124
-1.638489	r d uu	-0.4970596
-0.6368221	s d a	-0.5047202
-0.6368221	s d aa	-0.5150282
-0.6368221	s d ii	-0.3816266
-0.04139268	sh d aa	-0.7326897
-0.1091445	t d </s>
-0.1249387	t: d aa	-0.5554135
-0.05799195	t:h d aa	-0.783623
-0.05799195	th d a	-0.9000726
-1.194575	u d </s>
-1.477121	u d a	-0.4310932
-0.8842046	u d aa	-0.5503973
-1.711204	u d bh	-0.7876966
-1.064941	u d d	-0.4550711
-0.8750613	u d dh	-0.4254426
-1.442359	u d ei	-0.3642511
-1.556303	u d g	-0.3521825
-2.079181	u d gh	0
-1.477121	u d i	-0.659136
-1.30103	u d ii	-0.2939682
-1.711204	u d k	-0.7212464
-1.442359	u d n	-0.1878297
-1.141329	u d r	0.1767578
-2.079181	u d ri	0
-2.079181	u d rx	0.9542424
-1.711204	u d s	-0.7269987
-2.079181	u d sh	-0.39794
-1.477121	u d t	-0.453407
-2.079181	u d u	-0.5960141
-2.079181	u d uu	-0.508055
-1.711204	u d v	-0.7198201
-1.141329	u d y	-0.6032891
-0.5136381	uu d </s>
