
\data\
ngram 1=15
ngram 2=136
ngram 3=781
ngram 4=2047
ngram 5=2530
ngram 6=1580

\1-grams:
-0.5710313	</s>
-99	<s>	0.3230989
-0.6588305	a	0.7312486
-0.7905771	aa	0.3644302
-1.926173	ai	1.358901
-2.235233	au	1.530715
-3.763927	e	-0.8853616
-1.153081	ei	0.4913952
-1.038653	i	0.3393309
-1.223705	ii	0.5242007
-3.803436	o	-0.4720348
-4.084264	o-	-0.6296173
-1.266035	oo	0.8394177
-1.402362	u	0.9754965
-1.775794	uu	-0.1460745

\2-grams:
-3.212345	<s> </s>
-0.4462365	<s> a	0.3580129
-0.7383275	<s> aa	0.2807512
-1.446203	<s> ai	0.08988523
-1.794345	<s> au	0.1273376
-1.132671	<s> ei	0.5490203
-0.907972	<s> i	0.4394829
-1.453021	<s> ii	0.5668719
-4.077646	<s> o	-0.5440681
-3.70967	<s> o-	-0.5228788
-1.259201	<s> oo	0.4276021
-1.056044	<s> u	0.08926487
-1.51062	<s> uu	0.3035498
-0.5640196	a </s>
-0.6921192	a a	-0.3279879
-0.7078622	a aa	-0.06453252
-2.498518	a ai	-0.3116607
-2.759431	a au	-0.09458601
-3.512758	a e	-0.3187588
-1.227201	a ei	-0.1000495
-1.066808	a i	-0.3895328
-1.153556	a ii	0.3564904
-3.236552	a o	-0.2887955
-1.244545	a oo	-0.156147
-1.499921	a u	0.3210906
-1.746015	a uu	0.3230329
-0.4459397	aa </s>
-0.8169151	aa a	-0.09435058
-0.9125435	aa aa	0.6733596
-2.903934	aa ai	-0.684566
-2.872899	aa au	-0.8069152
-3.490199	aa e	-0.2218488
-1.077379	aa ei	-0.4700215
-1.017443	aa i	0.05141568
-1.02652	aa ii	-0.1782346
-1.287633	aa oo	-0.4942232
-1.617627	aa u	0.5211635
-1.849576	aa uu	0.144855
-0.6204249	ai </s>
-0.7028012	ai a	0.9995387
-0.9283305	ai aa	-0.009556651
-1.923735	ai ai	-0.3084586
-2.725367	ai au	-0.5026596
-0.9520683	ai ei	0.212552
-0.8886211	ai i	0.679776
-1.102118	ai ii	-0.9353675
-2.725367	ai o-	-0.4771213
-1.105578	ai oo	-0.2937553
-1.84076	ai u	-0.1092718
-2.088545	ai uu	-0.2881489
-0.6891488	au </s>
-0.7467556	au a	-0.1329215
-0.7436864	au aa	-0.4264011
-2.418854	au ai	-0.547557
-1.895975	au au	-0.6137652
-0.9564555	au ei	0.1340888
-1.038642	au i	-0.2498299
-0.9874897	au ii	-0.3448792
-1.223877	au oo	-0.460605
-1.481001	au u	-0.6988333
-2.117824	au uu	-0.1380039
-0.1014576	e </s>
-0.90309	e i	-0.4893084
-0.2680737	ei </s>
-0.8608119	ei a	0.5291247
-1.051916	ei aa	0.4886451
-2.558108	ei ai	-0.5596273
-2.611354	ei au	-0.6567745
-1.205184	ei ei	0.157172
-1.220265	ei i	-0.08652997
-1.24554	ei ii	0.08481181
-1.50179	ei oo	-0.3997532
-1.99081	ei u	-0.5195139
-2.187752	ei uu	0.1247027
-0.6040535	i </s>
-0.7400254	i a	0.2046788
-0.6408182	i aa	-0.03346181
-2.346993	i ai	-0.2213307
-2.474571	i au	-0.4112717
-1.130227	i ei	0.4314034
-1.08779	i i	0.3674605
-1.309929	i ii	-0.4169393
-0.9942842	i oo	0.7630208
-1.758976	i u	-0.6924049
-2.083034	i uu	-0.7327766
-0.180517	ii </s>
-0.9424976	ii a	0.5889461
-1.145096	ii aa	-0.1059657
-2.672044	ii ai	-1.136287
-3.124341	ii au	-0.7456976
-1.362163	ii ei	-0.3624766
-1.592862	ii i	-0.0161109
-1.320429	ii ii	0.3224227
-1.608026	ii oo	-0.9210349
-2.25904	ii u	0.0467391
-2.504552	ii uu	-1.21382
-0.90309	o a	-0.4636629
-0.5351132	o aa	-0.7105261
-0.5351132	o ei	-0.5663959
-0.90309	o oo	-0.2068672
-0.2340832	o- a	-0.3844815
-0.60206	o- ei	-0.2653659
-0.2236899	oo </s>
-1.02269	oo a	-0.4293097
-1.085032	oo aa	0.8715749
-2.22681	oo ai	-0.6577298
-2.517855	oo au	-0.6997051
-3.383157	oo e	-0.5440681
-1.16044	oo ei	-0.1205808
-1.179037	oo i	0.5776165
-1.390456	oo ii	-0.2750443
-1.523818	oo oo	0.2059089
-2.152708	oo u	-0.2385067
-2.860278	oo uu	-0.5769976
-0.7338551	u </s>
-0.6453747	u a	0.4303279
-0.6079183	u aa	0.3831961
-2.645013	u ai	-0.3021184
-2.548103	u au	-0.4310264
-3.247073	u e	0.07918119
-1.119968	u ei	0.5281526
-1.061436	u i	-0.07517958
-1.142131	u ii	0.1448033
-1.347617	u oo	-0.3991544
-1.364358	u u	0.2355027
-1.931802	u uu	-0.03519285
-0.4309581	uu </s>
-0.731467	uu a	0.5293819
-0.962437	uu aa	0.05929184
-2.874482	uu ai	-0.4830743
-1.09875	uu ei	-0.2889216
-1.048407	uu i	0.2737746
-1.007211	uu ii	-0.8533612
-1.290905	uu oo	0.120706
-2.874482	uu u	-0.4790566
-2.050573	uu uu	-0.840239

\3-grams:
-1.371778	<s> a </s>
-0.5572768	<s> a a	-0.07825613
-0.5676411	<s> a aa	0.2172728
-2.446213	<s> a ai	0.2796319
-2.552668	<s> a au	0.1326254
-3.330819	<s> a e	0.154902
-1.09487	<s> a ei	0.2241764
-0.9684626	<s> a i	0.2584188
-1.110711	<s> a ii	0.3129532
-3.263873	<s> a o	-0.7160034
-1.242683	<s> a oo	0.2070245
-1.293393	<s> a u	0.1495731
-1.555088	<s> a uu	0.02575719
-0.4244669	a a </s>
-0.7956799	a a a	0.6016488
-0.7730853	a a aa	0.7116857
-2.997532	a a au	-0.3233064
-1.281529	a a ei	0.4856619
-1.138193	a a i	0.1031104
-1.169302	a a ii	-0.3504994
-3.298562	a a o	-0.5314789
-1.198191	a a oo	-0.7452234
-1.64535	a a u	-0.75188
-1.889193	a a uu	-0.6961551
-0.3199299	aa a </s>
-0.8497133	aa a a	0.9501265
-0.9494162	aa a aa	0.1147937
-2.741808	aa a au	-0.7124724
-1.474636	aa a ei	-0.2818061
-1.179515	aa a i	0.3925074
-1.189545	aa a ii	-0.5039933
-1.111719	aa a oo	-0.8972342
-1.876506	aa a u	-0.6365368
-2.139748	aa a uu	-0.4226009
-0.4233125	ai a </s>
-1.021856	ai a a	-0.8836528
-1.081854	ai a aa	-0.4166858
-1.399274	ai a ai	-0.5515239
-1.170795	ai a ei	-0.5937731
-1.558975	ai a i	-0.8462282
-0.8600051	ai a ii	-0.478519
-1.133006	ai a oo	-0.2983072
-1.309098	ai a u	-0.5654916
-1.735066	ai a uu	-0.5315745
-0.4307889	au a </s>
-0.8365543	au a a	-0.3223371
-0.9002234	au a aa	-0.09270525
-1.701856	au a au	-0.5537553
-1.701856	au a e	0.39794
-1.178977	au a ei	-0.5896336
-1.178977	au a ii	-0.5873766
-1.224734	au a oo	-0.4440076
-1.701856	au a u	-0.4465617
-1.400826	au a uu	-0.1440316
-0.2408819	ei a </s>
-0.9427569	ei a a	-0.1399045
-1.062865	ei a aa	0.2749233
-2.638822	ei a ai	-0.5606673
-1.37558	ei a ei	0.1254365
-1.367755	ei a i	-0.09780443
-1.309763	ei a ii	-0.5802035
-2.270845	ei a o	-0.7160034
-1.316603	ei a oo	-0.5172193
-1.911823	ei a u	-0.3647201
-1.83719	ei a uu	-0.1904891
-0.3529601	i a </s>
-0.7789289	i a a	0.84797
-0.9197195	i a aa	0.9691396
-2.235528	i a ai	-0.4357286
-1.288774	i a ei	-0.8880106
-1.046276	i a i	0.1434506
-1.209593	i a ii	-0.3476413
-1.409953	i a oo	-0.6462635
-1.951532	i a u	-0.4660902
-2.235528	i a uu	-0.417033
-0.192147	ii a </s>
-0.8933197	ii a a	-1.203261
-0.9566015	ii a aa	-0.9162097
-1.88602	ii a ai	-0.842584
-1.88602	ii a ei	-0.09441543
-1.709929	ii a i	-0.6684037
-1.664172	ii a ii	-0.8682032
-1.533838	ii a oo	-0.5215194
-2.120104	ii a u	-0.7475917
-2.488081	ii a uu	-0.2944745
-0.1249387	o a </s>
-0.154902	o- a </s>
-0.2336384	oo a </s>
-1.366112	oo a a	-0.6744812
-0.8938428	oo a aa	-0.6501885
-2.366112	oo a ai	-0.5606673
-1.639113	oo a ei	-0.7786899
-1.017158	oo a i	-0.5286946
-1.144263	oo a ii	-0.7583877
-1.764052	oo a oo	-0.5579509
-1.697105	oo a uu	-0.4450617
-0.4519984	u a </s>
-0.7540467	u a a	0.396801
-0.7264004	u a aa	1.040272
-2.605305	u a ai	-0.3307007
-1.401185	u a ei	-0.6258944
-1.025521	u a i	-0.08112824
-1.104703	u a ii	-0.6679744
-1.401185	u a oo	-0.3224408
-1.760207	u a u	-0.4315955
-2.605305	u a uu	-0.3507343
-0.2078057	uu a </s>
-1.085342	uu a a	-0.4995532
-1.016626	uu a aa	-0.2483577
-2.152288	uu a ei	-0.1503009
-1.515466	uu a i	-0.5062392
-1.286987	uu a ii	-0.4225955
-1.152288	uu a oo	-0.9353693
-1.851258	uu a u	-0.3974762
-2.152288	uu a uu	-0.2944745
-1.006264	<s> aa </s>
-0.6049809	<s> aa a	0.3045828
-0.7667888	<s> aa aa	0.3699431
-2.737987	<s> aa ai	-0.5910646
-2.402195	<s> aa au	0.04275191
-0.9720705	<s> aa ei	0.4098002
-0.800553	<s> aa i	0.299161
-1.049271	<s> aa ii	0.2639059
-1.28569	<s> aa oo	0.510051
-1.347347	<s> aa u	-0.05941844
-1.626837	<s> aa uu	0.2860291
-0.4237103	a aa </s>
-0.9211208	a aa a	-0.04405665
-0.8954588	a aa aa	-0.3197374
-2.805727	a aa ai	0.39794
-0.9876481	a aa ei	-0.3297819
-1.173383	a aa i	-0.1852317
-0.9345437	a aa ii	-0.5977914
-1.26304	a aa oo	-0.4400468
-1.722543	a aa u	-0.1795471
-1.896647	a aa uu	-0.598344
-0.2247998	aa aa </s>
-0.9666731	aa aa a	-0.1573629
-1.132299	aa aa aa	-0.236184
-2.947434	aa aa ai	-0.07918131
-2.947434	aa aa au	-0.39794
-1.543741	aa aa ei	-1.105224
-1.310612	aa aa i	-0.2709776
-1.080163	aa aa ii	-0.4550347
-1.407522	aa aa oo	-1.240322
-1.977397	aa aa u	-0.2754758
-2.248464	aa aa uu	-0.825847
-0.3679768	ai aa </s>
-1.178313	ai aa a	-0.8632097
-1.013502	ai aa aa	-0.9074793
-1.514105	ai aa ei	-0.06383181
-0.7871061	ai aa i	-0.06489265
-0.8943161	ai aa ii	0.1001073
-1.338014	ai aa oo	-0.2191332
-0.2700963	au aa </s>
-1.094005	au aa a	-0.02953452
-1.218944	au aa aa	-0.2593022
-1.173186	au aa i	-0.8317072
-1.094005	au aa ii	0.01227695
-0.8944327	au aa oo	-0.01613247
-0.2984617	ei aa </s>
-1.028201	ei aa a	-0.2504019
-1.193434	ei aa aa	-0.1975554
-1.244586	ei aa ei	-0.57427
-1.00675	ei aa i	-0.1277621
-1.086978	ei aa ii	-0.07767427
-1.244586	ei aa oo	-0.5543861
-1.583405	ei aa u	-0.6650234
-2.080729	ei aa uu	-0.524817
-0.3166351	i aa </s>
-0.9414278	i aa a	0.332438
-1.051733	i aa aa	-0.050771
-1.136179	i aa ei	-0.1116046
-1.089998	i aa i	0.306048
-1.09575	i aa ii	-0.6876314
-1.257601	i aa oo	-0.8264921
-1.929419	i aa u	-0.4015983
-2.016569	i aa uu	-0.1946517
-0.2515446	ii aa </s>
-1.150644	ii aa a	-0.2705137
-1.09133	ii aa aa	-0.8955601
-1.12996	ii aa ei	-0.2022657
-1.441209	ii aa i	-0.2017226
-1.183644	ii aa ii	0.1378959
-1.150644	ii aa oo	0.147969
-1.559308	ii aa u	-0.6846969
-0.05799195	o aa </s>
-0.2522729	oo aa </s>
-0.9831321	oo aa a	0.1647949
-0.9074113	oo aa aa	-0.2044466
-2.305351	oo aa ai	-0.07918131
-1.782473	oo aa ei	-0.2601265
-1.12926	oo aa i	-0.278852
-1.420745	oo aa ii	-0.6258204
-1.44005	oo aa oo	-0.07412434
-2.004321	oo aa u	-0.1879022
-1.782473	oo aa uu	-0.3395117
-0.3706229	u aa </s>
-0.9493241	u aa a	0.4375324
-1.002314	u aa aa	-0.5229401
-2.274488	u aa e	0
-1.047704	u aa ei	-0.1738571
-1.123951	u aa i	0.3838558
-0.9181886	u aa ii	-0.9214385
-1.379223	u aa oo	-0.6031221
-2.005642	u aa u	-0.9059379
-1.915466	u aa uu	-0.3451889
-0.1527005	uu aa </s>
-1.227029	uu aa a	-0.5410784
-1.323939	uu aa aa	-0.395515
-1.289177	uu aa ei	0.04234874
-1.624969	uu aa i	-0.3125188
-1.448878	uu aa ii	0.06518072
-1.448878	uu aa oo	0.1031913
-1.925999	uu aa uu	-0.223787
-0.762357	<s> ai </s>
-0.665447	<s> ai a	0.05081928
-0.895121	<s> ai aa	0.05420983
-1.908485	<s> ai ai	-0.1823402
-2.635484	<s> ai au	0
-0.8770766	<s> ai ei	0.01431823
-0.8525336	<s> ai i	0.05140519
-1.139477	<s> ai ii	0.123818
-2.635484	<s> ai o-	0
-1.075179	<s> ai oo	0.05657351
-1.750877	<s> ai u	0
-1.998662	<s> ai uu	0
-0.3328774	a ai </s>
-1.041393	a ai a	-0.7942784
-0.7651863	a ai aa	-0.7346855
-1.518514	a ai ei	-0.2539664
-0.916454	a ai i	-0.2473451
-1.217484	a ai ii	-0.05672759
-0.154902	aa ai </s>
-1	aa ai a	-0.5586644
-1	aa ai oo	-0.2171825
-0.8846066	ai ai </s>
-0.3617278	ai ai a	-0.8356711
-0.8846066	ai ai i	-0.492338
-0.8846066	ai ai ii	-0.5596561
-0.1249387	au ai aa	-0.359022
-0.2730013	ei ai </s>
-0.6320232	ei ai a	-0.6973684
-1	ei ai oo	-0.2171825
-0.4429072	i ai </s>
-0.9402318	i ai a	-0.8655436
-1.308209	i ai ei	-0.3508764
-1.308209	i ai i	-0.5437794
-0.5548809	i ai ii	-0.4669021
-1.308209	i ai oo	-0.2171825
-0.02482358	ii ai </s>
-0.2498775	oo ai </s>
-1.20412	oo ai i	-0.3868929
-0.90309	oo ai ii	-0.05672759
-0.8361432	oo ai oo	-0.5182124
-0.7269987	u ai </s>
-0.7269987	u ai aa	-0.5577772
-0.7269987	u ai ai	-0.5413622
-0.7269987	u ai i	-0.3868929
-0.1249387	uu ai </s>
-0.871011	<s> au </s>
-0.6383044	<s> au a	0.01760888
-0.6752164	<s> au aa	0.05591512
-2.291517	<s> au ai	0
-2.291517	<s> au au	-0.4771213
-0.8935769	<s> au ei	-0.1572056
-1.087397	<s> au i	-0.2416221
-1.212336	<s> au ii	0.247554
-1.125185	<s> au oo	0.0263288
-1.40691	<s> au u	0.04742461
-1.990487	<s> au uu	0
-0.5797836	a au </s>
-0.9777236	a au a	-0.2864059
-0.8016323	a au aa	-0.4060255
-0.9777236	a au ei	-0.2869435
-1.278754	a au i	-0.2163163
-0.6766936	a au ii	-0.5546353
-0.4259687	aa au </s>
-1.028029	aa au i	-0.5852465
-0.3590219	aa au ii	-0.6167833
-0.1249387	ai au </s>
-0.2340832	au au </s>
-0.60206	au au ei	-0.5879735
-0.2688453	ei au </s>
-0.6368221	ei au aa	-0.5107608
-0.9378521	ei au i	-0.4204363
-0.4679779	i au </s>
-1.194977	i au aa	-0.2677228
-0.8269998	i au au	-0.5228788
-1.194977	i au ei	-0.0439055
-0.7178553	i au ii	-0.440692
-1.194977	i au oo	-0.1955198
-0.06694679	ii au </s>
-0.6197888	oo au </s>
-0.4436975	oo au i	-0.5054934
-0.552842	oo au ii	-0.343782
-0.8016323	u au </s>
-0.5006024	u au i	-0.2129626
-0.8016323	u au ii	-0.2699957
-0.8016323	u au u	-0.2536054
-0.04575749	a e </s>
-0.05799195	aa e </s>
-0.1249387	oo e i	0
-0.1249387	u e </s>
-0.8689701	<s> ei </s>
-0.5839584	<s> ei a	0.2689884
-0.8750613	<s> ei aa	0.3659217
-2.062337	<s> ei ai	0.04575753
-2.277936	<s> ei au	-0.8402992
-0.9469433	<s> ei ei	0.1098756
-0.9068686	<s> ei i	0.2312827
-0.9815847	<s> ei ii	0.2791537
-1.188536	<s> ei oo	-0.3859091
-1.549003	<s> ei u	0.1001155
-1.742823	<s> ei uu	0.0936811
-0.1893503	a ei </s>
-0.9795932	a ei a	-0.06590044
-1.057353	a ei aa	-0.2782922
-1.333559	a ei ei	-0.7625462
-1.579286	a ei i	-0.1184593
-1.283003	a ei ii	-0.3975393
-1.62926	a ei oo	-0.4063073
-2.463893	a ei u	-0.5846859
-2.396946	a ei uu	-0.6333177
-0.07856093	aa ei </s>
-1.741319	aa ei a	-0.4985322
-1.362206	aa ei aa	-0.8347759
-1.351348	aa ei ei	-0.5305656
-1.812675	aa ei i	-0.3345097
-1.543829	aa ei ii	-1.188934
-2.029384	aa ei oo	-0.7203627
-2.782712	aa ei u	-0.3416479
-0.2585716	ai ei </s>
-0.9884181	ai ei a	-0.9301617
-1.312929	ai ei aa	-0.6953487
-1.790051	ai ei ei	-0.5623429
-0.9247491	ai ei i	-0.9179645
-1.267172	ai ei ii	-0.5060505
-1.153228	ai ei oo	-0.6112182
-0.1406189	au ei </s>
-1.496007	au ei a	-0.2311916
-1.496007	au ei aa	-0.2984464
-1.496007	au ei ei	-0.5623429
-1.496007	au ei i	-0.4089959
-1.12803	au ei ii	-0.3677478
-0.1670619	ei ei </s>
-1.058514	ei ei a	-0.2117562
-1.183452	ei ei aa	-0.729503
-2.297396	ei ei au	-0.4881167
-1.359544	ei ei ei	-0.9356003
-1.598426	ei ei i	0.393424
-1.376577	ei ei ii	-0.8796312
-1.519244	ei ei oo	-0.1737116
-2.297396	ei ei u	-0.3578228
-0.3048396	i ei </s>
-0.7365862	i ei a	-0.2642678
-0.8684738	i ei aa	-0.1914437
-2.484774	i ei au	-0.5488145
-1.393694	i ei ei	-0.5934598
-1.162555	i ei i	-0.138055
-1.456746	i ei ii	-0.9831718
-1.683142	i ei oo	-0.4713879
-2.484774	i ei u	-0.3578228
-2.484774	i ei uu	-0.3322877
-0.1386086	ii ei </s>
-1.118865	ii ei a	-0.5689021
-1.374137	ii ei aa	-0.311716
-2.073107	ii ei ai	-0.2710668
-1.228009	ii ei ei	-0.2589068
-1.550228	ii ei i	-0.4030547
-1.436285	ii ei ii	-0.6107859
-0.05799195	o ei </s>
-0.1249387	o- ei </s>
-0.1714237	oo ei </s>
-1.188204	oo ei a	-0.3607437
-1.115653	oo ei aa	-0.6468116
-2.229597	oo ei au	-0.4881167
-1.308778	oo ei ei	-0.4956959
-1.073249	oo ei i	-0.4724941
-1.627537	oo ei ii	-0.2754516
-2.229597	oo ei oo	-0.06715018
-0.1559599	u ei </s>
-0.7749927	u ei a	-0.4936513
-1.659599	u ei aa	-0.6963865
-1.835691	u ei ei	-0.3493347
-1.768744	u ei i	-0.7100259
-1.534661	u ei ii	-0.2250421
-1.835691	u ei oo	-0.3101882
-2.136721	u ei u	-0.3416479
-2.136721	u ei uu	-0.3322877
-0.1327924	uu ei </s>
-1.065393	uu ei a	-0.8595806
-1.269513	uu ei aa	-0.7377791
-1.792392	uu ei ei	-0.1062967
-1.792392	uu ei ii	-0.5730687
-1.424415	uu ei oo	-0.3681802
-1.792392	uu ei u	-0.3416479
-1.276804	<s> i </s>
-0.6076651	<s> i a	0.3049302
-0.5292764	<s> i aa	0.3263757
-2.129358	<s> i ai	-0.174665
-2.142722	<s> i au	-0.1513765
-0.9603428	<s> i ei	0.1515952
-1.00245	<s> i i	0.3487537
-1.182489	<s> i ii	0.3060677
-1.142722	<s> i oo	0.3400683
-1.504857	<s> i u	0.179076
-2.014403	<s> i uu	-0.1545973
-0.5255272	a i </s>
-0.7682766	a i a	0.04288602
-0.6065605	a i aa	0.6465318
-1.393145	a i ei	-0.4923698
-1.047637	a i i	-0.03688025
-1.442704	a i ii	-0.1945349
-1.028833	a i oo	-0.6028231
-2.003805	a i u	-0.4063846
-1.970381	a i uu	-0.04979742
-0.4168485	aa i </s>
-0.995656	aa i a	0.5810794
-0.82998	aa i aa	-0.04550493
-2.041185	aa i ai	-0.792162
-1.199365	aa i ei	-0.2259071
-1.259241	aa i i	-0.5286298
-1.259241	aa i ii	-0.802798
-0.7758704	aa i oo	-0.7082435
-1.977516	aa i u	-0.5899954
-2.541787	aa i uu	-0.10095
-0.4081592	ai i </s>
-0.6511972	ai i a	0.153177
-1.378196	ai i aa	-0.7140337
-1.554287	ai i ei	-0.3509163
-1.218495	ai i i	-0.2924814
-1.378196	ai i ii	-0.006392002
-0.9010747	ai i oo	-0.345144
-1.48734	ai i u	-0.8504476
-1.855317	ai i uu	-0.2258888
-0.4662633	au i </s>
-1.420506	au i a	-0.5611526
-0.3791131	au i aa	-0.4180294
-1.119476	au i i	-0.6349972
-1.420506	au i oo	0.1007456
-0.1249387	e i aa	-0.3160938
-0.4450447	ei i </s>
-0.6585413	ei i a	-0.9074864
-1.042909	ei i aa	-0.6085374
-1.26755	ei i ei	-0.2789658
-1.105699	ei i i	-0.4585068
-1.554792	ei i ii	0.002871394
-0.8193926	ei i oo	-0.5999721
-2.281791	ei i u	-0.5494176
-0.4161802	i i </s>
-0.8671706	i i a	-0.2756861
-0.802494	i i aa	-0.6397271
-2.52677	i i ai	-0.5801582
-1.190978	i i ei	-0.3241114
-1.040103	i i i	-0.3060936
-1.424108	i i ii	-0.4131718
-1.012665	i i oo	-0.6827958
-2.003891	i i u	-0.7179819
-2.003891	i i uu	-0.40198
-0.3199611	ii i </s>
-0.9818598	ii i a	-0.4118545
-0.7560807	ii i aa	-0.6765714
-1.148191	ii i ei	-0.4964401
-1.479184	ii i i	-0.6929892
-1.324282	ii i ii	-0.3620077
-1.245101	ii i oo	-0.4111377
-0.3805659	oo i </s>
-0.8641213	oo i a	-0.3863826
-0.7170683	oo i aa	-0.549436
-2.213075	oo i au	-0.5734149
-1.292256	oo i ei	-0.6367856
-1.434924	oo i i	-0.2062935
-1.611015	oo i ii	-0.4345584
-1.018098	oo i oo	-0.6703067
-1.845098	oo i u	-0.5796793
-2.213075	oo i uu	-0.2258888
-0.4893292	u i </s>
-0.9003208	u i a	0.06673634
-0.50682	u i aa	0.6072004
-2.194052	u i au	-0.4213239
-1.194052	u i ei	-0.8886282
-1.4159	u i i	-0.4915144
-1.893022	u i ii	0.3550539
-1.037704	u i oo	-0.940647
-2.194052	u i uu	-0.2770413
-0.3444957	uu i </s>
-0.9242793	uu i a	-0.3478229
-1.118099	uu i aa	-0.3826772
-1.845098	uu i au	-0.4213239
-1.208276	uu i ei	-0.8488746
-1.09177	uu i i	-0.7359447
-1.322219	uu i ii	-0.3620077
-1.118099	uu i oo	-0.5276433
-1.544068	uu i uu	0.273509
-0.8019733	<s> ii </s>
-0.6208696	<s> ii a	0.4254991
-0.6986293	<s> ii aa	0.3434715
-2.10517	<s> ii ai	0.2138798
-0.9349077	<s> ii ei	-0.05027771
-1.285625	<s> ii i	0.1599296
-0.8747205	<s> ii ii	0.3406448
-1.230108	<s> ii oo	-0.1510146
-1.762747	<s> ii u	0.01233375
-2.025988	<s> ii uu	0.30103
-0.1881218	a ii </s>
-0.8825812	a ii a	-0.2848824
-1.175671	a ii aa	-0.2699958
-2.470453	a ii ai	0.3521825
-1.470453	a ii ei	-0.1310129
-1.489476	a ii i	-0.6883437
-1.361308	a ii ii	-0.4332158
-1.599547	a ii oo	-0.7806523
-2.036797	a ii u	-0.445085
-2.838429	a ii uu	0.8129134
-0.08409341	aa ii </s>
-1.140432	aa ii a	-0.5336597
-1.42988	aa ii aa	-0.1983094
-2.833572	aa ii au	0.243038
-1.968271	aa ii ei	-0.251404
-1.988474	aa ii i	-0.2569274
-1.73091	aa ii ii	-0.1704874
-1.708633	aa ii oo	-0.6691602
-2.833572	aa ii u	-0.2741578
-0.07716595	ai ii </s>
-1.031408	ai ii a	-0.2062321
-1.332438	ai ii i	-0.4596211
-0.1401787	au ii </s>
-1.161368	au ii aa	-0.4882102
-1.462398	au ii ei	-0.5833106
-1.462398	au ii ii	-0.1009005
-1.161368	au ii oo	0.09852552
-0.1496681	ei ii </s>
-1.286841	ei ii a	-0.5372254
-1.154216	ei ii aa	-0.4338524
-2.256878	ei ii au	0.243038
-1.242638	ei ii ei	0.01715553
-2.256878	ei ii i	-0.3191702
-1.189931	ei ii ii	-0.639895
-1.654818	ei ii oo	0.1592233
-0.1019475	i ii </s>
-1.005037	i ii a	-0.852496
-1.607097	i ii aa	-0.2527693
-1.579069	i ii ei	-0.2848277
-1.704007	i ii i	0.2017389
-1.669245	i ii ii	-0.6449686
-2.306067	i ii uu	0.8129134
-0.1645533	ii ii </s>
-1.099703	ii ii a	-0.5786179
-2.113943	ii ii aa	-0.2451722
-1.210853	ii ii ei	-0.408813
-1.229337	ii ii i	-0.2532093
-1.268845	ii ii ii	-0.4782335
-1.812913	ii ii oo	0.4022614
-1.745967	ii ii uu	0.5118834
-0.09475113	oo ii </s>
-1.199813	oo ii a	-0.4139224
-1.524324	oo ii aa	-0.6431122
-1.364623	oo ii ei	-0.5826715
-2.001445	oo ii i	-0.3191702
-1.524324	oo ii ii	-0.4988405
-0.1186579	u ii </s>
-1.0848	u ii a	0.2830567
-1.0848	u ii aa	-0.6339327
-1.476006	u ii ei	-0.2056465
-2.112828	u ii i	-0.3191702
-2.112828	u ii ii	-0.1009005
-2.112828	u ii oo	-0.3848447
-0.04235458	uu ii </s>
-1.575957	uu ii a	-0.3984103
-1.50901	uu ii ei	-0.3396334
-1.876987	uu ii oo	0.3415635
-0.1249387	<s> o oo	0
-0.8239087	a o a	0
-0.455932	a o aa	0
-0.455932	a o ei	0
-0.05799195	<s> o- a	0
-0.1249387	ai o- ei	0
-0.8983055	<s> oo </s>
-0.7914742	<s> oo a	0.3247181
-0.6716389	<s> oo aa	0.1459844
-1.7665	<s> oo ai	-0.7201593
-2.820858	<s> oo au	-0.4828736
-0.7465292	<s> oo ei	0.1456167
-0.9595227	<s> oo i	0.3322608
-1.040301	<s> oo ii	0.2067251
-1.099322	<s> oo oo	-0.2905645
-1.866616	<s> oo u	-0.2126081
-2.820858	<s> oo uu	0.3802113
-0.1414485	a oo </s>
-0.9822713	a oo a	-0.2595439
-1.311495	a oo aa	-0.2504681
-2.748188	a oo au	-0.4828736
-1.581857	a oo ei	-0.5216825
-1.311495	a oo i	-0.1922472
-1.509306	a oo ii	0.07716596
-2.146128	a oo oo	-0.1383027
-2.447158	a oo u	-0.2611585
-0.07864016	aa oo </s>
-1.175318	aa oo a	-0.6537314
-1.874288	aa oo aa	-0.4302476
-1.603222	aa oo ei	-0.5932252
-1.65244	aa oo i	-0.7805818
-1.74935	aa oo ii	-0.1648862
-1.84626	aa oo oo	-0.3521825
-0.2307806	ai oo </s>
-1.33912	ai oo a	-0.4642633
-1.117271	ai oo aa	-0.6854314
-1.33912	ai oo ei	0.01475269
-0.7022979	ai oo i	-0.5828823
-0.2162085	au oo </s>
-1.230449	au oo ei	-0.1154503
-0.7075702	au oo i	-0.4029921
-1.230449	au oo ii	0.1056545
-0.1498461	ei oo </s>
-1.4843	ei oo a	-0.3151297
-1.4843	ei oo aa	-0.4221899
-2.007179	ei oo ai	-0.5740313
-1.639202	ei oo au	-0.510545
-1.069327	ei oo ei	-0.2290413
-1.162081	ei oo i	-0.3934856
-2.007179	ei oo u	-0.3085832
-0.09595638	i oo </s>
-1.258408	i oo a	-0.05942273
-1.735529	i oo aa	-0.4650096
-2.620136	i oo ai	-0.5440681
-2.143015	i oo au	-0.80618
-2.620136	i oo e	0
-1.699317	i oo ei	0.5135933
-1.341383	i oo i	-0.01223457
-2.018076	i oo ii	-0.06550151
-1.754835	i oo oo	-0.1146388
-2.319106	i oo u	-0.5516212
-2.252159	i oo uu	-0.1249387
-0.05249834	ii oo </s>
-1.5272	ii oo aa	-0.2460987
-1.82823	ii oo i	-0.5095592
-1.5272	ii oo ii	-0.5690976
-1.82823	ii oo u	-0.3085832
-0.1249387	o oo </s>
-0.1249387	oo oo </s>
-1.396006	oo oo a	-0.2003259
-1.572097	oo oo aa	-0.1028886
-1.350248	oo oo ei	-0.7079213
-1.396006	oo oo i	-0.2150599
-1.271067	oo oo ii	-0.4062288
-1.873127	oo oo oo	-0.5842505
-0.1503859	u oo </s>
-1.089905	u oo a	-0.5464648
-1.545837	u oo aa	-0.5471287
-1.112182	u oo i	-0.4106338
-1.612784	u oo ii	-0.1373835
-1.612784	u oo oo	-0.243038
-1.612784	u oo u	-0.2611585
-0.1887327	uu oo </s>
-1.609239	uu oo a	-0.5697315
-0.9402318	uu oo aa	-0.4669704
-1.609239	uu oo ai	-0.5440681
-1.609239	uu oo ei	-0.1154503
-1.08636	uu oo i	-0.4283992
-1.609239	uu oo ii	0.1056545
-1.290721	<s> u </s>
-0.573894	<s> u a	0.1509702
-0.522056	<s> u aa	0.1368644
-2.545994	<s> u ai	-0.243038
-2.421055	<s> u au	-0.2653144
-1.046918	<s> u ei	-0.027632
-0.9817225	<s> u i	0.01603448
-1.127324	<s> u ii	-0.01571465
-1.360357	<s> u oo	0.2265821
-1.307112	<s> u u	-0.1384691
-2.008875	<s> u uu	-0.600861
-0.5214905	a u </s>
-0.6273473	a u a	-0.4248668
-0.7287015	a u aa	0.0418545
-2.494618	a u au	-0.5274264
-1.692986	a u ei	0.2859724
-1.223552	a u i	-0.02430886
-1.126642	a u ii	-0.7516828
-1.328287	a u oo	-0.3225555
-1.358956	a u u	-0.5514654
-1.76762	a u uu	-0.3589422
-0.3718032	aa u </s>
-1.026942	aa u a	-0.2139568
-0.7215903	aa u aa	-0.3796198
-2.24879	aa u ai	-0.5118834
-1.383489	aa u ei	0.002827048
-1.15771	aa u i	-0.5609758
-1.146128	aa u ii	-0.665323
-1.424882	aa u oo	-0.7886167
-1.725912	aa u u	-0.8219804
-1.54982	aa u uu	-0.6409781
-0.9852768	ai u </s>
-0.6173	ai u a	-0.7138705
-0.9852768	ai u aa	-0.156876
-0.9852768	ai u e	0
-0.6173	ai u ei	-0.3826699
-0.9852768	au u </s>
-0.6173	au u a	-0.7138705
-0.258278	au u ii	-0.6089823
-0.3458423	ei u </s>
-0.9294189	ei u a	-0.3716559
-1.054358	ei u aa	-0.758936
-0.5936268	ei u ei	-0.272649
-1.531479	ei u ii	-0.5647786
-0.2797463	i u </s>
-0.8219302	i u a	-0.6547664
-1.261263	i u aa	-0.6040341
-0.9425041	i u ei	-0.07219827
-1.164353	i u i	-0.3399745
-1.226501	i u oo	-0.6125255
-0.4202164	ii u </s>
-0.9208187	ii u a	-0.6558785
-1.221849	ii u aa	-0.3461688
-0.8538719	ii u ei	-0.3826699
-1.221849	ii u i	-0.4319465
-0.9208187	ii u ii	0.2025598
-0.3087168	oo u </s>
-1.278754	oo u a	-0.4128405
-0.9107768	oo u aa	-0.662026
-0.9107768	oo u ii	-0.2816234
-1.278754	oo u oo	-0.06845742
-1.278754	oo u u	-0.3826477
-0.4016205	u u </s>
-1.170628	u u a	-0.3215516
-0.7412799	u u aa	-0.369951
-1.295567	u u ei	-0.1343461
-1.095995	u u i	-0.7616362
-1.596597	u u ii	-0.2236314
-1.073718	u u oo	-0.5077901
-1.095995	u u u	-0.5117424
-0.1249387	uu u aa	-0.360996
-0.738423	<s> uu </s>
-0.6536015	<s> uu a	0.2194759
-0.815057	<s> uu aa	0.1502678
-2.570932	<s> uu ai	0
-0.8719619	<s> uu ei	0.07361329
-0.9476826	<s> uu i	0.1918858
-0.9511431	<s> uu ii	0.2401651
-1.269902	<s> uu oo	0.2602848
-2.570932	<s> uu u	0
-1.817604	<s> uu uu	0.06366909
-0.294572	a uu </s>
-0.8410505	a uu a	-0.477529
-1.037345	a uu aa	-0.5170028
-1.613598	a uu ei	-0.5668112
-1.265143	a uu i	-0.5750412
-0.9871786	a uu ii	-0.7162988
-1.265143	a uu oo	-0.5663699
-2.25042	a uu uu	0.4393327
-0.2354729	aa uu </s>
-0.7631506	aa uu a	-1.320468
-1.416363	aa uu aa	-0.04403746
-2.018423	aa uu ei	-0.02274317
-1.265095	aa uu i	-0.6097468
-1.048386	aa uu ii	-0.4305089
-1.495544	aa uu oo	-0.5885013
-0.3590219	ai uu </s>
-0.7269987	ai uu a	-0.1821654
-0.7269987	ai uu ei	-0.02274317
-0.5228788	au uu </s>
-0.5228788	au uu ei	-0.562996
-0.3347131	ei uu </s>
-1.047924	ei uu a	-0.4252034
-0.9809768	ei uu aa	-0.3750308
-0.9809768	ei uu ei	-0.864026
-0.9809768	ei uu i	-0.866428
-1.348954	ei uu ii	0.4298292
-0.2369921	i uu </s>
-0.6144104	i uu a	-1.011469
-1.184286	i uu i	-0.6415685
-1.251233	i uu oo	-0.3922066
-0.01703334	ii uu </s>
-0.07918125	oo uu </s>
-0.5772364	u uu </s>
-1.355388	u uu a	-0.1821654
-1.054358	u uu aa	-0.3170388
-0.6564177	u uu i	-0.6446261
-0.8325089	u uu ii	-0.009503484
-0.8325089	u uu oo	-0.5885013
-0.04139268	uu uu </s>

\4-grams:
-0.5559622	<s> a a </s>
-0.7274854	<s> a a a	0.1117152
-0.7022652	<s> a a aa	-0.008931279
-1.193076	<s> a a ei	-0.1692731
-1.092014	<s> a a i	0.03436303
-1.151511	<s> a a ii	0.1999245
-1.105753	<s> a a oo	0.127965
-1.672098	<s> a a u	0.2376429
-1.739998	<s> a a uu	0.06963599
-0.3679768	a a a </s>
-0.8846066	a a a a	-0.04521775
-0.78358	a a a aa	0.07448375
-1.303736	a a a ei	-0.2921456
-1.115745	a a a i	-0.3428391
-1.076492	a a a ii	-0.4657293
-2.507856	a a a o	0
-1.493615	a a a oo	0.0446279
-1.780857	a a a u	-0.2852357
-2.507856	a a a uu	-0.007968932
-0.214045	aa a a </s>
-1.202307	aa a a a	-0.4589114
-0.9718577	aa a a aa	-0.2138679
-2.202307	aa a a au	-0.39794
-1.901277	aa a a ei	-0.2136543
-1.13536	aa a a i	-0.7815225
-1.281488	aa a a ii	0.01139206
-2.202307	aa a a oo	0.2662678
-1.448979	aa a a u	-0.8799965
-1.901277	aa a a uu	0.005395055
-0.1205739	ai a a </s>
-0.7403627	ai a a a	-0.60206
-0.4149733	au a a </s>
-0.6368221	au a a a	-0.7844002
-0.9378521	au a a i	-0.5608638
-0.9378521	au a a ii	-0.05904478
-0.2848432	ei a a </s>
-0.7836837	ei a a a	-0.2305282
-1.721536	ei a a aa	-0.5261154
-1.721536	ei a a au	-0.39794
-0.9199035	ei a a ei	-0.3535334
-1.721536	ei a a i	-0.2809202
-1.198657	ei a a ii	-0.4983774
-1.721536	ei a a u	-0.226784
-0.279895	i a a </s>
-0.9181671	i a a a	0.1235281
-0.881955	i a a aa	-0.5230497
-1.735827	i a a ei	-0.2716463
-1.626683	i a a i	-0.4437761
-1.501744	i a a ii	-0.02259243
-1.075775	i a a oo	-0.6501861
-1.466982	i a a u	-0.770852
-2.103804	i a a uu	-0.5064883
-0.0741852	ii a a </s>
-1.082785	ii a a a	-0.7983546
-1.304634	ii a a ii	0.2204456
-0.1001152	oo a a </s>
-1.054358	oo a a ii	-0.05904478
-0.437868	u a a </s>
-0.7900504	u a a a	-0.6796648
-0.9661418	u a a aa	-0.2292907
-1.869232	u a a ei	0.02938372
-1.024134	u a a i	-0.5449095
-1.39211	u a a ii	0.02161121
-0.883955	u a a oo	0.3802112
-1.346353	u a a u	-0.1091444
-0.312311	uu a a </s>
-0.5910646	uu a a aa	-0.7684983
-1.113943	uu a a ii	-0.3344928
-1.113943	uu a a oo	0.2662678
-0.4293319	<s> aa a </s>
-0.7713283	<s> aa a a	0.06184459
-0.8709809	<s> aa a aa	0.2199477
-2.437222	<s> aa a au	0
-1.23765	<s> aa a ei	-0.1396619
-1.016716	<s> aa a i	-0.05775285
-1.17005	<s> aa a ii	0.2742368
-1.185989	<s> aa a oo	-0.3214231
-1.817433	<s> aa a u	0.2249399
-1.960101	<s> aa a uu	0.1091444
-0.2595242	a aa a </s>
-1.011346	a aa a a	-0.5061143
-0.884814	a aa a aa	-0.1473509
-2.065704	a aa a ei	0.161368
-1.312376	a aa a i	-0.6644737
-1.190643	a aa a ii	-0.4758033
-1.073003	a aa a oo	-0.4771212
-2.366734	a aa a u	-0.3923602
-0.2073709	aa aa a </s>
-0.706394	aa aa a a	-1.004519
-1.390641	aa aa a aa	-0.4206505
-1.515579	aa aa a i	-0.3481246
-1.992701	aa aa a ii	0.07760483
-1.355879	aa aa a oo	0.5399121
-1.691671	aa aa a u	-0.7527838
-1.992701	aa aa a uu	-0.4929155
-0.03218468	ai aa a </s>
-0.4259687	au aa a </s>
-0.7269987	au aa a a	-0.1921451
-0.7269987	au aa a aa	-0.5287815
-0.1812309	ei aa a </s>
-0.9294189	ei aa a a	-0.3611744
-1.452298	ei aa a aa	-0.2291023
-1.452298	ei aa a ii	0.07760483
-1.084321	ei aa a oo	0.39794
-0.249001	i aa a </s>
-1.013364	i aa a a	-0.7789079
-1.342423	i aa a aa	0.1870866
-2.041393	i aa a ei	0.1006702
-2.041393	i aa a i	-0.3429442
-1.156786	i aa a ii	-0.2016454
-0.8283179	i aa a oo	-0.39794
-1.518514	i aa a u	-0.1852346
-0.2741579	ii aa a </s>
-1.194977	ii aa a a	-0.1921451
-0.6720979	ii aa a ii	-0.3617278
-1.194977	ii aa a oo	-0.3928998
-0.4409091	oo aa a </s>
-1.361728	oo aa a a	-0.1921451
-0.8388491	oo aa a aa	-0.668435
-1.060698	oo aa a i	-0.5859822
-0.7249057	oo aa a ii	-0.4664632
-1.060698	oo aa a oo	0.455932
-0.2688453	u aa a </s>
-1.079181	u aa a a	-0.4651463
-1.046997	u aa a aa	-0.3319066
-1.348027	u aa a ei	-0.2003598
-1.238882	u aa a i	-0.4706966
-1.414973	u aa a ii	-0.1654332
-1.113943	u aa a oo	0.1870867
-1.716003	u aa a uu	-0.2498775
-0.1512677	uu aa a </s>
-0.7533277	uu aa a aa	-0.2291023
-0.4756263	<s> ai a </s>
-1.01524	<s> ai a a	0.04139256
-1.161368	<s> ai a aa	-0.4346375
-1.348455	<s> ai a ai	0
-1.119975	<s> ai a ei	0
-1.508155	<s> ai a i	0
-0.8091855	<s> ai a ii	0
-1.082187	<s> ai a oo	0
-1.258278	<s> ai a u	0
-1.684247	<s> ai a uu	0
-0.04575749	a ai a </s>
-0.1249387	aa ai a a	0.01336396
-0.04139268	ai ai a </s>
-0.05799195	ei ai a </s>
-0.05799195	i ai a aa	-0.7919396
-0.4370921	<s> au a </s>
-0.8826144	<s> au a a	0.05324554
-0.8826144	<s> au a aa	0
-1.684247	<s> au a au	0
-1.684247	<s> au a e	0
-1.161368	<s> au a ei	0
-1.161368	<s> au a ii	0
-1.207126	<s> au a oo	0
-1.684247	<s> au a u	0
-1.383217	<s> au a uu	0
-0.4259687	a au a </s>
-0.4259687	a au a a	-0.4881167
-0.3712841	<s> ei a </s>
-0.842634	<s> ei a a	0.1572647
-0.9438654	<s> ei a aa	0.1383028
-2.369834	<s> ei a ai	0
-1.213487	<s> ei a ei	0.09691006
-1.174857	<s> ei a i	-0.1467841
-1.184198	<s> ei a ii	-0.5827548
-2.001857	<s> ei a o	0
-1.174857	<s> ei a oo	0.1185045
-1.846955	<s> ei a u	0.1549019
-1.892713	<s> ei a uu	-0.5247629
-0.1326256	a ei a </s>
-1.16481	a ei a a	-0.8282846
-1.199572	a ei a aa	-0.2072492
-1.801632	a ei a ei	-0.0511525
-1.801632	a ei a i	-0.3825031
-1.500602	a ei a ii	0.006340146
-1.500602	a ei a oo	-0.1329666
-0.1760913	aa ei a </s>
-1.079181	aa ei a a	-0.2842165
-0.7781513	aa ei a ii	-0.8055895
-0.02227639	ai ei a </s>
-0.1249387	au ei a </s>
-0.2319491	ei ei a </s>
-0.9852768	ei ei a a	-0.7670149
-1.286307	ei ei a aa	-0.2596374
-0.9852768	ei ei a ei	-0.146128
-1.286307	ei ei a uu	-0.5413622
-0.1392343	i ei a </s>
-1.129095	i ei a a	-0.8282846
-1.288796	i ei a aa	-0.3203351
-1.765917	i ei a ei	-0.2552725
-1.464887	i ei a ii	-0.2366979
-1.39794	i ei a oo	-0.1909586
-1.765917	i ei a u	-0.4471581
-0.154902	ii ei a </s>
-1	ii ei a i	-0.5808707
-1	ii ei a u	-0.30103
-0.1879905	oo ei a </s>
-1.09108	oo ei a aa	-0.2596374
-1.09108	oo ei a i	-0.5351132
-1.09108	oo ei a oo	0.1100714
-0.2357633	u ei a </s>
-0.7552884	u ei a a	-0.432279
-1.09108	u ei a aa	-0.2094707
-1.024134	u ei a uu	-0.7454821
-0.02632894	uu ei a </s>
-0.5234017	<s> i a </s>
-0.7040957	<s> i a a	0.0488081
-0.7522837	<s> i a aa	0.1322907
-1.930596	<s> i a ai	0
-1.105021	<s> i a ei	0.1176395
-0.9763539	<s> i a i	-0.2241397
-1.199442	<s> i a ii	-0.5530847
-1.431756	<s> i a oo	0.3107897
-1.965358	<s> i a u	0.2582781
-2.04454	<s> i a uu	0.09691012
-0.4009249	a i a </s>
-0.6592029	a i a a	0.1344322
-1.136324	a i a aa	-0.188615
-1.527531	a i a ei	-0.3083292
-1.039414	a i a i	-0.1383027
-1.039414	a i a ii	-0.3130112
-1.243534	a i a oo	0.04575741
-1.641474	a i a u	-0.1608512
-0.2057021	aa i a </s>
-0.8800247	aa i a a	-0.6114566
-1.564271	aa i a aa	-0.4944749
-1.564271	aa i a ei	0.469822
-1.263241	aa i a i	-0.5270347
-1.263241	aa i a ii	-0.06997323
-1.865301	aa i a oo	0.2730013
-1.865301	aa i a u	-0.3701109
-1.865301	aa i a uu	-0.3802113
-0.2632414	ai i a </s>
-1.263241	ai i a a	-0.387558
-1.263241	ai i a aa	-0.2514369
-1.263241	ai i a ei	-0.5124493
-0.9622114	ai i a i	-0.6476086
-1.263241	ai i a oo	0.2730013
-0.1249387	au i a i	-0.4045706
-0.0570385	ei i a </s>
-1.636822	ei i a a	-0.5409631
-1.335792	ei i a ei	-0.7554873
-1.636822	ei i a i	-0.4045706
-0.1776124	i i a </s>
-1.041393	i i a a	-0.2764075
-1.201094	i i a aa	-0.6493769
-1.310238	i i a i	-0.8205551
-1.155336	i i a ii	-0.3174204
-1.678215	i i a oo	0.2730013
-0.4607309	ii i a </s>
-0.4149733	ii i a aa	-0.3552957
-0.9378521	ii i a oo	0.2730013
-0.1760913	oo i a </s>
-1.079181	oo i a a	-0.5218517
-1.012234	oo i a aa	-0.5524669
-1.380211	oo i a ii	0.1219122
-1.380211	oo i a oo	0.2730013
-0.2447116	u i a </s>
-1.335792	u i a a	-0.2788136
-1.335792	u i a aa	-0.2514369
-0.8129134	u i a i	-0.5282737
-1.335792	u i a ii	0.1219122
-1.335792	u i a oo	0.2730013
-0.258278	uu i a </s>
-0.9852768	uu i a aa	-0.2514369
-0.9852768	uu i a i	-0.5806619
-0.9852768	uu i a oo	0.2730013
-0.3399481	<s> ii a </s>
-0.9072459	<s> ii a a	-0.177286
-0.8548579	<s> ii a aa	-0.2069856
-1.419129	<s> ii a ai	0
-1.544068	<s> ii a ei	-0.3424227
-1.322219	<s> ii a i	-0.08432084
-1.267862	<s> ii a ii	0.06694674
-1.322219	<s> ii a oo	0.231949
-1.653213	<s> ii a u	0
-2.021189	<s> ii a uu	0
-0.1424081	a ii a </s>
-1.047664	a ii a a	-0.1614918
-0.8893017	a ii a aa	-0.6965279
-1.968483	a ii a ei	-0.50515
-1.968483	a ii a ii	0.7201592
-1.968483	a ii a oo	0.161368
-0.1404509	aa ii a </s>
-0.8808136	aa ii a a	0.08715034
-1.102662	aa ii a aa	0.4273238
-1.403692	aa ii a oo	-0.08167005
-0.1918855	ai ii a </s>
-0.6690068	ai ii a a	0.2019718
-0.07918125	ei ii a </s>
-1	ei ii a a	0.2019718
-0.05999793	i ii a </s>
-1.01424	i ii a a	-0.04106623
-0.3424227	ii ii a </s>
-0.314394	ii ii a a	-0.4264172
-0.1180993	oo ii a </s>
-0.845098	oo ii a aa	-0.06403792
-0.4542584	u ii a </s>
-0.7900504	u ii a a	-0.04106623
-0.7231037	u ii a aa	-0.8132255
-1.09108	u ii a i	-0.05799198
-1.09108	u ii a oo	0.161368
-0.06694679	uu ii a </s>
-0.1249387	a o a </s>
-0.154902	<s> o- a </s>
-0.3063263	<s> oo a </s>
-1.263241	<s> oo a a	0.1890563
-0.9387304	<s> oo a aa	-0.00152117
-2.041393	<s> oo a ai	0
-1.314394	<s> oo a ei	0
-0.9057301	<s> oo a i	-0.1601709
-1.176091	<s> oo a ii	0.3357922
-1.740363	<s> oo a oo	0.2688453
-1.372386	<s> oo a uu	0
-0.1821316	a oo a </s>
-1.479527	a oo a a	-0.1587172
-0.9152559	a oo a aa	-0.3567301
-1.053559	a oo a i	-0.621498
-1.303436	a oo a ii	-0.1870866
-1.780557	a oo a oo	0.5118833
-0.1494391	aa oo a </s>
-1.420506	aa oo a a	0.08432084
-0.7836837	aa oo a aa	-0.2952777
-1.420506	aa oo a oo	0.5118833
-0.06694679	ai oo a </s>
-0.2340832	ei oo a </s>
-0.60206	ei oo a ii	0.2108533
-0.30103	i oo a </s>
-1.39211	i oo a a	0.08432084
-0.7552884	i oo a aa	-0.1760913
-1.39211	i oo a i	-0.3071042
-0.7552884	i oo a ii	-0.3332147
-0.2632414	oo oo a </s>
-0.5642715	oo oo a aa	-0.0222764
-0.2284793	u oo a </s>
-0.4973246	u oo a i	-0.3582566
-0.1249387	uu oo a ii	0.2108533
-0.5387609	<s> u a </s>
-0.7355582	<s> u a a	-0.2467948
-0.6859452	<s> u a aa	0.1057401
-2.454337	<s> u a ai	0
-1.318674	<s> u a ei	0.06411755
-0.9820679	<s> u a i	0.1014576
-1.062226	<s> u a ii	0.1035407
-1.340393	<s> u a oo	0.08082318
-1.755367	<s> u a u	-0.5314789
-2.454337	<s> u a uu	0
-0.28784	a u a </s>
-0.8789046	a u a a	0.3010297
-0.743242	a u a aa	-0.2440885
-1.276845	a u a i	-0.04139268
-1.100753	a u a ii	-0.2596373
-1.878905	a u a oo	0.08082318
-0.6766936	aa u a </s>
-0.6419315	aa u a a	-0.6779274
-0.9107768	aa u a ei	-0.6726411
-0.9777236	aa u a i	-0.640978
-1.278754	aa u a ii	-0.5459441
-1.278754	aa u a oo	0.08082318
-0.9777236	aa u a u	-0.4828736
-0.05799195	ai u a </s>
-0.05799195	au u a </s>
-0.2218488	ei u a </s>
-0.69897	ei u a a	-0.4049262
-0.3521825	i u a </s>
-0.5563025	i u a a	-0.6773109
-0.7112045	i u a i	-0.69897
-0.06694679	ii u a </s>
-0.1249387	oo u a </s>
-0.8239087	u u a </s>
-0.30103	u u a aa	-0.7955855
-0.8239087	u u a oo	0.08082318
-0.3380511	<s> uu a </s>
-0.9475351	<s> uu a a	-0.2820622
-0.7971492	<s> uu a aa	0
-1.932812	<s> uu a ei	0
-1.631782	<s> uu a i	-0.39794
-1.06751	<s> uu a ii	0
-1.048205	<s> uu a oo	0.1111505
-1.932812	<s> uu a u	-0.39794
-1.932812	<s> uu a uu	0
-0.1814201	a uu a </s>
-1.135663	a uu a a	-0.2414443
-1.068716	a uu a i	-0.6532125
-1.068716	a uu a oo	0.5882717
-1.436693	a uu a u	-0.39794
-0.00796893	aa uu a </s>
-0.1249387	ai uu a </s>
-0.06694679	ei uu a </s>
-0.01639042	i uu a </s>
-0.1249387	u uu a </s>
-0.554142	<s> a aa </s>
-0.8258632	<s> a aa a	0.1203998
-0.7891179	<s> a aa aa	0.1095634
-3.06558	<s> a aa ai	-0.4771213
-0.8587539	<s> a aa ei	0.08739233
-1.144761	<s> a aa i	0.1844604
-0.973327	<s> a aa ii	-0.001156569
-1.254899	<s> a aa oo	0.2041197
-1.716626	<s> a aa u	0.1931247
-1.86146	<s> a aa uu	0.1732434
-0.3311154	a a aa </s>
-1.09308	a a aa a	-0.4722407
-1.09308	a a aa aa	0.3226891
-2.529773	a a aa ai	-0.4771213
-1.200714	a a aa ei	-0.9283068
-1.29089	a a aa i	-0.1852038
-0.7947061	a a aa ii	-0.1135719
-1.243466	a a aa oo	-0.05115271
-1.927712	a a aa u	-0.1020758
-1.802774	a a aa uu	-1.030877
-0.2393395	aa a aa </s>
-1.500602	aa a aa a	-0.3495474
-1.074634	aa a aa aa	-5.960464e-08
-2.102662	aa a aa ei	0.2825466
-1.30103	aa a aa i	-0.1401405
-0.8089316	aa a aa ii	-0.748188
-1.324511	aa a aa oo	-0.2207617
-1.579784	aa a aa u	-0.7992816
-0.3452336	ai a aa </s>
-0.6462637	ai a aa ei	-0.0184834
-1.01424	ai a aa i	-0.3151635
-1.01424	ai a aa ii	0.4279032
-0.90309	au a aa </s>
-0.90309	au a aa aa	-0.08693671
-0.5351132	au a aa i	-0.6161935
-0.90309	au a aa ii	0.4279032
-0.90309	au a aa oo	0.455932
-0.2632414	ei a aa </s>
-1.605664	ei a aa a	-0.2551343
-0.968842	ei a aa aa	-0.6310048
-1.082785	ei a aa ei	-0.1567861
-1.128543	ei a aa i	-0.3814985
-1.304634	ei a aa ii	0.1848652
-1.304634	ei a aa oo	0.212894
-0.2565241	i a aa </s>
-1.029071	i a aa a	0.06919253
-1.489802	i a aa aa	-0.06425554
-1.165291	i a aa ei	-0.4164234
-1.297917	i a aa i	-0.6287571
-1.364864	i a aa ii	0.2766355
-1.165291	i a aa oo	-0.2430381
-1.444045	i a aa u	-0.4259687
-1.665894	i a aa uu	0.5006024
-0.1485702	ii a aa </s>
-1.552263	ii a aa a	-0.2551343
-1.552263	ii a aa ai	-0.4771213
-0.7283538	ii a aa ii	-0.292256
-0.1326256	oo a aa </s>
-1.500602	oo a aa ei	0.2825466
-1.500602	oo a aa i	-0.362256
-1.132626	oo a aa ii	0.1268733
-1.199572	oo a aa oo	0.212894
-0.3643118	u a aa </s>
-0.770852	u a aa a	-0.0646295
-1.071882	u a aa aa	-0.4486228
-1.895791	u a aa ei	0.2825466
-1.071882	u a aa i	-0.4681893
-1.094158	u a aa ii	-0.2710668
-1.372912	u a aa oo	0.0165993
-1.372912	u a aa u	-0.4423591
-1.895791	u a aa uu	-0.1983677
-0.4323089	uu a aa </s>
-1.185637	uu a aa a	-0.2551343
-0.8846066	uu a aa aa	-0.08693671
-0.7085153	uu a aa i	-0.7131035
-0.8846066	uu a aa ii	0.1848652
-0.312674	<s> aa aa </s>
-0.8727695	<s> aa aa a	0.2657019
-1.001535	<s> aa aa aa	0.2298045
-2.577492	<s> aa aa ai	0
-2.577492	<s> aa aa au	0
-1.391855	<s> aa aa ei	0.2143929
-1.090825	<s> aa aa i	-0.1085057
-1.081485	<s> aa aa ii	-0.1186481
-1.452553	<s> aa aa oo	0.4084054
-1.71219	<s> aa aa u	0.08715004
-2.276462	<s> aa aa uu	0.359022
-0.1582686	a aa aa </s>
-1.024134	a aa aa a	-0.4205989
-1.278167	a aa aa aa	-0.4586753
-1.39211	a aa aa ei	0.395129
-1.665112	a aa aa i	-0.3392175
-1.30103	a aa aa ii	-0.2581456
-1.454258	a aa aa oo	0.5898255
-0.3708529	aa aa aa </s>
-1.101231	aa aa aa a	-0.5097263
-1.351109	aa aa aa aa	-0.3940527
-1.191408	aa aa aa i	-0.8699217
-0.6332535	aa aa aa ii	-0.357277
-0.9074113	aa aa aa oo	0.6062158
-0.02227639	ai aa aa </s>
-0.2632414	au aa aa </s>
-0.5642715	au aa aa aa	-0.3611667
-0.2794903	ei aa aa </s>
-1.293731	ei aa aa a	-0.5069864
-0.925754	ei aa aa aa	-0.8672516
-0.770852	ei aa aa ii	-0.178646
-1.293731	ei aa aa uu	0.60206
-0.2058131	i aa aa </s>
-0.9185714	i aa aa a	-0.4800557
-1.13118	i aa aa aa	0.05432189
-1.932812	i aa aa i	-0.3882527
-1.048205	i aa aa ii	-0.5174645
-1.564835	i aa aa oo	1.118099
-1.932812	i aa aa u	-0.4637573
-1.932812	i aa aa uu	0.60206
-0.08813609	ii aa aa </s>
-0.845098	ii aa aa ii	-0.04034328
-0.1706962	oo aa aa </s>
-0.9488475	oo aa aa a	-0.579396
-1.124939	oo aa aa aa	-0.7300783
-1.425969	oo aa aa ii	0.2606867
-1.425969	oo aa aa oo	1.419129
-0.08993635	u aa aa </s>
-1.364864	u aa aa a	-0.424494
-1.665894	u aa aa i	-0.3258536
-1.665894	u aa aa oo	1.419129
-1.665894	u aa aa u	-0.4637573
-1.665894	u aa aa uu	0.60206
-0.1918855	uu aa aa </s>
-0.6690068	uu aa aa i	-0.4552929
-0.4318661	<s> ai aa </s>
-1.124103	<s> ai aa a	0
-1.033926	<s> ai aa aa	0.07058108
-1.459895	<s> ai aa ei	0
-0.7328961	<s> ai aa i	0
-0.8401061	<s> ai aa ii	0
-1.283804	<s> ai aa oo	0
-0.04830468	a ai aa </s>
-0.1249387	au ai aa </s>
-0.1249387	u ai aa aa	0.69897
-0.3248796	<s> au aa </s>
-1.03809	<s> au aa a	0
-1.163029	<s> au aa aa	0
-1.117271	<s> au aa i	0
-1.03809	<s> au aa ii	0
-0.8385177	<s> au aa oo	0
-0.08715018	a au aa </s>
-0.06694679	ei au aa </s>
-0.1249387	i au aa </s>
-0.4459633	<s> ei aa </s>
-0.9066941	<s> ei aa a	-0.1845244
-0.8523365	<s> ei aa aa	0.02266407
-1.237687	<s> ei aa ei	0.3372422
-1.015839	<s> ei aa i	-0.3154279
-0.8878087	<s> ei aa ii	0.1557525
-1.605664	<s> ei aa oo	0
-1.605664	<s> ei aa u	-0.79588
-1.714809	<s> ei aa uu	0
-0.2218488	a ei aa </s>
-0.8819007	a ei aa a	-0.8754018
-1.359022	a ei aa ei	0.09691
-1.20412	a ei aa i	-0.126157
-1.425969	a ei aa ii	-0.2122241
-1.20412	a ei aa oo	-0.04139268
-1.726999	a ei aa u	-0.2632415
-0.06095643	aa ei aa </s>
-1.447158	aa ei aa aa	-0.2783661
-1.447158	aa ei aa u	-0.2632415
-0.08715018	ai ei aa i	-0.3350407
-0.1249387	au ei aa </s>
-0.2082759	ei ei aa </s>
-0.7781513	ei ei aa ei	0.09691
-0.845098	ei ei aa oo	0.7958801
-0.5262067	i ei aa </s>
-1.003328	i ei aa a	-0.2880651
-1.117271	i ei aa ei	-0.04139268
-0.8385177	i ei aa i	-0.3138514
-1.003328	i ei aa ii	-0.5132541
-0.7555435	i ei aa oo	-0.3802112
-1.272173	i ei aa u	-0.5642715
-0.30103	ii ei aa </s>
-0.7781513	ii ei aa ei	0.39794
-0.7781513	ii ei aa i	-0.2654539
-0.1608513	oo ei aa </s>
-0.7781513	oo ei aa i	-0.5664839
-1.146128	oo ei aa ii	0.03081393
-0.04575749	u ei aa </s>
-0.04139268	uu ei aa </s>
-0.5616532	<s> i aa </s>
-0.8119297	<s> i aa a	-0.03985167
-0.8205299	<s> i aa aa	-0.1023319
-0.957207	<s> i aa ei	0.1432424
-0.9601918	<s> i aa i	-0.1740414
-0.9425829	<s> i aa ii	0.04737604
-1.252328	<s> i aa oo	0.3121663
-1.866287	<s> i aa u	-0.1219943
-2.007617	<s> i aa uu	-0.39794
-0.2193404	a i aa </s>
-0.9440712	a i aa a	0.00663054
-1.28289	a i aa aa	-0.2283064
-1.233202	a i aa ei	-0.6192921
-1.421193	a i aa i	-0.358999
-1.28289	a i aa ii	0.4355562
-1.421193	a i aa oo	-0.1535255
-1.722222	a i aa u	-0.8244952
-1.956306	a i aa uu	-0.7876966
-0.1494391	aa i aa </s>
-2.022566	aa i aa a	-0.2419086
-1.654589	aa i aa aa	-0.4799286
-2.022566	aa i aa ei	0.3584315
-1.068323	aa i aa i	-0.7426986
-1.198657	aa i aa ii	-0.1928327
-1.101747	aa i aa oo	-0.1705588
-0.04575749	ai i aa </s>
-0.1879905	au i aa </s>
-1.09108	au i aa ei	0.3584315
-1.09108	au i aa i	-0.336358
-1.09108	au i aa ii	0.5273265
-0.1249387	e i aa </s>
-0.1224064	ei i aa </s>
-0.9777236	ei i aa i	-0.326058
-1.278754	ei i aa ii	0.5273265
-0.228882	i i aa </s>
-0.8051347	i i aa a	-0.6053376
-1.441957	i i aa ei	0.1153935
-1.220108	i i aa i	-0.9844511
-1.140927	i i aa oo	0.1304712
-1.37501	i i aa uu	-0.5399121
-0.1106983	ii i aa </s>
-1.124939	ii i aa i	-0.336358
-1.124939	ii i aa ii	0.5273265
-0.1567861	oo i aa </s>
-1.518514	oo i aa a	-0.5818566
-1.518514	oo i aa aa	-0.5462353
-1.041393	oo i aa ii	0.1293865
-0.9956352	oo i aa oo	0.2030219
-0.1831993	u i aa </s>
-1.073577	u i aa a	-0.1473015
-1.409369	u i aa aa	-0.1652547
-1.187521	u i aa ei	-0.08090121
-1.342423	u i aa i	-0.8585576
-1.7104	u i aa ii	0.5273265
-1.7104	u i aa oo	0.6423545
-1.7104	u i aa u	-0.3612172
-0.5006024	uu i aa </s>
-0.8016323	uu i aa i	-0.336358
-0.4336556	uu i aa oo	0.3413246
-0.4156344	<s> ii aa </s>
-1.141202	<s> ii aa a	0.09806657
-0.8401722	<s> ii aa aa	0.08813608
-0.9575577	<s> ii aa ei	0.1576079
-1.243865	<s> ii aa i	0.1047353
-1.077533	<s> ii aa ii	0.1329077
-1.243865	<s> ii aa oo	0.3744588
-1.215836	<s> ii aa u	0
-0.1760913	a ii aa </s>
-1.681241	a ii aa a	-0.2723849
-1.380211	a ii aa aa	-0.1091444
-1.313264	a ii aa ei	-0.1945747
-1.044419	a ii aa ii	-0.8450981
-1.044419	a ii aa oo	-0.6970356
-0.1734512	aa ii aa </s>
-0.9595714	aa ii aa a	-0.6703248
-1.436693	aa ii aa aa	0.1338935
-1.436693	aa ii aa i	-0.359022
-1.436693	aa ii aa ii	0
-1.436693	aa ii aa oo	-0.1529675
-0.06694679	au ii aa </s>
-0.30103	ei ii aa </s>
-0.7781513	ei ii aa a	-0.5734148
-0.7781513	ei ii aa ei	-0.1945747
-1.146128	ei ii aa i	-0.359022
-0.30103	i ii aa </s>
-0.7781513	i ii aa a	-0.5734149
-0.7781513	i ii aa oo	-0.1529675
-0.1249387	ii ii aa </s>
-0.04575749	oo ii aa </s>
-0.146128	u ii aa </s>
-0.69897	u ii aa oo	-0.4539975
-0.05799195	a o aa </s>
-0.280462	<s> oo aa </s>
-0.912212	<s> oo aa a	0.0679971
-0.9930352	<s> oo aa aa	-0.4380147
-2.159367	<s> oo aa ai	0
-1.636488	<s> oo aa ei	0
-1.131338	<s> oo aa i	-0.1583626
-1.27476	<s> oo aa ii	0
-1.460397	<s> oo aa oo	0.1497623
-1.858337	<s> oo aa u	0
-1.636488	<s> oo aa uu	0
-0.2960666	a oo aa </s>
-1.462398	a oo aa a	-0.4066636
-0.5970966	a oo aa aa	-0.2481777
-1.161368	a oo aa i	-0.350248
-1.094421	a oo aa oo	-0.2218488
-0.2762064	aa oo aa </s>
-0.4522977	aa oo aa aa	-0.5118833
-0.04139268	ai oo aa </s>
-0.07918125	ei oo aa </s>
-0.2108534	i oo aa </s>
-0.5698753	i oo aa a	-0.8350929
-0.1249387	ii oo aa </s>
-0.4259687	oo oo aa </s>
-0.4259687	oo oo aa aa	-0.1139434
-0.05799195	u oo aa </s>
-0.3590219	uu oo aa </s>
-0.3590219	uu oo aa i	-0.7723217
-0.4436473	<s> u aa </s>
-0.9258186	<s> u aa a	0.1067649
-0.9220256	<s> u aa aa	-0.1396396
-2.137625	<s> u aa e	0
-0.9574175	<s> u aa ei	0.04496717
-1.079633	<s> u aa i	-0.1310414
-0.899938	<s> u aa ii	-0.5785038
-1.426421	<s> u aa oo	0.1760911
-1.86878	<s> u aa u	0
-1.86878	<s> u aa uu	0.07918113
-0.2778001	a u aa </s>
-1.004799	a u aa a	-0.3595437
-1.055951	a u aa aa	0.1109335
-1.305829	a u aa ei	-0.1177601
-1.18089	a u aa i	-0.4865775
-1.08398	a u aa ii	0.976377
-1.305829	a u aa oo	0.05690479
-0.2369921	aa u aa </s>
-1.251233	aa u aa a	-0.2284793
-1.552263	aa u aa ei	0.2801799
-1.184286	aa u aa i	-0.7102931
-0.7283538	aa u aa ii	0.1856366
-1.552263	aa u aa oo	0.4548448
-0.2218488	ai u aa </s>
-0.04575749	ei u aa </s>
-0.06694679	i u aa </s>
-0.2218488	ii u aa a	-0.2662679
-0.05799195	oo u aa </s>
-0.3284682	u u aa </s>
-0.845098	u u aa a	-0.6154239
-1.213075	u u aa ii	0.9057959
-0.845098	u u aa oo	0.1538148
-1.213075	u u aa uu	-0.2498775
-0.1249387	uu u aa </s>
-0.1773061	<s> uu aa </s>
-1.298611	<s> uu aa a	0.1890563
-1.298611	<s> uu aa aa	0.1047354
-1.252853	<s> uu aa ei	0.09691006
-1.775732	<s> uu aa i	-0.2218488
-1.298611	<s> uu aa ii	0
-1.298611	<s> uu aa oo	0
-1.775732	<s> uu aa uu	0
-0.1139434	a uu aa </s>
-0.9378521	a uu aa a	-0.3136191
-1.238882	a uu aa aa	-0.154902
-0.39794	aa uu aa </s>
-0.69897	aa uu aa ei	-0.1249388
-0.69897	aa uu aa i	-0.4259688
-0.05799195	ei uu aa </s>
-0.06694679	u uu aa </s>
-0.5399121	<s> a ai </s>
-1.238882	<s> a ai a	0.39794
-0.7160034	<s> a ai aa	0.1995723
-1.238882	<s> a ai ei	0
-0.6368221	<s> a ai i	0
-1.238882	<s> a ai ii	0.243038
-0.1760913	ai a ai </s>
-0.69897	ai a ai ii	0.243038
-0.1249387	ei a ai a	0.39794
-0.39794	i a ai </s>
-0.3309932	i a ai aa	0.0746336
-0.03476211	ii a ai </s>
-0.1249387	oo a ai a	0.39794
-0.1249387	u a ai </s>
-0.03476211	<s> aa ai </s>
-0.60206	a aa ai </s>
-0.60206	a aa ai a	0
-0.60206	a aa ai oo	0
-0.1249387	aa aa ai </s>
-0.1249387	oo aa ai </s>
-0.30103	<s> ai ai a	0
-0.8239087	<s> ai ai i	0
-0.8239087	<s> ai ai ii	0
-0.1249387	u ai ai </s>
-0.1249387	<s> au ai aa	0
-0.3174204	<s> ei ai </s>
-0.5862657	<s> ei ai a	0
-0.9542425	<s> ei ai oo	0
-0.1249387	ii ei ai </s>
-0.8016323	<s> i ai </s>
-0.7346855	<s> i ai a	0
-1.102662	<s> i ai i	0
-0.3493347	<s> i ai ii	0
-0.1180993	aa i ai </s>
-0.845098	aa i ai oo	0
-0.1249387	i i ai ei	-0.20412
-0.04139268	<s> ii ai </s>
-0.05799195	a ii ai </s>
-0.1249387	<s> oo ai </s>
-0.7112045	<s> oo ai oo	0
-0.1249387	ei oo ai i	0
-0.1249387	i oo ai ii	0.243038
-0.1249387	uu oo ai ii	0.243038
-0.60206	<s> u ai </s>
-0.60206	<s> u ai aa	0
-0.60206	<s> u ai i	0
-0.1249387	aa u ai ai	0
-0.1249387	<s> uu ai </s>
-0.845098	<s> a au </s>
-1.146128	<s> a au a	-0.39794
-0.6690068	<s> a au aa	0
-0.845098	<s> a au ei	0
-1.146128	<s> a au i	0
-0.6690068	<s> a au ii	0.1139433
-0.4259687	a a au </s>
-0.4259687	a a au ii	0.5118833
-0.06694679	aa a au </s>
-0.1249387	au a au a	-0.39794
-0.5081555	<s> aa au </s>
-0.9852768	<s> aa au i	0
-0.31627	<s> aa au ii	0
-0.1249387	aa aa au </s>
-0.1249387	<s> ai au </s>
-0.1249387	<s> au au ei	0
-0.05799195	i au au </s>
-0.02996322	<s> ei au </s>
-0.1249387	ei ei au aa	0.243038
-0.1249387	i ei au i	0
-0.1249387	oo ei au aa	0.243038
-0.5682017	<s> i au </s>
-1.09108	<s> i au aa	0
-0.7231037	<s> i au au	0
-1.09108	<s> i au ei	0
-0.6139592	<s> i au ii	0
-0.1249387	oo i au oo	0
-0.1249387	u i au </s>
-0.1249387	uu i au </s>
-0.1249387	aa ii au </s>
-0.1249387	ei ii au </s>
-0.1249387	<s> oo au </s>
-0.1249387	a oo au </s>
-0.1091445	ei oo au ii	0
-0.04575749	i oo au i	0
-0.69897	<s> u au </s>
-0.39794	<s> u au i	0
-0.69897	<s> u au ii	0
-0.1249387	a u au u	0
-0.06694679	<s> a e </s>
-0.1249387	au a e </s>
-0.05799195	u aa e </s>
-0.1249387	i oo e i	0
-0.1249387	ai u e </s>
-0.2492296	<s> a ei </s>
-1.031096	<s> a ei a	0.2617203
-0.8940161	<s> a ei aa	0.05799198
-1.185359	<s> a ei ei	0.07302105
-1.486389	<s> a ei i	0.1139433
-1.198324	<s> a ei ii	-0.2291024
-1.438084	<s> a ei oo	0.03066862
-2.540746	<s> a ei u	0.243038
-2.17277	<s> a ei uu	0
-0.1155699	a a ei </s>
-1.015143	a a ei a	-0.518514
-1.661407	a a ei aa	-0.8419848
-1.506505	a a ei ei	-0.395867
-1.728354	a a ei i	-0.2662679
-1.728354	a a ei ii	0.2617203
-2.029384	a a ei oo	-0.1627273
-2.029384	a a ei u	0.243038
-0.09597504	aa a ei </s>
-1.587337	aa a ei a	-0.0222764
-1.587337	aa a ei aa	-0.20412
-1.587337	aa a ei i	-0.4542584
-1.110215	aa a ei ii	-0.2263964
-0.1014576	ai a ei </s>
-0.90309	ai a ei i	-0.5195251
-0.04139268	au a ei </s>
-0.2596373	ei a ei </s>
-1	ei a ei a	-0.2653144
-0.7781513	ei a ei aa	-0.306425
-1.30103	ei a ei ei	0.04346567
-1.30103	ei a ei ii	0.1715436
-0.1373836	i a ei </s>
-0.7294593	i a ei a	-0.4993976
-1.226784	i a ei ii	-0.1294864
-0.2218488	ii a ei </s>
-0.69897	ii a ei a	-0.0222764
-0.02632894	oo a ei </s>
-0.2762064	u a ei </s>
-0.3853509	u a ei a	-0.4809142
-0.1249387	uu a ei </s>
-0.1331955	<s> aa ei </s>
-1.527814	<s> aa ei a	0.1760914
-1.226784	<s> aa ei aa	0.2521815
-1.094158	<s> aa ei ei	0.1440891
-1.452093	<s> aa ei i	0.04275191
-1.527814	<s> aa ei ii	0.3818531
-1.850033	<s> aa ei oo	0.2138798
-2.372912	<s> aa ei u	0
-0.06069784	a aa ei </s>
-1.99855	a aa ei a	-0.3679768
-1.434278	a aa ei aa	-0.4788412
-1.69752	a aa ei ei	0.08432096
-1.378761	a aa ei ii	0.3093024
-1.931603	a aa ei oo	0.3521825
-0.005677133	aa aa ei </s>
-0.06694679	ai aa ei </s>
-0.04575749	ei aa ei </s>
-1.221849	ei aa ei i	-0.2108534
-0.05037769	i aa ei </s>
-1.845098	i aa ei a	-0.1249388
-1.367977	i aa ei aa	-0.1171134
-1.845098	i aa ei ei	0.1232389
-1.845098	i aa ei ii	1.122216
-0.09455611	ii aa ei </s>
-1.185637	ii aa ei a	-0.1249388
-1.185637	ii aa ei aa	0.2808266
-0.04139268	oo aa ei </s>
-0.06105397	u aa ei </s>
-1.609239	u aa ei aa	0.2808266
-1.308209	u aa ei ei	-0.1197991
-1.609239	u aa ei ii	1.122216
-0.1760913	uu aa ei </s>
-0.69897	uu aa ei ei	0.1232389
-0.2572178	<s> ai ei </s>
-1.048733	<s> ai ei a	0.07058108
-1.298611	<s> ai ei aa	0
-1.775732	<s> ai ei ei	0
-0.9104304	<s> ai ei i	0
-1.252853	<s> ai ei ii	0
-1.13891	<s> ai ei oo	0
-0.1249387	a ai ei </s>
-0.2218488	i ai ei a	0.69897
-0.137633	<s> au ei </s>
-1.431364	<s> au ei aa	0
-1.431364	<s> au ei ei	0
-1.431364	<s> au ei i	0
-1.063387	<s> au ei ii	0
-0.06694679	a au ei </s>
-0.1249387	au au ei a	0
-0.1249387	i au ei </s>
-0.2710668	<s> ei ei </s>
-1.166331	<s> ei ei a	0.3320642
-0.8974861	<s> ei ei aa	0
-1.073577	<s> ei ei ei	0
-1.534308	<s> ei ei i	-0.3424226
-1.146128	<s> ei ei ii	0.05324554
-1.312459	<s> ei ei oo	0.06694686
-2.01143	<s> ei ei u	-0.20412
-0.1113659	a ei ei </s>
-0.8103359	a ei ei a	-0.7629113
-1.447158	a ei ei i	-0.5314789
-0.09056983	aa ei ei </s>
-1.151268	aa ei ei a	-0.0939045
-1.452298	aa ei ei ii	0.8129134
-1.452298	aa ei ei oo	-0.359022
-0.1249387	ai ei ei a	-0.2188433
-0.1249387	au ei ei a	-0.2188433
-0.01639042	ei ei ei </s>
-0.07058107	i ei ei </s>
-1.124939	i ei ei i	-0.5314789
-0.20412	ii ei ei </s>
-0.90309	ii ei ei a	-0.2188433
-0.90309	ii ei ei au	0
-0.08894108	oo ei ei </s>
-0.9542425	oo ei ei a	-0.2188433
-0.06694679	u ei ei </s>
-0.1249387	uu ei ei </s>
-0.4130552	<s> i ei </s>
-0.7007212	<s> i ei a	0.217732
-0.7232285	<s> i ei aa	0.1129497
-2.219235	<s> i ei au	0
-1.395326	<s> i ei ei	0.2403322
-1.043144	<s> i ei i	-0.1587173
-1.520265	<s> i ei ii	0.3143939
-1.492236	<s> i ei oo	0.06694686
-2.219235	<s> i ei uu	0
-0.203309	a i ei </s>
-0.8532925	a i ei a	-0.3676221
-0.7989349	a i ei aa	-0.4548254
-1.552263	a i ei ei	0.2218487
-0.2155998	aa i ei </s>
-0.9357591	aa i ei a	-0.302269
-1.662758	aa i ei aa	-0.4485765
-0.993751	aa i ei ei	-0.3521826
-1.060698	aa i ei i	-0.07058108
-1.662758	aa i ei u	-0.20412
-0.4771213	ai i ei a	-0.04026324
-0.4771213	ai i ei i	-0.5177391
-0.3679768	ei i ei </s>
-0.544068	ei i ei a	-0.4795959
-1.066947	ei i ei i	-0.5404031
-1.066947	ei i ei ii	0.9164539
-0.30103	i i ei </s>
-0.8908556	i i ei a	-0.4382032
-1	i i ei aa	-0.7496065
-0.69897	i i ei ii	0.3424226
-0.1512677	ii i ei </s>
-0.7533277	ii i ei aa	-0.4485765
-0.4771213	oo i ei </s>
-0.2272438	oo i ei a	-0.6686522
-0.07378621	u i ei </s>
-1.028029	u i ei oo	0.02118927
-0.03218468	uu i ei </s>
-0.1334268	<s> ii ei </s>
-1.236089	<s> ii ei a	-0.04139268
-1.236089	<s> ii ei aa	0.1760913
-1.71321	<s> ii ei ai	0
-1.71321	<s> ii ei ei	-0.1760913
-1.190332	<s> ii ei ii	0.1047354
-0.1346986	a ii ei </s>
-1.09691	a ii ei a	-0.3222193
-1.39794	a ii ei aa	-0.30103
-1.39794	a ii ei i	-0.4771213
-1.39794	a ii ei ii	0.544068
-0.1191864	aa ii ei </s>
-0.9208187	aa ii ei ei	-0.1760913
-0.1249387	au ii ei aa	-0.30103
-0.7659168	ei ii ei </s>
-0.5898255	ei ii ei a	-0.04139268
-0.5898255	ei ii ei ei	0.3010301
-0.69897	ei ii ei i	-0.5228788
-0.1413292	i ii ei </s>
-0.7781513	i ii ei ei	-0.1760913
-0.09275405	ii ii ei </s>
-0.9378521	ii ii ei a	-0.07918131
-0.03218468	oo ii ei </s>
-0.1760913	u ii ei </s>
-0.69897	u ii ei ei	-0.1760913
-0.05799195	uu ii ei </s>
-0.05799195	a o ei </s>
-0.1249387	ai o- ei </s>
-0.1494817	<s> oo ei </s>
-1.48192	<s> oo ei a	-0.2768963
-1.042587	<s> oo ei aa	0.06694674
-2.08398	<s> oo ei au	0
-1.38501	<s> oo ei ei	-0.4717263
-1.199374	<s> oo ei i	-0.1108522
-1.606859	<s> oo ei ii	0.1047354
-2.08398	<s> oo ei oo	0
-0.2249398	a oo ei </s>
-0.7178553	a oo ei a	0.1210438
-0.8269998	a oo ei ei	-0.1706963
-0.1346986	aa oo ei </s>
-0.69897	aa oo ei a	-0.3908397
-0.4259687	ai oo ei </s>
-0.4259687	ai oo ei i	-0.5734149
-0.1249387	au oo ei </s>
-0.1760913	ei oo ei </s>
-1	ei oo ei aa	-0.09275413
-1	ei oo ei ii	-0.154902
-0.69897	i oo ei </s>
-1	i oo ei a	-0.1478017
-1	i oo ei aa	-0.09275413
-1	i oo ei ei	-0.5509075
-0.4771213	i oo ei i	0.03527582
-0.60206	oo oo ei a	-0.1478017
-0.2340832	oo oo ei i	-0.7081134
-0.1249387	uu oo ei </s>
-0.139047	<s> u ei </s>
-0.852599	<s> u ei a	0.2064739
-1.51114	<s> u ei aa	0
-1.988262	<s> u ei ei	0.243038
-1.620285	<s> u ei i	0
-1.687232	<s> u ei ii	-0.39794
-1.988262	<s> u ei oo	0.243038
-1.988262	<s> u ei u	0
-0.3617278	a u ei </s>
-0.8846066	a u ei a	-0.22419
-0.8846066	a u ei ii	-0.4973247
-0.8846066	a u ei oo	0.243038
-0.19382	aa u ei </s>
-0.9208187	aa u ei a	-0.22419
-0.9208187	aa u ei ei	0.243038
-0.05799195	ai u ei </s>
-0.146128	ei u ei </s>
-0.6690068	ei u ei a	-0.467228
-0.6690068	i u ei </s>
-0.243038	i u ei a	-0.3402833
-0.9700368	i u ei uu	0
-0.05799195	ii u ei </s>
-0.2218488	u u ei </s>
-0.69897	u u ei ii	-0.154902
-0.1240176	<s> uu ei </s>
-1.417748	<s> uu ei a	0.3853509
-1.1959	<s> uu ei aa	0
-1.718778	<s> uu ei ei	0
-1.718778	<s> uu ei ii	0
-1.350802	<s> uu ei oo	0
-1.718778	<s> uu ei u	0
-0.03218468	a uu ei </s>
-0.1249387	aa uu ei </s>
-0.1249387	ai uu ei </s>
-0.1249387	au uu ei a	0.6283889
-0.05799195	ei uu ei a	0.327359
-0.8190446	<s> a i </s>
-0.702418	<s> a i a	-0.2204869
-0.5180147	<s> a i aa	0.1669263
-1.256836	<s> a i ei	-0.1801311
-0.8808761	<s> a i i	0.08860254
-1.419051	<s> a i ii	0.2218488
-1.049905	<s> a i oo	0.2714272
-1.864573	<s> a i u	-0.1423678
-1.912878	<s> a i uu	-0.3467874
-0.2818103	a a i </s>
-0.9552262	a a i a	-0.5414397
-0.7109238	a a i aa	-0.4080579
-2.168301	a a i ei	0.02938378
-1.366669	a a i i	0.07333088
-2.168301	a a i ii	-0.03930974
-1.043362	a a i oo	-0.4716811
-2.168301	a a i u	0.06445798
-0.3474257	aa a i </s>
-0.8375119	aa a i a	-0.2521766
-0.8936279	aa a i aa	-0.6417812
-1.878905	aa a i ei	-0.1747362
-1.401783	aa a i i	-0.4593666
-1.013603	aa a i ii	-0.7989776
-1.100753	aa a i oo	-0.1494619
-1.878905	aa a i u	-0.5546353
-0.04575749	ai a i </s>
-0.4014005	ei a i </s>
-1.021189	ei a i a	-0.6252278
-0.845098	ei a i aa	-0.5982701
-0.9542425	ei a i ei	-0.4757662
-1.021189	ei a i oo	-0.153277
-1.322219	ei a i uu	-0.3553877
-0.4372497	i a i </s>
-0.7617608	i a i a	-0.4304079
-0.7382798	i a i aa	-0.5245906
-1.840942	i a i ei	-0.3323441
-1.539912	i a i i	-0.299162
-1.318063	i a i ii	-0.4786424
-0.8129134	i a i oo	-0.8266929
-0.146128	ii a i </s>
-0.845098	ii a i ii	-0.5381503
-0.3071903	oo a i </s>
-1.374137	oo a i a	-0.3821898
-0.5088357	oo a i aa	-0.9599979
-1.00616	oo a i oo	-0.211269
-0.4259687	u a i </s>
-0.6478175	u a i a	-0.7633596
-0.8239087	u a i aa	-0.5546222
-1.124939	u a i ei	0.1262939
-1.30103	u a i i	-0.2760967
-1.124939	u a i oo	-0.308179
-0.7269987	uu a i </s>
-0.7269987	uu a i i	-0.5711638
-0.3590219	uu a i uu	-0.7876966
-0.5465592	<s> aa i </s>
-0.862413	<s> aa i a	0.03279281
-0.7374743	<s> aa i aa	0.2008342
-1.742022	<s> aa i ai	0
-1.091357	<s> aa i ei	-0.06963599
-1.123148	<s> aa i i	0.07932508
-1.134285	<s> aa i ii	-0.3028663
-0.9308704	<s> aa i oo	0.4430183
-1.816656	<s> aa i u	0.1249387
-2.242624	<s> aa i uu	0
-0.315639	a aa i </s>
-1.103031	a aa i a	-0.252798
-1.103031	a aa i aa	-0.3807454
-1.816241	a aa i ei	-0.1945747
-1.363944	a aa i i	-0.4264171
-1.480449	a aa i ii	-0.2503373
-0.6031665	a aa i oo	-0.5958997
-0.3273589	aa aa i </s>
-1.355388	aa aa i a	-0.146128
-0.9574476	aa aa i aa	-0.6682208
-1.656418	aa aa i ei	-0.1945747
-1.656418	aa aa i ii	0.2937307
-0.5424743	aa aa i oo	-0.5833105
-0.4658403	ai aa i </s>
-0.5797836	ai aa i aa	-0.5054935
-1.102662	ai aa i ei	-0.1945747
-1.102662	ai aa i i	-0.05075353
-1.102662	ai aa i oo	0.4166895
-0.04139268	au aa i </s>
-0.2681488	ei aa i </s>
-1.171239	ei aa i a	-0.4217534
-0.94939	ei aa i aa	-0.1045389
-1.104292	ei aa i i	-0.3517835
-1.171239	ei aa i ii	-0.5554838
-1.171239	ei aa i oo	0.1736515
-0.3394882	i aa i </s>
-1.196821	i aa i a	-0.05897772
-1.011184	i aa i aa	-0.844312
-0.910514	i aa i ei	-0.303123
-1.895791	i aa i i	-0.05075353
-1.418669	i aa i ii	-0.1042092
-0.7931284	i aa i oo	-0.5723151
-1.895791	i aa i u	0.07918119
-0.3679768	ii aa i </s>
-0.9700368	ii aa i a	-0.1787154
-0.9700368	ii aa i ei	-0.5925147
-0.9700368	ii aa i i	-0.05075353
-0.4202164	oo aa i </s>
-1.221849	oo aa i a	-0.1787154
-0.5850267	oo aa i aa	-0.6102288
-0.8538719	oo aa i oo	0.1156595
-1.221849	oo aa i u	0.07918119
-0.4455223	u aa i </s>
-1.548185	u aa i a	-0.3735807
-0.9461246	u aa i aa	-0.5780441
-1.548185	u aa i ei	-0.1945747
-1.548185	u aa i i	-0.05075353
-1.180208	u aa i ii	-0.007299244
-0.5067919	u aa i oo	-0.5127294
-0.4771213	uu aa i aa	-0.0661608
-0.4771213	uu aa i oo	0.4166895
-0.4059721	<s> ai i </s>
-0.6278208	<s> ai i a	-0.2596373
-1.502882	<s> ai i aa	0.154902
-1.502882	<s> ai i ei	0
-1.16709	<s> ai i i	0
-1.326791	<s> ai i ii	0
-1.025761	<s> ai i oo	0.1613679
-1.435935	<s> ai i u	0
-1.803912	<s> ai i uu	0
-0.7269987	a ai i </s>
-0.7269987	a ai i aa	0.39794
-0.4259687	a ai i oo	-0.08167005
-0.1249387	ai ai i a	-0.3735807
-0.1249387	i ai i oo	0.161368
-0.1249387	oo ai i </s>
-0.1249387	u ai i </s>
-0.5481846	<s> au i </s>
-0.2471546	<s> au i aa	0.0367229
-1.247155	<s> au i i	0.243038
-0.2218488	a au i </s>
-0.1249387	aa au i a	0
-0.1249387	ei au i </s>
-0.2632414	oo au i </s>
-0.5642715	oo au i i	0.243038
-0.4771213	u au i aa	-0.1478017
-0.4771213	u au i oo	0
-0.1249387	oo e i aa	0
-0.5147927	<s> ei i </s>
-0.7794419	<s> ei i a	0.3357922
-1.12969	<s> ei i aa	0.2787535
-1.036268	<s> ei i ei	0
-0.9713274	<s> ei i i	-0.20412
-1.413687	<s> ei i ii	0.07918119
-0.7352382	<s> ei i oo	0.1413292
-2.050509	<s> ei i u	0
-0.5399121	a ei i </s>
-0.7617608	a ei i a	-0.09017664
-0.9378521	a ei i aa	-0.2353512
-1.238882	a ei i ii	-0.04575753
-0.60206	a ei i oo	-0.3058289
-0.2263964	aa ei i </s>
-0.7269987	aa ei i a	0.06472534
-1.028029	aa ei i oo	0.2382391
-0.1760913	ai ei i a	-0.3206256
-0.60206	ai ei i aa	-0.2353512
-0.1249387	au ei i </s>
-0.8239087	ei ei i </s>
-0.8239087	ei ei i a	-0.5815384
-0.8239087	ei ei i aa	0.007686794
-0.8239087	ei ei i i	-0.5158738
-0.8239087	ei ei i oo	0.2382391
-0.313995	i ei i </s>
-0.7533277	i ei i a	-0.20412
-0.8782664	i ei i aa	0.1124222
-1.355388	i ei i i	-0.5751879
-1.054358	i ei i oo	-0.004798889
-0.60206	ii ei i </s>
-0.2340832	ii ei i a	0.006733358
-0.3710679	oo ei i </s>
-0.4416489	oo ei i a	-0.3454491
-1.194977	oo ei i aa	0.007686794
-1.194977	oo ei i i	-0.4712918
-0.05799195	u ei i </s>
-0.5944406	<s> i i </s>
-0.7859067	<s> i i a	0.07615471
-0.6298326	<s> i i aa	-0.1018157
-2.178017	<s> i i ai	0
-1.136624	<s> i i ei	-0.3997974
-1.240165	<s> i i i	-0.1625888
-1.876987	<s> i i ii	0.5336027
-0.8355945	<s> i i oo	0.1654723
-2.178017	<s> i i u	0.4393327
-1.655138	<s> i i uu	0
-0.3896323	a i i </s>
-1.024933	a i i a	-0.3217853
-0.9201979	a i i aa	-0.4931023
-1.589205	a i i ei	-0.544068
-0.6952581	a i i i	0.01995015
-1.288175	a i i ii	-0.01046538
-1.163236	a i i oo	-0.004278779
-0.1432661	aa i i </s>
-1.082785	aa i i a	-0.5672979
-1.304634	aa i i aa	-0.4574988
-1.304634	aa i i ei	-0.1719353
-1.304634	aa i i i	-0.0299632
-0.7269987	ai i i </s>
-0.7269987	ai i i aa	-0.5694727
-0.3590219	ai i i i	-0.6194341
-0.06694679	au i i </s>
-0.7447275	ei i i </s>
-0.5850267	ei i i a	-0.6720333
-0.4685211	ei i i ei	-0.8047234
-1.221849	ei i i i	-0.3184041
-1.221849	ei i i ii	0.2325726
-0.3191282	i i i </s>
-1.213075	i i i a	0.009208024
-0.7871061	i i i aa	-0.3573837
-1.514105	i i i ei	-0.30103
-1.146128	i i i ii	-0.06845737
-0.8772827	i i i oo	0.08004212
-0.05799195	ii i i </s>
-0.3881802	oo i i </s>
-0.8653014	oo i i a	-0.1279652
-0.8653014	oo i i i	-0.5746218
-0.8653014	oo i i oo	0.6241102
-0.3679768	u i i </s>
-0.544068	u i i a	-0.3710032
-0.845098	u i i ii	0.2325726
-0.8239087	uu i i a	-0.1279652
-0.455932	uu i i ii	-0.06845737
-0.455932	uu i i u	0.1383027
-0.5209002	<s> ii i </s>
-0.6592029	<s> ii i a	-0.3843672
-1.085172	<s> ii i aa	-0.1972805
-0.9090803	<s> ii i ei	0.1890563
-1.018225	<s> ii i ii	0.1383027
-1.085172	<s> ii i oo	0.2688453
-0.2280091	a ii i </s>
-0.5725048	a ii i aa	-0.1972806
-1.073107	a ii i ei	-0.3136191
-0.2218488	aa ii i </s>
-0.9208187	aa ii i aa	0.04575747
-0.9208187	aa ii i oo	0.5118833
-0.4259687	ai ii i a	-0.4175356
-0.4259687	ai ii i aa	0.04575747
-0.1249387	ei ii i </s>
-0.7533277	i ii i </s>
-0.7533277	i ii i a	-0.2477845
-0.7533277	i ii i aa	-0.5682018
-0.7533277	i ii i oo	0.5118833
-0.4313638	ii ii i </s>
-0.9542425	ii ii i aa	0.04575747
-0.5862657	ii ii i i	0
-0.9542425	ii ii i ii	0.4393327
-0.1249387	oo ii i </s>
-0.1249387	u ii i </s>
-0.5066765	<s> oo i </s>
-0.8808136	<s> oo i a	0.02482367
-0.6175721	<s> oo i aa	0.217484
-1.880814	<s> oo i au	0
-1.403692	<s> oo i ei	-0.8239087
-1.579784	<s> oo i i	-0.3388186
-1.403692	<s> oo i ii	0.1139433
-0.9599949	<s> oo i oo	0.2588323
-1.512837	<s> oo i u	0
-1.880814	<s> oo i uu	0
-0.3059373	a oo i </s>
-1.171239	a oo i a	-0.3679768
-0.5876622	a oo i aa	-0.4234941
-1.171239	a oo i i	-0.6166187
-1.472269	a oo i oo	0.3891661
-0.08894108	aa oo i </s>
-0.9542425	aa oo i a	-0.1249388
-0.3484547	ai oo i </s>
-0.9852768	ai oo i a	-0.1249388
-0.462398	ai oo i ei	-0.6514216
-0.1139434	au oo i </s>
-0.4436975	ei oo i </s>
-0.6197888	ei oo i a	-0.4191293
-0.6197888	ei oo i ei	-0.4551269
-0.5952206	i oo i </s>
-1.021189	i oo i a	-0.3679768
-0.6853972	i oo i aa	-0.180456
-1.322219	i oo i i	-0.3735807
-1.322219	i oo i ii	0.5118833
-0.5952206	i oo i oo	-0.2392229
-0.1249387	ii oo i aa	-0.08354604
-0.60206	oo oo i </s>
-0.60206	oo oo i a	-0.1249388
-0.60206	oo oo i i	-0.5383909
-0.2284793	u oo i </s>
-0.8653014	u oo i a	-0.1249388
-0.8653014	u oo i oo	0.3891661
-0.60206	uu oo i </s>
-0.2340832	uu oo i a	-0.4259687
-0.5479285	<s> u i </s>
-0.886747	<s> u i a	-0.0621478
-0.4695019	<s> u i aa	0.0976156
-2.053078	<s> u i au	0
-1.053078	<s> u i ei	0
-1.354108	<s> u i i	0.06694686
-1.752048	<s> u i ii	0
-1.20798	<s> u i oo	0.3010299
-0.7132105	a u i </s>
-1.01424	a u i a	-0.1870866
-0.5882717	a u i aa	-0.7672041
-1.31527	a u i i	-0.359022
-0.5882717	a u i oo	0.4130037
-1.31527	a u i uu	-0.20412
-0.20412	aa u i </s>
-0.8239087	aa u i aa	-0.3818532
-0.8239087	aa u i oo	0.7983546
-0.4771213	i u i </s>
-0.30103	i u i aa	-0.1549019
-0.1249387	ii u i </s>
-0.3222193	u u i </s>
-0.3679768	u u i a	-0.6342447
-0.4582359	<s> uu i </s>
-0.9542425	<s> uu i a	0.1836444
-0.9262138	<s> uu i aa	0
-1.653213	<s> uu i au	0
-1.01639	<s> uu i ei	0
-1.130334	<s> uu i i	-0.4771212
-1.130334	<s> uu i ii	0
-1.176091	<s> uu i oo	0.230449
-1.653213	<s> uu i uu	-0.2218488
-0.2263964	a uu i </s>
-1.028029	a uu i a	-0.2536054
-0.6600519	a uu i oo	0.327359
-0.2787536	aa uu i </s>
-0.4336556	aa uu i a	-0.5546353
-0.05799195	ei uu i i	-0.7160034
-0.05799195	i uu i </s>
-0.1512677	u uu i </s>
-0.7533277	u uu i uu	-0.4259688
-0.3001674	<s> a ii </s>
-0.798478	<s> a ii a	0.2202948
-0.9612053	<s> a ii aa	0.09390438
-2.1575	<s> a ii ai	0
-1.1575	<s> a ii ei	0
-1.497448	<s> a ii i	0.2949557
-1.217268	<s> a ii ii	-0.2010289
-1.411533	<s> a ii oo	0.1222159
-2.002598	<s> a ii u	-0.2138798
-2.525477	<s> a ii uu	0
-0.1465499	a a ii </s>
-0.8667092	a a ii a	-0.07857561
-1.336144	a a ii aa	-0.8239088
-2.137776	a a ii i	-0.2131997
-1.313867	a a ii ii	-0.2987136
-1.836746	a a ii oo	0.8791778
-1.836746	a a ii u	-0.4569179
-0.1018734	aa a ii </s>
-1.08715	aa a ii a	-0.725244
-1.564271	aa a ii aa	-0.3679768
-1.564271	aa a ii i	-0.4562377
-1.497325	aa a ii oo	0.8211858
-1.865301	aa a ii u	-0.5383909
-0.09017663	ai a ii </s>
-1.20412	ai a ii a	-0.04855043
-1.20412	ai a ii i	-0.466805
-0.04139268	au a ii </s>
-0.1228457	ei a ii </s>
-1.060698	ei a ii i	-0.4562377
-1.060698	ei a ii ii	-0.3904841
-0.09087805	i a ii </s>
-1.041393	i a ii a	-0.5926185
-1.678215	i a ii aa	-0.1249388
-1.678215	i a ii i	-0.563715
-1.678215	i a ii ii	-0.5879735
-0.0211893	ii a ii </s>
-0.07255067	oo a ii </s>
-0.9378521	oo a ii a	-0.2915884
-0.1567861	u a ii </s>
-0.916454	u a ii a	-0.5604337
-0.8495072	u a ii i	-0.05183172
-0.1014576	uu a ii </s>
-0.90309	uu a ii a	-0.04855043
-0.1997552	<s> aa ii </s>
-0.8243964	<s> aa ii a	-0.1845793
-1.041393	<s> aa ii aa	0.1356627
-1.569667	<s> aa ii ei	0.1191864
-1.597695	<s> aa ii i	0.1191864
-1.431364	<s> aa ii ii	0.208276
-1.597695	<s> aa ii oo	0.4086637
-0.04255235	a aa ii </s>
-1.352183	a aa ii a	-0.06366903
-1.750123	a aa ii aa	-0.1865567
-2.352183	a aa ii au	0
-2.352183	a aa ii i	-0.20412
-1.875061	a aa ii oo	0.6127838
-0.06407383	aa aa ii </s>
-1.354108	aa aa ii a	-0.4827984
-1.575957	aa aa ii ei	-0.2253093
-1.876987	aa aa ii i	-0.20412
-1.50901	aa aa ii oo	0.7096938
-0.1684044	ai aa ii </s>
-0.9700368	ai aa ii a	-0.04346573
-0.9700368	ai aa ii ii	-0.2575643
-0.1918855	au aa ii </s>
-0.6690068	au aa ii aa	-0.11961
-0.1151348	ei aa ii </s>
-1.386202	ei aa ii a	-0.04346573
-1.018225	ei aa ii ii	-0.5585943
-1.386202	ei aa ii oo	1.010724
-0.03349962	i aa ii </s>
-1.359836	i aa ii a	0.06126964
-1.882714	i aa ii ii	-0.2575643
-0.30103	ii aa ii </s>
-0.7983546	ii aa ii aa	-0.4206399
-1.166331	ii aa ii ii	-0.2575643
-1.166331	ii aa ii oo	1.010724
-1.166331	ii aa ii u	-0.30103
-0.01848341	oo aa ii </s>
-0.01370128	u aa ii </s>
-1.729705	u aa ii a	-0.04346573
-0.2632414	uu aa ii </s>
-0.5642715	uu aa ii oo	1.010724
-0.08914464	<s> ai ii </s>
-1.032529	<s> ai ii a	0.1047354
-1.20862	<s> ai ii i	0
-0.06694679	a ai ii </s>
-0.1249387	ai ai ii a	-0.154902
-0.02482358	i ai ii </s>
-0.06694679	oo ai ii </s>
-0.2905646	<s> au ii </s>
-0.8346326	<s> au ii aa	0
-1.135663	<s> au ii ei	0
-1.135663	<s> au ii ii	0
-1.135663	<s> au ii oo	0.243038
-0.03476211	a au ii </s>
-0.02996322	aa au ii </s>
-0.04575749	i au ii </s>
-0.05799195	oo au ii </s>
-0.30103	u au ii oo	0.243038
-0.2845832	<s> ei ii </s>
-1.176091	<s> ei ii a	-0.5228788
-0.9107768	<s> ei ii aa	0.03218436
-1.977724	<s> ei ii au	0
-0.9634832	<s> ei ii ei	0
-1.977724	<s> ei ii i	0
-0.9924468	<s> ei ii ii	0.07683992
-1.500602	<s> ei ii oo	0.1047354
-0.08009651	a ei ii </s>
-1.199572	a ei ii a	0.5740314
-1.500602	a ei ii aa	-0.30103
-1.500602	a ei ii ii	0.2671717
-0.008272526	aa ei ii </s>
-0.04139268	ai ei ii </s>
-0.05799195	au ei ii </s>
-0.01703334	ei ei ii </s>
-0.01336396	i ei ii </s>
-0.03218468	ii ei ii </s>
-0.1918855	oo ei ii </s>
-0.6690068	oo ei ii oo	-0.154902
-0.1918855	u ei ii </s>
-0.6690068	u ei ii a	0.1760913
-0.1249387	uu ei ii ii	0.2671717
-0.1366771	<s> i ii </s>
-0.8643374	<s> i ii a	0.1589234
-1.522879	<s> i ii aa	0.1760913
-1.632023	<s> i ii ei	-0.3467875
-2	<s> i ii i	-0.3136191
-1.477121	<s> i ii ii	0.1047354
-2	<s> i ii uu	0
-0.1388745	a i ii </s>
-0.8637803	a i ii a	-0.2568263
-1.500602	a i ii aa	-0.30103
-1.199572	a i ii i	-0.4130037
-0.05904478	aa i ii </s>
-1.11764	aa i ii ei	0.2138798
-1.594761	aa i ii ii	0.544068
-0.2632414	ai i ii </s>
-0.5642715	ai i ii aa	-0.30103
-0.1413292	ei i ii </s>
-0.7781513	ei i ii a	-0.5578563
-0.06871581	i i ii </s>
-1.135663	i i ii i	-0.5177391
-0.04139268	ii i ii </s>
-0.03476211	oo i ii </s>
-0.4259687	u i ii </s>
-0.4259687	u i ii a	0.2872417
-0.04139268	uu i ii </s>
-0.2169963	<s> ii ii </s>
-1.171239	<s> ii ii a	-0.5818566
-1.773299	<s> ii ii aa	0
-0.9951475	<s> ii ii ei	0.1139433
-1.405322	<s> ii ii i	-0.7727562
-1.296178	<s> ii ii ii	0.3203353
-1.472269	<s> ii ii oo	0
-1.405322	<s> ii ii uu	0
-0.187798	a ii ii </s>
-0.7690079	a ii ii a	-0.9423839
-1.496007	a ii ii ei	0.1139433
-0.9731278	a ii ii i	-0.4929155
-0.2615215	aa ii ii </s>
-1.146128	aa ii ii ei	0.1139433
-0.845098	aa ii ii i	-0.3168242
-0.845098	aa ii ii ii	0.458638
-0.1249387	au ii ii </s>
-0.06305175	ei ii ii </s>
-1.09108	ei ii ii a	-0.3388186
-0.03218468	i ii ii </s>
-0.1856366	ii ii ii </s>
-0.5835766	ii ii ii ii	-0.3864602
-0.04575749	oo ii ii </s>
-0.1249387	u ii ii </s>
-0.09865534	<s> oo ii </s>
-1.157898	<s> oo ii a	0.1461281
-1.79472	<s> oo ii aa	0.39794
-1.426744	<s> oo ii ei	0.2430381
-1.79472	<s> oo ii i	0
-1.49369	<s> oo ii ii	0.154902
-0.1147196	a oo ii </s>
-1.271067	a oo ii a	0.02118927
-1.271067	a oo ii aa	0.39794
-1.271067	a oo ii ei	0.544068
-0.1119738	aa oo ii </s>
-0.8653014	aa oo ii a	0.02118927
-0.1249387	au oo ii </s>
-0.1918855	i oo ii </s>
-0.6690068	i oo ii aa	0.39794
-0.4259687	ii oo ii ei	0.544068
-0.4259687	ii oo ii ii	0.39794
-0.03476211	oo oo ii </s>
-0.06694679	u oo ii </s>
-0.1249387	uu oo ii </s>
-0.1637073	<s> u ii </s>
-1.041393	<s> u ii a	0.136838
-0.9214174	<s> u ii aa	0.03891814
-1.269872	<s> u ii ei	0
-1.906694	<s> u ii i	0
-1.906694	<s> u ii oo	0
-0.05799195	a u ii </s>
-1.012234	a u ii a	-0.7150995
-0.05799195	aa u ii </s>
-1.124939	aa u ii ii	0
-0.02632894	au u ii </s>
-0.1249387	ei u ii a	-0.4140695
-0.4259687	ii u ii </s>
-0.4259687	ii u ii aa	-0.05799198
-0.05799195	oo u ii </s>
-0.06694679	u u ii </s>
-0.07651685	<s> uu ii </s>
-1.335792	<s> uu ii a	0
-1.268845	<s> uu ii ei	0
-1.636822	<s> uu ii oo	0
-0.007825337	a uu ii </s>
-0.01523997	aa uu ii </s>
-0.1249387	ei uu ii </s>
-0.04139268	u uu ii </s>
-0.05799195	<s> a o aa	0
-0.1249387	a a o a	0
-0.05799195	ei a o ei	0
-0.1249387	<s> ai o- ei	0
-0.3039545	<s> a oo </s>
-0.7418225	<s> a oo a	-0.06763196
-1.046081	<s> a oo aa	-0.2127694
-1.328088	<s> a oo ei	0.09231412
-0.9745292	<s> a oo i	0.01489139
-1.303955	<s> a oo ii	0.1354041
-1.917914	<s> a oo oo	0.1047354
-2.395035	<s> a oo u	-0.39794
-0.06319314	a a oo </s>
-1.09297	a a oo a	-0.328158
-1.80618	a a oo aa	-0.4549324
-1.80618	a a oo ii	-0.2108533
-2.10721	a a oo oo	-0.359022
-0.02227639	aa a oo </s>
-1.937852	aa a oo a	-0.3906814
-1.937852	aa a oo aa	-0.4754541
-1.937852	aa a oo u	-0.39794
-0.2552725	ai a oo </s>
-0.6532125	ai a oo ei	0.0700379
-0.9542425	ai a oo ii	0.03218466
-0.04575749	au a oo </s>
-0.09368104	ei a oo </s>
-1.348954	ei a oo aa	-0.5710258
-1.348954	ei a oo au	0
-1.348954	ei a oo ii	0.03218466
-0.06214791	i a oo </s>
-1.176091	i a oo a	-0.3798111
-1.477121	i a oo ei	-0.2087158
-0.08218676	ii a oo </s>
-0.9852768	ii a oo i	-0.3058825
-0.03476211	oo a oo </s>
-0.1010266	u a oo </s>
-1.247155	u a oo aa	-0.09188923
-1.247155	u a oo ii	0.03218466
-0.01424044	uu a oo </s>
-0.1920246	<s> aa oo </s>
-0.906861	<s> aa oo a	-0.1331075
-1.586087	<s> aa oo aa	0.1890563
-1.261576	<s> aa oo ei	0.154902
-1.540329	<s> aa oo i	-0.3089989
-1.2393	<s> aa oo ii	0
-1.33621	<s> aa oo oo	0
-0.03976713	a aa oo </s>
-1.30103	a aa oo a	-0.3576454
-2.028029	a aa oo ei	-0.02802873
-2.028029	a aa oo i	0.1303337
-0.00415596	aa aa oo </s>
-0.04575749	ai aa oo </s>
-0.3679768	au aa oo </s>
-0.3222193	au aa oo a	-0.5054935
-0.04575749	ei aa oo </s>
-1.221849	ei aa oo i	-0.5509075
-0.02547082	i aa oo </s>
-1.721536	i aa oo aa	-0.2747011
-1.721536	i aa oo ei	-0.50515
-0.1908145	ii aa oo </s>
-1.176091	ii aa oo a	-0.0661608
-1.176091	ii aa oo aa	-0.4130038
-0.8750613	ii aa oo i	-0.1127043
-0.1014576	oo aa oo </s>
-0.90309	oo aa oo a	-0.0661608
-0.03987151	u aa oo </s>
-1.278754	u aa oo ei	-0.02802873
-0.2632414	uu aa oo </s>
-0.5642715	uu aa oo i	0.1303337
-0.275368	<s> ai oo </s>
-1.282547	<s> ai oo a	0
-1.060698	<s> ai oo aa	0
-1.282547	<s> ai oo ei	0
-0.6457245	<s> ai oo i	0
-0.1249387	aa ai oo </s>
-0.1249387	ei ai oo </s>
-0.1249387	i ai oo </s>
-0.05799195	oo ai oo </s>
-0.2340832	<s> au oo </s>
-1.20412	<s> au oo ei	0
-0.6812412	<s> au oo i	0
-1.20412	<s> au oo ii	0
-0.1249387	i au oo </s>
-0.1822341	<s> ei oo </s>
-1.25042	<s> ei oo aa	0
-1.405322	<s> ei oo au	0
-0.8886921	<s> ei oo ei	-0.3058289
-1.074329	<s> ei oo i	0.01772875
-0.1962947	a ei oo </s>
-0.6434527	a ei oo a	0
-1.166331	a ei oo ei	-0.5563025
-0.02482358	aa ei oo </s>
-0.03218468	ai ei oo </s>
-0.3679768	ei ei oo </s>
-0.544068	ei ei oo i	-0.07918125
-0.845098	ei ei oo u	0
-0.1180993	i ei oo </s>
-0.845098	i ei oo ai	0
-0.1249387	oo ei oo </s>
-0.06694679	u ei oo </s>
-0.05799195	uu ei oo </s>
-0.2743153	<s> i oo </s>
-0.9400444	<s> i oo a	0.2357631
-1.1581	<s> i oo aa	0
-2.042707	<s> i oo ai	0
-1.741677	<s> i oo au	0.154902
-2.042707	<s> i oo e	0
-1.343737	<s> i oo ei	-0.1026624
-1.177405	<s> i oo i	-0.2754759
-1.565585	<s> i oo ii	0.1047354
-1.177405	<s> i oo oo	0
-2.042707	<s> i oo u	0.243038
-0.09871581	a i oo </s>
-1.205926	a i oo a	-0.4403985
-1.020289	a i oo i	-0.393784
-1.904896	a i oo ii	-0.154902
-1.904896	a i oo u	0.243038
-0.04372332	aa i oo </s>
-1.436285	aa i oo a	-0.8450981
-2.073107	aa i oo ei	-0.5563025
-1.772077	aa i oo i	-0.4461721
-1.70513	aa i oo uu	0
-0.08218676	ai i oo </s>
-0.9852768	ai i oo i	-0.5016895
-0.1249387	au i oo </s>
-0.06775179	ei i oo </s>
-1.109144	ei i oo ei	-0.7269987
-1.477121	ei i oo i	-0.5585943
-0.02659777	i i oo </s>
-1.5272	i i oo a	-0.30103
-0.03476211	ii i oo </s>
-0.0467434	oo i oo </s>
-1.213075	oo i oo au	0.39794
-0.009984221	u i oo </s>
-0.02632894	uu i oo </s>
-0.07255067	<s> ii oo </s>
-1.414973	<s> ii oo aa	0.20412
-1.113943	<s> ii oo ii	0
-0.008272526	a ii oo </s>
-0.01072387	aa ii oo </s>
-0.06694679	au ii oo </s>
-0.1918855	ei ii oo </s>
-0.6690068	ei ii oo i	0
-0.4259687	ii ii oo </s>
-0.4259687	ii ii oo u	0
-0.2218488	u ii oo aa	0
-0.1249387	uu ii oo </s>
-0.1249387	<s> o oo </s>
-0.1110401	<s> oo oo </s>
-1.260601	<s> oo oo a	0
-1.436693	<s> oo oo aa	0
-1.214844	<s> oo oo ei	0
-1.737723	<s> oo oo ii	0.5118833
-1.737723	<s> oo oo oo	0
-0.3679768	a oo oo </s>
-0.3679768	a oo oo ii	0.2688453
-0.05115252	aa oo oo </s>
-0.2839966	i oo oo </s>
-0.6197888	i oo oo i	-0.30103
-0.9208187	i oo oo ii	0.5118833
-0.1249387	oo oo oo i	-0.4771213
-0.06694679	u oo oo </s>
-0.2612629	<s> u oo </s>
-0.9339039	<s> u oo a	0.06366909
-1.319255	<s> u oo aa	0
-0.9602329	<s> u oo i	0.06366909
-1.386202	<s> u oo ii	0
-1.386202	<s> u oo oo	0
-1.386202	<s> u oo u	0
-0.09231426	a u oo </s>
-1.194977	a u oo a	-0.2138799
-1.194977	a u oo i	-0.2138799
-0.0211893	aa u oo </s>
-0.03218468	i u oo </s>
-0.1249387	oo u oo </s>
-0.04139268	u u oo </s>
-0.3347131	<s> uu oo </s>
-1.348954	<s> uu oo a	0
-0.9809768	<s> uu oo aa	-0.6532125
-1.348954	<s> uu oo ai	0
-1.348954	<s> uu oo ei	0
-0.8260748	<s> uu oo i	0
-1.348954	<s> uu oo ii	0
-0.148939	a uu oo </s>
-0.6462637	a uu oo aa	-0.6532125
-0.04139268	aa uu oo </s>
-0.06694679	i uu oo </s>
-0.04139268	u uu oo </s>
-0.6983165	<s> a u </s>
-0.5994516	<s> a u a	-0.05811143
-0.6791533	<s> a u aa	0.09571874
-2.345047	<s> a u au	0
-1.618048	<s> a u ei	-0.1823402
-1.123198	<s> a u i	0.04420382
-1.114598	<s> a u ii	0.1330565
-1.178715	<s> a u oo	0
-1.2781	<s> a u u	0.0621478
-1.618048	<s> a u uu	0
-0.237643	a a u </s>
-0.6837301	a a u a	-0.4643946
-0.9420081	a a u aa	-0.904876
-1.191885	a a u ii	-0.09691
-0.4168254	aa a u </s>
-0.7178553	aa a u a	-0.4137206
-0.4416489	aa a u aa	-0.9296995
-0.8016323	ai a u </s>
-0.4336556	ai a u ii	0
-0.5006024	ai a u u	-0.3960055
-0.1249387	au a u </s>
-0.30103	ei a u </s>
-0.5228788	ei a u a	-0.5304649
-0.3832167	i a u </s>
-0.462398	i a u a	-0.7267596
-0.9852768	i a u i	-0.4724261
-0.05799195	ii a u </s>
-0.3187588	u a u </s>
-0.9208187	u a u aa	-0.07236707
-0.9208187	u a u ei	-0.5413622
-0.9208187	u a u i	-0.5578563
-0.4259687	uu a u </s>
-0.4259687	uu a u ii	0.30103
-0.4124178	<s> aa u </s>
-0.871516	<s> aa u a	-0.1380717
-0.7439371	<s> aa u aa	0.2440538
-2.007179	<s> aa u ai	0
-1.205546	<s> aa u ei	0.05551732
-1.104089	<s> aa u i	0.1706961
-1.141877	<s> aa u ii	0.2218488
-1.4843	<s> aa u oo	0.2808266
-2.007179	<s> aa u uu	-0.5177391
-0.3692158	a aa u </s>
-1.113943	a aa u a	-0.6077371
-0.8920946	a aa u aa	-0.02752101
-0.9542425	a aa u i	-0.7201593
-1.290035	a aa u ii	0.05799198
-1.068186	a aa u u	0
-1.290035	a aa u uu	-0.3136191
-0.5642715	aa aa u </s>
-0.7403627	aa aa u aa	-0.4689268
-0.6734159	aa aa u ii	0
-0.7403627	aa aa u uu	-0.3136191
-0.4259687	ei aa u </s>
-0.2662679	ei aa u aa	-0.7699568
-0.3129292	i aa u </s>
-0.6139592	i aa u aa	-0.6238288
-1.09108	i aa u ei	-0.1583625
-1.09108	i aa u ii	0.30103
-0.4771213	ii aa u </s>
-0.2552725	ii aa u oo	0.2808266
-0.4259687	oo aa u </s>
-0.4259687	oo aa u aa	-0.2258888
-0.03218468	u aa u </s>
-0.9852768	<s> ai u </s>
-0.6173	<s> ai u a	0
-0.9852768	<s> ai u aa	0
-0.9852768	<s> ai u e	0
-0.6173	<s> ai u ei	0
-0.9378521	<s> au u </s>
-0.5698753	<s> au u a	0
-0.30103	<s> au u ii	0.0843209
-0.1249387	u au u ii	0.6283889
-0.4171233	<s> ei u </s>
-0.8293038	<s> ei u a	0
-1.431364	<s> ei u aa	0.39794
-0.4935117	<s> ei u ei	0
-1.431364	<s> ei u ii	0
-0.06694679	a ei u </s>
-0.1249387	aa ei u </s>
-0.2218488	ei ei u aa	0.39794
-0.2218488	i ei u aa	0.39794
-0.1249387	u ei u </s>
-0.1249387	uu ei u </s>
-0.3832167	<s> i u </s>
-0.6842467	<s> i u a	0.03778851
-1.207126	<s> i u aa	0.1047353
-0.9852768	<s> i u ei	0.1918856
-1.082187	<s> i u i	0.07918125
-1.047425	<s> i u oo	0
-0.1836444	a i u </s>
-0.9852768	a i u aa	0.243038
-0.9852768	a i u i	-0.4259688
-0.1014576	aa i u </s>
-0.90309	aa i u a	-0.3467875
-0.05799195	ai i u ei	-0.5351132
-0.1249387	ei i u ei	-0.2340832
-0.04139268	i i u </s>
-0.05799195	oo i u </s>
-0.6532125	<s> ii u </s>
-0.9542425	<s> ii u a	0.243038
-0.9542425	<s> ii u aa	-0.20412
-0.5862657	<s> ii u ei	0
-0.9542425	<s> ii u ii	-0.39794
-0.2284793	a ii u </s>
-0.8653014	a ii u a	0.243038
-0.8653014	a ii u ii	-0.39794
-0.30103	aa ii u i	0
-0.4913617	<s> oo u </s>
-0.6462637	<s> oo u aa	0
-0.6462637	<s> oo u ii	0
-1.01424	<s> oo u u	0
-0.4259687	a oo u </s>
-0.4259687	a oo u a	0
-0.1249387	ei oo u </s>
-0.06694679	i oo u </s>
-0.1249387	ii oo u </s>
-0.4259687	u oo u </s>
-0.4259687	u oo u oo	0
-0.621123	<s> u u </s>
-1.008068	<s> u u a	0
-0.6101276	<s> u u aa	0.02743828
-1.133006	<s> u u ei	0
-1.098244	<s> u u i	0.146128
-0.9111576	<s> u u oo	0
-1.008068	<s> u u u	-0.389971
-0.1908145	a u u </s>
-1.176091	a u u aa	-0.3268373
-1.176091	a u u i	-0.3212334
-0.8750613	a u u ii	0
-0.04139268	aa u u </s>
-0.1249387	oo u u </s>
-0.2284793	u u u </s>
-0.8653014	u u u i	-0.359022
-0.8653014	u u u u	-0.5383909
-0.1249387	<s> uu u aa	0
-0.3082086	<s> a uu </s>
-1.072119	<s> a uu a	-0.316635
-0.873285	<s> a uu aa	0
-1.563481	<s> a uu ei	0.1047354
-1.148508	<s> a uu i	0.04275203
-1.007179	<s> a uu ii	0.1799864
-1.148508	<s> a uu oo	0.04420376
-0.2272438	a a uu </s>
-0.7945417	a a uu a	-0.09193844
-0.704365	a a uu ii	0.5177391
-0.2552725	aa a uu </s>
-0.6532125	aa a uu a	-0.3784422
-0.9542425	aa a uu i	-0.2108534
-0.4259687	ai a uu a	-0.1354042
-0.4259687	ai a uu uu	0
-0.4259687	au a uu </s>
-0.4259687	au a uu a	-0.1354042
-0.5835766	ei a uu </s>
-0.5166298	ei a uu a	-0.4364342
-0.8846066	ei a uu ei	0.544068
-0.8846066	ei a uu oo	-0.06494081
-0.39794	i a uu </s>
-0.3309932	i a uu a	-0.4364342
-0.1249387	ii a uu </s>
-0.3590219	oo a uu </s>
-0.3590219	oo a uu a	-0.8643374
-0.2218488	u a uu ii	1.146128
-0.1249387	uu a uu </s>
-0.260125	<s> aa uu </s>
-1.095572	<s> aa uu a	0.5942346
-1.130334	<s> aa uu aa	0
-1.732394	<s> aa uu ei	0
-1.209515	<s> aa uu i	-0.4536402
-0.9542425	<s> aa uu ii	0.1836444
-1.209515	<s> aa uu oo	0
-0.2575643	a aa uu </s>
-0.4336556	a aa uu a	0.2779646
-1.403692	a aa uu ii	0.860338
-0.02802872	aa aa uu </s>
-0.05799195	ei aa uu </s>
-0.2466723	i aa uu </s>
-1	i aa uu a	1.138303
-0.6320232	i aa uu ii	0.5593081
-0.60206	oo aa uu </s>
-0.2340832	oo aa uu i	-0.7035177
-0.4771213	u aa uu </s>
-0.2552725	u aa uu a	0.69897
-0.1249387	uu aa uu </s>
-0.3590219	<s> ai uu </s>
-0.7269987	<s> ai uu a	0
-0.7269987	<s> ai uu ei	0
-0.5228788	<s> au uu </s>
-0.5228788	<s> au uu ei	0
-0.4771213	<s> ei uu </s>
-0.9542425	<s> ei uu a	0
-0.8872957	<s> ei uu aa	0
-0.8872957	<s> ei uu ei	0
-0.8872957	<s> ei uu i	0
-1.255273	<s> ei uu ii	0
-0.05799195	a ei uu </s>
-0.1249387	i ei uu </s>
-0.1249387	u ei uu </s>
-0.1949766	<s> i uu </s>
-0.8269998	<s> i uu a	0.5282737
-0.8939466	<s> i uu oo	0
-0.6320232	a i uu </s>
-0.3631779	a i uu a	0.2852356
-0.6320232	a i uu i	0
-0.1760913	aa i uu </s>
-0.1249387	ai i uu </s>
-0.07918125	i i uu </s>
-0.1249387	oo i uu </s>
-0.2218488	u i uu a	0.8293037
-0.4771213	uu i uu </s>
-0.4771213	uu i uu a	0.8293037
-0.03476211	<s> ii uu </s>
-0.1249387	a ii uu </s>
-0.1249387	i ii uu </s>
-0.05799195	ii ii uu </s>
-0.2218488	<s> oo uu </s>
-0.05799195	i oo uu </s>
-0.3679768	<s> u uu </s>
-1.066947	<s> u uu a	0
-1.066947	<s> u uu aa	0.243038
-0.544068	<s> u uu oo	0
-0.845098	a u uu aa	0.243038
-0.845098	a u uu i	-0.07058108
-0.3222193	a u uu ii	0
-0.7533277	aa u uu </s>
-0.1512677	aa u uu i	0.0843209
-0.04830468	<s> uu uu </s>
-0.1249387	a uu uu </s>

\5-grams:
-0.4374181	<s> a a a </s>
-0.8728284	<s> a a a a	0.1314697
-0.7112958	<s> a a a aa	0.07658815
-1.240805	<s> a a a ei	0.08432078
-1.1329	<s> a a a i	-0.4825163
-1.012326	<s> a a a ii	0.08543038
-2.354748	<s> a a a o	0
-1.340508	<s> a a a oo	0
-2.053719	<s> a a a u	0.3521825
-2.354748	<s> a a a uu	0
-0.2697723	a a a a </s>
-1.047924	a a a a a	-0.184649
-0.8048855	a a a a aa	-0.7013043
-1.649984	a a a a ei	-0.1955198
-1.172862	a a a a i	0.1249387
-1.172862	a a a a ii	-0.3309932
-0.1638568	aa a a a </s>
-1.066947	aa a a a i	-0.2787536
-1.066947	aa a a a ii	-0.5351132
-0.06694679	ai a a a </s>
-0.06694679	au a a a a	-0.199231
-0.4771213	ei a a a </s>
-0.6320232	ei a a a a	-0.5683769
-1	ei a a a aa	-0.5861694
-0.69897	ei a a a ei	-0.4385578
-0.4232459	i a a a </s>
-0.7242759	i a a a a	-0.2638302
-1.247155	i a a a aa	-0.2931574
-1.247155	i a a a i	-0.2787536
-1.247155	i a a a ii	0.06694674
-0.8791778	i a a a u	-0.5509075
-0.04139268	ii a a a </s>
-0.2218488	u a a a </s>
-0.6478175	u a a a i	-0.9481683
-1.124939	u a a a u	-0.4259688
-0.3406106	<s> aa a a </s>
-1.026518	<s> aa a a a	0.03891808
-0.8046694	<s> aa a a aa	0.04830474
-1.679731	<s> aa a a ei	0
-0.9138138	<s> aa a a i	0
-1.281791	<s> aa a a ii	0.1918856
-1.980761	<s> aa a a oo	0
-1.457882	<s> aa a a u	0.2138798
-1.679731	<s> aa a a uu	0
-0.09247085	a aa a a </s>
-1.386202	a aa a a a	-0.09938467
-1.085172	a aa a a aa	-0.2441251
-0.09691001	aa aa a a </s>
-0.7781513	aa aa a a ii	-0.1091444
-0.1249387	au aa a a </s>
-0.2340832	ei aa a a </s>
-0.60206	ei aa a a au	0
-0.1335389	i aa a a </s>
-0.6863809	i aa a a u	0.3521825
-0.1249387	ii aa a a </s>
-0.1249387	oo aa a a </s>
-0.06214791	u aa a a </s>
-0.1346986	<s> ai a a </s>
-0.69897	<s> ai a a a	0
-0.1249387	aa ai a a </s>
-0.3617278	<s> au a a </s>
-0.8846066	<s> au a a a	0.243038
-0.8846066	<s> au a a i	0
-0.8846066	<s> au a a ii	0
-0.1249387	a au a a a	0.243038
-0.4079242	<s> ei a a </s>
-0.7403627	<s> ei a a a	0.09691006
-1.564271	<s> ei a a aa	0
-1.564271	<s> ei a a au	0
-0.8372727	<s> ei a a ei	0.06694686
-1.564271	<s> ei a a i	0
-1.041393	<s> ei a a ii	0
-1.564271	<s> ei a a u	0
-0.03218468	a ei a a </s>
-0.1249387	aa ei a a </s>
-0.06694679	ei ei a a a	-0.2710668
-0.03218468	i ei a a </s>
-0.1760913	u ei a a </s>
-0.69897	u ei a a ei	0.02118927
-0.3348366	<s> i a a </s>
-0.8508759	<s> i a a a	-0.2234845
-0.743242	<s> i a a aa	-0.2138798
-1.510928	<s> i a a ei	0
-1.878905	<s> i a a i	-0.09691003
-1.401783	<s> i a a ii	0.1047354
-1.276845	<s> i a a oo	0.4045706
-1.356026	<s> i a a u	0.1047354
-0.2275074	a i a a </s>
-1.167739	a i a a a	-0.6973281
-1.234686	a i a a aa	-0.1839166
-1.535716	a i a a i	-0.30103
-1.535716	a i a a ii	0.049218
-0.8988939	a i a a oo	0.3723859
-1.535716	a i a a u	0.544068
-0.2263964	aa i a a </s>
-0.6600519	aa i a a oo	0.6154239
-1.028029	aa i a a uu	0
-0.2218488	ai i a a i	-0.4771213
-0.1249387	ei i a a aa	-0.2419086
-0.4259687	i i a a </s>
-0.3590219	i i a a a	-0.841572
-0.06694679	oo i a a </s>
-0.1249387	u i a a </s>
-0.06694679	<s> ii a a </s>
-1.146128	<s> ii a a ii	-0.39794
-0.08894108	a ii a a </s>
-0.9542425	a ii a a ii	-0.39794
-0.3424227	aa ii a a </s>
-0.3424227	aa ii a a a	0
-0.1249387	ai ii a a </s>
-0.1249387	ei ii a a </s>
-0.06694679	i ii a a </s>
-0.02632894	ii ii a a </s>
-0.06694679	u ii a a </s>
-0.1663314	<s> oo a a </s>
-0.8653014	<s> oo a a ii	0
-0.06694679	a oo a a </s>
-0.1249387	aa oo a a </s>
-0.1249387	i oo a a </s>
-0.4250923	<s> u a a </s>
-0.8952646	<s> u a a a	-0.146128
-0.9622114	<s> u a a aa	-0.1810547
-1.740363	<s> u a a ei	0
-0.9622114	<s> u a a i	0.05551738
-1.263241	<s> u a a ii	-0.1383027
-0.8025106	<s> u a a oo	0.04275197
-1.09108	a u a a </s>
-0.4890205	a u a a a	-0.08813608
-0.7900504	a u a a aa	-0.04275197
-1.09108	a u a a i	-0.3180633
-1.09108	a u a a oo	-0.05115253
-1.09108	a u a a u	-0.4771213
-0.06214791	aa u a a </s>
-0.1249387	ei u a a </s>
-0.60206	i u a a a	-0.5682018
-0.2340832	i u a a u	-0.5228788
-0.30103	<s> uu a a </s>
-0.50515	<s> uu a a aa	0
-1.028029	<s> uu a a ii	0
-0.4259687	a uu a a </s>
-0.4259687	a uu a a oo	0
-0.2825466	<s> a aa a </s>
-1.015885	<s> a aa a a	0.1151348
-0.8601328	<s> a aa a aa	-0.1605953
-2.246334	<s> a aa a ei	-0.39794
-1.191977	<s> a aa a i	0
-1.100206	<s> a aa a ii	0.02864528
-1.132391	<s> a aa a oo	0.1760913
-2.246334	<s> a aa a u	0
-0.1134444	a a aa a </s>
-0.9852768	a a aa a aa	-0.297659
-1.462398	a a aa a ii	0.1669478
-1.462398	a a aa a oo	1.176091
-0.1918855	aa a aa a </s>
-0.6690068	aa a aa a aa	-0.1950719
-0.1249387	ei a aa a </s>
-0.4913617	i a aa a </s>
-0.4913617	i a aa a a	-0.3241978
-1.01424	i a aa a aa	-0.1950719
-1.01424	i a aa a oo	1.176091
-0.1249387	ii a aa a </s>
-0.5392691	u a aa a </s>
-0.8081145	u a aa a a	-0.1858951
-1.176091	u a aa a aa	-0.1950719
-1.176091	u a aa a ei	-0.39794
-0.5070845	u a aa a oo	0.60206
-0.1249387	uu a aa a </s>
-0.3233064	<s> aa aa a </s>
-0.5808707	<s> aa aa a a	0.1346985
-1.726999	<s> aa aa a aa	-0.154902
-1.249877	<s> aa aa a i	0
-1.726999	<s> aa aa a ii	0
-1.090177	<s> aa aa a oo	0
-1.726999	<s> aa aa a u	0.243038
-1.726999	<s> aa aa a uu	0
-0.1616616	a aa aa a </s>
-0.8692317	a aa aa a a	-0.3424227
-0.9149892	a aa aa a aa	0.1047354
-0.1413292	aa aa aa a </s>
-0.7781513	aa aa aa a u	0.243038
-0.1249387	ei aa aa a a	-0.5228788
-0.07135591	i aa aa a </s>
-1.041393	i aa aa a a	0.09691
-0.04575749	oo aa aa a </s>
-0.06694679	u aa aa a </s>
-0.03218468	<s> ai aa a </s>
-0.4259687	<s> au aa a </s>
-0.7269987	<s> au aa a a	0
-0.7269987	<s> au aa a aa	0
-0.236572	<s> ei aa a </s>
-0.69897	<s> ei aa a a	0
-1.221849	<s> ei aa a aa	0
-1.221849	<s> ei aa a ii	0
-0.02020339	a ei aa a </s>
-0.39794	i ei aa a </s>
-0.3309932	i ei aa a oo	0
-0.2750644	<s> i aa a </s>
-1.045529	<s> i aa a a	0.2092597
-1.546131	<s> i aa a aa	-0.3233064
-1.847161	<s> i aa a ei	0
-1.023252	<s> i aa a ii	-0.6232492
-0.7928035	<s> i aa a oo	0.1549021
-1.324282	<s> i aa a u	0
-0.2388821	a i aa a </s>
-1.113943	a i aa a a	-0.02482361
-1.113943	a i aa a aa	-0.2331297
-1.414973	a i aa a ii	-0.5465427
-0.8129134	a i aa a oo	0.5850267
-0.1249387	aa i aa a </s>
-0.0854302	i i aa a </s>
-0.9700368	i i aa a oo	1.09691
-0.1249387	oo i aa a aa	-0.4372498
-0.7533277	u i aa a </s>
-0.3853509	u i aa a a	-0.3258536
-0.7533277	u i aa a i	0
-0.6197888	<s> ii aa a </s>
-0.39794	<s> ii aa a ii	0
-0.9208187	<s> ii aa a oo	0
-0.1249387	a ii aa a </s>
-0.04575749	aa ii aa a </s>
-0.05799195	ei ii aa a </s>
-0.1249387	i ii aa a a	0
-0.4284293	<s> oo aa a </s>
-1.293731	<s> oo aa a a	0
-1.293731	<s> oo aa a aa	0.4393327
-0.9927008	<s> oo aa a i	0
-0.6569086	<s> oo aa a ii	0
-0.9927008	<s> oo aa a oo	0
-0.1249387	a oo aa a </s>
-0.05799195	i oo aa a aa	0.1383027
-0.2668159	<s> u aa a </s>
-1.308209	<s> u aa a a	0.2730013
-0.9402318	<s> u aa a aa	0
-1.241262	<s> u aa a ei	0
-1.308209	<s> u aa a i	-0.5026754
-1.609239	<s> u aa a ii	0.243038
-1.132117	<s> u aa a oo	0.1139433
-1.609239	<s> u aa a uu	0
-0.243038	a u aa a </s>
-0.845098	a u aa a i	-0.4637573
-0.845098	a u aa a oo	0.5118833
-0.4259687	aa u aa a </s>
-0.4259687	aa u aa a ii	0.243038
-0.1249387	ii u aa a </s>
-0.1091445	u u aa a a	-0.02802873
-0.2632414	<s> uu aa a </s>
-0.5642715	<s> uu aa a aa	0
-0.06694679	a uu aa a </s>
-0.1249387	<s> a ai a </s>
-0.1249387	ei a ai a </s>
-0.1249387	oo a ai a </s>
-0.1249387	a aa ai a a	0
-0.04139268	<s> ai ai a </s>
-0.05799195	<s> ei ai a </s>
-0.05799195	<s> i ai a aa	0
-0.1249387	<s> a au a a	0
-0.1249387	au a au a </s>
-0.2611585	<s> a ei a </s>
-0.90309	<s> a ei a a	0
-1.062791	<s> a ei a aa	0.09691006
-1.539912	<s> a ei a ei	0
-1.539912	<s> a ei a i	0
-1.238882	<s> a ei a ii	0
-1.238882	<s> a ei a oo	0
-0.07135591	a a ei a </s>
-1.041393	a a ei a aa	-0.3802113
-0.1249387	aa a ei a </s>
-0.06694679	ei a ei a </s>
-0.03778856	i a ei a </s>
-0.1249387	ii a ei a </s>
-0.03950854	u a ei a </s>
-0.30103	<s> aa ei a </s>
-0.90309	<s> aa ei a a	0
-0.60206	<s> aa ei a ii	0
-0.06694679	a aa ei a </s>
-0.1249387	i aa ei a </s>
-0.1249387	ii aa ei a </s>
-0.02632894	<s> ai ei a </s>
-0.1249387	i ai ei a </s>
-0.1249387	au au ei a </s>
-0.6532125	<s> ei ei a </s>
-0.6532125	<s> ei ei a a	0
-0.9542425	<s> ei ei a aa	0
-0.9542425	<s> ei ei a ei	-0.39794
-0.9542425	<s> ei ei a uu	0
-0.03218468	a ei ei a </s>
-0.4259687	aa ei ei a </s>
-0.4259687	aa ei ei a ei	-0.39794
-0.1249387	ai ei ei a </s>
-0.1249387	au ei ei a </s>
-0.1249387	ii ei ei a </s>
-0.1249387	oo ei ei a </s>
-0.239976	<s> i ei a </s>
-0.9113625	<s> i ei a a	0
-1.247155	<s> i ei a aa	0.1383027
-1.548185	<s> i ei a ei	0
-1.247155	<s> i ei a ii	0
-1.180208	<s> i ei a oo	0
-1.548185	<s> i ei a u	0
-0.05435766	a i ei a </s>
-0.1413292	aa i ei a </s>
-0.7781513	aa i ei a aa	-0.2596374
-0.1249387	ai i ei a </s>
-0.04139268	ei i ei a </s>
-0.04575749	i i ei a </s>
-0.02632894	oo i ei a </s>
-0.2632414	<s> ii ei a </s>
-0.5642715	<s> ii ei a i	0
-0.06694679	a ii ei a </s>
-0.2632414	ei ii ei a </s>
-0.5642715	ei ii ei a u	0
-0.1249387	ii ii ei a </s>
-0.1918855	<s> oo ei a </s>
-0.6690068	<s> oo ei a oo	0
-0.60206	a oo ei a </s>
-0.60206	a oo ei a aa	0
-0.60206	a oo ei a i	0
-0.06694679	aa oo ei a </s>
-0.1249387	i oo ei a </s>
-0.1249387	oo oo ei a </s>
-0.4074853	<s> u ei a </s>
-0.6627578	<s> u ei a a	-0.5642715
-0.8846066	<s> u ei a aa	0
-0.8176598	<s> u ei a uu	0
-0.1249387	a u ei a </s>
-0.1249387	aa u ei a </s>
-0.06694679	ei u ei a </s>
-0.1413292	i u ei a </s>
-0.7781513	i u ei a a	-0.50515
-0.06694679	<s> uu ei a </s>
-0.1249387	au uu ei a </s>
-0.05799195	ei uu ei a </s>
-0.492745	<s> a i a </s>
-0.6593947	<s> a i a a	-0.0948571
-0.9466364	<s> a i a aa	0
-1.606688	<s> a i a ei	0.2218488
-1.004628	<s> a i a i	-0.3707877
-0.8835847	<s> a i a ii	0.0321846
-1.173033	<s> a i a oo	0.1091444
-0.3263358	a a i a </s>
-0.7700334	a a i a a	-0.1455252
-0.9461246	a a i a ei	0.02996325
-0.7700334	a a i a i	-0.39794
-0.5006024	aa a i a </s>
-0.5006024	aa a i a a	-0.3885633
-1.102662	aa a i a i	-0.5383909
-0.8016323	aa a i a oo	-0.1127043
-0.06694679	ei a i a </s>
-0.3716111	i a i a </s>
-0.4881167	i a i a a	-0.7565401
-1.124939	i a i a ii	-0.4412087
-1.124939	i a i a u	-0.4771213
-0.1249387	oo a i a </s>
-0.1760913	u a i a </s>
-0.6320232	u a i a u	-0.5228788
-0.22565	<s> aa i a </s>
-0.8229636	<s> aa i a a	0.09017664
-1.70757	<s> aa i a aa	0.243038
-1.70757	<s> aa i a ei	-0.39794
-1.230449	<s> aa i a i	0.1047354
-1.230449	<s> aa i a ii	0.1047354
-1.70757	<s> aa i a u	0
-1.70757	<s> aa i a uu	0
-0.2016454	a aa i a </s>
-1.066947	a aa i a a	-0.2108534
-1.066947	a aa i a aa	0.243038
-1.066947	a aa i a oo	0
-0.4259687	aa aa i a </s>
-0.4259687	aa aa i a ei	-0.39794
-0.06694679	ei aa i a </s>
-0.30103	i aa i a </s>
-0.7781513	i aa i a a	-0.2108534
-0.7781513	i aa i a ii	-0.154902
-0.1249387	ii aa i a </s>
-0.1249387	oo aa i a </s>
-0.2218488	u aa i a i	-0.359022
-0.2218488	<s> ai i a </s>
-1.221849	<s> ai i a a	-0.20412
-1.221849	<s> ai i a aa	0
-0.9208187	<s> ai i a i	0
-1.221849	<s> ai i a oo	0
-0.2218488	ai ai i a ei	0
-0.1249387	aa au i a i	0
-0.1060534	<s> ei i a </s>
-1.30103	<s> ei i a a	0
-1.30103	<s> ei i a ei	0.243038
-1.30103	<s> ei i a i	0
-0.04575749	a ei i a </s>
-0.06694679	aa ei i a </s>
-0.02632894	ai ei i a </s>
-0.1249387	ei ei i a ei	0.243038
-0.03476211	i ei i a </s>
-0.05799195	ii ei i a </s>
-0.02482358	oo ei i a </s>
-0.2596373	<s> i i a </s>
-0.90309	<s> i i a a	0.0901767
-1.425969	<s> i i a aa	0.39794
-1.057992	<s> i i a i	0
-0.90309	<s> i i a ii	0
-0.2839966	a i i a </s>
-0.6197888	a i i a aa	0.154902
-0.9208187	a i i a oo	0
-0.04139268	aa i i a </s>
-0.03218468	ei i i a </s>
-0.4259687	i i i a </s>
-0.4259687	i i i a a	-0.39794
-0.1249387	oo i i a </s>
-0.06694679	u i i a </s>
-0.1249387	uu i i a </s>
-0.4771213	<s> ii i a </s>
-0.2552725	<s> ii i a aa	0
-0.1249387	ai ii i a </s>
-0.30103	i ii i a oo	0
-0.30103	<s> oo i a </s>
-1.054358	<s> oo i a a	0.243038
-0.6863809	<s> oo i a aa	0
-1.054358	<s> oo i a ii	0
-0.06694679	a oo i a </s>
-0.1249387	aa oo i a </s>
-0.1249387	ai oo i a </s>
-0.4771213	ei oo i a a	0.243038
-0.4771213	ei oo i a oo	0
-0.06694679	i oo i a </s>
-0.1249387	oo oo i a </s>
-0.1249387	u oo i a </s>
-0.05799195	uu oo i a </s>
-0.30103	<s> u i a </s>
-1.221849	<s> u i a aa	0
-0.69897	<s> u i a i	0
-1.221849	<s> u i a ii	0
-1.221849	<s> u i a oo	0
-0.4259687	a u i a </s>
-0.4259687	a u i a a	0
-0.04575749	u u i a </s>
-0.5006024	<s> uu i a </s>
-0.8016323	<s> uu i a aa	0
-0.8016323	<s> uu i a i	0
-0.8016323	<s> uu i a oo	0
-0.1249387	a uu i a </s>
-0.05799195	aa uu i a </s>
-0.2296741	<s> a ii a </s>
-0.9465557	<s> a ii a a	0.1091444
-0.7067953	<s> a ii a aa	0.03571558
-1.748188	<s> a ii a ei	0
-1.748188	<s> a ii a ii	0
-1.748188	<s> a ii a oo	0
-0.09875415	a a ii a </s>
-0.9927008	a a ii a a	-0.1127043
-1.293731	a a ii a aa	0.2787536
-0.0234811	aa a ii a </s>
-0.1249387	ai a ii a </s>
-0.03218468	i a ii a </s>
-0.06694679	oo a ii a </s>
-0.03476211	u a ii a </s>
-0.1249387	uu a ii a </s>
-0.1424081	<s> aa ii a </s>
-0.968483	<s> aa ii a a	-0.5149099
-0.8893017	<s> aa ii a aa	0
-0.1962947	a aa ii a </s>
-1.041393	a aa ii a a	-0.3388186
-0.7403627	a aa ii a oo	0
-0.04139268	aa aa ii a </s>
-0.1249387	ai aa ii a </s>
-0.1249387	ei aa ii a </s>
-0.60206	i aa ii a </s>
-0.2340832	i aa ii a a	-0.6398486
-0.1249387	u aa ii a </s>
-0.2632414	<s> ai ii a </s>
-0.5642715	<s> ai ii a a	0
-0.1249387	ai ai ii a </s>
-0.02227639	<s> ei ii a </s>
-0.4259687	a ei ii a </s>
-0.4259687	a ei ii a a	0
-0.1249387	u ei ii a </s>
-0.05368486	<s> i ii a </s>
-1.156347	<s> i ii a a	0.243038
-0.03218468	a i ii a </s>
-0.1249387	ei i ii a a	0.243038
-0.1249387	u i ii a </s>
-0.06694679	<s> ii ii a </s>
-0.02632894	a ii ii a a	0
-0.1249387	ei ii ii a </s>
-0.1760913	<s> oo ii a </s>
-0.69897	<s> oo ii a aa	0
-0.1249387	a oo ii a </s>
-0.1249387	aa oo ii a </s>
-0.9542425	<s> u ii a </s>
-0.6532125	<s> u ii a a	0
-0.5862657	<s> u ii a aa	0
-0.9542425	<s> u ii a i	0
-0.9542425	<s> u ii a oo	0
-0.05799195	a u ii a </s>
-0.1249387	ei u ii a </s>
-0.06694679	<s> uu ii a </s>
-0.1249387	a a o a </s>
-0.1901777	<s> a oo a </s>
-1.672098	<s> a oo a a	0.243038
-0.9450991	<s> a oo a aa	0.1249387
-0.9450991	<s> a oo a i	0
-1.194977	<s> a oo a ii	0
-0.1890562	a a oo a </s>
-1.054358	a a oo a a	0.243038
-0.7533277	a a oo a aa	-0.4191293
-0.2218488	aa a oo a oo	0
-0.06694679	i a oo a </s>
-0.2313941	<s> aa oo a </s>
-0.5488145	<s> aa oo a aa	0
-1.185637	<s> aa oo a oo	0
-0.1413292	a aa oo a </s>
-0.7781513	a aa oo a a	0
-0.04139268	au aa oo a </s>
-0.1249387	ii aa oo a </s>
-0.1249387	oo aa oo a </s>
-0.06694679	<s> ai oo a </s>
-0.2340832	a ei oo a </s>
-0.60206	a ei oo a ii	0
-0.5542872	<s> i oo a </s>
-1.156347	<s> i oo a a	0
-0.7883704	<s> i oo a aa	-0.4259687
-1.156347	<s> i oo a i	0
-0.5195251	<s> i oo a ii	0
-0.2762064	a i oo a </s>
-0.4522977	a i oo a aa	0.2730013
-0.03218468	aa i oo a </s>
-0.1249387	i i oo a </s>
-0.2632414	<s> oo oo a </s>
-0.5642715	<s> oo oo a aa	0
-0.2787536	<s> u oo a </s>
-0.4336556	<s> u oo a i	0
-0.1249387	a u oo a </s>
-0.1249387	<s> uu oo a ii	0
-0.3807136	<s> a u a </s>
-0.8066823	<s> a u a a	-0.1721609
-0.6252623	<s> a u a aa	0
-1.158865	<s> a u a i	0
-1.061955	<s> a u a ii	0.07058108
-0.1434221	a a u a </s>
-1.028029	a a u a a	-0.5653372
-1.028029	a a u a ii	0
-0.2632414	aa a u a </s>
-0.5642715	aa a u a oo	0
-0.06694679	ei a u a </s>
-0.04139268	i a u a </s>
-0.8939466	<s> aa u a </s>
-0.5581545	<s> aa u a a	0
-0.8269998	<s> aa u a ei	0
-0.8939466	<s> aa u a i	0
-1.194977	<s> aa u a ii	0
-0.8939466	<s> aa u a u	0
-0.2632414	a aa u a </s>
-0.5642715	a aa u a oo	0
-0.05799195	<s> ai u a </s>
-0.05799195	<s> au u a </s>
-0.2218488	<s> ei u a </s>
-0.69897	<s> ei u a a	0
-0.4045706	<s> i u a </s>
-0.5185139	<s> i u a a	0
-0.6734159	<s> i u a i	0
-0.1249387	aa i u a </s>
-0.1249387	<s> ii u a </s>
-0.1249387	a ii u a </s>
-0.1249387	a oo u a </s>
-0.8239087	<s> u u a </s>
-0.30103	<s> u u a aa	0
-0.8239087	<s> u u a oo	0
-0.2092596	<s> a uu a </s>
-1.054358	<s> a uu a a	-0.39794
-0.6863809	<s> a uu a oo	0
-0.3590219	a a uu a </s>
-0.7269987	a a uu a a	-0.39794
-0.7269987	a a uu a u	0
-0.06694679	aa a uu a </s>
-0.1249387	ai a uu a </s>
-0.1249387	au a uu a </s>
-0.05799195	ei a uu a </s>
-0.05799195	i a uu a </s>
-0.05799195	oo a uu a i	0
-0.03218468	<s> aa uu a </s>
-0.01523997	a aa uu a </s>
-0.1249387	i aa uu a </s>
-0.04139268	u aa uu a </s>
-0.1249387	<s> ai uu a </s>
-0.06694679	<s> ei uu a </s>
-0.05799195	<s> i uu a </s>
-0.03218468	a i uu a </s>
-0.1249387	u i uu a </s>
-0.1249387	uu i uu a </s>
-0.1249387	<s> u uu a </s>
-0.3732509	<s> a a aa </s>
-1.011026	<s> a a aa a	0.06445801
-1.011026	<s> a a aa aa	0.06366909
