
\data\
ngram 1=4705
ngram 2=16148
ngram 3=20696
ngram 4=14432
ngram 5=6733
ngram 6=2190

\1-grams:
-0.5761994	</s>
-99	<s>	-0.2422621
-2.106735	a	-0.5563651
-2.477597	aa	-0.5682123
-4.653688	aaa	-0.6001858
-4.13081	aach	-1.041197
-4.352658	aad	-0.3420214
-4.653688	aadh	-0.3976925
-4.051629	aaei	-0.4299702
-4.352658	aaein	-0.6006276
-4.39836	aag
-4.285712	aah	-0.6527077
-3.518026	aai	-0.6344509
-4.051629	aaii	-0.600176
-4.285712	aaiis	-0.7691771
-4.352658	aain	-0.6020407
-4.39836	aais
-4.13081	aaj	-0.633438
-3.574507	aak	-0.7844906
-4.285712	aal	-0.5192996
-4.176567	aam	-0.3202474
-3.285712	aan	-0.6309665
-4.39836	aanch
-4.39836	aankh
-4.285712	aant	-0.7691771
-4.39836	aaoo
-4.653688	aaoon	-0.4681472
-3.984682	aap	-0.4064526
-3.298301	aar	-0.6496043
-4.653688	aart:	-0.4681472
-4.285712	aart:s	-0.7691771
-4.176567	aas	-0.3971004
-4.653688	aash	-0.2041103
-3.390447	aat	-0.7717023
-4.39836	aat:h
-4.39836	aath
-4.39836	aatm
-4.653688	aaup	-0.6020215
-4.653688	aaut:	-0.3978725
-4.352658	aav	-0.4756728
-4.352658	aay	-0.4765231
-3.852056	ab	-0.5267576
-3.875537	abh	-0.6593316
-3.82978	ach	-0.6364427
-4.176567	ad	-0.4469974
-4.653688	ad:	-0.3975928
-3.599331	adh	-0.6680515
-3.875537	ag	-0.5050886
-4.653688	ah	-0.3009271
-3.50756	ai	-0.5739865
-4.653688	aich	-0.6020504
-4.653688	aid	-0.6019893
-4.39836	aids
-4.653688	aieis	-0.6020504
-3.92669	aik	-0.6203766
-4.39836	aikt:
-4.653688	ail	-0.6018254
-4.016866	ain	-0.7251018
-4.285712	aip	-0.9030257
-4.285712	aiph	-0.7691771
-4.176567	ais	-0.5991872
-4.653688	aish	-0.4681472
-4.176567	ait:	-0.6064367
-3.82978	aj	-0.7726731
-4.176567	ak	-0.2244393
-4.653688	akh	-0.3010204
-4.39836	akshh
-4.39836	akshhy
-3.423239	al	-0.6577161
-4.39836	alp
-3.586742	am	-0.6476921
-4.39836	aml
-2.767198	an	-0.6747345
-4.39836	and
-4.39836	and:
-4.39836	ang
-4.285712	ann	-0.7691771
-4.39836	ansh
-4.39836	ant
-3.22772	ap	-0.6199958
-3.82978	aph	-0.627743
-4.39836	aps
-3.238715	ar	-0.4728651
-4.653688	ardh	-0.4681472
-4.39836	arth
-3.298301	as	-0.3723972
-3.73287	ash	-0.7083503
-4.352658	ashh	-0.6017835
-4.653688	ashht:	-0.4681472
-4.653688	ashv	-0.4681472
-3.668412	at	-0.7048665
-4.653688	at:	-0.599501
-3.539745	au	-0.6232833
-4.653688	aud	-0.6014233
-4.653688	auh	-0.6003922
-4.39836	aup
-4.653688	aur	-0.3978789
-4.653688	aushh	-0.6013589
-4.653688	aut	-0.4681472
-4.39836	aut:
-3.788387	av	-0.47078
-2.337718	ba	-0.6866262
-2.74342	baa	-0.4404858
-4.653688	baab	-0.6014136
-3.73287	baad	-0.9963947
-4.653688	baad:	-0.4681472
-4.285712	baad:h	-0.7691771
-4.653688	baadh	-0.5985885
-4.39836	baadhy
-4.653688	baaein	-0.4681472
-4.352658	baag	-0.4765907
-4.39836	baagh
-4.39836	baah
-4.653688	baai	-0.6019797
-4.653688	baaid:	-0.4681472
-3.900361	baaii	-1.12136
-4.285712	baaiik	-0.7691771
-4.39836	baaik
-4.39836	baail
-4.016866	baaj	-0.737313
-4.39836	baaks
-3.487357	baal	-0.7190248
-4.653688	baalk	-0.4681472
-4.39836	baam
-3.167022	baan	-0.644886
-4.285712	baandh	-0.7691771
-4.653688	baang	-0.4681472
-4.653688	baanjh	-0.4681472
-4.653688	baant:	-0.4681472
-4.39836	baap
-4.653688	baar	-0.2640271
-4.352658	baard:	-0.7111852
-4.352658	baas	-0.4680115
-4.39836	baat
-4.285712	baat:	-0.9011996
-4.285712	baath	-0.9030579
-4.653688	baaun	-0.6020408
-4.352658	baauu	-0.7111852
-4.13081	baav	-0.6438926
-3.82978	bab	-0.641949
-4.352658	bach	-0.1714358
-4.352658	bachh	-0.5993328
-3.551026	bad	-0.4484592
-4.285712	bad:	-0.9024565
-4.13081	bad:h	-0.4077955
-3.900361	baddh	-1.12136
-4.285712	bag	-0.6507052
-4.39836	bagh
-3.92669	bah	-0.4883205
-3.267487	bai	-0.4587544
-4.13081	baid:	-0.6441422
-4.39836	baig
-4.39836	baii
-4.653688	baij	-0.4681472
-4.051629	baik	-0.5300692
-4.39836	baikn
-4.39836	bail
-3.80859	bain	-0.5989802
-4.352658	baind:	-0.7111852
-4.653688	baind:s	-0.4681472
-4.653688	baink	-0.4681472
-4.285712	bais	-0.9030579
-4.352658	bait:	-0.8430817
-4.39836	bait:h
-4.39836	baith
-4.051629	baj	-0.464788
-3.788387	bak	-0.5254029
-4.39836	bakh
-4.653688	baks	-0.4681472
-4.653688	baksh	-0.4681472
-3.211731	bal	-0.6422479
-4.285712	balb	-0.7691771
-4.176567	bam	-0.3121635
-2.812746	ban	-0.6573381
-4.051629	band	-0.9800305
-4.352658	bandh	-0.7111852
-4.653688	bang	-0.4681472
-4.653688	bans	-0.4681472
-4.39836	bap
-2.937685	bar	-0.6106972
-4.653688	barg	-0.4681472
-4.285712	barns	-0.7691771
-4.39836	barph
-4.653688	barshh	-0.4681472
-4.051629	bart:	-0.9800305
-3.788387	bas	-0.6756105
-4.653688	bast	-0.4681472
-3.750598	bat	-0.7050046
-4.653688	bat:	-0.3952226
-4.176567	bau	-0.5981736
-4.176567	baud	-0.5115039
-4.653688	bcha	-0.6017482
-4.39836	be
-2.796356	bei	-0.5139154
-4.016866	beich	-0.6191458
-4.653688	beid:	-0.3979079
-4.39836	beih
-4.39836	beii
-4.653688	beiij	-0.6003084
-3.900361	beij	-0.6837265
-4.13081	beik	-0.9074798
-3.699446	beil	-0.8607398
-4.39836	beilt:
-3.683652	bein	-0.6155441
-4.653688	beind	-0.4681472
-4.653688	beins	-0.4681472
-4.653688	beint	-0.4681472
-4.016866	beir	-0.7411353
-4.285712	beis	-0.65319
-4.653688	beish	-0.6020504
-4.285712	beit	-0.7691771
-4.653688	beith	-0.3967719
-4.653688	beiv	-0.4681472
-3.066352	bha	-0.5538884
-2.836343	bhaa	-0.4442145
-4.39836	bhaad
-4.653688	bhaaein	-0.3970457
-3.468052	bhaag	-0.6339293
-4.653688	bhaai	-0.2430284
-4.352658	bhaaii	-0.3416352
-4.653688	bhaajy	-0.4681472
-4.352658	bhaal	-0.3379983
-4.653688	bhaan	-0.3010204
-4.285712	bhaansh	-0.7691771
-4.653688	bhaaoon	-0.4681472
-4.13081	bhaap	-0.9074798
-3.750598	bhaar	-0.6218101
-4.39836	bhaas
-4.39836	bhaashh
-4.653688	bhaat	-0.4681472
-3.29196	bhaav	-0.6465741
-3.750598	bhad	-0.8395157
-4.653688	bhad:	-0.5996949
-4.176567	bhag	-0.3958107
-4.653688	bhai	-0.2640271
-4.653688	bhaii	-0.4681472
-4.653688	bhaiid	-0.6000437
-4.653688	bhaj	-0.6016002
-3.92669	bhak	-0.6207453
-4.39836	bhakt
-3.80859	bhan	-0.6483166
-4.39836	bhang
-4.653688	bhans	-0.4681472
-4.39836	bhap
-3.50756	bhar	-0.572064
-4.653688	bhas	-0.3963238
-4.653688	bhash	-0.6020086
-4.653688	bhat:	-0.2986649
-4.352658	bhau	-0.6018447
-4.352658	bhaum	-0.7111852
-4.352658	bhaun	-0.4769477
-3.574507	bhav	-0.6387495
-4.39836	bhay
-3.497341	bhei	-0.5538701
-3.82978	bheid	-0.6928863
-4.39836	bheid:
-4.653688	bheij	-0.2392165
-4.39836	bhein
-4.39836	bheish
-3.051628	bhi	-0.7711641
-4.39836	bhig
-3.551026	bhii	-0.4692917
-4.13081	bhiid	-0.9074798
-4.39836	bhiid:
-4.285712	bhiig	-0.7691771
-4.39836	bhiikh
-4.653688	bhiil	-0.4681472
-4.352658	bhiim	-0.3416703
-4.39836	bhiir
-4.39836	bhiit
-4.285712	bhij	-0.9003726
-4.13081	bhik	-0.5028523
-4.13081	bhin	-0.7756439
-4.285712	bhip	-0.9029936
-4.016866	bhit	-0.7377629
-4.13081	bhiv	-1.041094
-4.285712	bhoo	-0.6517737
-4.653688	bhoog	-0.4681472
-4.285712	bhooj	-0.9023309
-4.39836	bhook
-4.176567	bhoon	-0.8660871
-4.13081	bhra	-0.6341596
-4.653688	bhraa	-0.6020408
-4.653688	bhraan	-0.5995753
-4.653688	bhraat	-0.6017771
-4.39836	bhram
-4.653688	bhransh	-0.4681472
-4.352658	bhrash	-0.8444355
-4.285712	bhrashh	-0.9024275
-4.653688	bhruu	-0.6018929
-4.39836	bhruun:
-4.285712	bhrxish	-0.9024275
-4.39836	bhrxishh
-3.374935	bhu	-0.6045106
-4.352658	bhug	-0.5987277
-4.653688	bhukh	-0.2640271
-4.653688	bhus	-0.6014876
-4.352658	bhut	-0.4655015
-4.39836	bhutv
-3.201391	bhuu	-0.4500552
-4.285712	bhuukh	-0.9000944
-4.39836	bhuul
-4.352658	bhuut	-0.3429984
-2.849776	bi	-0.7028785
-4.653688	bid	-0.4681472
-4.653688	bid:	-0.6007663
-2.897814	bii	-0.6453243
-4.39836	biiaa
-4.653688	biiaar	-0.4681472
-4.285712	biiai	-0.7691771
-4.285712	biib	-0.9029614
-4.39836	biich
-4.653688	biiei	-0.3976796
-4.39836	biieich
-4.352658	biieim	-0.7111852
-4.352658	biieis	-0.4664027
-4.39836	biij
-4.352658	biin	-0.4677795
-4.653688	biioo	-0.4681472
-4.016866	biir	-1.012215
-4.653688	biis	-0.4681472
-4.653688	biit	-0.3960657
-4.051629	bij	-0.5629217
-3.954718	bik	-0.4597424
-3.92669	bikh	-0.6922895
-3.73287	bil	-0.4795822
-4.13081	bimb	-0.9074798
-3.73287	bin	-0.4755434
-3.599331	bind	-1.410155
-4.653688	bing	-0.4681472
-4.176567	bir	-0.3700872
-4.176567	bis	-0.5117387
-4.176567	bit	-0.6040901
-4.653688	blaa	-0.6018736
-4.285712	blaag	-0.7691771
-4.285712	blaak	-0.7691771
-4.39836	blad:
-4.285712	blaik	-0.7691771
-4.653688	blei	-0.6018447
-4.653688	bleisd:	-0.4681472
-4.653688	blii	-0.4681472
-4.39836	blv
-3.167022	boo	-0.5271097
-4.653688	booh	-0.5992455
-4.653688	booii	-0.4681472
-4.285712	booj	-0.9025144
-4.39836	boojh
-4.653688	bool	-0.2992977
-4.285712	boolt:	-0.7691771
-3.50756	boon	-1.499556
-4.285712	boor	-0.522628
-4.39836	boord:
-4.653688	boorn	-0.4681472
-4.016866	boot:	-0.7409909
-4.352658	bra	-0.6012977
-4.653688	braa	-0.3979207
-4.653688	braad:	-0.6020408
-3.852056	braah	-0.7587832
-4.653688	braan	-0.6017514
-4.39836	braand
-4.653688	braaun	-0.4681472
-4.39836	brad
-3.551026	brah	-0.8584022
-4.653688	braid	-0.6008919
-4.285712	braind:	-0.7691771
-4.39836	brajj
-4.653688	bralt:	-0.4681472
-4.13081	bram	-0.7780291
-4.39836	brashsh
-4.653688	brau	-0.6017707
-4.653688	brauj	-0.4681472
-4.39836	brei
-4.653688	breich	-0.4681472
-4.285712	breid	-0.7691771
-4.653688	breid:	-0.2640271
-4.39836	breik
-4.653688	brein	-0.4681472
-4.285712	breist:	-0.7691771
-4.653688	bri	-0.2430284
-3.92669	brij	-0.8203165
-4.13081	brik	-0.7757699
-4.653688	brin	-0.60197
-4.352658	bris	-0.4680071
-4.051629	broo	-0.6017063
-4.653688	brooj	-0.4681472
-4.653688	broos	-0.4681472
-4.653688	brul	-0.4681472
-4.653688	brxi	-0.6019893
-3.19129	bu	-0.5298624
-4.285712	buaa	-0.7691771
-4.051629	bud	-0.8443969
-4.39836	buddh
-4.39836	budh
-4.39836	buj
-4.39836	buk
-4.176567	bul	-0.5098444
-4.352658	bun	-0.4736432
-4.39836	burj
-4.653688	bushh	-0.6017482
-4.352658	but	-0.4643955
-3.574507	buu	-0.6568794
-4.13081	buub	-0.6408219
-4.653688	buud	-0.4681472
-4.653688	buud:h	-0.4681472
-4.653688	buuj	-0.4681472
-4.653688	buujh	-0.2640271
-4.352658	buun	-0.5993328
-4.39836	buund
-4.39836	buur
-4.653688	buus	-0.6015102
-4.653688	buut	-0.4681472
-4.39836	byuu
-2.834144	cha	-0.4422988
-2.759742	chaa	-0.5067424
-4.285712	chaaau	-0.9029582
-4.285712	chaaei	-0.5192996
-3.900361	chaaein	-1.12136
-4.653688	chaag	-0.5997143
-4.39836	chaah
-4.653688	chaai	-0.6020408
-4.176567	chaaii	-0.4646292
-4.653688	chaak	-0.4681472
-4.352658	chaal	-0.4731181
-4.016866	chaan	-0.4942872
-4.285712	chaand	-0.7691771
-4.39836	chaaoon
-4.285712	chaap	-0.5192996
-3.085487	chaar	-0.8275564
-4.39836	chaarls
-4.653688	chaart:	-0.4681472
-4.39836	chaary
-4.653688	chaas	-0.4681472
-4.016866	chaat	-0.7364162
-4.653688	chaat:	-0.6001696
-4.39836	chaauu
-4.176567	chaav	-0.8660871
-4.653688	chaay	-0.3975028
-4.285712	chad	-0.9029518
-4.39836	chad:
-4.13081	chad:h	-0.6416631
-4.653688	chaei	-0.6019218
-4.016866	chai	-0.6275719
-4.352658	chaim	-0.8446479
-4.352658	chain	-0.4678102
-4.13081	chait	-0.6309826
-3.50756	chak	-0.5652426
-4.653688	chakr	-0.4681472
-3.82978	chal	-0.6390284
-3.52875	cham	-0.6869285
-3.233182	chan	-0.7368062
-4.016866	chand	-1.012215
-3.92669	chandr	-1.096536
-3.92669	chap	-0.6951744
-3.176567	char	-0.6914492
-4.39836	charch
-4.653688	charj	-0.4681472
-4.653688	chars	-0.4681472
-4.285712	chas	-0.7691771
-3.984682	chash	-0.8978137
-4.39836	chasp
-4.39836	chasv
-4.285712	chat	-0.6510186
-4.653688	chat:	-0.3972775
-3.398416	chau	-0.5948473
-4.653688	chaud:	-0.4681472
-4.39836	chauk
-4.352658	chaun	-0.8443969
-4.653688	chaup	-0.6003922
-4.39836	chaur
-4.39836	chauth
-4.653688	chav	-0.6020504
-4.13081	chay	-0.9074798
-3.144038	chei	-0.6559268
-4.285712	cheim	-0.9030675
-3.769082	chein	-0.8027215
-4.653688	cheinj	-0.4681472
-4.653688	cheir	-0.6017707
-4.352658	cheis	-0.4673985
-4.653688	cheishht:h	-0.4681472
-4.39836	cheit
-4.653688	cheiz	-0.4681472
-3.390447	chha	-0.5461552
-3.34548	chhaa	-0.6035215
-4.653688	chhaad	-0.4681472
-4.653688	chhaaei	-0.4681472
-4.653688	chhaaein	-0.4681472
-4.653688	chhaaii	-0.4681472
-4.176567	chhaal	-0.6041209
-4.285712	chhaan	-0.649391
-4.653688	chhaanv	-0.4681472
-4.39836	chhaaoon
-4.39836	chhaap
-4.653688	chhaar	-0.4681472
-4.653688	chhaat	-0.2430284
-4.13081	chhad:	-0.6418787
-4.39836	chhah
-4.285712	chhak	-0.9021249
-4.352658	chhal	-0.3408223
-4.653688	chham	-0.5982385
-4.016866	chhan	-0.5926526
-4.653688	chhand	-0.4681472
-3.852056	chhap	-0.7496032
-4.653688	chhar	-0.4681472
-4.352658	chhat	-0.5996076
-4.285712	chhat:	-0.9028393
-4.39836	chhat:h
-4.653688	chhbil	-0.4681472
-3.82978	chhei	-0.7495286
-4.653688	chheid	-0.3979304
-4.653688	chhi	-0.2998716
-4.285712	chhichh	-0.9019219
-4.13081	chhid	-1.041341
-4.653688	chhid:	-0.5996949
-4.39836	chhidr
-4.176567	chhii	-0.6030334
-4.285712	chhiin	-0.7691771
-4.653688	chhik	-0.4681472
-4.653688	chhil	-0.6010949
-4.653688	chhinn	-0.4681472
-3.82978	chhip	-0.769141
-4.176567	chhit	-0.8660871
-4.39836	chhnii
-3.562608	chhoo	-0.4428072
-4.39836	chhood
-4.352658	chhood:	-0.3372309
-4.653688	chhtaa	-0.4681472
-3.954718	chhu	-0.5373386
-4.285712	chhuaa	-0.7691771
-4.653688	chhuch	-0.6007663
-4.653688	chhuei	-0.4681472
-4.653688	chhuk	-0.4681472
-4.016866	chhup	-0.6209278
-4.352658	chhut:	-0.2608046
-3.497341	chhuu	-0.5787671
-4.285712	chhuut	-0.7691771
-4.653688	chhuut:	-0.6001696
-3.037388	chi	-0.6735343
-3.900361	chid	-1.254874
-4.653688	chign	-0.4681472
-4.39836	chih
-3.331469	chii	-0.6197365
-4.39836	chiij
-4.653688	chiikh	-0.4681472
-4.653688	chiil	-0.4681472
-4.653688	chiin	-0.3978725
-4.39836	chiiph
-4.13081	chiir	-0.9074798
-4.653688	chiit	-0.4681472
-4.653688	chiiy	-0.4681472
-4.352658	chil	-0.8427523
-4.285712	chim	-0.6513447
-3.586742	chin	-0.5855927
-4.39836	chinh
-4.13081	chint	-0.9074798
-4.352658	chip	-0.599294
-4.39836	chips
-4.176567	chir	-0.3710172
-4.39836	chis
-4.653688	chish	-0.4681472
-3.285712	chit	-0.6860037
-4.653688	chith	-0.6019668
-4.39836	chitr
-4.653688	chitt	-0.4681472
-4.39836	chiv
-4.39836	chkaa
-4.285712	chkar	-0.649391
-4.285712	chkoo	-0.9026721
-4.653688	chnaa	-0.3969749
-4.39836	chnei
-3.699446	choo	-0.5423654
-4.653688	chook	-0.4681472
-3.653688	choon	-1.357449
-4.653688	choop	-0.6003922
-4.352658	choor	-0.7111852
-4.39836	choot:
-4.653688	chshi	-0.6019443
-4.653688	chshik	-0.6012559
-4.352658	chtaa	-0.7111852
-4.653688	chtat	-0.6018543
-4.653688	chtei	-0.4681472
-4.176567	chtii	-0.8660871
-3.249996	chu	-0.7030454
-4.653688	chubh	-0.6001858
-4.352658	chum	-0.6008403
-4.352658	chun	-0.3923708
-4.653688	chup	-0.3969749
-4.285712	chur	-0.7691771
-4.352658	chut:	-0.600937
-4.352658	chuu	-0.3399859
-3.984682	chuuk	-1.042178
-4.653688	chuul	-0.6009145
-4.39836	chuun
-4.13081	chuur	-0.9074798
-4.653688	chva	-0.601478
-4.352658	chvaa	-0.7111852
-4.39836	chvar
-4.39836	chvei
-4.285712	chvii	-0.7691771
-3.273477	d:a	-0.6903041
-2.900361	d:aa	-0.8670499
-4.653688	d:aad:s	-0.4681472
-4.653688	d:aai	-0.601999
-4.653688	d:aaii	-0.4681472
-4.016866	d:aak	-0.4218075
-3.92669	d:aal	-0.3801417
-4.13081	d:aan	-0.7774565
-4.653688	d:aans	-0.4681472
-4.39836	d:aant:
-4.352658	d:aar	-0.4681472
-4.285712	d:aaun	-0.9030675
-4.39836	d:aav
-3.80859	d:aay	-0.8986714
-3.715836	d:ab	-0.8741831
-4.352658	d:ai	-0.4649466
-3.852056	d:ak	-0.5434267
-3.458712	d:al	-1.087853
-4.653688	d:als	-0.4681472
-3.612296	d:am	-0.9425173
-4.285712	d:ams	-0.7691771
-3.875537	d:an	-0.5241658
-4.653688	d:ap	-0.4681472
-3.304735	d:ar	-0.8790021
-4.653688	d:ard:	-0.4681472
-4.13081	d:ars	-0.9074798
-4.653688	d:as	-0.6020504
-4.653688	d:at:	-0.4681472
-4.653688	d:au	-0.3010107
-4.39836	d:aug
-4.653688	d:auk	-0.4681472
-4.285712	d:aul	-0.7691771
-4.352658	d:aun	-0.7111852
-4.653688	d:av	-0.4681472
-4.653688	d:barg	-0.4681472
-3.097386	d:ei	-0.891908
-4.352658	d:eid:	-0.7111852
-4.285712	d:eid:h	-0.7691771
-4.653688	d:eik	-0.2640271
-4.352658	d:eil	-0.4677401
-3.852056	d:ein	-0.6249931
-4.39836	d:eins
-3.954718	d:eint:	-1.070207
-4.39836	d:eip
-4.352658	d:eir	-0.7111852
-4.285712	d:eis	-0.9026721
-4.285712	d:eit:	-0.7691771
-4.653688	d:eit:s	-0.4681472
-4.653688	d:eith	-0.4681472
-4.285712	d:eiy	-0.7691771
-3.62566	d:ha	-0.731416
-3.196311	d:haa	-0.6201504
-4.352658	d:haaei	-0.4660732
-3.984682	d:haai	-1.042178
-4.13081	d:haaii	-0.9074798
-3.92669	d:haal	-0.6606373
-4.13081	d:haan	-0.7773954
-4.653688	d:haaoo	-0.3970457
-4.13081	d:haaoon	-0.9074798
-4.653688	d:haau	-0.4681472
-4.39836	d:haav
-4.653688	d:hag	-0.4681472
-3.92669	d:hak	-0.6627927
-4.352658	d:han	-0.5993845
-4.39836	d:hang
-4.653688	d:har	-0.4681472
-4.39836	d:haut
-3.668412	d:hei	-0.7797326
-4.352658	d:hein	-0.6006276
-4.39836	d:heir
-3.683652	d:hi	-0.6093525
-4.13081	d:hii	-0.9074798
-4.653688	d:hnaa	-0.4681472
-4.653688	d:hnei	-0.4681472
-4.051629	d:hoo	-0.4605221
-4.39836	d:hool
-3.82978	d:hoon	-1.188306
-4.653688	d:hoong	-0.4681472
-4.653688	d:htei	-0.4681472
-4.051629	d:huun	-0.6019282
-4.352658	d:huund:h	-0.7111852
-2.88039	d:i	-0.6958999
-4.653688	d:iaa	-0.4681472
-4.653688	d:ib	-0.3971552
-4.176567	d:ig	-0.4641924
-2.836343	d:ii	-0.8230548
-4.39836	d:iiaar
-4.39836	d:iiei
-4.653688	d:iieis	-0.4681472
-4.653688	d:iij	-0.4681472
-4.653688	d:iin	-0.4681472
-4.653688	d:iing	-0.4681472
-4.39836	d:iioo
-4.39836	d:iish
-4.653688	d:ij	-0.4681472
-4.653688	d:ik	-0.6016614
-4.39836	d:il
-4.016866	d:in	-0.5925124
-4.176567	d:ing	-0.8660871
-4.016866	d:is	-0.7265036
-4.352658	d:ish	-0.464444
-4.653688	d:it	-0.4681472
-4.653688	d:it:	-0.4681472
-4.653688	d:lei	-0.4681472
-4.653688	d:lig	-0.601745
-4.653688	d:lii	-0.4681472
-4.653688	d:ling	-0.4681472
-3.267487	d:oo	-0.6233584
-4.653688	d:ool	-0.4681472
-3.148538	d:oon	-1.379873
-3.852056	d:oor	-1.167117
-4.653688	d:phil	-0.4681472
-4.653688	d:raa	-0.3962077
-4.653688	d:raaiiv	-0.4681472
-4.653688	d:raap	-0.4681472
-4.39836	d:raaph
-4.285712	d:raapht	-0.7691771
-4.653688	d:rag	-0.4681472
-4.39836	d:rags
-4.39836	d:ram
-4.653688	d:rei	-0.6014715
-4.39836	d:reis
-4.653688	d:ri	-0.6015391
-4.352658	d:rii	-0.7111852
-4.352658	d:rin	-0.7111852
-4.39836	d:rink
-4.285712	d:rip	-0.7691771
-4.39836	d:room
-4.352658	d:taa	-0.7111852
-3.875537	d:u	-0.4659194
-4.653688	d:uan	-0.4681472
-4.653688	d:uard:	-0.4681472
-4.285712	d:ub	-0.6525017
-4.653688	d:um	-0.6020504
-3.715836	d:uu	-0.8496678
-4.653688	d:uub	-0.3960657
-2.592991	da	-0.7090164
-2.41648	daa	-0.7462056
-4.39836	daab
-4.016866	daad	-1.012215
-4.653688	daaein	-0.4681472
-4.285712	daai	-0.903029
-4.016866	daaii	-0.5911438
-4.653688	daaiit	-0.4681472
-4.016866	daaj	-1.012215
-4.39836	daak
-4.653688	daakh	-0.4681472
-4.39836	daal
-3.715836	daan	-0.7367168
-4.653688	daant	-0.4681472
-4.653688	daaoon	-0.4681472
-3.255748	daar	-0.9890895
-4.653688	daarth	-0.4681472
-3.285712	daas	-1.249441
-4.352658	daasht	-0.7111852
-4.285712	daast	-0.7691771
-4.653688	daat	-0.4681472
-4.352658	daav	-0.7111852
-4.39836	daay
-4.653688	dab	-0.6020504
-4.653688	daba:v	-0.4681472
-4.176567	dad	-0.4679327
-4.653688	dadh	-0.6001858
-4.653688	dagv	-0.4681472
-4.016866	dah	-0.7411091
-4.016866	dai	-0.6258105
-4.653688	dairdhy	-0.4681472
-4.39836	daiv
-3.715836	dak	-0.6581289
-4.39836	dakshh
-3.668412	dal	-0.4201388
-3.852056	dam	-0.7279985
-4.653688	dambh	-0.4681472
-3.02022	dan	-0.8652508
-4.016866	dand:	-1.012215
-4.653688	dans	-0.4681472
-4.352658	dansh	-0.7111852
-4.176567	dap	-0.464007
-4.13081	daph	-0.7730538
-2.720876	dar	-0.7604706
-4.39836	darbh
-4.352658	dard	-0.7111852
-4.39836	darj
-4.39836	dars
-4.653688	dary	-0.4681472
-3.586742	das	-0.5089103
-4.176567	dash	-0.4646689
-4.653688	dast	-0.4681472
-4.176567	dat	-0.460709
-4.016866	datt	-1.012215
-4.176567	dau	-0.3550059
-4.051629	daud	-0.5928364
-4.653688	daud:	-0.2993203
-4.39836	daur
-4.016866	dav	-1.012215
-4.352658	day	-0.4681472
-4.13081	dbaa	-0.7742
-4.653688	dbhaav	-0.4681472
-4.285712	ddaa	-0.7691771
-4.653688	ddha	-0.5993426
-4.352658	de	-0.7111852
-2.614936	dei	-0.6758927
-4.653688	deid:	-0.4681472
-4.39836	deid:h
-4.653688	deih	-0.4681472
-4.39836	deikh
-4.653688	deil	-0.601999
-3.487357	dein	-0.9422882
-4.39836	deir
-3.518026	deish	-0.4744976
-4.39836	deishy
-4.285712	deit	-0.7691771
-3.586742	deiv	-0.7668791
-4.39836	dgaanv
-2.997271	dha	-0.4671277
-2.767198	dhaa	-0.6841431
-4.39836	dhaaein
-4.39836	dhaai
-4.39836	dhaaii
-4.39836	dhaak
-4.653688	dhaam	-0.4681472
-3.34548	dhaan	-0.7976134
-4.39836	dhaaoon
-3.414806	dhaar	-0.5893784
-4.653688	dhaarth	-0.4681472
-4.653688	dhaat	-0.6016871
-4.653688	dhaav	-0.4681472
-4.39836	dhab
-4.653688	dhad:	-0.2640271
-4.653688	dhadh	-0.601761
-4.13081	dhair	-1.037921
-4.653688	dhaj	-0.6016099
-3.539745	dhak	-0.895136
-3.92669	dham	-0.5600595
-3.211731	dhan	-0.751359
-4.653688	dhann	-0.4681472
-3.162327	dhar	-0.6805542
-4.39836	dharm
-4.653688	dhas	-0.6004438
-4.13081	dhav	-0.6439146
-4.653688	dhavst	-0.4681472
-4.653688	dhchan	-0.60197
-3.382622	dhei	-0.8717624
-4.39836	dhein
-4.653688	dheinj	-0.4681472
-2.792353	dhi	-0.7723677
-4.39836	dhiei
-3.34548	dhii	-0.7137836
-4.13081	dhiin	-0.6442384
-4.653688	dhiiy	-0.4681472
-3.788387	dhik	-0.4331784
-4.653688	dhiny	-0.4681472
-4.653688	dhir	-0.5995527
-4.653688	dhish	-0.6019122
-4.39836	dhisht:
-3.92669	dhit	-1.096536
-4.39836	dhitv
-4.285712	dhiy	-0.7691771
-4.285712	dhkaar	-0.7691771
-4.653688	dhkar	-0.4681472
-4.13081	dhnei	-0.9074798
-3.668412	dhoo	-0.4830406
-4.653688	dhooein	-0.4681472
-3.398416	dhoon	-1.312926
-4.285712	dhpiit:h	-0.7691771
-4.653688	dhra	-0.4681472
-4.39836	dhrap
-4.653688	dhru	-0.601404
-4.653688	dhrxit	-0.4681472
-4.39836	dhshaa
-4.176567	dhtaa	-0.8660871
-3.414806	dhu	-0.7850568
-4.653688	dhuaan	-0.4681472
-4.39836	dhuein
-4.352658	dhul	-0.597622
-4.653688	dhum	-0.5998661
-4.13081	dhun	-0.635683
-4.285712	dhundh	-0.7691771
-4.352658	dhuoon	-0.7111852
-4.39836	dhur
-4.653688	dhut	-0.600118
-3.82978	dhuu	-0.5617289
-4.653688	dhuuaan	-0.4681472
-4.39836	dhuul
-4.13081	dhuum	-0.6336581
-4.653688	dhuundh	-0.4681472
-4.653688	dhuup	-0.3978629
-4.176567	dhva	-0.736985
-4.285712	dhvaj	-0.6531065
-4.39836	dhvish
-4.352658	dhya	-0.7111852
-4.39836	dhyaa
-4.653688	dhyaan	-0.397477
-4.39836	dhyeiya
-2.660988	di	-0.6950228
-4.39836	diei
-4.653688	digdh	-0.4681472
-2.578141	dii	-1.034687
-4.13081	diid	-0.9074798
-4.653688	diiei	-0.6001858
-4.13081	diik	-0.644129
-4.39836	diikshh
-3.750598	diin	-0.8185282
-4.653688	diinh	-0.4681472
-4.352658	diip	-0.4656027
-4.653688	diir	-0.3977857
-4.39836	diirgh
-4.653688	diish	-0.3971874
-4.653688	diiv	-0.4681472
-3.80859	dik	-0.651448
-4.285712	dikh	-0.4376004
-4.352658	dil	-0.3952031
-4.653688	dim	-0.6019154
-4.051629	din	-0.3367748
-4.39836	dip
-3.954718	dir	-0.644002
-3.92669	dis	-0.5646852
-4.653688	dishht:	-0.4681472
-3.668412	dit	-0.6912782
-4.653688	ditdh	-0.4681472
-4.285712	div	-0.9030675
-4.39836	dlei
-4.39836	dmath
-4.653688	dmay	-0.4681472
-4.653688	dni	-0.4681472
-4.39836	dnii
-3.255748	doo	-0.5111606
-4.653688	doog	-0.6008919
-3.699446	dooh	-0.9934924
-3.148538	doon	-1.552867
-4.653688	doop	-0.6017032
-4.653688	door	-0.3968106
-4.653688	doos	-0.1091252
-4.176567	doosh	-0.6054163
-4.352658	dooshh	-0.3956815
-4.39836	doost
-3.20653	dra	-0.6943509
-3.683652	draa	-0.5616012
-4.285712	draai	-0.9030675
-4.285712	draaii	-0.9023374
-4.285712	draaing	-0.7691771
-4.39836	draapht:
-4.352658	drah	-0.4678058
-4.653688	drak	-0.4681472
-4.39836	drav
-4.39836	dravy
-4.653688	dreis	-0.4681472
-4.653688	dreit	-0.4681472
-4.051629	dri	-0.6895987
-4.653688	drid:h	-0.6019282
-4.653688	drii	-0.2640271
-4.653688	driit	-0.4681472
-4.653688	drik	-0.6019411
-4.39836	drisht
-4.39836	drit
-4.39836	driy
-4.653688	droo	-0.3008275
-4.39836	drooh
-4.39836	droon
-4.653688	druoon	-0.4681472
-4.285712	drxi	-0.9030675
-4.051629	drxid:h	-0.4581877
-4.39836	drxish
-4.13081	drxishh	-0.6358215
-3.162327	du	-0.563678
-4.13081	duaa	-0.6441859
-4.016866	dub	-0.7239545
-4.653688	dudh	-0.4681472
-4.352658	dugdh	-0.7111852
-4.39836	dukh
-4.176567	dul	-0.3085793
-4.653688	duoon	-0.4681472
-3.477597	dur	-0.6380001
-4.39836	dus
-4.13081	dush	-0.4241622
-4.352658	dushh	-0.601613
-4.39836	dushht:
-3.374935	duu	-0.4569103
-4.285712	duub	-0.7691771
-4.39836	duudh
-4.653688	duuii	-0.4681472
-4.653688	duuj	-0.4681472
-4.653688	duuk	-0.4681472
-4.285712	duul	-0.9027042
-4.653688	duun	-0.300493
-3.769082	duur	-0.5476487
-4.352658	duus	-0.3942708
-3.852056	duut	-0.8846309
-4.653688	duuv	-0.4681472
-3.954718	dvaa	-0.5919493
-4.39836	dvaar
-4.653688	dvan	-0.4681472
-4.653688	dveish	-0.4681472
-4.352658	dvi	-0.6003277
-4.653688	dvid:	-0.4681472
-4.653688	dvii	-0.3962077
-4.13081	dviip	-0.9074798
-4.653688	dyoon	-0.4681472
-2.770974	ei	-0.6534824
-4.176567	eia	-0.598964
-4.285712	eiar	-0.9030482
-4.653688	eib	-0.6013653
-3.954718	eich	-0.6751871
-4.13081	eid:	-0.7773761
-4.352658	eiei	-0.6012945
-4.653688	eiein	-0.6007792
-4.39836	eig
-4.352658	eih	-0.5994007
-4.653688	eij	-0.4681472
-3.73287	eik	-0.4873334
-3.788387	eil	-0.6122577
-4.653688	eildds	-0.4681472
-3.539745	eim	-0.6833133
-3.586742	ein	-0.6188159
-4.653688	eioo	-0.4681472
-4.13081	eip	-0.6427662
-3.82978	eis	-0.6323777
-4.653688	eith	-0.6020504
-4.352658	eiv	-0.7111852
-4.653688	fa	-0.3978886
-2.54086	ga	-0.5084229
-2.455949	gaa	-0.747456
-4.653688	gaaaa	-0.600118
-4.653688	gaabh	-0.6019958
-4.352658	gaad:	-0.472404
-4.653688	gaad:h	-0.4681472
-4.016866	gaaei	-1.012215
-4.352658	gaah	-0.7111852
-4.653688	gaai	-0.6017514
-4.653688	gaaid:	-0.4681472
-4.176567	gaaii	-0.8660871
-4.39836	gaal
-4.39836	gaam
-3.574507	gaan	-0.7099235
-4.352658	gaant:h	-0.7111852
-4.016866	gaanv	-1.012215
-4.653688	gaaoo	-0.4681472
-3.562608	gaar	-0.719884
-4.39836	gaard:
-4.653688	gaas	-0.4681472
-4.39836	gaat
-4.653688	gaav	-0.3970876
-3.715836	gad	-0.5329096
-4.176567	gad:	-0.5076888
-3.73287	gad:h	-0.9962941
-4.39836	gaei
-4.653688	gag	-0.5988087
-4.13081	gah	-0.4067388
-4.39836	gah:
-3.852056	gai	-0.5225841
-4.39836	gaii
-4.285712	gaiin	-0.7691771
-4.653688	gain	-0.6011658
-4.653688	gaip	-0.4681472
-3.900361	gair	-0.5836668
-4.39836	gais
-4.13081	gaj	-0.6442384
-3.518026	gal	-0.7515534
-3.518026	gam	-0.6966394
-4.39836	gamy
-3.18142	gan	-0.5469843
-3.52875	gan:	-0.5956116
-4.653688	gandh	-0.4681472
-4.653688	gap	-0.5995753
-4.39836	gaph
-3.139584	gar	-0.6397524
-4.39836	garh
-4.653688	gas	-0.4681472
-4.285712	gash	-0.9010737
-4.352658	gast	-0.7111852
-3.34548	gat	-0.9751458
-4.653688	gat:h	-0.6019861
-3.518026	gau	-0.600412
-4.653688	gaund	-0.4681472
-4.653688	gaund:	-0.4681472
-4.653688	gaur	-0.397625
-4.39836	gauu
-4.653688	gav	-0.4681472
-4.653688	gbaa	-0.6009306
-4.39836	gchuk
-4.653688	gd:aa	-0.4681472
-4.653688	gd:am	-0.4681472
-4.653688	gdeish	-0.4681472
-2.686765	gei	-1.240779
-4.285712	geig	-0.7691771
-4.352658	geil	-0.4678321
-4.653688	geim	-0.4681472
-4.285712	geims	-0.7691771
-3.586742	gein	-0.6415356
-4.39836	geind
-4.653688	geir	-0.4681472
-4.352658	geish	-0.4681472
-4.352658	geit:	-0.475763
-4.352658	geit:s	-0.7111852
-3.113776	gha	-0.7792045
-3.449568	ghaa	-0.5574232
-4.653688	ghaan	-0.4681472
-4.653688	ghaar	-0.4681472
-4.653688	ghaas	-0.3978018
-4.285712	ghaat	-0.7691771
-4.176567	ghaat:	-0.8660871
-4.016866	ghab	-0.8722371
-4.285712	ghad	-0.9012157
-3.900361	ghal	-0.6851
-3.852056	ghan	-0.5455839
-3.668412	ghar	-0.8940284
-4.39836	gharsh
-4.39836	gharshh
-4.051629	ghat:	-0.2083173
-4.39836	ghatr
-4.39836	ghav
-4.13081	ghei	-0.4099452
-4.653688	ghein	-0.4681472
-4.285712	ghi	-0.4379132
-3.769082	ghii	-0.7960871
-4.653688	ghir	-0.6019572
-4.653688	ghit	-0.5998661
-4.653688	ghnaa	-0.4681472
-4.39836	ghnei
-3.788387	ghoo	-0.7284685
-3.92669	ghoon	-0.6676933
-4.653688	ghoongh	-0.4681472
-4.39836	ghoor
-4.39836	ghoosh
-4.653688	ghooshh	-0.6018575
-3.599331	ghu	-0.4663243
-4.285712	ghud	-0.9007669
-4.39836	ghul
-4.352658	ghus	-0.4655939
-4.285712	ghut:	-0.9022183
-3.984682	ghuu	-0.9014868
-4.653688	ghuum	-0.2023877
-4.653688	ghuun	-0.6006405
-4.653688	ghuur	-0.4681472
-4.653688	ghuus	-0.6019218
-4.653688	ghvaad	-0.4681472
-4.39836	ghya
-3.12221	gi	-0.7334875
-4.653688	gig	-0.4681472
-2.908093	gii	-0.8849882
-4.39836	giik
-4.39836	giin
-4.285712	giin:	-0.7691771
-4.653688	giir	-0.4681472
-3.73287	giit	-0.8348404
-3.92669	gik	-0.8203297
-4.352658	gil	-0.8450595
-4.051629	gin	-0.7067536
-4.39836	gipht:
-4.352658	gir	-0.2630024
-4.352658	gis	-0.4732673
-4.285712	git	-0.7691771
-4.653688	giv	-0.4681472
-4.39836	gjeib
-4.653688	gla	-0.2640271
-4.016866	glaa	-0.5901365
-4.653688	glaar	-0.4681472
-4.653688	glaas	-0.4681472
-4.352658	glaind:	-0.7111852
-4.653688	glaur	-0.4681472
-4.653688	glei	-0.6014844
-4.39836	gli
-4.352658	glii	-0.7111852
-4.653688	glis	-0.6019604
-4.39836	glish
-4.39836	gloo
-4.352658	gloon	-0.7111852
-4.39836	gloor
-4.653688	gluk	-0.4681472
-4.39836	gmar
-4.653688	gmei	-0.6001696
-4.653688	gnaa	-0.4681472
-4.39836	gnei
-4.653688	gnii	-0.4681472
-4.39836	go-
-4.653688	gol	-0.6020504
-2.975474	goo	-0.5851484
-4.39836	good
-4.39836	good:
-4.653688	gooh	-0.4681472
-3.82978	gool	-0.6427881
-4.176567	goom	-0.7385916
-3.148538	goon	-1.169347
-4.653688	goond	-0.4681472
-4.016866	goop	-0.5900528
-4.016866	goor	-0.7404788
-3.984682	goos	-0.8980121
-4.285712	goosh	-0.9029775
-4.653688	gooshh	-0.6019475
-4.653688	goosht	-0.4681472
-4.13081	goot	-0.7759993
-4.653688	gooth	-0.4681472
-4.13081	goov	-0.6439233
-3.92669	gra	-0.6217202
-3.639448	graa	-0.6537251
-4.352658	graam	-0.4680334
-4.653688	graand:	-0.4681472
-4.653688	graant:	-0.4681472
-4.653688	graas	-0.4681472
-4.285712	graaund:	-0.7691771
-4.39836	grah
-3.699446	gran	-0.9997042
-4.653688	granth	-0.4681472
-4.285712	grast	-0.7691771
-4.653688	graund:	-0.4681472
-3.852056	grei	-0.6185885
-4.653688	greid:	-0.4681472
-4.653688	greig	-0.4681472
-4.39836	greij
-4.653688	greis	-0.4681472
-4.39836	greit:
-4.653688	gri	-0.6014265
-4.13081	grii	-0.541328
-4.653688	griid:	-0.4681472
-4.39836	griik
-4.285712	griin	-0.5227534
-4.653688	griis	-0.4681472
-4.285712	griishh	-0.9000944
-4.653688	groo	-0.6019636
-4.653688	groov	-0.4681472
-4.285712	grup	-0.7691771
-4.653688	gruu	-0.6019732
-4.653688	grxai	-0.6013074
-3.562608	grxi	-0.9218785
-4.39836	grxiah
-4.653688	gst:an	-0.4681472
-4.653688	gt:an	-0.4681472
-4.39836	gtaa
-4.13081	gtei	-0.9074798
-4.653688	gtha	-0.6004438
-4.653688	gtii	-0.4681472
-2.943289	gu	-0.7163153
-4.285712	guaa	-0.7691771
-4.39836	gub
-4.13081	guch	-1.041197
-4.653688	gud	-0.4681472
-4.13081	gud:	-0.6366967
-4.285712	gueil	-0.7691771
-4.051629	guj	-0.694782
-4.653688	gul	-0.6003922
-4.653688	gum	-0.4681472
-4.051629	gun	-0.5644312
-4.352658	gun:	-0.4679502
-4.653688	gund~	-0.6017514
-4.39836	gup
-4.653688	gupt	-0.4681472
-3.788387	gur	-0.5307595
-4.39836	gus
-4.653688	gut	-0.6018961
-4.352658	gut:	-0.473967
-4.176567	guu	-0.4681209
-4.653688	guuch	-0.4681472
-4.653688	guud:h	-0.4681472
-4.051629	guun	-0.5293173
-4.653688	guunj	-0.4681472
-4.285712	guur	-0.7691771
-4.051629	gvaa	-0.5247788
-4.39836	gyaa
-4.653688	gyaal	-0.4681472
-4.653688	gyaan	-0.6013074
-4.653688	gyuu	-0.6004212
-4.653688	gyuum	-0.4681472
-2.455031	ha	-0.6958163
-2.57936	haa	-0.5558826
-4.39836	haab
-3.900361	haad	-0.6413427
-4.653688	haad:	-0.4681472
-4.653688	haaei	-0.4681472
-4.653688	haag	-0.4681472
-4.352658	haai	-0.4763783
-4.285712	haaib	-0.9030579
-4.653688	haaid	-0.6009048
-4.352658	haaid:	-0.6007372
-4.176567	haaii	-0.6058239
-4.653688	haair	-0.6013653
-4.653688	haait:	-0.4681472
-4.39836	haaj
-4.653688	haal	-0.3979304
-4.653688	haam	-0.6017578
-3.639448	haan	-0.5071202
-4.653688	haan:	-0.4681472
-4.285712	haand:	-0.7691771
-4.653688	haang	-0.4681472
-4.653688	haank	-0.4681472
-4.653688	haant	-0.4681472
-4.39836	haaph
-3.117972	haar	-0.795132
-4.653688	haard	-0.4681472
-4.39836	haarn
-4.653688	haart:	-0.4681472
-3.639448	haas	-0.6510116
-4.653688	haat	-0.4681472
-4.653688	haaus	-0.3978982
-4.39836	haauus
-4.653688	haav	-0.2640271
-4.13081	haay	-0.9074798
-4.176567	had	-0.4654223
-4.051629	had:	-0.6013717
-4.653688	hah	-0.3976571
-3.43184	hai	-0.5677017
-4.653688	haid:	-0.4681472
-4.653688	haiiish	-0.6013074
-4.352658	haik	-0.4646292
-4.653688	hail	-0.6020279
-4.653688	haim	-0.6020504
-4.051629	hain	-0.4656951
-4.285712	haind:	-0.7691771
-4.653688	hais	-0.6003503
-4.39836	haiv
-4.653688	haiy	-0.5988087
-4.653688	haj	-0.2640271
-3.551026	hak	-0.7846599
-3.539745	hal	-0.5397536
-3.788387	ham	-0.3366638
-4.653688	hamd	-0.4681472
-3.216996	han	-0.4959813
-3.984682	han:	-1.042178
-4.39836	hands
-4.39836	hans
-4.653688	hant:	-0.4681472
-4.653688	haph	-0.30085
-3.144038	har	-0.6023124
-4.39836	harn
-4.39836	harshh
-3.255748	has	-0.5564654
-4.285712	hast	-0.7691771
-4.285712	hasth	-0.7691771
-3.423239	hat	-0.550859
-3.586742	hat:	-0.7570866
-4.285712	hath	-0.9011996
-4.39836	hatv
-4.016866	hau	-0.7211723
-4.653688	hauj	-0.4681472
-4.39836	haul
-4.352658	haur	-0.7111852
-4.051629	haus	-0.4675124
-4.653688	hayy	-0.4681472
-3.051628	hei	-0.7346997
-4.285712	heia	-0.9027878
-4.653688	heiar	-0.4681472
-4.39836	heib
-4.13081	heid	-0.5028523
-4.051629	heid:	-0.5638263
-4.016866	heij	-1.012215
-4.653688	heil	-0.3979304
-4.653688	heilth	-0.4681472
-3.852056	heim	-0.6213322
-3.574507	hein	-0.7781084
-4.352658	heir	-0.6014811
-4.653688	heish	-0.4681472
-4.653688	hgad:h	-0.4681472
-2.861297	hi	-0.611447
-4.39836	hib
-4.653688	hich	-0.6010949
-4.285712	hid	-0.7691771
-4.39836	hiei
-2.966457	hii	-0.8026651
-4.39836	hiid
-4.653688	hiim	-0.4681472
-3.390447	hiin	-1.315722
-4.653688	hiing	-0.4681472
-4.39836	hiit:
-4.653688	hiiud	-0.6019829
-4.653688	hiiy	-0.4681472
-4.653688	hij	-0.4681472
-4.653688	hijj	-0.4681472
-4.13081	hik	-0.9074798
-4.13081	hil	-0.7746505
-4.051629	him	-0.3430596
-3.62566	hin	-0.4852934
-4.285712	hind	-0.7691771
-4.653688	hir	-0.4681472
-4.285712	his	-0.5212625
-4.653688	hish	-0.4681472
-4.653688	hishh	-0.3979111
-4.653688	hiss	-0.4681472
-3.73287	hit	-0.7218875
-4.653688	hit:	-0.4681472
-3.423239	hoo	-0.3922959
-4.285712	hood:	-0.7691771
-4.653688	hooei	-0.601523
-4.352658	hooii	-0.7111852
-4.653688	hool	-0.6001696
-4.39836	hoom
-4.653688	hoomsh	-0.4681472
-3.477597	hoon	-1.06899
-4.653688	hoor	-0.6020311
-4.285712	hoosh	-0.7691771
-4.13081	hoot	-0.5005803
-4.653688	hpur	-0.4681472
-4.39836	hraas
-4.051629	hrxi	-0.6968891
-4.39836	hrxia
-4.653688	hrxishht:	-0.4681472
-3.244319	hu	-0.4317852
-4.39836	huaa
-4.653688	hub	-0.6020408
-4.653688	hud:	-0.4681472
-4.39836	huei
-4.653688	huein	-0.4681472
-4.39836	huii
-4.653688	huk	-0.4681472
-4.39836	hukm
-4.13081	hul	-0.642494
-3.487357	hun	-0.5958397
-4.653688	hunch	-0.4681472
-4.653688	hus	-0.6019925
-4.653688	hut	-0.2640271
-3.551026	huu	-0.6617646
-4.653688	huug	-0.6006212
-3.875537	huun	-0.7083768
-4.352658	huurt	-0.7111852
-4.285712	huut	-0.7691771
-4.285712	hyuum	-0.7691771
-4.653688	hyuun	-0.4681472
-3.081592	i	-0.4872831
-4.653688	ib	-0.5992455
-4.051629	ich	-0.5312346
-4.285712	id:	-0.9016512
-4.653688	ig	-0.6020215
-3.551026	ii	-0.5456128
-4.653688	iid	-0.4681472
-4.653688	iin	-0.3976732
-4.39836	iint:
-4.016866	iis	-0.8738546
-4.352658	iish	-0.8443454
-4.39836	iist:
-4.653688	iit:	-0.4681472
-3.699446	ij	-0.7547894
-3.852056	ik	-0.6253086
-4.39836	ikth
-4.653688	il	-0.6020311
-4.016866	im	-0.7261881
-2.882836	in	-0.6206732
-4.39836	inch
-4.39836	indr
-4.285712	ink	-0.7691771
-4.653688	ins	-0.4681472
-4.653688	ir	-0.3970457
-3.699446	is	-0.507046
-4.653688	ishht:	-0.4681472
-4.653688	ishk	-0.4681472
-4.39836	it
-4.653688	it:s	-0.4681472
-4.653688	ith	-0.6014233
-2.395211	ja	-0.7263058
-2.543099	jaa	-0.5454706
-4.352658	jaab	-0.7111852
-4.13081	jaad	-0.9074798
-4.653688	jaaei	-0.2640271
-4.016866	jaaein	-0.874167
-3.769082	jaag	-0.4076121
-4.051629	jaai	-0.6004115
-4.13081	jaaii	-0.9074798
-4.653688	jaain	-0.4681472
-4.653688	jaaish	-0.4681472
-4.285712	jaaiy	-0.9005083
-4.653688	jaaj	-0.4681472
-4.39836	jaak
-4.653688	jaal	-0.4681472
-4.352658	jaam	-0.7111852
-3.497341	jaan	-0.4441219
-4.653688	jaanch	-0.4681472
-4.653688	jaangh	-0.4681472
-4.653688	jaaoo	-0.3970457
-3.82978	jaaoon	-0.9062622
-4.653688	jaap	-0.3957461
-3.586742	jaar	-1.133115
-4.653688	jaarj	-0.4681472
-4.653688	jaat	-0.2640271
-4.39836	jaau
-4.653688	jaauun	-0.3964174
-4.13081	jaay	-0.6434153
-3.92669	jab	-0.377821
-4.653688	jabt	-0.4681472
-4.39836	jad
-3.92669	jag	-0.5101418
-4.653688	jah	-0.3955911
-3.788387	jai	-0.3961997
-4.653688	jaidh	-0.6018221
-4.653688	jaik	-0.3979304
-4.39836	jaiks
-4.285712	jail	-0.7691771
-4.39836	jain
-4.653688	jaiph	-0.6020054
-4.653688	jait	-0.6006405
-4.39836	jaiv
-4.653688	jaiy	-0.4681472
-4.653688	jaj	-0.3008982
-4.016866	jak	-0.7411484
-4.653688	jakh	-0.6016646
-4.653688	jakhm	-0.4681472
-3.261578	jal	-0.5821933
-4.39836	jald
-4.653688	jalt:	-0.4681472
-3.788387	jam	-0.6787773
-4.653688	jamp	-0.4681472
-2.885297	jan	-0.7050813
-4.39836	jan:
-4.39836	jang
-4.39836	jank
-4.653688	jant	-0.4681472
-4.653688	japh	-0.6019604
-3.216996	jar	-0.6854597
-3.715836	jas	-0.5888309
-4.653688	jast	-0.4681472
-4.39836	jasv
-4.39836	jasy
-3.639448	jat	-0.920226
-4.653688	jat:	-0.4681472
-4.653688	jau	-0.4681472
-4.653688	jaur	-0.6020504
-4.653688	jaush	-0.4681472
-3.788387	jay	-0.3971101
-2.978521	jei	-0.6626179
-4.653688	jeiaar	-0.6014265
-4.653688	jeiab	-0.6020311
-4.285712	jeib	-0.650398
-4.13081	jeiei	-0.7777879
-4.352658	jeig	-0.7111852
-4.653688	jeij	-0.4681472
-4.352658	jeik	-0.3424598
-4.39836	jeikt:
-4.39836	jeil
-3.367382	jein	-0.6892494
-4.653688	jeint:	-0.4681472
-4.285712	jeit	-0.7691771
-4.653688	jeit:s	-0.4681472
-3.92669	jha	-0.4752437
-3.52875	jhaa	-0.6216829
-4.653688	jhaaei	-0.6005374
-3.50756	jhaan	-0.6572792
-4.653688	jhaaoon	-0.4681472
-4.285712	jhaar	-0.903029
-4.39836	jhaav
-4.39836	jhad:
-4.39836	jhag
-4.39836	jhak
-4.39836	jhal
-3.900361	jhan	-0.6878121
-4.653688	jhar	-0.4681472
-4.653688	jhat:	-0.5996949
-4.39836	jhau
-3.82978	jhei	-0.6388733
-4.653688	jheil	-0.3960657
-4.352658	jhein	-0.6011658
-4.39836	jhi
-4.653688	jhii	-0.2640271
-4.653688	jhiil	-0.4681472
-4.653688	jhil	-0.6006212
-4.653688	jhlaa	-0.6005341
-4.39836	jhnei
-3.984682	jhoo	-0.8979568
-4.13081	jhoon	-0.6436168
-4.285712	jhoonk	-0.7691771
-3.769082	jhu	-0.6777717
-4.653688	jhug	-0.601523
-3.900361	jhuk	-0.5791331
-4.653688	jhul	-0.6006405
-4.285712	jhum	-0.9021249
-4.653688	jhun	-0.6020504
-4.653688	jhun:d:	-0.4681472
-4.39836	jhund:
-4.653688	jhut:	-0.5996949
-4.13081	jhuu	-0.4769188
-4.176567	jhuum	-0.5946151
-2.984682	ji	-0.7142598
-4.39836	jid
-4.39836	jidd
-4.39836	jig
-2.585503	jii	-0.8162051
-4.653688	jiiaa	-0.601745
-4.653688	jiib	-0.4681472
-4.39836	jiibh
-3.984682	jiij	-1.042178
-4.176567	jiik	-0.4678101
-4.13081	jiim	-0.9074798
-4.39836	jiioon
-4.653688	jiip	-0.4681472
-4.352658	jiir	-0.4647307
-3.82978	jiit	-0.6392894
-4.653688	jiiv	-0.2975617
-4.653688	jiiy	-0.4681472
-4.653688	jij	-0.4681472
-4.653688	jik	-0.4681472
-4.39836	jikr
-4.352658	jiks	-0.7111852
-4.39836	jil
-3.683652	jim	-0.8188686
-3.683652	jin	-0.4117426
-4.285712	jink	-0.7691771
-4.653688	jinn	-0.4681472
-4.653688	jioon	-0.4681472
-4.285712	jis	-0.2295997
-4.39836	jish
-4.352658	jist:	-0.7111852
-3.62566	jit	-1.096536
-4.653688	jit:	-0.6019154
-4.653688	jitj	-0.4681472
-4.653688	jiy	-0.4681472
-4.39836	jnj~aa
-4.653688	jnj~aan	-0.5998661
-4.653688	jnj~av	-0.6019411
-2.990931	joo	-0.6669697
-4.051629	jood	-0.557263
-3.769082	jood:	-0.6013021
-3.261578	joon	-1.741148
-3.984682	joor	-1.042178
-4.39836	joosh
-4.285712	joot	-0.9012157
-4.653688	jt:i	-0.6020504
-4.653688	jtaa	-0.4681472
-4.653688	jtei	-0.4681472
-3.34548	ju	-0.5932496
-4.653688	jub	-0.6006212
-3.788387	jud	-0.5863679
-4.352658	jud:	-0.3913769
-4.051629	juei	-0.5620196
-4.653688	juein	-0.4681472
-4.13081	jueit:	-0.9074798
-4.653688	jug	-0.6020504
-4.285712	juk	-0.5192996
-3.92669	jul	-0.5621077
-4.352658	jun	-0.4660732
-4.13081	jur	-1.039128
-4.39836	jurg
-4.39836	jurm
-4.13081	jut:	-0.5404766
-3.50756	juu	-0.567189
-4.653688	juud	-0.2640271
-4.653688	juuein	-0.4681472
-4.653688	juujh	-0.3962303
-4.653688	juum	-0.6018189
-4.39836	juun
-4.352658	juur	-0.7111852
-4.653688	juus	-0.4681472
-4.653688	juut:	-0.4681472
-4.39836	jvaa
-4.39836	jvaain
-4.39836	jvaar
-4.653688	jvai	-0.6007663
-4.39836	jval
-4.653688	jveil	-0.4681472
-4.653688	jya	-0.4681472
-4.176567	jyaa	-0.5967543
-4.39836	jyeishht:h
-4.016866	jyoo	-0.7244947
-4.653688	jyoot	-0.5997369
-2.230989	ka	-0.6804551
-2.265114	kaa	-0.659684
-4.39836	kaab
-4.39836	kaad
-4.352658	kaaein	-0.7111852
-4.653688	kaag	-0.3979304
-4.653688	kaai	-0.3978982
-4.176567	kaaii	-0.6049117
-4.653688	kaais	-0.4681472
-4.39836	kaaj
-4.285712	kaak	-0.6514802
-3.449568	kaal	-0.6966048
-3.875537	kaam	-0.2819665
-3.22772	kaan	-0.6398691
-4.653688	kaanch	-0.4681472
-4.653688	kaand	-0.4681472
-4.653688	kaand:	-0.4681472
-4.39836	kaank
-4.653688	kaans	-0.4681472
-4.39836	kaansh
-4.653688	kaant	-0.4681472
-4.653688	kaant:	-0.4681472
-3.715836	kaaoon	-1.297451
-4.39836	kaap
-4.653688	kaaph	-0.5996949
-2.707564	kaar	-0.755794
-4.13081	kaard:	-0.9074798
-4.39836	kaard:s
-3.92669	kaas	-0.6668087
-3.852056	kaash	-0.7273368
-4.653688	kaat	-0.3957461
-4.352658	kaat:	-0.2616982
-4.352658	kaaun	-0.6009274
-4.352658	kaaunt:	-0.7111852
-4.13081	kaauu	-0.9074798
-3.92669	kaav	-0.6629872
-4.39836	kaay
-4.352658	kab	-0.3429546
-4.653688	kabd	-0.4681472
-4.39836	kabj
-4.39836	kabr
-3.699446	kach	-0.6831263
-4.051629	kad	-0.3910348
-4.051629	kad:	-0.4255139
-4.653688	kadr	-0.4681472
-4.352658	kag	-0.8438526
-4.39836	kagr
-4.13081	kah	-0.4734553
-3.304735	kai	-0.5453286
-4.653688	kaid	-0.4681472
-4.653688	kaid:	-0.6013074
-4.285712	kaik	-0.903045
-4.352658	kail	-0.6008532
-3.769082	kaim	-0.6799257
-4.653688	kaimp	-0.4681472
-3.954718	kain	-0.3628516
-4.653688	kaip	-0.4681472
-4.653688	kaiph	-0.4681472
-4.653688	kais	-0.6016099
-4.653688	kait:	-0.6020311
-4.285712	kaiyya:	-0.7691771
-4.352658	kak	-0.341377
-4.653688	kakshh	-0.4681472
-3.0339	kal	-0.850064
-4.653688	kalp	-0.4681472
-4.653688	kalph	-0.4681472
-4.653688	kals	-0.4681472
-3.12221	kam	-0.6735525
-4.653688	kamp	-0.4681472
-2.975474	kan	-0.550942
-4.285712	kan:	-0.7691771
-4.285712	kand	-0.7691771
-4.39836	kand~
-4.653688	kant	-0.4681472
-4.653688	kant:h	-0.4681472
-4.653688	kaoon	-0.4681472
-4.653688	kaoor	-0.4681472
-3.788387	kap	-0.5292547
-2.362171	kar	-0.9106807
-4.653688	karj	-0.4681472
-4.285712	kark	-0.7691771
-4.653688	karm	-0.4681472
-4.39836	karn
-4.39836	karsh
-4.285712	karshh	-0.7691771
-4.653688	kart	-0.4681472
-4.653688	karta:	-0.4681472
-4.285712	karv	-0.7691771
-4.051629	kas	-0.3430859
-3.750598	kash	-0.9518676
-4.653688	kashh	-0.2430284
-4.39836	kashht:
-4.653688	kast	-0.4681472
-3.586742	kat	-0.6350079
-3.80859	kat:	-0.2981197
-4.653688	katl	-0.4681472
-4.39836	katr
-3.487357	kau	-0.6943861
-4.39836	kaul
-4.352658	kaun	-0.3973547
-4.13081	kaur	-0.6439583
-4.39836	kaus
-4.653688	kauv	-0.4681472
-4.285712	kav	-0.6508635
-4.285712	kay	-0.8998387
-4.653688	kd:aa	-0.4681472
-4.39836	kd:oon
-2.653688	kei	-0.7156207
-4.285712	keiaar	-0.8996217
-4.653688	keid	-0.6020408
-4.653688	keieim	-0.4681472
-4.653688	keieiph	-0.6007792
-4.653688	keih	-0.6020182
-4.285712	keij	-0.7691771
-3.954718	keil	-0.7929309
-4.653688	keim	-0.6020086
-3.367382	kein	-0.5251381
-3.900361	keind:	-1.12136
-4.39836	keindr
-4.285712	keis	-0.7691771
-4.352658	keish	-0.4671224
-4.653688	keishhtr	-0.4681472
-4.653688	keit	-0.4681472
-3.639448	keit:	-1.083379
-4.653688	kga	-0.6020311
-2.88039	kha	-0.6640807
-2.946118	khaa	-0.5486701
-4.653688	khaad	-0.1671171
-4.653688	khaad:	-0.5985917
-4.352658	khaaei	-0.467416
-3.900361	khaaein	-1.12136
-4.653688	khaag	-0.6020215
-4.653688	khaaii	-0.4681472
-4.653688	khaaj	-0.6003503
-4.39836	khaak
-4.285712	khaal	-0.7691771
-3.92669	khaan	-0.4873373
-3.984682	khaaoo	-1.042178
-4.352658	khaaoon	-0.4660732
-4.13081	khaar	-0.6440896
-4.653688	khaas	-0.2430284
-4.285712	khaat	-0.6509475
-4.39836	khaav
-4.39836	khad
-4.653688	khag	-0.4681472
-4.39836	khak
-4.016866	khal	-0.5877917
-4.653688	kham	-0.3978018
-3.487357	khan	-0.6300641
-3.852056	khand:	-1.167117
-3.574507	khar	-0.7770354
-4.653688	khas	-0.5992455
-4.176567	khat	-0.3779049
-4.352658	khat:	-0.6007759
-4.653688	khatm	-0.4681472
-4.285712	khauf	-0.7691771
-4.653688	khauph	-0.6020118
-3.367382	khei	-0.59427
-4.13081	kheid	-0.6418523
-4.13081	kheil	-0.4240589
-3.788387	khein	-0.6768959
-4.352658	kheir	-0.4629371
-4.653688	kheish	-0.601523
-4.39836	kheit
-3.338418	khi	-0.7242095
-4.176567	khid	-0.5983875
-4.285712	khid:	-0.6526304
-3.80859	khii	-0.9229496
-3.875537	khiin	-0.417435
-4.39836	khiir
-4.653688	khik	-0.4681472
-3.92669	khil	-0.4853862
-4.39836	khim
-4.653688	khin	-0.3979207
-4.653688	khir	-0.3970876
-4.653688	khis	-0.5996949
-4.13081	khit	-0.9074798
-4.39836	khlaa
-3.497341	khoo	-0.6250736
-4.653688	khood	-0.3962303
-4.653688	khooii	-0.4681472
-4.352658	khooj	-0.3387924
-4.285712	khookh	-0.9007443
-4.653688	khool	-0.1742008
-3.852056	khoon	-1.167117
-4.653688	khooy	-0.4681472
-3.715836	khu	-0.4918906
-4.653688	khud	-0.397625
-3.954718	khul	-0.4857016
-4.352658	khush	-0.339799
-3.92669	khuu	-0.6190743
-4.39836	khuub
-4.285712	khuun	-0.7691771
-4.285712	khuunt:	-0.7691771
-4.352658	khvaa	-0.6014522
-3.92669	khya	-0.6664798
-3.900361	khyaa	-0.5842033
-4.653688	khyaal	-0.4681472
-4.653688	khyaaoon	-0.4681472
-2.873131	ki	-0.6555984
-4.39836	kich
-4.39836	kid:
-4.39836	kiei
-4.653688	kig	-0.5992455
-2.786417	kii	-0.8725395
-4.653688	kiib	-0.4681472
-4.39836	kiil
-4.285712	kiim	-0.9013577
-4.653688	kiin	-0.3967945
-3.80859	kiir	-0.6619103
-4.285712	kiirn:	-0.7691771
-4.285712	kiis	-0.9029872
-4.285712	kiit:	-0.5192996
-4.653688	kiith	-0.4681472
-4.39836	kiiv
-3.954718	kik	-1.070207
-3.852056	kil	-0.8872021
-3.487357	kin	-0.5566525
-3.73287	king	-1.28106
-4.39836	kings
-4.39836	kioon
-4.13081	kir	-0.5028785
-3.683652	kis	-0.4700781
-4.39836	kism
-3.62566	kit	-0.5176263
-4.13081	kit:	-0.9074798
-4.653688	kit:s	-0.4681472
-4.39836	kithth
-4.285712	kiy	-0.7691771
-4.653688	kla	-0.601925
-3.92669	klaa	-0.6973957
-4.285712	klaaj	-0.7691771
-4.653688	klaark	-0.4681472
-4.653688	klaas	-0.2992977
-4.39836	klab
-4.39836	klark
-4.653688	klei	-0.6020408
-4.653688	kleim	-0.4681472
-4.285712	kli	-0.9009639
-4.051629	klii	-0.6982881
-4.39836	kliin
-4.39836	klin
-4.653688	kliph	-0.4681472
-4.176567	kloo	-0.6007855
-4.653688	knaa	-0.4681472
-4.39836	kndoon
-4.051629	knei	-0.9800305
-4.653688	kneir	-0.4681472
-4.653688	ko-l	-0.6020408
-2.972447	koo	-0.5297158
-4.352658	kooch	-0.7111852
-4.39836	kood:
-4.653688	koods	-0.4681472
-4.13081	kooh	-0.5011209
-4.39836	kooii
-4.653688	kooj	-0.6009145
-4.653688	kookh	-0.4681472
-4.39836	kool
-2.709206	koon	-2.289333
-4.39836	koon:
-3.900361	koop	-0.8437976
-4.352658	koor	-0.4678671
-4.39836	koors
-4.39836	koort:
-4.352658	koos	-0.4650612
-4.653688	koosh	-0.4681472
-4.653688	kooshh	-0.4681472
-4.39836	koot
-3.82978	koot:	-0.9042838
-4.285712	koot:h	-0.900741
-4.653688	koot:s	-0.4681472
-4.352658	koov	-0.7111852
-4.39836	kooy
-4.653688	kpuurn:	-0.4681472
-3.852056	kra	-0.5247439
-4.653688	kraa	-0.3009818
-4.653688	kraaaist:	-0.4681472
-4.653688	kraaist:	-0.4681472
-3.788387	kraan	-0.9180981
-4.285712	kraapht:	-0.7691771
-4.39836	kraas
-4.39836	kraaun
-4.016866	kram	-1.012215
-4.39836	krat
-4.352658	krei	-0.5970991
-3.43184	kri	-0.5661873
-4.352658	krii	-0.4680771
-4.39836	kriim
-4.653688	krip	-0.6020504
-4.653688	krips	-0.4681472
-4.653688	kripsh	-0.4681472
-4.352658	kris	-0.477102
-4.39836	krish
-4.653688	krit	-0.3978982
-4.39836	kriy
-4.016866	kroo	-0.6274883
-4.39836	kroodh
-4.653688	kruul	-0.4681472
-4.352658	kruur	-0.3978404
-4.051629	krxi	-0.528755
-3.653688	krxishh	-0.7776882
-3.984682	krxishht:	-1.042178
-4.39836	krxishht:h
-4.39836	krxit
-4.39836	ksan
-4.653688	kshaap	-0.4681472
-4.285712	kshan	-0.7691771
-4.39836	kshei
-4.285712	ksheit	-0.9008961
-4.285712	kshha	-0.436848
-4.051629	kshhaa	-0.9800305
-4.653688	kshhaaoon	-0.4681472
-4.39836	kshhai
-4.285712	kshham	-0.8992685
-4.653688	kshhan:	-0.601925
-4.653688	kshhei	-0.6013911
-4.653688	kshheip	-0.4681472
-4.176567	kshheit	-0.5082498
-4.39836	kshheitr
-4.39836	kshhi
-4.39836	kshhii
-4.285712	kshhiir	-0.7691771
-4.653688	kshhin	-0.601478
-4.39836	kshhipt
-4.653688	kshhn:oon	-0.4681472
-4.653688	kshhut:h	-0.6009048
-4.653688	ksijm	-0.4681472
-4.653688	ksoo	-0.6014072
-4.39836	ksvaad
-4.285712	kt:ik	-0.7691771
-4.39836	ktaa
-4.39836	kte
-4.653688	ktei	-0.4681472
-4.13081	kti	-0.6309696
-2.9055	ku	-0.6381707
-4.653688	kuaa	-0.4681472
-4.39836	kuaan
-3.92669	kuch	-0.562781
-4.653688	kud	-0.3973644
-4.653688	kudrishh	-0.6016421
-4.653688	kuei	-0.4681472
-4.653688	kuein	-0.4681472
-4.13081	kuk	-0.7780002
-4.653688	kukh	-0.6019025
-3.954718	kul	-0.4512845
-4.285712	kum	-0.6528814
-4.285712	kumbh	-0.7691771
-3.255748	kun	-0.6585208
-4.176567	kund:	-0.8660871
-4.653688	kup	-0.5998661
-3.683652	kur	-0.557548
-4.653688	kurg	-0.4681472
-4.653688	kush	-0.2640271
-4.39836	kut
-4.352658	kut:	-0.7111852
-3.359958	kuu	-0.6337239
-4.285712	kuuch	-0.7691771
-4.352658	kuud	-0.4634193
-4.39836	kuul
-4.285712	kuun	-0.7691771
-4.653688	kuung	-0.4681472
-4.39836	kuuph
-4.39836	kuut:
-4.285712	kuv	-0.9029454
-4.653688	kva	-0.6020279
-3.984682	kvaa	-0.7518985
-4.653688	kvaad	-0.4681472
-4.352658	kvaan	-0.6013685
-4.653688	kvaar	-0.6015102
-4.653688	kvaayr	-0.4681472
-4.653688	kvei	-0.6020279
-4.39836	kviin
-3.984682	kvij	-1.042178
-4.653688	kvik	-0.4681472
-4.39836	kyaa
-4.39836	kyoo
-4.653688	kyoon	-0.397358
-4.39836	kyuu
-2.526584	la	-0.5526977
-2.268678	laa	-0.6730967
-4.39836	laab
-4.39836	laabh
-3.82978	laad	-0.9058892
-4.653688	laad:	-0.6008919
-3.875537	laaei	-0.7103227
-3.82978	laaein	-1.188306
-4.176567	laag	-0.8660871
-4.352658	laah	-0.7111852
-4.352658	laai	-0.3979111
-4.653688	laaib	-0.6007469
-4.653688	laaig	-0.4681472
-3.653688	laaii	-1.069879
-4.653688	laaiiks	-0.4681472
-4.653688	laaiiph	-0.4681472
-4.39836	laaiit:
-4.176567	laain	-0.4676831
-4.653688	laait:	-0.4681472
-4.176567	laaj	-0.4666178
-4.016866	laak	-0.872806
-3.599331	laal	-0.9567649
-3.788387	laam	-1.227815
-3.639448	laan	-0.6002825
-4.285712	laang	-0.7691771
-3.852056	laaoon	-1.167117
-4.051629	laap	-0.5619316
-4.39836	laaph
-4.653688	laar	-0.4681472
-4.285712	laard:	-0.7691771
-4.653688	laarm	-0.4681472
-3.82978	laas	-1.188306
-4.285712	laash	-0.6513382
-4.653688	laast:	-0.4681472
-4.352658	laat	-0.4676394
-4.653688	laaud:	-0.4681472
-4.13081	laauu	-0.7752106
-4.352658	laav	-0.7111852
-4.39836	laay
-4.051629	lab	-0.3965721
-4.352658	labdh	-0.7111852
-4.352658	labh	-0.4697974
-4.653688	labjh	-0.4681472
-3.788387	lad	-0.4670895
-4.176567	lad:	-0.3227457
-4.016866	lag	-0.3629864
-4.653688	lagn	-0.4681472
-4.653688	lagr	-0.4681472
-4.176567	lah	-0.737477
-4.051629	lai	-0.5649608
-4.653688	laib	-0.3957461
-4.653688	laid:	-0.601761
-4.653688	laik	-0.5997369
-4.653688	laimp	-0.4681472
-3.92669	lain	-0.5647508
-4.653688	laind	-0.4681472
-3.539745	laind:	-1.468147
-3.984682	laip	-0.7691334
-4.285712	lais	-0.7691771
-4.653688	lait:	-0.6020086
-4.653688	laj	-0.6015906
-4.653688	lajh	-0.2640271
-3.279551	lak	-0.5646258
-4.352658	lakh	-0.7111852
-3.487357	lam	-0.5031271
-3.157682	lan	-0.7749651
-4.39836	lanch
-4.653688	land	-0.4681472
-4.653688	lank	-0.4681472
-4.653688	lant:	-0.4681472
-4.653688	laoon	-0.4681472
-4.176567	lap	-0.4655498
-4.653688	laph	-0.6020021
-3.477597	lar	-1.528845
-3.92669	las	-0.6629608
-3.900361	lat	-1.12136
-3.852056	lat:	-0.8840539
-4.653688	lat:h	-0.6017289
-4.285712	lath	-0.9030579
-3.562608	lau	-0.547665
-4.653688	laud	-0.6019829
-4.13081	laun	-0.6441684
-4.352658	laut:	-0.4714088
-4.653688	lav	-0.5985885
-3.750598	lay	-0.7091068
-2.570903	lei	-0.7533955
-4.653688	leiaam	-0.4681472
-4.653688	leich	-0.6017257
-4.653688	leij	-0.3979111
-3.639448	leik	-0.6462433
-4.352658	leikh	-0.4655939
-4.39836	leiks
-4.653688	leikt	-0.4681472
-4.285712	leim	-0.7691771
-3.162327	lein	-1.019161
-4.653688	leind:	-0.4681472
-4.13081	leins	-0.9074798
-4.39836	leip
-4.285712	leiph	-0.6515963
-4.285712	leipht:	-0.7691771
-4.653688	leir	-0.6020504
-4.016866	leis	-0.5910999
-4.13081	leish	-0.6432136
-4.653688	leit	-0.4681472
-3.80859	leit:	-0.9244561
-4.352658	leit:s	-0.7111852
-2.60447	li	-0.609541
-4.653688	lid:s	-0.4681472
-4.051629	liei	-0.5265343
-4.653688	lieiap	-0.6001922
-4.653688	lieint:	-0.4681472
-4.653688	lieish	-0.6020215
-4.39836	lieiy
-4.285712	lig	-0.7691771
-2.480502	lii	-1.029135
-4.653688	liibs	-0.4681472
-4.176567	liij	-0.8660871
-4.653688	liik	-0.4681472
-4.352658	liil	-0.7111852
-3.458712	liin	-1.250043
-4.653688	liiph	-0.4681472
-4.653688	liis	-0.4681472
-4.653688	liit:	-0.4681472
-4.39836	liiy
-3.599331	lik	-0.9519134
-4.352658	likh	-0.3397052
-4.39836	likht
-4.352658	lil	-0.7111852
-4.13081	lim	-0.6441246
-3.562608	lin	-0.6572929
-4.653688	lind	-0.4681472
-3.73287	ling	-1.28106
-4.653688	linh	-0.4681472
-4.653688	link	-0.4681472
-4.352658	lip	-0.6020311
-4.39836	liph
-4.285712	lipht:	-0.7691771
-4.39836	lipt
-3.73287	lis	-0.5705271
-4.352658	lish	-0.7111852
-4.352658	list:	-0.7111852
-3.551026	lit	-1.162385
-4.39836	lit:
-3.13081	loo	-0.4448842
-4.653688	looars	-0.4681472
-4.39836	loobh
-4.13081	looch	-0.6416939
-4.285712	lood:	-0.7691771
-4.39836	loog
-4.653688	looh	-0.2640271
-4.39836	loohdi:
-4.653688	looii	-0.4681472
-3.668412	look	-0.3710807
-4.285712	loom	-0.9019413
-2.969442	loon	-2.03044
-4.653688	loop	-0.4681472
-4.653688	loor	-0.4681472
-4.653688	loos	-0.4681472
-4.653688	loou	-0.4681472
-4.653688	lrxi	-0.6020118
-3.518026	lu	-0.5323868
-4.653688	luei	-0.6019636
-4.285712	luiis	-0.7691771
-4.653688	luj	-0.4681472
-4.653688	luk	-0.4681472
-4.13081	lup	-0.6441815
-4.39836	lupt
-4.352658	lur	-0.7111852
-3.423239	luu	-0.5492406
-4.653688	luuij	-0.4681472
-4.653688	luuk	-0.4681472
-3.900361	luun	-0.8417369
-4.653688	luun:	-0.6001696
-4.653688	luuoon	-0.4681472
-4.176567	luur	-0.8660871
-4.653688	luus	-0.4681472
-4.653688	luut:	-0.2993203
-4.653688	luuth	-0.6014715
-4.39836	luuv
-4.285712	lvaad	-0.7691771
-4.653688	lyei	-0.601761
-4.653688	lyu	-0.4681472
-3.900361	lyuu	-0.8429482
-4.653688	lyuul	-0.6011174
-2.162794	ma	-0.5599447
-2.283854	maa	-0.5838339
-4.653688	maad	-0.4681472
-4.653688	maad:	-0.6008919
-4.39836	maadh
-4.653688	maaeit	-0.4681472
-4.39836	maag
-4.352658	maai	-0.8446962
-4.653688	maaii	-0.4681472
-4.13081	maaik	-1.040238
-4.285712	maail	-0.7691771
-4.352658	maain	-0.4658754
-4.285712	maaind:s	-0.7691771
-3.586742	maaj	-0.691172
-4.13081	maak	-0.7743102
-3.852056	maal	-0.4808385
-4.39836	maam
-2.856652	maan	-0.566896
-3.769082	maan:	-0.8021377
-4.39836	maanch
-4.653688	maand:	-0.4681472
-4.39836	maandl
-4.39836	maang
-4.653688	maanr	-0.4681472
-4.285712	maans	-0.7691771
-4.285712	maaoon	-0.7691771
-4.13081	maap	-0.6295015
-4.39836	maapt
-3.117972	maar	-0.5881729
-4.39836	maarch
-4.352658	maarg	-0.7111852
-4.285712	maark	-0.7691771
-4.285712	maarks	-0.7691771
-4.016866	maas	-0.6274979
-4.653688	maash	-0.4681472
-4.653688	maashh	-0.6020504
-3.92669	maat	-0.5128828
-4.653688	maat:	-0.601478
-4.39836	maatr
-4.352658	maaun	-0.6020407
-4.653688	maaur	-0.4681472
-4.653688	maaus	-0.4681472
-4.285712	maaut	-0.9005827
-4.653688	maauus	-0.4681472
-4.176567	maav	-0.4676262
-4.39836	mabh
-4.39836	mabr
-4.13081	mach	-0.6366356
-3.62566	mad	-0.7208336
-4.653688	mad:	-0.6003277
-4.653688	mad:d:	-0.4681472
-3.788387	madh	-0.7246318
-4.352658	mag	-0.26606
-4.352658	magn	-0.7111852
-4.352658	mah	-0.3429459
-3.222325	mai	-0.485885
-4.39836	maich
-4.352658	maig	-0.6001018
-4.39836	maii
-3.92669	maik	-0.5637473
-4.653688	maim	-0.4681472
-3.73287	main	-0.5712273
-4.653688	mait	-0.5997111
-4.13081	mait:	-0.7749808
-4.051629	maj	-0.5301079
-4.285712	majh	-0.2991621
-3.066352	mak	-0.7848498
-4.653688	makh	-0.6019154
-4.39836	makshh
-4.653688	makt	-0.4681472
-3.477597	mal	-0.6422392
-4.352658	mam	-0.4629371
-4.285712	mams	-0.7691771
-2.64651	man	-0.5798476
-3.852056	man:	-0.4267722
-4.39836	manch
-4.051629	mand	-0.9800305
-4.016866	mand:	-1.012215
-4.653688	mand:al	-0.4681472
-4.39836	mang
-4.653688	mank	-0.4681472
-4.653688	mans	-0.4681472
-4.653688	map	-0.6012945
-3.117972	mar	-0.5373102
-4.653688	mard	-0.4681472
-4.39836	mark
-4.653688	mars	-0.4681472
-4.39836	marsh
-4.39836	marth
-3.497341	mas	-0.4178859
-4.39836	mash
-4.285712	mashh	-0.9026721
-4.285712	mast	-0.7691771
-3.683652	mat	-0.3798516
-4.13081	mat:	-0.6440371
-4.352658	math	-0.4680115
-3.518026	mau	-0.4915865
-4.653688	maud	-0.6018961
-4.653688	maud:	-0.6016614
-4.285712	mauk	-0.9030675
-4.653688	maun	-0.3969749
-4.39836	maunt
-4.39836	maut
-3.788387	may	-0.7853284
-2.865992	mei	-0.5228086
-4.39836	meib
-4.176567	meigh	-0.6063667
-4.285712	meih	-0.5222741
-4.39836	meiht
-4.285712	meij	-0.5220939
-4.285712	meik	-0.6522699
-4.653688	meil	-0.4681472
-4.285712	meim	-0.7691771
-3.374935	mein	-0.8805455
-4.653688	meins	-0.4681472
-3.539745	meint:	-1.468147
-4.016866	meir	-0.5908317
-3.900361	meis	-1.12136
-4.051629	meish	-0.5623411
-4.016866	meit	-0.589709
-4.13081	meit:	-0.642674
-4.653688	meith	-0.4681472
-2.69784	mi	-0.7164383
-4.39836	miaa
-4.653688	mib	-0.6020504
-4.653688	mid:	-0.3979014
-4.653688	mids	-0.4681472
-4.653688	mig	-0.4681472
-2.761594	mii	-0.7637042
-3.80859	miid	-0.7927744
-4.285712	miik	-0.6531418
-4.39836	miil
-3.518026	miin	-1.029817
-4.352658	miin:	-0.7111852
-4.285712	miip	-0.7691771
-4.653688	miipy	-0.4681472
-4.016866	miir	-0.7359384
-4.39836	miish
-4.653688	miit:	-0.4681472
-4.39836	miiy
-3.750598	mik	-0.7089661
-3.668412	mil	-0.394524
-3.788387	min	-0.4304409
-4.13081	ming	-0.9074798
-4.653688	mir	-0.6008146
-4.051629	mis	-0.4616114
-4.13081	mish	-0.633616
-4.653688	mishr	-0.4681472
-4.285712	miss	-0.7691771
-3.382622	mit	-0.754936
-4.285712	mit:	-0.3889658
-4.653688	mitr	-0.4681472
-4.285712	mka	-0.9010737
-4.653688	mkaa	-0.6009113
-4.653688	mkan	-0.6020504
-4.653688	mmat	-0.6017932
-4.653688	mnaa	-0.4681472
-4.39836	mo-
-3.030439	moo	-0.524864
-3.92669	mood	-0.6191781
-4.653688	mood:	-0.5982385
-4.653688	mood:h	-0.6003503
-4.016866	mooh	-0.7410084
-4.653688	mooii	-0.6019829
-4.653688	mooj	-0.4681472
-4.13081	mook	-0.5028961
-4.653688	mool	-0.4681472
-4.176567	moom	-0.6063448
-3.040905	moon	-1.365814
-4.653688	moons	-0.4681472
-4.39836	moor
-3.984682	moot	-0.9029326
-4.653688	mrxi	-0.3954553
-3.82978	mrxit	-0.7777397
-4.653688	msa	-0.6020504
-4.285712	msam	-0.9024854
-4.39836	mshaa
-4.285712	mshaastr	-0.7691771
-4.653688	mtyaag	-0.4681472
-2.92669	mu	-0.4355828
-4.653688	muaa	-0.4681472
-4.653688	muat	-0.6019668
-4.653688	much	-0.4681472
-3.653688	mud	-0.4641528
-4.352658	mud:	-0.4657874
-4.653688	mudr	-0.4681472
-4.653688	muei	-0.6018125
-4.285712	mueil	-0.7691771
-3.984682	mug	-0.9021862
-4.653688	mugdh	-0.4681472
-4.39836	muh
-4.653688	muii	-0.4681472
-4.352658	mujh	-0.4760659
-4.653688	muk	-0.6018221
-3.699446	mukh	-0.5462031
-4.39836	mukhy
-3.82978	mukt	-1.188306
-4.352658	mul	-0.4735687
-4.285712	mum	-0.6529778
-3.92669	mun	-0.4291452
-4.39836	munh
-4.39836	mupht
-3.954718	mur	-0.4935615
-4.016866	mus	-0.4989475
-4.39836	mush
-4.352658	mut	-0.467924
-4.39836	mut:h
-3.574507	muu	-0.5572228
-4.653688	muud:	-0.4681472
-4.653688	muug	-0.6018961
-4.653688	muuh	-0.4681472
-4.39836	muuk
-3.788387	muul	-0.4715814
-4.39836	muuly
-4.653688	muun	-0.2640271
-4.653688	muung	-0.4681472
-4.653688	muunj	-0.4681472
-3.92669	muur	-0.6964335
-4.285712	muurkh	-0.7691771
-4.39836	muut
-4.39836	muutr
-4.653688	muuv	-0.6019347
-4.285712	mvish	-0.9028843
-4.653688	myoong	-0.4681472
-4.352658	myu	-0.8429719
-4.653688	myuu	-0.5999339
-3.62566	n:a	-0.3673172
-3.331469	n:aa	-0.683026
-4.653688	n:aaein	-0.4681472
-4.653688	n:aaii	-0.4681472
-4.285712	n:aam	-0.5192996
-3.900361	n:aaoon	-1.12136
-4.285712	n:aar	-0.9029261
-4.653688	n:aas	-0.6020504
-4.352658	n:aat	-0.8447251
-4.285712	n:aav	-0.9026624
-4.653688	n:ak	-0.5985885
-4.13081	n:am	-0.9074798
-3.954718	n:an	-0.6426037
-4.653688	n:ant	-0.4681472
-4.39836	n:as
-4.285712	n:at	-0.7691771
-4.285712	n:av	-0.7691771
-4.653688	n:ay	-0.4681472
-4.285712	n:baai	-0.7691771
-4.13081	n:ei	-0.6442077
-4.285712	n:ein	-0.7691771
-4.016866	n:eish	-0.7396104
-3.539745	n:i	-0.5489743
-3.13081	n:ii	-1.176522
-4.653688	n:iik	-0.6018221
-4.653688	n:iin	-0.60179
-4.39836	n:ij
-4.051629	n:ik	-0.7059751
-4.39836	n:im
-4.176567	n:it	-0.8660871
-4.653688	n:iy	-0.4681472
-3.414806	n:oon	-1.590363
-4.653688	n:oot	-0.5997369
-4.016866	n:taa	-1.012215
-4.176567	n:u	-0.6012397
-4.13081	n:uoon	-0.9074798
-4.653688	n:ya	-0.4681472
-2.23983	na	-0.6135895
-2.099401	naa	-0.7543616
-4.13081	naach	-0.40758
-4.352658	naad	-0.4681472
-3.954718	naaei	-0.6414298
-4.653688	naaeik	-0.4681472
-3.539745	naaein	-1.468147
-4.352658	naag	-0.3954262
-4.051629	naai	-0.5297434
-4.653688	naaich	-0.6009048
-4.39836	naaii
-4.653688	naaiin	-0.4681472
-4.285712	naaiit:	-0.9028393
-4.653688	naain	-0.4681472
-3.82978	naait:	-0.6441814
-4.653688	naaj	-0.4681472
-3.954718	naak	-0.5423081
-3.92669	naal	-0.5643873
-4.352658	naald:	-0.7111852
-3.562608	naam	-0.6126212
-4.285712	naan	-0.9014738
-4.653688	naank	-0.4681472
-4.653688	naans	-0.4681472
-3.612296	naaoon	-1.397566
-4.653688	naap	-0.5985917
-3.62566	naar	-0.7318717
-4.13081	naarth	-0.9074798
-3.769082	naas	-0.8273714
-4.016866	naash	-0.4199244
-3.668412	naat	-0.8935643
-3.852056	naat:	-0.72636
-4.39836	naat:y
-3.449568	naath	-0.9787778
-3.769082	naav	-0.6084625
-4.352658	naay	-0.4680684
-4.285712	nab	-0.7691771
-4.653688	nabh	-0.4681472
-4.176567	nad	-0.6063929
-4.352658	nad:	-0.4649246
-4.39836	nadh
-4.176567	nag	-0.594131
-4.352658	nagr	-0.7111852
-3.62566	nah	-0.5550262
-3.80859	nai	-0.5158718
-4.653688	nait	-0.6009048
-3.984682	nait:	-0.902775
-4.653688	naj	-0.3967913
-3.406534	nak	-1.016146
-3.750598	nal	-1.264027
-4.653688	nald:	-0.4681472
-4.352658	nals	-0.7111852
-3.639448	nam	-0.5948139
-3.22772	nan	-0.5876639
-3.539745	nand	-1.468147
-4.352658	nant	-0.7111852
-4.653688	naoon	-0.4681472
-4.176567	nap	-0.4623744
-4.653688	naph	-0.6018029
-4.285712	napp	-0.7691771
-3.048024	nar	-0.678284
-4.653688	nars	-0.4681472
-3.359958	nas	-0.6234258
-4.653688	nash	-0.6013074
-4.653688	nashch	-0.4681472
-4.39836	nasht
-4.285712	nasth	-0.7691771
-3.73287	nat	-0.7186532
-4.39836	nat:
-4.653688	nath	-0.397181
-4.653688	natv	-0.4681472
-3.612296	nau	-0.5887603
-4.352658	nauk	-0.3400079
-4.653688	naulr	-0.4681472
-4.176567	naun	-0.3769808
-4.39836	naup
-4.653688	naut	-0.4681472
-4.653688	nauun	-0.601523
-3.50756	nav	-0.5973883
-4.016866	nay	-1.012215
-4.653688	nchit	-0.4681472
-4.285712	ndhan	-0.7691771
-4.653688	ndhei	-0.4681472
-4.653688	nd~at	-0.6000437
-4.653688	nd~oon	-0.4681472
-3.92669	ne	-0.8195459
-2.365887	nei	-1.25693
-4.39836	neih
-4.653688	neij	-0.4681472
-3.92669	neik	-0.5596256
-4.016866	neil	-0.7411484
-4.13081	neim	-0.9074798
-3.406534	nein	-1.016199
-4.653688	neins	-0.4681472
-4.39836	neint:
-3.954718	neir	-0.7937177
-3.52875	neis	-0.6377248
-3.769082	neish	-0.6808853
-4.653688	neisht	-0.4681472
-4.176567	neit	-0.599572
-3.788387	neit:	-0.6745689
-4.653688	neitr	-0.4681472
-4.39836	neiuu
-4.653688	neiy	-0.6017932
-4.653688	nhein	-0.4681472
-2.311266	ni	-0.6058662
-4.39836	ni:ti
-4.653688	nib	-0.5988087
-4.653688	nich	-0.6006212
-4.016866	nid	-0.5891401
-4.653688	nid:	-0.6020311
-4.39836	nidh
-4.39836	nidr
-4.653688	nidv	-0.4681472
-4.39836	nig
-2.367382	nii	-1.060617
-4.39836	niich
-4.653688	niid	-0.5998661
-4.352658	niij	-0.7111852
-4.285712	niik	-0.5227598
-4.016866	niil	-0.5926263
-4.176567	niim	-0.8660871
-4.285712	niin	-0.90282
-4.39836	niind
-4.653688	niing	-0.4681472
-4.39836	niinv
-4.285712	niir	-0.7691771
-4.39836	niish
-4.285712	niit	-0.7691771
-4.653688	niit:	-0.6007792
-4.653688	niitv	-0.4681472
-4.653688	niiy	-0.4681472
-4.653688	nij	-0.6019411
-4.653688	nijj	-0.4681472
-3.273477	nik	-0.8552541
-4.285712	niks	-0.7691771
-4.653688	nikt	-0.4681472
-4.653688	niky	-0.4681472
-4.653688	nil	-0.3979079
-3.954718	nim	-0.4651845
-3.52875	nin	-0.775912
-3.852056	ning	-1.167117
-4.285712	nint:	-0.7691771
-4.352658	nip	-0.8444355
-3.113776	nir	-0.6121203
-3.562608	nis	-0.6092875
-3.518026	nish	-0.6519318
-3.574507	nishh	-0.6284757
-4.285712	nishht:	-0.7691771
-4.653688	nishht:h	-0.4681472
-4.653688	nishk	-0.4681472
-4.285712	nisht:h	-0.7691771
-4.653688	nist	-0.4681472
-4.352658	nist:	-0.7111852
-4.352658	nit	-0.4634149
-4.39836	niv
-4.051629	niy	-0.9800305
-3.176567	noo	-0.5808216
-4.653688	nooaam	-0.4681472
-4.653688	nood	-0.4681472
-4.653688	nooei	-0.6015134
-4.285712	nool	-0.9028425
-2.69784	noon	-1.82662
-4.352658	noop	-0.6014233
-4.653688	noos	-0.6013492
-4.653688	noost	-0.4681472
-4.39836	noot
-4.653688	noot:s	-0.4681472
-4.653688	noov	-0.6019411
-4.352658	nra	-0.599501
-4.653688	nrei	-0.6007792
-4.653688	nrood	-0.4681472
-4.13081	nrxit	-0.7720773
-4.39836	nsan
-4.39836	nshhat
-4.352658	ntaa	-0.7111852
-4.653688	ntah	-0.4681472
-4.39836	ntii
-2.761594	nu	-0.5894315
-4.653688	nua	-0.5997111
-4.285712	nual	-0.7691771
-4.39836	nuch
-4.285712	nug	-0.9029614
-4.352658	nuk	-0.6015873
-4.39836	nul
-4.653688	nun	-0.6019668
-3.92669	nup	-0.8014363
-4.176567	nur	-0.6061304
-4.352658	nus	-0.5994686
-4.653688	nush	-0.5985885
-4.016866	nushh	-0.622315
-3.82978	nuu	-0.5011122
-4.176567	nuun	-0.4650567
-4.13081	nuur	-0.6441071
-4.653688	nvaa	-0.4681472
-4.653688	nya	-0.4681472
-3.852056	nyaa	-0.4763951
-4.39836	nyau
-4.653688	nyoo	-0.601864
-4.051629	nyuu	-0.427298
-4.653688	nyuud:	-0.4681472
-4.653688	nyuuj	-0.3976378
-4.653688	nyuuk	-0.6019508
-4.653688	nyuut:	-0.5997111
-3.551026	oo	-0.563283
-4.653688	ooj	-0.6018736
-4.653688	ook	-0.4681472
-4.352658	oom	-0.7111852
-4.39836	oon
-4.653688	oont:	-0.4681472
-4.653688	oor	-0.3977439
-4.39836	oosh
-4.39836	ooshh
-4.285712	oot	-0.9030353
-2.199352	pa	-0.7348293
-2.574507	paa	-0.5133095
-4.39836	paach
-4.285712	paad	-0.5192996
-4.352658	paad:h	-0.7111852
-4.39836	paadh
-4.653688	paaei	-0.3964174
-3.900361	paaein	-0.9762912
-4.285712	paai	-0.903029
-3.852056	paaii	-0.7298945
-4.285712	paaiips	-0.7691771
-4.352658	paaip	-0.4770409
-4.653688	paaks	-0.4681472
-3.586742	paal	-0.6409409
-3.285712	paan	-0.6392896
-4.39836	paanch
-4.653688	paap	-0.3009593
-3.382622	paar	-0.5599179
-4.39836	paark
-4.352658	paart:	-0.7111852
-3.82978	paas	-0.7454084
-4.653688	paash	-0.6020182
-4.285712	paast:	-0.7691771
-3.668412	paat	-0.6907752
-4.653688	paat:	-0.599501
-3.954718	paat:h	-0.3568184
-4.285712	paat:hy	-0.7691771
-4.653688	paath	-0.3944685
-4.39836	paatr
-4.352658	paauun	-0.467416
-4.352658	paay	-0.468064
-4.653688	pab	-0.1671171
-4.653688	pachh	-0.5982385
-3.29196	pad	-0.6230977
-4.653688	pad:	-0.2640271
-4.352658	pad:h	-0.3960399
-4.39836	paeij
-4.352658	pag	-0.6019925
-3.954718	pah	-0.4925327
-3.398416	pai	-0.5272198
-4.39836	paid:
-4.39836	paik
-4.285712	paikt:	-0.7691771
-4.39836	pain
-4.39836	pair
-3.900361	pait	-0.5846425
-4.653688	pait:	-0.6019861
-4.653688	pait:h	-0.4681472
-4.176567	paj	-0.6038966
-3.216996	pak	-0.5471036
-4.39836	pakh
-3.984682	pakshh	-1.042178
-4.39836	pakv
-3.477597	pal	-0.6762023
-4.285712	pamp	-0.7691771
-2.812746	pan	-0.7041509
-3.539745	pan:	-1.468147
-4.352658	panch	-0.7111852
-4.285712	pang	-0.7691771
-4.39836	pankh
-4.285712	pann	-0.7691771
-4.13081	pant	-0.9074798
-4.653688	panth	-0.4681472
-3.984682	pap	-0.7683322
-4.653688	paphph	-0.4681472
-2.823313	par	-0.6878813
-4.39836	park
-4.653688	parl	-0.4681472
-4.051629	pars	-0.9800305
-4.653688	part	-0.4681472
-4.39836	parv
-3.769082	pas	-0.4888128
-3.769082	pash	-0.7469683
-4.653688	pashch	-0.4681472
-4.39836	pashht:
-4.653688	pasr	-0.4681472
-2.966457	pat	-0.6337098
-3.612296	pat:	-0.619593
-4.13081	path	-0.6417907
-4.285712	patr	-0.7691771
-3.73287	pau	-0.5702131
-4.653688	paud:	-0.4681472
-4.13081	paun	-0.7779616
-4.13081	paund:	-0.9074798
-4.39836	paur
-4.653688	paus	-0.6007469
-4.39836	paushh
-4.653688	pautr	-0.4681472
-3.157682	pei	-0.519964
-4.285712	peiar	-0.7691771
-4.653688	peid	-0.4681472
-4.39836	peid:
-4.653688	peij	-0.4681472
-4.176567	peik	-0.5117548
-4.39836	peiksh
-4.39836	peikshh
-3.683652	pein	-0.4726796
-4.653688	peind:	-0.4681472
-4.39836	peint:
-4.653688	peint:s	-0.4681472
-4.653688	peip	-0.6007792
-4.653688	peir	-0.4681472
-3.984682	peis	-1.042178
-4.653688	peish	-0.3979014
-4.653688	peist:	-0.4681472
-4.352658	peit:	-0.466574
-3.139584	pha	-0.582682
-3.374935	phaa	-0.4939876
-4.285712	phaad	-0.9012157
-4.653688	phaad:	-0.4681472
-3.92669	phaai	-0.6636147
-4.352658	phaaid:	-0.7111852
-4.13081	phaaii	-0.6434897
-4.285712	phaak	-0.6521572
-4.016866	phaal	-0.4930961
-4.39836	phaan
-4.176567	phaar	-0.3777692
-4.653688	phaarm	-0.4681472
-4.352658	phaas	-0.6019667
-4.653688	phaast:	-0.4681472
-4.352658	phaaun	-0.6014972
-4.285712	phaay	-0.6514802
-4.39836	phah
-3.574507	phai	-0.565576
-4.39836	phaik
-3.852056	phail	-0.425927
-4.39836	phain
-4.39836	phais
-4.653688	phait:	-0.4681472
-4.39836	phakh
-3.639448	phal	-0.5946676
-4.352658	pham	-0.7111852
-3.788387	phan	-0.5310774
-4.285712	phans	-0.7691771
-3.639448	phar	-0.41351
-4.653688	phard:	-0.4681472
-4.39836	pharj
-4.39836	phark
-4.653688	pharm	-0.4681472
-4.653688	phars	-0.4681472
-4.285712	pharsh	-0.7691771
-4.285712	phas	-0.9026914
-4.352658	phat	-0.7111852
-4.352658	phau	-0.4768737
-4.39836	phauj
-4.352658	phav	-0.8423806
-3.574507	phei	-0.552377
-4.39836	pheid
-4.39836	pheid:
-4.285712	pheik	-0.9025015
-4.653688	pheikt:	-0.4681472
-4.285712	pheil	-0.7691771
-4.051629	phein	-0.3956847
-4.39836	pheins
-4.39836	pheiph
-4.352658	pheir	-0.4655719
-4.653688	pheis	-0.3975221
-4.653688	pheit	-0.4681472
-3.162327	phi	-0.7630063
-3.518026	phii	-0.7534937
-4.285712	phiiph	-0.7691771
-4.285712	phiis	-0.7691771
-4.39836	phiit:
-4.352658	phij	-0.4659458
-4.051629	phik	-0.5612614
-4.653688	phikr	-0.4681472
-3.80859	phil	-0.4638039
-4.285712	phild	-0.7691771
-4.39836	philm
-4.653688	philms	-0.4681472
-4.352658	phin	-0.468134
-4.653688	phing	-0.4681472
-4.653688	phiph	-0.6020408
-4.176567	phir	-0.4657786
-4.39836	phit
-4.39836	phit:
-4.653688	phlaa	-0.6011174
-4.39836	phlaai
-4.653688	phlaay	-0.6018093
-4.352658	phlai	-0.8442263
-4.352658	phloo	-0.6009015
-4.653688	phnei	-0.4681472
-3.715836	phoo	-0.7229015
-4.653688	phood:	-0.4681472
-4.39836	phook
-4.653688	phools	-0.4681472
-3.900361	phoon	-1.12136
-4.352658	phoor	-0.5998822
-4.13081	phoord:	-0.9074798
-4.39836	phoors
-4.653688	phoort:	-0.4681472
-4.653688	phoorxt:	-0.4681472
-4.39836	phoot:
-4.653688	phra	-0.6020086
-4.653688	phraa	-0.601999
-4.653688	phraai	-0.6017128
-4.653688	phraaii	-0.6017128
-4.39836	phraaiis
-4.653688	phraak	-0.4681472
-4.285712	phraan	-0.9029486
-4.39836	phraans
-4.653688	phraas	-0.6020408
-4.653688	phraast:	-0.4681472
-4.352658	phrain	-0.4745525
-4.653688	phrainj	-0.4681472
-4.39836	phraink
-4.653688	phrei	-0.3979304
-4.285712	phreid:	-0.6530486
-4.285712	phrein	-0.9030193
-4.653688	phreins	-0.4681472
-4.39836	phrii
-4.653688	phrik	-0.6018093
-4.653688	phu	-0.3006989
-4.39836	phud
-3.788387	phul	-0.6750591
-4.653688	phull	-0.4681472
-4.653688	phur	-0.6003277
-3.92669	phut:	-0.4849799
-4.176567	phuu	-0.3752148
-4.39836	phuud
-4.653688	phuud:	-0.6020504
-4.285712	phuud:s	-0.7691771
-4.653688	phuul	-0.4681472
-4.653688	phuun	-0.6009113
-4.653688	phuund	-0.4681472
-4.653688	phuus	-0.4681472
-4.39836	phuut:
-4.352658	phyuu	-0.6011947
-4.653688	ph~ut:	-0.6019186
-2.984682	pi	-0.5867071
-4.39836	pich
-3.984682	pichh	-0.5780868
-2.845252	pii	-0.6146854
-4.285712	piieich	-0.9024565
-4.653688	piieil	-0.4681472
-4.352658	piieim	-0.7111852
-4.653688	piiein	-0.4681472
-4.285712	piieis	-0.7691771
-4.653688	piig	-0.4681472
-4.653688	piil	-0.4681472
-4.653688	piit:	-0.4681472
-4.39836	pij
-4.653688	pik	-0.2640271
-3.82978	pil	-0.561698
-3.954718	pin	-0.4608203
-4.352658	ping	-0.7111852
-4.653688	pip	-0.6006212
-4.016866	pis	-0.627427
-4.653688	pishh	-0.6001696
-4.653688	pist:	-0.4681472
-3.788387	pit	-0.9448832
-4.285712	pitd	-0.7691771
-4.653688	pkaa	-0.6009113
-4.653688	pla	-0.6020504
-4.653688	plaa	-0.4681472
-4.016866	plaan	-0.7405531
-4.653688	plaas	-0.3973902
-4.352658	plai	-0.5981671
-4.653688	plam	-0.6020504
-4.13081	plei	-0.6440502
-4.653688	pleins	-0.4681472
-4.653688	pleit:	-0.6020504
-4.653688	pnei	-0.4681472
-3.255748	poo	-0.4943062
-4.352658	pooj	-0.7111852
-4.285712	poold:	-0.7691771
-3.518026	poon	-1.198346
-4.051629	poor	-0.4757727
-4.352658	poorn:	-0.7111852
-4.016866	poort:	-1.012215
-4.352658	poos	-0.4770088
-4.39836	poost:
-3.900361	poot	-0.8437802
-4.285712	ppaa	-0.7691771
-2.384176	pra	-0.7484605
-3.255748	praa	-0.6036128
-4.653688	praadh	-0.3955749
-4.653688	praag	-0.4681472
-4.13081	praai	-0.7781095
-4.653688	praak	-0.3976571
-3.954718	praan	-0.4672626
-3.900361	praan:	-0.8219569
-4.39836	praant
-4.352658	praap	-0.4728943
-4.39836	praar
-4.653688	praath	-0.6019829
-4.653688	praay	-0.6015906
-4.016866	prad	-0.7367168
-4.39836	prah
-4.39836	praik
-3.82978	prak	-0.882264
-4.39836	prakh
-4.653688	prakhr	-0.4681472
-4.13081	pran:	-0.6440196
-4.13081	pras	-0.5438141
-4.352658	prash	-0.4745202
-4.653688	prashh	-0.5985885
-3.769082	prat	-0.7442206
-4.352658	prau	-0.6012784
-4.285712	praud	-0.9024532
-4.653688	praud:h	-0.5982385
-4.285712	prav	-0.6529296
-4.653688	pray	-0.6004438
-3.423239	prei	-0.7802975
-4.653688	preig	-0.6018897
-4.653688	preik	-0.6020504
-4.176567	preim	-0.3771211
-4.653688	prein	-0.6020118
-4.285712	preins	-0.7691771
-4.653688	preir	-0.3979304
-4.39836	preis
-4.653688	preishh	-0.4681472
-3.62566	pri	-0.8645406
-4.653688	prii	-0.5998661
-4.352658	prin	-0.4760756
-4.39836	prins
-4.653688	print:	-0.4681472
-4.653688	prish	-0.601404
-4.39836	priy
-4.653688	prneins	-0.4681472
-3.875537	proo	-0.5117002
-3.984682	proog	-0.8999585
-4.653688	proon	-0.4681472
-4.653688	proot	-0.6006405
-4.285712	pruuph	-0.7691771
-4.653688	prxi	-0.3010011
-4.39836	prxishh
-4.39836	prxishht:h
-4.352658	prxith	-0.844442
-4.653688	ptaa	-0.4681472
-4.653688	ptei	-0.4681472
-2.757898	pu	-0.7757503
-4.285712	pukh	-0.8992685
-4.352658	pul	-0.343029
-4.285712	pull	-0.7691771
-4.285712	pum	-0.9025916
-4.653688	pun	-0.2430091
-4.285712	pun:	-0.8996184
-3.157682	pur	-1.08518
-3.769082	pus	-0.6897866
-4.653688	pushh	-0.6016421
-4.39836	pushhp
-3.612296	put	-0.6225116
-4.39836	put:
-4.39836	putr
-3.359958	puu	-0.5502837
-4.653688	puuaa	-0.4681472
-3.984682	puuchh	-0.7515728
-4.653688	puud	-0.6013042
-4.39836	puuj
-4.653688	puujy	-0.4681472
-4.653688	puun	-0.3968106
-4.39836	puunchh
-2.972447	puur	-0.9240792
-4.39836	puurn
-3.233182	puurn:	-1.769177
-4.176567	puurnd~	-0.8660871
-4.653688	puurv	-0.4681472
-4.653688	puurx	-0.6020504
-4.653688	puut	-0.4681472
-4.653688	pvaaint:s	-0.4681472
-4.352658	pyaa	-0.2972376
-4.39836	pyaaj
-4.39836	pyaar
-4.39836	pyaas
-4.016866	pyuu	-0.6280675
-4.285712	pyuut:s	-0.7691771
-2.297662	ra	-0.5080098
-2.189795	raa	-0.6406623
-4.653688	raaaur	-0.4681472
-4.13081	raab	-0.6338685
-4.352658	raad	-0.7111852
-4.285712	raadh	-0.6513221
-4.653688	raaei	-0.397403
-4.016866	raaein	-1.012215
-3.788387	raag	-0.9452683
-4.016866	raah	-0.4940034
-4.653688	raai	-0.3953584
-4.653688	raaid:	-0.4681472
-4.176567	raaii	-0.8660871
-4.352658	raain	-0.7111852
-4.39836	raait:
-3.201391	raaj	-0.5741289
-4.39836	raajy
-3.62566	raak	-0.5641595
-4.39836	raakh
-4.653688	raaksh	-0.4681472
-3.92669	raal	-1.096536
-4.653688	raald:	-0.4681472
-4.653688	raalph	-0.4681472
-3.139584	raam	-0.573775
-3.653688	raan	-1.070036
-4.13081	raan:	-0.9074798
-4.285712	raant	-0.7691771
-4.653688	raanv	-0.4681472
-4.653688	raaoo	-0.4681472
-4.653688	raaoon	-0.4681472
-4.653688	raap	-0.5995753
-4.39836	raaph
-4.13081	raapt	-0.9074798
-4.016866	raar	-0.7411484
-4.176567	raas	-0.3958559
-3.954718	raash	-0.363158
-3.440614	raashh	-0.6023073
-4.653688	raashht	-0.4681472
-4.653688	raast	-0.4681472
-3.80859	raat	-0.7114064
-4.653688	raat:	-0.4681472
-4.285712	raaund:	-0.7691771
-3.539745	raav	-0.8947135
-3.653688	raay	-0.904645
-4.653688	rab	-0.4681472
-3.852056	rach	-0.6175593
-4.352658	rad	-0.7111852
-4.653688	rad:	-0.5982385
-4.39836	radd
-4.653688	raeich	-0.4681472
-4.653688	rag	-0.4681472
-3.52875	rah	-0.5273068
-3.639448	rai	-0.5889385
-4.285712	raidr	-0.7691771
-4.285712	raig	-0.8996184
-4.653688	raii	-0.6019604
-4.653688	rail	-0.4681472
-4.653688	railp	-0.4681472
-4.285712	raim	-0.9029582
-4.285712	raimp	-0.7691771
-4.39836	raind:
-4.653688	rais	-0.4681472
-3.715836	raj	-0.5849576
-3.186327	rak	-0.7452732
-3.612296	rakh	-0.5237583
-4.653688	rakshh	-0.4681472
-4.653688	rakt	-0.4681472
-3.92669	ral	-0.6657599
-4.285712	rals	-0.7691771
-4.653688	ralt:	-0.4681472
-3.162327	ram	-0.834441
-4.653688	rambh	-0.4681472
-4.39836	ramch
-2.868359	ran	-0.693969
-2.754233	ran:	-1.345697
-4.39836	rand
-4.39836	rand~
-3.92669	rang	-1.096536
-4.285712	ranj	-0.7691771
-4.13081	rant	-0.9074798
-4.39836	rant:
-4.39836	ranth
-4.285712	rap	-0.9008961
-3.900361	raph	-0.5808593
-4.39836	rapht
-4.016866	rar	-0.7385028
-3.238715	ras	-0.584592
-4.653688	rash	-0.4681472
-4.653688	rashv	-0.4681472
-4.051629	rast	-0.9800305
-4.39836	rasth
-3.22772	rat	-0.8098463
-4.653688	rat:	-0.4681472
-4.39836	rat:h
-4.653688	ratch	-0.4681472
-4.016866	rath	-0.741109
-4.653688	ratv	-0.4681472
-4.176567	rau	-0.3771517
-3.92669	raun	-0.5630711
-4.653688	raur	-0.4681472
-3.954718	rav	-0.6395193
-3.984682	ray	-1.042178
-2.520149	rei	-0.7837135
-4.653688	reib	-0.4681472
-4.653688	reid	-0.6020504
-3.852056	reid:	-0.8864139
-4.653688	reiei	-0.6018254
-4.39836	reij
-3.92669	reik	-0.5629788
-4.39836	reikh
-4.176567	reil	-0.4660468
-3.406534	rein	-0.9293275
-4.285712	reinj	-0.7691771
-4.653688	reins	-0.4681472
-4.653688	reint:	-0.4681472
-4.653688	reiph	-0.6000437
-4.352658	reis	-0.341007
-4.13081	reish	-0.6438926
-4.653688	reishh	-0.6020504
-4.39836	reishht:h
-4.653688	reist:	-0.4681472
-4.016866	reit	-1.012215
-3.82978	reit:	-0.9074667
-4.653688	reit:s	-0.4681472
-4.653688	reiy	-0.4681472
-2.334235	ri	-0.6389222
-4.285712	rid	-0.6510186
-4.13081	rid:	-0.6442252
-4.653688	riei	-0.4681472
-4.653688	rieikt:	-0.4681472
-4.285712	rig	-0.9029614
-2.268082	rii	-1.018493
-4.653688	riib	-0.4681472
-3.92669	riid	-0.4257148
-4.285712	riieich	-0.7691771
-4.13081	riij	-0.6416851
-3.769082	riik	-0.5500407
-4.13081	riikh	-0.9074798
-4.653688	riim	-0.5995527
-4.352658	riin	-0.7111852
-4.653688	riiph	-0.4681472
-4.39836	riir
-4.285712	riis	-0.7691771
-4.653688	riishh	-0.4681472
-4.39836	riit
-4.653688	riit:	-0.4681472
-4.285712	riiy	-0.7691771
-4.285712	rij	-0.7691771
-3.423239	rik	-0.9142103
-4.39836	rikshh
-4.653688	rikt	-0.4681472
-4.13081	ril	-0.6410423
-4.016866	rim	-0.7359384
-3.639448	rin	-0.7211612
-4.653688	rin:	-0.4681472
-4.352658	ring	-0.7111852
-4.39836	rioon
-3.539745	ris	-0.7353536
-3.62566	rish	-0.556813
-4.176567	rishh	-0.3778874
-4.653688	riss	-0.4681472
-4.653688	rist:	-0.4681472
-3.261578	rit	-0.8617058
-4.13081	rit:	-0.6442252
-4.39836	ritr
-4.13081	rity	-0.9074798
-3.668412	riy	-0.8888747
-4.39836	rna
-4.285712	ro-	-0.9028264
-2.575715	roo	-0.5473641
-4.653688	rood	-0.395187
-3.900361	roodh	-0.6826601
-3.82978	roog	-0.776293
-4.653688	rooh	-0.2640271
-4.653688	rooin	-0.4681472
-3.715836	rooj	-0.6579055
-3.73287	rook	-0.4728075
-4.653688	rookt	-0.4681472
-4.285712	rool	-0.7691771
-2.578141	roon	-1.942121
-4.653688	roop	-0.3976411
-4.285712	roos	-0.903045
-4.285712	roosh	-0.5192996
-4.653688	rooshh	-0.5999339
-4.352658	root	-0.4753696
-4.653688	root:	-0.4681472
-4.653688	rooth	-0.4681472
-4.653688	rooy	-0.4681472
-4.285712	ros	-0.903045
-4.653688	rshhan:	-0.4681472
-2.849776	ru	-0.5472944
-4.39836	ruaa
-4.653688	ruaat	-0.4681472
-3.699446	rud	-0.5996121
-4.653688	ruddh	-0.4681472
-4.39836	rudr
-4.285712	ruii	-0.7691771
-4.352658	ruk	-0.2963128
-4.39836	rukh
-4.39836	rul
-3.984682	rum	-1.042178
-4.653688	run	-0.2640271
-4.352658	ruoon	-0.7111852
-4.016866	rup	-0.624441
-4.285712	rur	-0.5226312
-3.92669	rus	-0.6180933
-4.016866	rush	-0.7411484
-3.82978	rushh	-0.7479997
-4.13081	rust	-0.9074798
-4.016866	rut	-0.585968
-4.13081	rut:h	-0.6419666
-3.639448	ruu	-0.5066223
-4.285712	ruud	-0.7691771
-4.653688	ruud:h	-0.4681472
-4.653688	ruuddh	-0.4681472
-4.39836	ruuk
-4.13081	ruum	-0.6438795
-4.13081	ruun	-0.6421645
-4.653688	ruun:	-0.4681472
-3.954718	ruup	-0.7955061
-4.352658	ruur	-0.7111852
-4.653688	ruus	-0.4681472
-4.39836	rvaaii
-4.39836	rvi
-4.653688	rxa	-0.599307
-4.653688	rxain	-0.6012076
-4.39836	rxam
-4.39836	rxei
-3.186327	rxi	-0.7058984
-4.653688	rxiat	-0.4681472
-4.39836	rxid
-4.653688	rxid:h	-0.4681472
-4.653688	rxiddh	-0.4681472
-4.653688	rxig	-0.6020182
-4.39836	rxik
-4.352658	rxin:	-0.467797
-4.39836	rxish
-4.352658	rxishh	-0.6018478
-4.653688	rxishhn:	-0.4681472
-4.39836	rxishht:
-4.39836	rxishn:
-3.562608	rxit	-0.7805637
-4.39836	rxitv
-4.653688	rxiv	-0.6019411
-4.653688	rxooshh	-0.5999339
-4.653688	rxtoo	-0.6009113
-4.653688	ryak	-0.5982385
-2.272874	sa	-0.657791
-2.486371	saa	-0.548184
-4.653688	saad	-0.2640271
-4.653688	saadh	-0.3944685
-4.653688	saaei	-0.6020504
-4.13081	saag	-0.642674
-3.900361	saah	-0.6891771
-4.653688	saahy	-0.4681472
-3.668412	saai	-0.5583701
-4.352658	saaid:	-0.7111852
-3.852056	saaii	-0.6207485
-4.285712	saaiid:	-0.7691771
-4.352658	saaiin	-0.4681472
-4.653688	saaik	-0.6019797
-4.352658	saail	-0.4678977
-4.653688	saain	-0.6016421
-4.39836	saains
-4.39836	saait:
-4.653688	saait:s	-0.4681472
-4.653688	saaj	-0.4681472
-3.82978	saak	-0.6362851
-4.13081	saakh	-0.6395062
-3.73287	saal	-0.6437131
-3.612296	saam	-0.6223924
-3.398416	saan	-0.3498256
-4.352658	saang	-0.7111852
-4.653688	saann	-0.4681472
-4.285712	saanp	-0.7691771
-4.39836	saans
-4.39836	saap
-4.39836	saaph
-4.653688	saapht:	-0.4681472
-3.285712	saar	-0.8480272
-4.13081	saas	-0.6436431
-3.769082	saat	-0.6944538
-4.653688	saath	-0.3974706
-4.39836	saaund:
-4.352658	saav	-0.601317
-4.653688	saay	-0.3009689
-4.016866	sab	-0.3364308
-4.653688	sabh	-0.2397867
-4.653688	sach	-0.2041103
-4.653688	sad	-0.201855
-4.653688	sad:	-0.5982385
-4.39836	sag
-3.92669	sah	-0.4412484
-3.398416	sai	-0.7323618
-4.39836	saik
-4.653688	saiks	-0.4681472
-3.82978	sain	-0.7424361
-4.653688	saind:	-0.4681472
-4.653688	saing	-0.4681472
-4.39836	sainy
-4.39836	sair
-4.653688	sait:	-0.4681472
-4.653688	saiy	-0.6020408
-3.788387	saj	-0.8075134
-3.539745	sak	-0.5204949
-4.39836	sakh
-4.39836	sakht
-3.551026	sal	-0.5711724
-2.707564	sam	-0.5888451
-2.424092	san	-0.5636798
-4.653688	san:	-0.4681472
-4.13081	sand	-0.9074798
-4.653688	sang	-0.4681472
-4.13081	sangh	-0.9074798
-4.285712	sanjh	-0.7691771
-4.653688	sann	-0.4681472
-4.653688	sans	-0.4681472
-4.13081	sant	-0.9074798
-4.016866	sap	-0.3871216
-3.006958	sar	-0.4923459
-4.39836	sarch
-4.653688	sard	-0.4681472
-4.39836	sarv
-4.016866	sas	-0.4200476
-4.653688	sash	-0.6018029
-3.105504	sat	-0.7432077
-4.653688	satr	-0.4681472
-3.683652	sau	-0.6482875
-4.39836	saul
-4.653688	saulj	-0.4681472
-4.39836	saum
-4.285712	saumy	-0.7691771
-3.875537	saun	-0.6585276
-4.39836	saunp
-4.653688	saushh	-0.6020504
-4.653688	sauud	-0.4681472
-3.50756	sav	-1.038969
-4.653688	sbarg	-0.4681472
-4.285712	scheinj	-0.7691771
-2.782505	sei	-0.5728718
-4.285712	seib	-0.7691771
-4.051629	seij	-0.9800305
-4.016866	seik	-0.5550249
-4.39836	seiks
-3.92669	seil	-0.6668263
-4.653688	seim	-0.1671171
-3.653688	sein	-0.5012702
-4.653688	seins	-0.4681472
-3.92669	seint:	-1.096536
-3.82978	seiph	-1.188306
-3.92669	seis	-1.096536
-4.13081	seit:	-0.9074798
-2.892764	sha	-0.6298262
-2.73287	shaa	-0.6650388
-4.352658	shaab	-0.4680552
-4.653688	shaad	-0.4681472
-4.285712	shaaei	-0.7691771
-4.285712	shaagr	-0.7691771
-4.352658	shaah	-0.4681472
-4.39836	shaak
-4.39836	shaakh
-4.13081	shaal	-0.9074798
-4.39836	shaam
-3.73287	shaan	-0.5736091
-4.39836	shaant
-4.285712	shaaoon	-0.7691771
-4.39836	shaap
-3.900361	shaar	-0.8218794
-3.73287	shaas	-0.7118909
-4.285712	shaash	-0.6530679
-4.653688	shaastr	-0.4681472
-4.285712	shaat	-0.6497409
-4.285712	shaat:	-0.7691771
-4.39836	shaav
-4.653688	shab	-0.3979079
-4.39836	shabd
-3.984682	shad:	-1.176046
-4.653688	shadh	-0.4681472
-4.016866	shah	-0.4912756
-4.39836	shahr
-3.73287	shai	-0.6507168
-4.653688	shaik	-0.39776
-4.285712	shaiv	-0.7691771
-4.13081	shaj	-0.9074798
-3.406534	shak	-0.7423195
-4.285712	shakh	-0.9021474
-4.13081	shakt	-0.9074798
-3.73287	shal	-0.7185062
-4.653688	sham	-0.6018768
-2.868359	shan	-1.183972
-3.92669	shan:	-1.096536
-4.285712	shap	-0.7691771
-3.352658	shar	-0.66716
-4.39836	sharm
-4.39836	shart
-4.285712	shart:	-0.7691771
-4.285712	shas	-0.5227919
-4.285712	shash	-0.8996184
-4.39836	shast
-3.82978	shat	-0.6433451
-4.352658	shau	-0.3951967
-4.39836	shauch
-4.653688	shauh	-0.6018029
-4.653688	shauk	-0.3959399
-4.653688	shaury	-0.4681472
-4.653688	shauur	-0.4681472
-4.13081	shav	-0.9074798
-4.176567	shay	-0.8660871
-4.285712	shdaa	-0.8992685
-4.653688	shdaan	-0.4681472
-3.50756	shei	-0.5115946
-4.653688	sheid	-0.6017578
-4.352658	sheik	-0.468134
-4.13081	sheikh	-0.6442121
-4.653688	sheil	-0.4681472
-4.016866	shein	-0.7411484
-4.39836	sheir
-4.653688	sheish	-0.4681472
-3.984682	sheishh	-0.5758389
-4.653688	sheit	-0.5998661
-4.39836	shgaant:h
-3.382622	shha	-0.7755637
-3.43184	shhaa	-0.5759032
-4.285712	shhaad:h	-0.7691771
-4.653688	shhaadh	-0.6020408
-3.82978	shhaaein	-1.188306
-4.653688	shhaah	-0.3966946
-4.39836	shhaaii
-4.39836	shhaaoon
-4.653688	shhaap	-0.6020408
-4.285712	shhaat	-0.9022376
-4.653688	shhabh	-0.4681472
-4.13081	shhad	-0.6435292
-4.653688	shhad:	-0.6015391
-4.653688	shhag	-0.2977787
-4.39836	shhah
-4.653688	shhai	-0.3965012
-3.788387	shhak	-0.9400583
-4.39836	shhakt
-4.13081	shham	-0.6440721
-4.352658	shhan	-0.7111852
-3.458712	shhan:	-0.9630141
-4.39836	shhar
-4.39836	shhas
-4.176567	shhashh	-0.6013749
-4.285712	shhay	-0.653026
-4.39836	shhdhar
-4.016866	shhei	-0.7266998
-4.653688	shheidh	-0.4681472
-4.653688	shheik	-0.4681472
-4.653688	shheip	-0.4681472
-4.39836	shheit
-4.285712	shhgun	-0.902984
-3.468052	shhi	-0.7371947
-3.954718	shhii	-0.7907739
-4.176567	shhik	-0.6064367
-4.653688	shhin:	-0.3977504
-3.73287	shhit	-1.28106
-4.39836	shhma
-4.39836	shhman:
-4.39836	shhmein
-4.653688	shhmii	-0.4681472
-4.653688	shhmoon	-0.4681472
-4.285712	shhol	-0.9030257
-4.016866	shhoo	-0.722145
-4.653688	shhood:h	-0.6020182
-4.39836	shhook
-4.653688	shhool	-0.6019958
-4.016866	shhoon	-1.012215
-4.39836	shhoot
-4.653688	shhpaa	-0.6003277
-4.653688	shhpaat	-0.4681472
-4.653688	shhroon	-0.4681472
-4.653688	shht:haa	-0.4681472
-4.653688	shht:man	-0.6018286
-4.39836	shhtaa
-4.653688	shhtasy	-0.4681472
-4.285712	shhthiy	-0.7691771
-4.653688	shhti	-0.4681472
-4.016866	shhu	-0.7409516
-4.39836	shhuk
-4.39836	shhuoon
-4.653688	shhuv	-0.4681472
-4.653688	shhva	-0.6007663
-3.984682	shhya	-1.042178
-4.653688	shhyash	-0.6018671
-4.653688	shhyoon	-0.4681472
-2.877957	shi	-0.556982
-4.352658	shich	-0.4680946
-4.653688	shid	-0.6020311
-3.984682	shiein	-1.17481
-2.975474	shii	-0.845515
-4.016866	shiigh	-1.143934
-4.653688	shiighr	-0.4681472
-3.73287	shiil	-0.9912109
-4.285712	shiild:	-0.7691771
-4.016866	shiin	-0.5930421
-4.352658	shiir	-0.3950414
-4.39836	shiirshh
-4.285712	shiit	-0.6531418
-4.653688	shiiy	-0.4681472
-3.382622	shik	-0.5631634
-4.352658	shil	-0.5992972
-4.653688	shilp	-0.4681472
-4.39836	shim
-4.051629	shin	-0.4672626
-4.653688	shing	-0.4681472
-4.352658	ship	-0.7111852
-4.653688	shiph	-0.4681472
-4.653688	shipht:	-0.4681472
-4.352658	shir	-0.4737663
-4.176567	shish	-0.6064367
-3.92669	shishh	-0.5637505
-4.13081	shishht:	-0.9074798
-3.82978	shit	-1.188306
-4.39836	shiv
-4.39836	shkaa
-4.653688	shlei	-0.601909
-4.653688	shleishh	-0.599795
-4.285712	shloo	-0.9022408
-4.39836	shlook
-4.653688	shmajeev	-0.4681472
-4.653688	shmii	-0.2640271
-4.653688	shn:oon	-0.4681472
-4.39836	shnat
-3.73287	shoo	-0.4189193
-4.352658	shoodh	-0.3431953
-4.653688	shooeib	-0.4681472
-4.285712	shooh	-0.9028329
-4.653688	shook	-0.3954327
-3.62566	shoon	-1.096453
-4.39836	shoor
-4.285712	shoot	-0.902955
-4.653688	shooth	-0.4681472
-4.285712	shpuurn:	-0.7691771
-4.39836	shra
-4.39836	shraa
-4.39836	shraap
-3.769082	shrad	-1.096714
-4.016866	shran	-0.7263073
-4.285712	shrei	-0.5225573
-4.39836	shreishh
-4.39836	shreishht:h
-4.653688	shreit	-0.4681472
-3.715836	shrii	-0.516366
-4.285712	shrin	-0.9025176
-4.653688	shrna	-0.4681472
-4.285712	shroo	-0.649391
-4.653688	shroot	-0.4681472
-3.699446	shu	-0.5351882
-4.39836	shub
-4.051629	shubh	-0.6987996
-4.653688	shubhr	-0.4681472
-4.051629	shud	-0.6980725
-4.653688	shuddh	-0.4681472
-4.653688	shuk	-0.3959237
-4.39836	shukl
-4.653688	shukr	-0.4681472
-4.39836	shul
-4.39836	shulk
-4.653688	shum	-0.5985917
-4.39836	shuoon
-4.39836	shushhk
-4.016866	shuu	-0.5902333
-4.352658	shuud	-0.8439493
-4.285712	shuul	-0.7691771
-4.39836	shuun
-4.39836	shuut:
-4.653688	shva	-0.2640271
-4.285712	shvaa	-0.9019413
-4.39836	shya
-3.92669	shyaa	-0.7970775
-4.352658	shyaam	-0.4769444
-4.653688	shyak	-0.6017128
-2.663942	si	-0.5872566
-4.653688	sib	-0.4681472
-3.539745	sid	-0.6310035
-4.39836	sid:
-4.39836	siddh
-4.13081	siei	-1.040804
-4.39836	sig
-2.530926	sii	-0.7811347
-4.285712	siiaa	-0.9017769
-4.39836	siiaar
-4.653688	siib	-0.4681472
-4.653688	siid:s	-0.4681472
-4.653688	siiei	-0.6020054
-4.653688	siieil	-0.4681472
-4.285712	siieim	-0.7691771
-4.352658	siieis	-0.7111852
-4.176567	siikh	-0.3938882
-4.653688	siil	-0.2640271
-4.13081	siin	-0.644199
-4.39836	siing
-4.352658	siioo	-0.60142
-4.39836	siir
-4.653688	siit	-0.6007663
-4.653688	siit:	-0.3944717
-4.39836	siiy
-4.13081	sik	-0.2908996
-4.653688	sikkh	-0.4681472
-3.92669	sil	-0.5591692
-4.39836	silk
-4.13081	sim	-0.7764157
-3.477597	sin	-0.5995499
-4.653688	sindh	-0.4681472
-3.954718	sing	-1.070207
-4.653688	sinh	-0.4681472
-4.285712	sip	-0.7691771
-4.39836	siph
-4.653688	sir	-0.6020408
-4.39836	sirph
-3.788387	sis	-0.5341612
-3.875537	sit	-0.6026452
-4.653688	siyt:	-0.4681472
-4.653688	ska	-0.6012945
-4.352658	skaa	-0.6019057
-4.39836	skaaii
-4.653688	skaaiip	-0.4681472
-4.39836	skaar
-4.39836	skaat:
-4.653688	skaau	-0.6019572
-4.653688	skaauut:	-0.4681472
-4.39836	skain
-4.653688	skal	-0.5998661
-4.653688	skaut:	-0.4681472
-4.39836	skei
-4.653688	skha	-0.6017578
-4.653688	skiiiing	-0.4681472
-4.653688	skiing	-0.4681472
-4.653688	skoop	-0.6016034
-4.653688	skriin	-0.4681472
-4.653688	skuu	-0.3004801
-4.39836	skuul
-4.653688	skvaad	-0.6014715
-4.39836	skvaiyr
-4.653688	slaa	-0.4681472
-4.653688	slaaid:	-0.4681472
-4.39836	slei
-4.653688	sleidj	-0.4681472
-4.653688	slii	-0.4681472
-4.352658	sma	-0.6012848
-4.39836	smaa
-4.653688	smaar	-0.6018929
-4.39836	smaart:
-4.653688	smaarth	-0.4681472
-4.653688	smain	-0.4681472
-4.39836	smith
-4.653688	smoog	-0.4681472
-4.653688	smuu	-0.6019154
-4.653688	snaa	-0.1671171
-4.39836	snaan
-4.352658	snei	-0.467508
-4.352658	snoo	-0.6018382
-3.135175	soo	-0.483321
-4.13081	sooch	-0.3817433
-4.285712	sooei	-0.7691771
-4.653688	sooi	-0.6019668
-4.352658	sooii	-0.467232
-4.13081	sookh	-0.4715521
-4.653688	sool	-0.6020311
-4.39836	soom
-3.639448	soon	-1.371237
-4.653688	soon:	-0.6020504
-4.653688	soop	-0.3973033
-4.352658	soor	-0.6018639
-4.39836	soosh
-4.653688	soot:	-0.4681472
-4.653688	spaai	-0.6014136
-4.653688	spaark	-0.4681472
-4.352658	spai	-0.6019089
-3.900361	spash	-0.8232719
-4.016866	spashh	-1.146067
-4.39836	spei
-4.39836	speik
-4.13081	spein	-0.6436562
-4.653688	speinj	-0.4681472
-4.39836	speis
-4.285712	sphoord:	-0.7691771
-4.285712	sphuur	-0.9006053
-4.653688	spi	-0.6017932
-4.13081	spii	-0.7755696
-4.39836	spiich
-4.653688	spoo	-0.6020504
-4.653688	spook	-0.4681472
-4.285712	spras	-0.7691771
-4.285712	sprei	-0.7691771
-4.653688	sprin	-0.599501
-4.39836	sraaj
-4.653688	sraav	-0.4681472
-4.285712	sraay	-0.7691771
-4.285712	srei	-0.7691771
-4.352658	srii	-0.5989705
-4.39836	srxi
-4.653688	srxip	-0.4681472
-4.653688	srxishh	-0.6016421
-4.653688	st:a	-0.6014265
-4.653688	st:aa	-0.6015938
-4.653688	st:aai	-0.6020408
-4.653688	st:aail	-0.4681472
-4.653688	st:aails	-0.4681472
-4.653688	st:aain	-0.4681472
-4.653688	st:aak	-0.3979304
-4.352658	st:aap	-0.7111852
-4.285712	st:aaph	-0.7691771
-4.39836	st:aar
-4.653688	st:aart:	-0.4681472
-4.285712	st:aay	-0.7691771
-4.653688	st:ain	-0.6020504
-3.984682	st:an	-1.042178
-4.352658	st:ar	-0.4680377
-4.39836	st:art:
-4.653688	st:ei	-0.2991396
-4.39836	st:eij
-4.653688	st:ein	-0.6008919
-4.285712	st:eish	-0.9005827
-4.13081	st:eit:	-0.636687
-3.954718	st:ii	-0.4610204
-4.653688	st:iim	-0.4681472
-4.653688	st:iin	-0.4681472
-4.39836	st:iit:
-4.653688	st:ik	-0.4681472
-4.285712	st:it	-0.9030482
-4.653688	st:it:	-0.6020182
-4.39836	st:oo
-4.653688	st:oon	-0.4681472
-4.653688	st:oor	-0.4681472
-4.653688	st:oov	-0.4681472
-4.285712	st:raang	-0.7691771
-4.653688	st:riim	-0.4681472
-4.653688	st:riin	-0.601745
-4.653688	st:uu	-0.6020118
-4.653688	st:uuart:	-0.4681472
-4.13081	sta	-0.542871
-4.285712	staa	-0.7691771
-4.653688	staak	-0.4681472
-4.653688	staald:	-0.4681472
-4.285712	staamp	-0.7691771
-4.653688	staimp	-0.4681472
-4.352658	stam	-0.6019893
-4.39836	stambh
-4.13081	stan	-0.5023139
-4.39836	star
-4.653688	stbuk	-0.4681472
-4.39836	stei
-4.653688	stein	-0.6020279
-4.653688	stha	-0.2429963
-3.477597	sthaa	-0.5953957
-4.39836	sthaaein
-4.653688	sthaaii	-0.4681472
-4.653688	sthaan	-0.4681472
-4.39836	sthaaoon
-4.653688	sthaap	-0.5985917
-4.653688	sthal	-0.3969588
-4.176567	sthi	-0.7378682
-4.653688	sthii	-0.4681472
-4.653688	sthir	-0.5982385
-4.39836	sthit
-4.653688	stii	-0.4681472
-4.653688	stik	-0.4681472
-4.653688	stoor	-0.6020215
-4.653688	streip	-0.4681472
-4.39836	strii
-4.285712	striitv	-0.7691771
-4.39836	stroot
-4.653688	sttroon	-0.4681472
-4.653688	stuup	-0.4681472
-2.64651	su	-0.5418979
-4.653688	suar	-0.4681472
-4.352658	sub	-0.5983325
-4.653688	sud	-0.6020504
-4.653688	sudh	-0.4681472
-4.653688	sug	-0.5997111
-4.653688	suk	-0.5982385
-4.352658	sukh	-0.3957008
-3.653688	sul	-1.039596
-3.788387	sun	-0.4335116
-4.13081	sup	-0.6344311
-4.13081	suph	-0.7779809
-4.352658	supt	-0.7111852
-3.954718	sur	-0.5989834
-4.39836	sus
-4.39836	sust
-3.852056	sut	-0.6170469
-4.39836	suth
-3.374935	suu	-0.3898276
-4.13081	suuch	-0.774576
-4.653688	suuii	-0.4681472
-4.39836	suujh
-4.352658	suuk	-0.468134
-4.352658	suukh	-0.4634193
-4.39836	suukshm
-4.653688	suul	-0.6019797
-4.39836	suum
-4.653688	suun	-0.3010204
-4.39836	suund:
-4.653688	suup	-0.4681472
-4.016866	suur	-0.4913902
-4.653688	suurs	-0.4681472
-4.653688	suus	-0.4681472
-3.92669	suut	-0.6186004
-4.285712	suutr	-0.7691771
-3.43184	sva	-0.5904406
-3.487357	svaa	-0.6753019
-4.653688	svaad	-0.3977632
-4.352658	svaang	-0.7111852
-4.653688	svaar	-0.2430284
-4.39836	svaarth
-4.176567	svaas	-0.6017545
-4.653688	svaash	-0.6019154
-4.352658	svach	-0.4770698
-4.39836	svachchh
-4.39836	svaich
-3.900361	svap	-0.9730096
-4.13081	svar	-0.4758469
-4.39836	svarg
-4.39836	svarn
-4.39836	svas
-4.352658	svasth	-0.7111852
-4.653688	svat	-0.6014715
-4.285712	svathy	-0.7691771
-4.653688	svav	-0.5985885
-4.653688	svi	-0.6019636
-3.954718	svii	-0.9261968
-4.39836	sviik
-4.176567	sviit:	-0.9997364
-4.653688	svit	-0.6017964
-4.653688	svit:	-0.6017964
-4.653688	syaa	-0.6015906
-4.653688	syei	-0.4681472
-4.653688	syuu	-0.6018254
-3.244319	t:a	-0.7518378
-2.816942	t:aa	-0.7128558
-4.653688	t:aaei	-0.6005374
-3.715836	t:aai	-0.6577564
-4.653688	t:aaid:	-0.4681472
-4.39836	t:aaii
-4.653688	t:aaik	-0.5994784
-4.39836	t:aaim
-4.653688	t:aain	-0.4681472
-4.653688	t:aains	-0.4681472
-4.653688	t:aaip	-0.4681472
-4.653688	t:aak	-0.4681472
-4.653688	t:aaksh	-0.4681472
-3.92669	t:aal	-0.4846042
-4.653688	t:aam	-0.6019411
-3.954718	t:aan	-0.5978168
-4.176567	t:aang	-0.8660871
-4.653688	t:aaoo	-0.4681472
-4.13081	t:aap	-0.9074798
-4.016866	t:aar	-0.7265036
-4.653688	t:aarch	-0.4681472
-4.39836	t:aas
-4.653688	t:aaun	-0.4681472
-4.39836	t:aav
-4.285712	t:ab	-0.7691771
-4.653688	t:ad	-0.4681472
-4.285712	t:ah	-0.9009639
-4.051629	t:ai	-0.3968394
-4.653688	t:aik	-0.6007792
-4.13081	t:aim	-0.9074798
-4.39836	t:aims
-4.176567	t:ain	-0.4644086
-4.39836	t:aink
-4.285712	t:ains	-0.7691771
-4.653688	t:aip	-0.4681472
-4.653688	t:aj	-0.4681472
-3.639448	t:ak	-0.8003546
-3.62566	t:al	-0.8125222
-4.653688	t:als	-0.4681472
-4.176567	t:am	-0.8660871
-3.244319	t:an	-1.17161
-4.39836	t:ap
-2.897814	t:ar	-0.9790692
-4.653688	t:arn	-0.4681472
-4.051629	t:ars	-0.9800305
-4.352658	t:as	-0.7111852
-4.653688	t:asth	-0.4681472
-4.653688	t:au	-0.6003277
-4.653688	t:bai	-0.6020311
-4.653688	t:bei	-0.6019668
-4.653688	t:daa	-0.601761
-3.037388	t:ei	-0.847797
-4.39836	t:eid
-4.13081	t:eid:	-0.9074798
-4.653688	t:eiing	-0.4681472
-3.92669	t:eik	-0.6961199
-4.653688	t:eiks	-0.4681472
-4.653688	t:eikst:	-0.4681472
-4.39836	t:eil
-4.653688	t:eim	-0.6018189
-3.668412	t:ein	-1.056353
-4.653688	t:eins	-0.4681472
-4.653688	t:einsii	-0.4681472
-4.653688	t:eint:	-0.4681472
-4.653688	t:eis	-0.6020504
-4.653688	t:eist:	-0.4681472
-4.653688	t:eit:s	-0.4681472
-3.639448	t:ha	-0.6057934
-3.468052	t:haa	-0.5187542
-4.13081	t:haaei	-0.9074798
-4.653688	t:haaein	-0.4681472
-4.653688	t:haai	-0.3003578
-4.653688	t:haaii	-0.4681472
-4.13081	t:haan	-0.9074798
-4.13081	t:haaoo	-0.6430206
-4.39836	t:haar
-4.653688	t:haauun	-0.4681472
-4.653688	t:hah	-0.5992455
-4.285712	t:hak	-0.7691771
-3.73287	t:han	-0.5791882
-4.653688	t:has	-0.4681472
-4.653688	t:hav	-0.4681472
-4.39836	t:hbhuu
-4.176567	t:hei	-0.8660871
-4.39836	t:heis
-3.586742	t:hi	-0.7611111
-3.668412	t:hii	-1.052901
-4.39836	t:hiik
-4.39836	t:hin
-4.352658	t:hit	-0.7111852
-4.39836	t:hoo
-4.352658	t:hoon	-0.7111852
-4.39836	t:hoor
-4.653688	t:hoot	-0.601925
-4.39836	t:htaa
-4.352658	t:hur	-0.4658182
-4.653688	t:huur	-0.4681472
-3.016866	t:i	-0.6149225
-4.352658	t:iaai	-0.7111852
-4.653688	t:id:	-0.4681472
-4.653688	t:ig	-0.601999
-2.873131	t:ii	-0.7873513
-4.653688	t:iiaai	-0.4681472
-4.352658	t:iiaar	-0.7111852
-4.352658	t:iiei	-0.6019667
-4.653688	t:iig	-0.601999
-3.852056	t:iij	-1.167117
-4.39836	t:iik
-4.653688	t:iil	-0.6017386
-4.352658	t:iin	-0.4681209
-4.653688	t:iing	-0.4681472
-4.39836	t:iip
-3.875537	t:ik	-0.8608771
-4.653688	t:iks	-0.4681472
-4.13081	t:il	-0.6442384
-4.653688	t:im	-0.6015584
-4.176567	t:in	-0.8660871
-3.62566	t:ing	-1.384601
-4.653688	t:ip	-0.599307
-3.900361	t:is	-1.12136
-4.653688	t:ish	-0.4681472
-4.653688	t:it	-0.4681472
-4.016866	t:iv	-0.7410653
-4.39836	t:kaa
-4.39836	t:kar
-4.653688	t:maar	-0.6020311
-4.653688	t:man	-0.601909
-4.285712	t:meint:	-0.7691771
-4.653688	t:mii	-0.4681472
-4.653688	t:naa	-0.4681472
-4.653688	t:nei	-0.3952226
-3.497341	t:oo	-0.7126635
-4.13081	t:ook	-0.6410379
-4.653688	t:oold:	-0.4681472
-4.653688	t:oolt:	-0.4681472
-3.298301	t:oon	-1.409985
-4.653688	t:oong	-0.4681472
-4.653688	t:ooph	-0.4681472
-4.285712	t:oor	-0.8998387
-4.653688	t:oos	-0.6018189
-4.051629	t:ra	-0.4642984
-3.92669	t:raa	-0.5642559
-4.653688	t:raaii	-0.6019861
-4.352658	t:raal	-0.7111852
-4.653688	t:raat:	-0.4681472
-4.653688	t:rai	-0.4681472
-4.39836	t:rak
-4.39836	t:ral
-4.653688	t:rap	-0.6007469
-4.39836	t:rast:
-4.653688	t:rau	-0.6018286
-4.39836	t:rav
-4.176567	t:rei	-0.4658709
-4.39836	t:reit:
-4.39836	t:ri
-3.80859	t:rii	-0.9220529
-4.653688	t:riij	-0.4681472
-4.653688	t:riist:	-0.4681472
-4.39836	t:riiy
-4.653688	t:rikt:	-0.4681472
-4.653688	t:rist:	-0.4681472
-4.653688	t:roo	-0.601761
-4.653688	t:roos	-0.6020215
-4.653688	t:root:	-0.4681472
-4.39836	t:rxei
-4.176567	t:rxi	-0.5948178
-4.653688	t:rxiaat:	-0.4681472
-4.39836	t:rxoon
-4.653688	t:sal	-0.6019893
-3.984682	t:taa	-1.042178
-4.13081	t:tei	-0.9074798
-4.653688	t:tii	-0.4681472
-4.13081	t:u	-0.4976991
-4.051629	t:uk	-0.6008307
-4.285712	t:umb	-0.7691771
-3.769082	t:uu	-0.6113477
-4.653688	t:uul	-0.4681472
-4.39836	t:uuls
-4.653688	t:uur	-0.2640271
-4.653688	t:uus	-0.4681472
-4.352658	t:uut:	-0.4717473
-4.653688	t:uuth	-0.4681472
-3.852056	t:vaa	-0.674417
-4.285712	t:vi	-0.9025401
-4.285712	t:vii	-0.9025401
-4.653688	t:yuu	-0.6014715
-4.285712	t:yuub	-0.7691771
-2.430106	ta	-0.526769
-2.057458	taa	-0.9217992
-4.285712	taab	-0.3889658
-4.285712	taachh	-0.7691771
-4.653688	taad:	-0.5985917
-4.39836	taaei
-3.551026	taaein	-1.1659
-4.39836	taah
-4.352658	taai	-0.3431953
-3.653688	taaii	-1.357449
-4.39836	taaims
-4.653688	taain	-0.4681472
-4.653688	taaj	-0.1671171
-4.653688	taak	-0.3010204
-3.612296	taal	-1.109112
-4.653688	taam	-0.4681472
-4.653688	taambr	-0.4681472
-4.653688	taamy	-0.4681472
-3.477597	taan	-0.7328126
-4.39836	taant
-3.097386	taaoon	-1.903514
-3.788387	taap	-0.7860259
-4.653688	taapuurn:	-0.4681472
-3.668412	taar	-1.056353
-4.653688	taarth	-0.4681472
-4.285712	taash	-0.5192996
-4.176567	taat	-0.5052354
-4.653688	taatk	-0.4681472
-4.285712	taau	-0.7691771
-4.285712	taauun	-0.7691771
-4.352658	taav	-0.4738084
-4.653688	taay	-0.4681472
-3.769082	tab	-0.8010559
-4.176567	tag	-0.5959762
-3.769082	tah	-0.6949401
-3.458712	tai	-0.7139002
-4.653688	taik	-0.6011174
-4.39836	taiks
-4.653688	taim	-0.6019154
-4.13081	tair	-0.6330491
-3.518026	tak	-0.7574893
-4.653688	takh	-0.5982385
-4.653688	takht	-0.4681472
-3.668412	tal	-0.8938752
-3.80859	tam	-0.9267849
-3.077731	tan	-0.7681958
-4.653688	tand:	-0.4681472
-4.39836	tang
-4.653688	tank	-0.4681472
-4.39836	tantr
-4.39836	tantrx
-4.13081	taoon	-0.9074798
-4.653688	taot	-0.601925
-4.016866	tap	-0.5905942
-4.653688	taph	-0.5997111
-2.940478	tar	-0.717512
-4.39836	tark
-4.352658	tars	-0.7111852
-4.051629	tas	-0.4759274
-4.653688	tash	-0.6020504
-4.39836	task
-4.051629	tat	-0.2294777
-4.39836	tat:
-4.39836	tatah
